tree
version=v4
num_class=1
num_tree_per_iteration=1
label_index=0
max_feature_idx=12
objective=huber
feature_names=fr_ma_3 fr_ma_7 fr_ma_21 fr_std_7 fr_zscore return_8h return_24h volatility_24h oi_change_8h oi_change_24h buy_ratio hour_utc day_of_week
feature_infos=[-0.00011428666666666666:0.00013217] [-9.4209999999999994e-05:0.00011378714285714286] [-4.4216666666666666e-05:0.00010806761904761907] [0:9.306856415209884e-05] [-4.3643578047198481:4.3380152436597639] [-0.094389282249241369:0.060051936489093238] [-0.12753975777422755:0.11904843992415093] [0.00030348506624251227:0.064552202974384479] [-0.14423584468300599:0.075232235307110429] [-0.19162407536423809:0.10224512443523426] [0.52010000000000001:0.77980000000000005] [0:16] [0:6]
tree_sizes=890 843 1000 899 848 934 927 911 1011 908 840 832 852 934 927 852 825 921 905 827 1174 851 911 934 832 975 1004 935 983 943 845 1000 832 1020 745 1033 897 922 1054 853 913 849 1029 769 987 856 1103 767 988 916 1026 862 1029 918 1024 847 991 1023 935 982 892 937 920 925 945

Tree=0
num_leaves=9
num_cat=0
split_feature=1 1 4 1 6 11 5 1
split_gain=23.9838 3.21302 1.5039 1.34837 0.873498 0.81752 0.616471 0.125004
threshold=6.3912857142857146e-05 1.6689999999999994e-05 -0.28910435168054144 9.4336428571428589e-05 -0.015018446968236175 1.0000000180025095e-35 -0.00024473898365962027 7.744642857142858e-05
decision_type=2 2 2 2 2 2 2 2
left_child=1 2 -1 7 -3 -6 -7 -2
right_child=3 4 -4 -5 5 6 -8 -9
leaf_value=0.50237848171016797 0.56798489663200225 0.52621656420066376 0.53633791706952161 0.59413867050850344 0.55862874255138384 0.52868752311020839 0.54933890370727068 0.5796042149078815
leaf_weight=31 31 21 21 66 29 21 36 34
leaf_count=31 31 21 21 66 29 21 36 34
internal_value=0.556612 0.533617 0.515341 0.584734 0.542861 0.547355 0.541114 0.574599
internal_weight=290 159 52 131 107 86 57 65
internal_count=290 159 52 131 107 86 57 65
is_linear=0
shrinkage=1


Tree=1
num_leaves=8
num_cat=0
split_feature=1 1 1 7 2 5 2
split_gain=15.2555 1.69843 1.52144 1.11555 0.447298 0.422137 0.26214
threshold=6.2216428571428578e-05 9.4336428571428589e-05 3.7113571428571428e-05 0.0078130021395551464 1.4452857142857144e-05 -0.00086746745256471847 5.7144761904761917e-05
decision_type=2 2 2 2 2 2 2
left_child=2 6 4 -4 -1 -6 -2
right_child=1 -3 3 -5 5 -7 -8
leaf_value=-0.038239199243074208 0.0066122329667936582 0.034797533979737408 -0.022391059033505373 0.0019704252919163375 -0.029687890430855478 -0.01138439159215026 0.019535168183359052
leaf_weight=23 34 64 22 38 25 30 35
leaf_count=23 34 64 22 38 25 30 35
internal_value=0.00263013 0.0241036 -0.017858 -0.00653586 -0.0261311 -0.0203545 0.0136506
internal_weight=271 133 138 60 78 55 69
internal_count=271 133 138 60 78 55 69
is_linear=0
shrinkage=0.0885678


Tree=2
num_leaves=10
num_cat=0
split_feature=3 4 10 1 1 10 3 4 1
split_gain=13.1998 4.24903 1.47759 1.16997 0.970751 0.844221 0.555191 0.380833 0.0793222
threshold=2.6633462570906076e-05 -0.057455640209252229 0.70295000000000007 2.8917857142857137e-05 3.8680714285714285e-05 0.66590000000000005 4.1259656717139862e-05 0.87166899147779908 9.4336428571428589e-05
decision_type=2 2 2 2 2 2 2 2 2
left_child=8 2 4 -4 -2 6 -3 -7 -1
right_child=1 5 3 -5 -6 7 -8 -9 -10
leaf_value=0.018321820192808005 -0.025026869002693759 0.016615900522975412 -0.054710977295054024 -0.022051388023191416 0 -0.0014228429967673693 -0.00063852290366148395 -0.017257777237985029 0.030772201184908837
leaf_weight=21 30 26 21 23 21 36 26 22 68
leaf_count=21 30 26 21 23 21 36 26 22 68
internal_value=-8.82001e-05 -0.0125528 -0.0262492 -0.0385688 -0.0148817 -0.000416552 0.00746641 -0.00799494 0.0282368
internal_weight=294 205 95 44 51 110 52 58 89
internal_count=294 205 95 44 51 110 52 58 89
is_linear=0
shrinkage=0.0885678


Tree=3
num_leaves=9
num_cat=0
split_feature=3 4 7 7 6 12 6 3
split_gain=10.2973 4.42432 0.773379 0.746434 0.4953 0.379276 0.73414 0.290264
threshold=2.7064347754993124e-05 -0.10296627232269788 0.010996936259639463 0.0060567691316426447 -0.0031218471387313702 2.5000000000000004 0.0017754131552949472 1.6026845871602622e-05
decision_type=2 2 2 2 2 2 2 2
left_child=7 5 3 -3 -4 -2 -7 -1
right_child=1 2 4 -5 -6 6 -8 -9
leaf_value=0.028124665527057533 -0.033894337788148939 0.0056935287591616856 0 -0.014471803372234098 0.018855045748848012 -0.0061217369220535221 -0.030353509731549586 0.015482746536740939
leaf_weight=58 41 22 21 34 22 23 24 40
leaf_count=58 41 22 21 34 22 23 24 40
internal_value=1.02732e-05 -0.012069 0.00049239 -0.0060344 0.00966082 -0.026491 -0.0192346 0.0233284
internal_weight=285 187 99 56 43 88 47 98
internal_count=285 187 99 56 43 88 47 98
is_linear=0
shrinkage=0.0885678


Tree=4
num_leaves=8
num_cat=0
split_feature=3 0 12 9 6 9 2
split_gain=8.91135 3.65116 1.11056 0.602683 0.391786 0.382741 0.000830224
threshold=3.0276467439331907e-05 1.7178333333333314e-05 3.5000000000000004 -0.0079159802310425059 0.00058756586050279236 0.0072045600967035614 2.7696666666666672e-05
decision_type=2 2 2 2 2 2 2
left_child=3 6 5 -1 -4 -3 -2
right_child=1 2 4 -5 -6 -7 -8
leaf_value=0.006888648510580896 -0.040047299961968714 -0.0014092978233115657 -0.022714161986995773 0.026190253489852065 -0.005358694346346061 0.011575452205454577 -0.025714464952706767
leaf_weight=21 21 35 21 75 32 30 23
leaf_count=21 21 35 21 75 32 30 23
internal_value=0.000859746 -0.0116862 -0.00325863 0.0223101 -0.0128796 0.00415452 -0.0334457
internal_weight=258 162 118 96 53 65 44
internal_count=258 162 118 96 53 65 44
is_linear=0
shrinkage=0.0885678


Tree=5
num_leaves=9
num_cat=0
split_feature=1 1 9 3 1 9 5 1
split_gain=11.3639 1.74963 1.4024 1.10875 1.09549 0.987444 0.872186 0.531944
threshold=6.2216428571428578e-05 -7.1357142857143537e-07 0.012668831314669783 5.1894346097356539e-05 9.4336428571428589e-05 -0.0053181636923961264 -0.0016698481190907664 2.4232142857142854e-05
decision_type=2 2 2 2 2 2 2 2
left_child=1 -1 3 7 5 -2 -4 -3
right_child=4 2 6 -5 -6 -7 -8 -9
leaf_value=-0.042300165667053566 -0.0051668185530234874 -0.014926325224005617 -0.014127676665112705 -0.0017483642777410386 0.025805001391797221 0.016440240232652652 0.010345300618650478 -0.034220331911666305
leaf_weight=21 23 28 21 22 65 46 24 36
leaf_count=21 23 28 21 22 65 46 24 36
internal_value=-0.00135269 -0.0180085 -0.0138023 -0.020426 0.0173176 0.00881843 -0.000438081 -0.0263477
internal_weight=286 152 131 86 134 69 45 64
internal_count=286 152 131 86 134 69 45 64
is_linear=0
shrinkage=0.0885678


Tree=6
num_leaves=9
num_cat=0
split_feature=0 0 0 8 8 8 8 0
split_gain=9.16974 1.49748 1.46801 0.836173 0.690534 0.220502 0.149454 0.0443032
threshold=4.9119999999999984e-05 8.7094999999999992e-05 7.4099999999999807e-06 -0.0050772952251103556 0.006230089621655944 0.0079727350129855674 -0.0025386229915728693 3.2759999999999984e-05
decision_type=2 2 2 2 2 2 2 2
left_child=2 3 -1 -2 7 -5 -3 -4
right_child=1 6 4 5 -6 -7 -8 -9
leaf_value=-0.030527535420392934 -0.006536883967910234 0.013183297634715851 -0.0098613382077521808 0.01738484739280079 0.002152203709777627 0.0036918059122585225 0.02437349833648644 -0.020441068113266809
leaf_weight=50 32 30 24 26 22 25 61 23
leaf_count=50 32 30 24 26 22 25 61 23
internal_value=0.000100989 0.0131506 -0.0187167 0.00407474 -0.00963655 0.0113107 0.0210638 -0.015761
internal_weight=293 174 119 83 69 51 91 47
internal_count=293 174 119 83 69 51 91 47
is_linear=0
shrinkage=0.0885678


Tree=7
num_leaves=9
num_cat=0
split_feature=3 1 6 4 7 6 3 7
split_gain=5.79843 2.79974 0.993528 0.657009 0.649006 0.444507 0.411247 0.273613
threshold=3.0103006130456588e-05 7.384285714285707e-06 0.0049967173923300976 -0.080353212895934126 0.0090791212241444468 0.014980905394123336 4.6425214569239868e-05 0.016189435868981385
decision_type=2 2 2 2 2 2 2 2
left_child=7 -2 3 6 -5 -4 -3 -1
right_child=1 2 5 4 -6 -7 -8 -9
leaf_value=0.021645601689307264 -0.037121219429580542 -0.012626137258257375 -0.021735119343155272 0 0.021539220633502446 -0.0045936856393801557 0.0036971193932583868 0.0078375175106864189
leaf_weight=86 21 23 22 25 22 39 21 22
leaf_count=86 21 23 22 25 22 39 21 22
internal_value=0.00298767 -0.00693741 -0.00250875 0.00309999 0.0105383 -0.0113346 -0.00419298 0.0191357
internal_weight=281 173 152 91 47 61 44 108
internal_count=281 173 152 91 47 61 44 108
is_linear=0
shrinkage=0.0885678


Tree=8
num_leaves=10
num_cat=0
split_feature=0 2 2 0 9 9 8 8 11
split_gain=5.60469 1.56101 1.3764 0.806568 0.339016 0.271429 0.249341 0.127143 0.0178346
threshold=4.9119999999999984e-05 1.9990952380952385e-05 6.1745952380952394e-05 1.7178333333333314e-05 0.014871929322396784 0.00064121267329453346 0.0030144605122900407 -0.0059798290198177497 1.0000000180025095e-35
decision_type=2 2 2 2 2 2 2 2 2
left_child=1 -1 4 -3 6 -5 -2 -4 -9
right_child=2 3 7 5 -6 -7 -8 8 -10
leaf_value=-0.030592363587929453 -0.009566983343193421 -0.016533670742362866 0.0098244244093096105 -0.0058484259726018914 0.0088193240447784361 0.0079105134827796176 0.0027129951708903368 0.025013476414977621 0.015677960453273965
leaf_weight=35 25 41 28 23 28 21 21 28 39
leaf_count=35 25 41 28 23 28 21 21 28 39
internal_value=0 -0.0146303 0.010373 -0.00762694 0.00087918 5.75447e-05 -0.00333852 0.0174314 0.0201126
internal_weight=289 120 169 85 74 44 46 95 67
internal_count=289 120 169 85 74 44 46 95 67
is_linear=0
shrinkage=0.0885678


Tree=9
num_leaves=9
num_cat=0
split_feature=1 4 10 7 1 12 4 1
split_gain=4.05125 1.85809 1.13019 0.579137 0.320591 0.122533 0.0127576 0.00910764
threshold=6.3912857142857146e-05 -0.19938975341798176 0.65870000000000017 0.011672352602714691 3.5057857142857146e-05 1.5000000000000002 0.58927710389153054 2.2664999999999997e-05
decision_type=2 2 2 2 2 2 2 2
left_child=1 2 -1 4 -3 -2 -7 -4
right_child=5 3 7 -5 -6 6 -8 -9
leaf_value=-0.0021961778442426486 0.0067703311693834475 0 -0.033473148839465942 0.0086886642042265441 -0.013916611997660153 0.017318514303262679 0.0095252133706986413 -0.020834288932678309
leaf_weight=24 34 22 21 36 22 57 25 26
leaf_count=24 34 22 21 36 22 57 25 26
internal_value=0.000577941 -0.00886062 -0.0192625 3.83878e-05 -0.00638009 0.0131108 0.0153456 -0.027282
internal_weight=267 151 71 80 44 116 82 47
internal_count=267 151 71 80 44 116 82 47
is_linear=0
shrinkage=0.0885678


Tree=10
num_leaves=8
num_cat=0
split_feature=0 10 0 4 4 8 8
split_gain=5.0772 1.64449 1.10176 0.539269 0.480654 0.502935 0.152393
threshold=4.9119999999999984e-05 0.73945000000000005 8.5913333333333323e-05 0.76008958461128218 -0.86707337729909228 0.00729802164906146 0.0060275462668581978
decision_type=2 2 2 2 2 2 2
left_child=1 4 3 -2 -1 -6 -4
right_child=2 -3 6 -5 5 -7 -8
leaf_value=-0.016815922889719542 -0.0060200480164272156 -0.031879802833470333 0.012514481914462364 0.010114042659471712 0.0069109495932841904 -0.011402802387504043 0.022836926318541877
leaf_weight=25 35 32 60 29 25 21 32
leaf_count=25 35 32 60 29 25 21 32
internal_value=8.98804e-05 -0.0150305 0.0102725 0.000842156 -0.00692002 -0.000828235 0.0164877
internal_weight=259 103 156 64 71 46 92
internal_count=259 103 156 64 71 46 92
is_linear=0
shrinkage=0.0885678


Tree=11
num_leaves=8
num_cat=0
split_feature=2 2 10 10 3 2 6
split_gain=5.90381 1.90137 1.25058 0.758005 1.18529 0.532935 0.359603
threshold=3.3963333333333341e-05 8.381214285714288e-05 0.70045000000000013 0.65750000000000008 4.3445171807110403e-05 4.503309523809525e-05 0.0087017017481897403
decision_type=2 2 2 2 2 2 2
left_child=2 3 -1 5 -5 -2 -7
right_child=1 -3 -4 4 -6 6 -8
leaf_value=-0.0079821561269920356 -0.0049867966864900392 0.01753767765979098 -0.034334870865443894 -0.01785862097616581 0.0038634470676741483 0.017416734999716091 0.001538528286991993
leaf_weight=27 21 69 41 37 38 30 25
leaf_count=27 21 69 41 37 38 30 25
internal_value=-0.00155572 0.00538918 -0.0243852 0 -0.00648672 0.00603395 0.0107825
internal_weight=288 220 68 151 75 76 55
internal_count=288 220 68 151 75 76 55
is_linear=0
shrinkage=0.0885678


Tree=12
num_leaves=8
num_cat=0
split_feature=0 0 9 9 9 6 6
split_gain=4.0334 1.15234 0.914691 0.706764 0.633166 0.576939 0.0862468
threshold=1.7178333333333314e-05 8.7094999999999992e-05 -0.0037052492582574366 0.020529447707452912 0.0087863102933910548 -0.0014654892169201903 -0.0092211004626379638
decision_type=2 2 2 2 2 2 2
left_child=2 3 -1 4 5 -2 -3
right_child=1 6 -4 -5 -6 -7 -8
leaf_value=-0.0071552970025909454 0.005202268599178197 0.0039819335760947691 -0.033207466030894001 0.010233260103152146 -0.018348705320208512 -0.0092686396208440588 0.013192677934831289
leaf_weight=21 46 21 32 30 22 39 68
leaf_count=21 46 21 32 30 22 39 68
internal_value=-0.00154596 0.00350434 -0.0235381 -0.00140406 -0.00496248 -0.0010986 0.0113719
internal_weight=279 226 53 137 107 85 89
internal_count=279 226 53 137 107 85 89
is_linear=0
shrinkage=0.0885678


Tree=13
num_leaves=9
num_cat=0
split_feature=1 2 4 5 2 1 4 4
split_gain=2.40717 0.805178 1.20592 0.396549 0.325498 0.242969 0.152721 0.0451168
threshold=6.3912857142857146e-05 3.5814523809523818e-05 -0.81631080215137863 0.0028996588108810566 5.7144761904761917e-05 4.8254285714285709e-05 -0.080353212895934126 0.74932941764013938
decision_type=2 2 2 2 2 2 2 2
left_child=1 3 -3 6 -2 -4 -1 -6
right_child=4 2 5 -5 7 -7 -8 -9
leaf_value=-0.00017795335647818782 0.00091700143056901032 -0.013384338718714021 0.0154899758472977 -0.021292783015317767 0.010745226993968168 0.00095718701801380873 -0.011313044716995657 0.018584512728683212
leaf_weight=25 29 28 26 26 91 21 25 23
leaf_count=25 29 28 26 26 91 21 25 23
internal_value=0.00217197 -0.00549411 0.000650526 -0.0119258 0.0104686 0.00967026 -0.00636899 0.0126302
internal_weight=294 151 75 76 143 47 50 114
internal_count=294 151 75 76 143 47 50 114
is_linear=0
shrinkage=0.0885678


Tree=14
num_leaves=9
num_cat=0
split_feature=3 10 10 6 8 10 4 4
split_gain=3.0458 1.43631 1.09232 0.608524 0.306106 0.266697 0.238191 0.183469
threshold=3.0103006130456588e-05 0.72115000000000007 0.74485000000000012 0.016975676365662665 0.010619384216362328 0.65260000000000018 0.093955712626090759 0.20041500005068708
decision_type=2 2 2 2 2 2 2 2
left_child=5 3 -3 4 6 -1 -2 -7
right_child=1 2 -4 -5 -6 7 -8 -9
leaf_value=0.013558977365591023 -0.0082012171422487581 -0.035924968803412803 -0.007250716024527348 -0.013383930885869564 0.0077394675476677843 0.0085622733484070068 0.0023983991083408947 -0.0012010053615766154
leaf_weight=68 34 23 25 34 30 30 26 21
leaf_count=68 34 23 25 34 30 30 26 21
internal_value=-0.00104075 -0.00866337 -0.02174 -0.00332323 0.000180205 0.00972232 -0.00312676 0.00397995
internal_weight=291 172 48 124 90 119 60 51
internal_count=291 172 48 124 90 119 60 51
is_linear=0
shrinkage=0.0885678


Tree=15
num_leaves=8
num_cat=0
split_feature=0 1 2 8 1 2 7
split_gain=3.26126 0.742672 0.654361 0.586219 0.507245 0.34063 0.16096
threshold=1.7178333333333314e-05 4.5370000000000001e-05 3.2337380952380961e-05 -0.017971804748236116 2.6295714285714277e-05 4.0212142857142864e-05 0.009385249592764152
decision_type=2 2 2 2 2 2 2
left_child=2 4 -1 -3 -2 -5 -7
right_child=1 3 -4 5 -6 6 -8
leaf_value=-0.025896235634012745 0.0065318928720043776 -0.0030973468039768456 -0.005181097699922429 0.00010186276135820193 -0.0096479432952109156 0.0089337453977646562 0.01694587155061416
leaf_weight=32 26 23 26 24 33 69 60
leaf_count=32 26 23 26 24 33 69 60
internal_value=0.00143013 0.00616811 -0.0171921 0.00908022 -0.00202051 0.0111068 0.0129199
internal_weight=293 235 58 176 59 153 129
internal_count=293 235 58 176 59 153 129
is_linear=0
shrinkage=0.0885678


Tree=16
num_leaves=8
num_cat=0
split_feature=4 2 4 2 4 2 2
split_gain=2.25915 1.3779 0.652978 0.608016 0.371494 0.683744 0.170681
threshold=-0.32250487906561526 5.2253095238095238e-05 -0.86707337729909228 2.3942619047619053e-05 1.0295290863990212 8.9204047619047643e-05 5.9262380952380958e-05
decision_type=2 2 2 2 2 2 2
left_child=1 2 -1 -2 5 6 -5
right_child=3 -3 -4 4 -6 -7 -8
leaf_value=-0.032321427609650517 -0.010260941746114209 0 -0.010730962822983628 -0.0051036688518300358 0.014461767123598755 0.010972777018791442 0.0021761032883981404
leaf_weight=29 23 31 27 52 27 51 42
leaf_count=29 23 31 27 52 27 51 42
internal_value=-0.0023866 -0.0142859 -0.0225493 0.00278395 0.00471507 0.00267035 -0.00153976
internal_weight=282 87 56 195 172 145 94
internal_count=282 87 56 195 172 145 94
is_linear=0
shrinkage=0.0885678


Tree=17
num_leaves=9
num_cat=0
split_feature=10 6 3 3 10 10 8 5
split_gain=1.54017 0.90193 0.801956 0.777619 0.510664 0.429999 0.405484 0.0842212
threshold=0.74890000000000012 -0.02788914799026981 3.9562223043264771e-05 4.3544266064674573e-05 0.6905 0.71065000000000011 -0.0027365835925670652 0.0062651778304808623
decision_type=2 2 2 2 2 2 2 2
left_child=1 -1 4 -4 7 -6 -5 -3
right_child=-2 2 3 6 5 -7 -8 -9
leaf_value=-0.014800675617942006 -0.022707032313584674 0.013397025246945251 -0.016379922798429009 -0.0054301668300601536 -0.0092242460327164998 0.006847665666614676 0.007883687936261527 0.0055714355514558172
leaf_weight=22 21 70 24 30 21 33 40 32
leaf_count=22 21 70 24 30 21 33 40 32
internal_value=0.000121408 0.0020155 0.00362953 -0.00259589 0.00756837 3.49607e-05 0.00175689 0.0112551
internal_weight=293 272 250 94 156 54 70 102
internal_count=293 272 250 94 156 54 70 102
is_linear=0
shrinkage=0.0885678


Tree=18
num_leaves=9
num_cat=0
split_feature=1 9 3 3 7 12 7 1
split_gain=1.9382 0.746651 0.722755 0.637997 0.542151 0.671259 0.287405 0.106648
threshold=1.6689999999999994e-05 -0.029080498384115968 4.2640472254889882e-05 3.3286374279397174e-05 0.014779750739948203 3.5000000000000004 0.011160505890192874 9.4336428571428589e-05
decision_type=2 2 2 2 2 2 2 2
left_child=2 -2 -1 6 5 -5 7 -3
right_child=1 3 -4 4 -6 -7 -8 -9
leaf_value=-0.004157215817024813 -0.012053922004279573 0 -0.029117624803209872 0.0030811465271534805 0.010092326312062246 -0.012645340939895786 0.016286074297359957 0.0078310730274921136
leaf_weight=21 23 22 22 43 29 38 36 42
leaf_count=21 23 22 22 43 29 38 36 42
internal_value=-0.000422743 0.0026614 -0.0177241 0.00442877 0 -0.00395089 0.00954071 0.00522781
internal_weight=276 233 43 210 110 81 100 64
internal_count=276 233 43 210 110 81 100 64
is_linear=0
shrinkage=0.0885678


Tree=19
num_leaves=8
num_cat=0
split_feature=1 7 6 7 1 7 2
split_gain=1.01241 1.29631 0.829748 0.637143 0.294819 0.129807 0.168515
threshold=6.8292857142857155e-05 0.011343005374773752 -0.0037430871641225823 0.0044771004794315955 4.5023571428571432e-05 0.0087163037895264216 8.6248571428571445e-05
decision_type=2 2 2 2 2 2 2
left_child=1 3 -3 -1 -5 6 -2
right_child=5 2 -4 4 -6 -7 -8
leaf_value=0.0001041534582740934 0 -0.0053414637908377055 0.013919414796837226 -0.021394863212638532 -0.006101123183505688 0.011993208661948192 0.0086154057468251274
leaf_weight=26 30 27 42 33 24 50 39
leaf_count=26 30 27 42 33 24 50 39
internal_value=0.00191941 -0.0027243 0.00596377 -0.0102986 -0.0155376 0.00809163 0.00479733
internal_weight=271 152 69 83 57 119 69
internal_count=271 152 69 83 57 119 69
is_linear=0
shrinkage=0.0885678


Tree=20
num_leaves=12
num_cat=0
split_feature=1 9 7 7 1 2 9 7 7 7 9
split_gain=1.91897 1.10247 1.18056 0.840278 0.726208 0.294875 0.234556 0.277298 0.181691 0.135238 0.10126
threshold=6.1432142857142867e-05 -0.032360218456371818 0.011510208673365078 0.0044771004794315955 3.9647857142857141e-05 2.9648333333333339e-05 0.00053518181868905678 0.0099599999834271754 0.0059703370120049544 0.0076988819311580988 1.0000000180025095e-35
decision_type=2 2 2 2 2 2 2 2 2 2 2
left_child=1 -1 3 -3 5 -4 9 8 -8 -2 -5
right_child=6 2 4 10 -6 -7 7 -9 -10 -11 -12
leaf_value=-0.025691318452086935 0.0066677300181376912 0.0004027536520148276 0.0051324715640234941 -0.011188726597491353 0.017771211468506 -0.0082576413478352029 0.010448077094463342 0.018450243796906785 0 -0.0010893357422449663 -0.023199514593172297
leaf_weight=22 30 26 23 26 21 26 26 26 21 30 27
leaf_count=22 30 26 23 26 21 26 26 26 21 30 27
internal_value=-0.000768504 -0.00705657 -0.00406117 -0.0115624 0.00399544 -0.00137757 0.00709133 0.0105907 0.00552777 0.00231081 -0.0179585
internal_weight=304 171 149 79 70 49 133 73 47 60 53
internal_count=304 171 149 79 70 49 133 73 47 60 53
is_linear=0
shrinkage=0.0885678


Tree=21
num_leaves=8
num_cat=0
split_feature=0 3 3 7 4 3 6
split_gain=1.32783 0.668258 1.05471 0.584621 0.574025 0.524323 0.30757
threshold=1.2171666666666655e-05 4.8255703015031936e-05 3.6727883171325198e-05 0.0078909426391252074 0.74932941764013938 4.7579784873654221e-05 -0.017816277851605607
decision_type=2 2 2 2 2 2 2
left_child=5 2 4 -4 6 -1 -2
right_child=1 -3 3 -5 -6 -7 -8
leaf_value=-0.0012283061110556594 -0.0057498975133246522 0.014884810180244856 0.0019572950315110593 -0.014628519928292357 0.016174691478832819 -0.022658000273972644 0.0051690124986707867
leaf_weight=21 23 39 25 37 35 21 97
leaf_count=21 23 39 25 37 35 21 97
internal_value=0.00164393 0.00412945 0.00204238 -0.00748685 0.00605207 -0.0127277 0.00282066
internal_weight=298 256 217 62 155 42 120
internal_count=298 256 217 62 155 42 120
is_linear=0
shrinkage=0.0885678


Tree=22
num_leaves=9
num_cat=0
split_feature=2 4 9 4 8 5 1 4
split_gain=0.844034 0.740879 0.512111 0.566481 0.413688 0.753942 0.651384 0.226081
threshold=3.5897380952380961e-05 -1.0955256948534235 0.012668831314669783 0.34427020173278194 -0.0050772952251103556 -0.0067949186476560777 7.3177857142857147e-05 0.40004810897272258
decision_type=2 2 2 2 2 2 2 2
left_child=2 -2 3 -1 7 -6 -7 -3
right_child=1 4 -4 -5 5 6 -8 -9
leaf_value=-0.018134855959501366 -0.0076494579128740118 0.0066134682856984232 0.0021179250769041923 0 -0.0031781593411912123 0.022843919182928878 0.0059598061303399235 -0.004702408226317613
leaf_weight=34 30 26 34 22 22 39 45 28
leaf_count=34 30 26 34 22 22 39 45 28
internal_value=0.00117202 0.00460432 -0.00573678 -0.0110188 0.0070968 0.0103179 0.0142032 0.000205917
internal_weight=280 190 90 56 160 106 84 54
internal_count=280 190 90 56 160 106 84 54
is_linear=0
shrinkage=0.0885678


Tree=23
num_leaves=9
num_cat=0
split_feature=6 8 9 4 8 6 6 9
split_gain=1.91441 1.0462 0.775361 1.20279 0.633263 0.185475 0.102098 0.088013
threshold=-0.028424064831201076 0.018786546211223446 0.0069393501795123056 0.13648983718779242 0.025792196479930699 -0.0056093277551237932 0.0036153740960999108 -0.015388370229868163
decision_type=2 2 2 2 2 2 2 2
left_child=-1 2 5 -4 -3 -2 -5 -7
right_child=1 4 3 6 -6 7 -8 -9
leaf_value=-0.025855027455709764 -0.0015444268082642721 0.022261573763728906 -0.020034415421307062 0.0044542212303192198 0.00093180684441949437 0.00049673721799078463 -0.0033420232030704246 0.0075435768824425008
leaf_weight=22 41 26 37 28 24 32 22 53
leaf_count=22 41 26 37 28 24 32 22 53
internal_value=-0.000877885 0.00112538 -0.00146132 -0.00796904 0.0126785 0.00280532 0.000434556 0.00524933
internal_weight=285 263 213 87 50 126 50 85
internal_count=285 263 213 87 50 126 50 85
is_linear=0
shrinkage=0.0885678


Tree=24
num_leaves=8
num_cat=0
split_feature=9 2 9 8 8 8 9
split_gain=1.2858 0.627882 0.761066 0.634635 0.734917 0.185515 0.18258
threshold=-0.032360218456371818 6.5893333333333348e-05 -0.012977511955831631 0.016414613389410308 -0.0072257648056593951 -0.0062002632192885146 0.0083940012366877665
decision_type=2 2 2 2 2 2 2
left_child=-1 2 -2 4 -4 -3 -7
right_child=1 5 3 -5 -6 6 -8
leaf_value=-0.017184490452907781 0.0076585125487461242 0 0.0037112773934791631 0.0045925217909410362 -0.013267004760636953 0.0025557055817979385 0.013188923628762884
leaf_weight=36 41 30 23 31 82 32 37
leaf_count=36 41 30 23 31 82 32 37
internal_value=-0.0014888 0.000467233 -0.00257412 -0.0058865 -0.00926624 0.00619507 0.00871751
internal_weight=312 276 177 136 105 99 69
internal_count=312 276 177 136 105 99 69
is_linear=0
shrinkage=0.0885678


Tree=25
num_leaves=10
num_cat=0
split_feature=0 6 5 7 6 0 7 4 4
split_gain=1.18194 1.25935 0.8938 0.60888 1.14212 0.523787 0.441014 0.257235 0.0561427
threshold=9.3903333333333319e-05 0.016975676365662665 -0.0019757307588254554 0.013111596038255889 0.0039527286898050082 3.177999999999999e-05 0.010277567435086491 0.61620183923008598 0.44432805124329627
decision_type=2 2 2 2 2 2 2 2 2
left_child=1 2 5 4 -4 -1 -3 8 -2
right_child=7 6 3 -5 -6 -7 -8 -9 -10
leaf_value=0 0.0052622354096735872 -0.028092934947898884 0.020974667906568014 -0.0047541455944670975 -0.0043818304839615468 -0.016912410953450217 -0.0072434188958412499 0.013679137340461179 0
leaf_weight=28 36 21 33 29 21 32 21 33 25
leaf_count=28 36 21 33 29 21 32 21 33 25
internal_value=-0.000826991 -0.00502865 -0.000837285 0.00487945 0.0105972 -0.00922265 -0.0184926 0.00711751 0.00303511
internal_weight=279 185 143 83 54 60 42 94 61
internal_count=279 185 143 83 54 60 42 94 61
is_linear=0
shrinkage=0.0885678


Tree=26
num_leaves=10
num_cat=0
split_feature=0 4 5 8 4 8 1 5 5
split_gain=1.46658 0.76842 0.585262 0.47194 0.243261 0.150588 0.126876 0.005965 0.00184428
threshold=8.1218333333333314e-05 -0.18099468876096944 0.0075298521662576787 0.0015184753182000412 0.32544953118778414 0.0030144605122900407 4.6377142857142856e-05 -0.004944354861371624 0.0013494482386422482
decision_type=2 2 2 2 2 2 2 2 2
left_child=1 3 4 6 -3 -6 -1 -2 -9
right_child=7 2 -4 -5 5 -7 -8 8 -10
leaf_value=-0.0091399140002904871 0.010289924119160769 0.011816608597151456 -0.010972259894662767 -0.018535131644111781 -0.0045655043524732266 0.0047996785507231189 0 0.0019330933694790215 0.006726260382492283
leaf_weight=24 34 21 29 43 24 29 24 22 44
leaf_count=24 34 21 29 43 24 29 24 22 44
internal_value=-0.00106295 -0.00563959 -0.000101118 -0.0115629 0.00378651 4.13477e-07 -0.00462773 0.00751042 0.00559171
internal_weight=294 194 103 91 74 53 48 100 66
internal_count=294 194 103 91 74 53 48 100 66
is_linear=0
shrinkage=0.0885678


Tree=27
num_leaves=9
num_cat=0
split_feature=10 6 6 6 8 6 12 11
split_gain=1.51057 0.692377 0.356426 0.298356 0.263571 0.193203 0.0991092 0.0629561
threshold=0.75150000000000017 -0.028424064831201076 0.0050820417677446281 0.0097476310519135651 -0.0035013909738916267 0.025431789699093991 4.5000000000000009 12.000000000000002
decision_type=2 2 2 2 2 2 2 2
left_child=1 -1 4 -4 7 -5 -6 -3
right_child=-2 2 3 5 6 -7 -8 -9
leaf_value=-0.013754454817457781 -0.022650331210544765 -0.0014773530536803599 -0.0088421625854718886 0.0057061573712592637 0.011335698433227874 -0.0029713434582368668 0.002624208344887751 0.00410697505291833
leaf_weight=21 22 31 28 44 56 32 25 26
leaf_count=21 22 31 28 44 56 32 25 26
internal_value=-0.000438116 0.00133053 0.00277713 -0.000895461 0.0057554 0.00166628 0.00903113 0.000560132
internal_weight=285 263 242 104 138 76 81 57
internal_count=285 263 242 104 138 76 81 57
is_linear=0
shrinkage=0.0885678


Tree=28
num_leaves=10
num_cat=0
split_feature=10 12 4 5 9 12 5 4 10
split_gain=0.854111 1.37333 0.749161 0.686559 0.497095 0.51171 0.204957 0.200457 0.115426
threshold=0.64785000000000015 1.0000000180025095e-35 -0.27193232211595969 0.0063547295237810228 0.00064121267329453346 3.5000000000000004 -0.00033352879082793047 0.44432805124329627 0.5737000000000001
decision_type=2 2 2 2 2 2 2 2 2
left_child=6 -2 3 -3 -4 -6 7 -1 -8
right_child=1 2 4 -5 5 -7 8 -9 -10
leaf_value=0.0041219553916857568 -0.028059187171547317 -0.019430402891834161 -0.007407484826007847 0 0.012696979290593394 -0.0023561340948600072 0 -0.0070544434871036045 0.0089993324973528296
leaf_weight=21 22 37 40 21 34 31 25 26 38
leaf_count=21 22 37 40 21 34 31 25 26 38
internal_value=-0.00348414 -0.00719726 -0.00415433 -0.0122127 3.69518e-05 0.00508523 0.00249422 -0.00143891 0.0058902
internal_weight=295 185 163 58 105 65 110 47 63
internal_count=295 185 163 58 105 65 110 47 63
is_linear=0
shrinkage=0.0885678


Tree=29
num_leaves=9
num_cat=0
split_feature=1 6 6 6 7 1 2 2
split_gain=1.26869 0.305157 0.773626 0.737907 0.789786 0.180176 0.381124 0.0780267
threshold=4.5771428571428493e-06 0.0049967173923300976 -0.00074270412812776898 0.0084959003933590144 0.010537846868888938 3.7113571428571428e-05 7.9631190476190481e-05 4.4229047619047627e-05
decision_type=2 2 2 2 2 2 2 2
left_child=-1 2 5 -3 -5 -2 -7 -6
right_child=1 3 -4 4 7 6 -8 -9
leaf_value=-0.017566847317194517 -0.0045829268765550397 -0.01498771643745582 0.017138743906331449 -0.0069875881807650387 0.013588798485072355 0.0087570547261587566 -0.0027623546187110731 0.0041205194491699595
leaf_weight=27 26 23 33 36 28 49 36 25
leaf_count=27 26 23 33 36 28 49 36 25
internal_value=0.000454295 0.00248872 0.00521068 -0.00075126 0.00263291 0.00136197 0.00353775 0.00972672
internal_weight=283 256 144 112 89 111 85 53
internal_count=283 256 144 112 89 111 85 53
is_linear=0
shrinkage=0.0885678


Tree=30
num_leaves=8
num_cat=0
split_feature=5 6 3 3 6 4 5
split_gain=0.741722 0.289731 0.297039 0.876425 0.56721 0.259402 0.0494274
threshold=0.014604995835097558 0.026368016353196192 2.6633462570906076e-05 3.3167539640924322e-05 -0.0096069941652293083 0.17585788679266398 0.0022804734165570166
decision_type=2 2 2 2 2 2 2
left_child=1 2 5 -4 -5 -1 -7
right_child=-2 -3 3 4 -6 6 -8
leaf_value=0.011818628343872702 -0.012448260939350812 0.011340190677754143 -0.016464677836566702 0.0090802982452163027 -0.0034604774081689431 -0.00070014052041453018 0.0043203419504423447
leaf_weight=28 33 22 26 46 69 34 21
leaf_count=28 33 22 26 46 69 34 21
internal_value=0 0.00163569 0.000536664 -0.00178602 0.00130891 0.00483095 0.000693076
internal_weight=279 246 224 141 115 83 55
internal_count=279 246 224 141 115 83 55
is_linear=0
shrinkage=0.0885678


Tree=31
num_leaves=10
num_cat=0
split_feature=10 7 6 9 1 9 6 6 7
split_gain=1.18231 1.02703 0.34883 0.403237 0.583618 0.356132 0.234899 0.343078 0.290928
threshold=0.73795000000000011 0.0076461791977113155 -0.0053618114134934549 -0.017701799672054094 6.2812142857142858e-05 -0.02320014990923391 0.016975676365662665 0.031638298111976389 0.0043513402640755223
decision_type=2 2 2 2 2 2 2 2 2
left_child=2 -2 3 -1 -5 -4 8 -8 -7
right_child=1 -3 5 4 -6 6 7 -9 -10
leaf_value=-0.011469493552504439 -0.027055204847581442 0 0.01533508019490616 -0.0062780747698090401 0.0098761334603958729 -0.00048438583551808836 -0.0077446382720600246 0.0066817313061101752 0.0093939475052137421
leaf_weight=24 21 22 24 33 35 29 30 21 61
leaf_count=24 21 22 24 33 35 29 30 21 61
internal_value=0.000241067 -0.013189 0.00261594 -0.00150711 0.00160895 0.00509292 0.00311128 -0.00122177 0.00589119
internal_weight=300 43 257 92 68 165 141 51 90
internal_count=300 43 257 92 68 165 141 51 90
is_linear=0
shrinkage=0.0885678


Tree=32
num_leaves=8
num_cat=0
split_feature=0 3 3 4 0 4 4
split_gain=1.11036 0.514746 0.688046 0.713672 0.732513 0.510422 0.0971232
threshold=7.4099999999999807e-06 5.0315235925875877e-05 2.6633462570906076e-05 0.47769844768034614 5.1761666666666656e-05 0.87560465927617903 0.47769844768034614
decision_type=2 2 2 2 2 2 2
left_child=-1 2 6 4 -4 -5 -2
right_child=1 -3 3 5 -6 -7 -8
leaf_value=-0.017006815051663252 0.0054654410135475586 0.009488754162892115 -0.0048233593905465015 0.010518317475320267 -0.024599998043440107 -0.0071106085381989828 0
leaf_weight=41 52 30 43 23 27 28 34
leaf_count=41 52 30 43 23 27 28 34
internal_value=-0.00355196 -0.00108109 -0.00276736 -0.00714054 -0.0129446 0.000276103 0.00304521
internal_weight=278 237 207 121 70 51 86
internal_count=278 237 207 121 70 51 86
is_linear=0
shrinkage=0.0885678


Tree=33
num_leaves=10
num_cat=0
split_feature=0 7 2 7 0 1 1 2 7
split_gain=0.780772 0.27322 0.205372 0.271121 0.212069 0.21777 0.119247 0.128984 0.0160814
threshold=2.0494999999999976e-05 0.010204919264693859 6.6814047619047636e-05 0.014864225042317979 7.3693333333333335e-05 9.6915000000000003e-05 6.2216428571428578e-05 4.0113095238095249e-05 0.0054440187083294673
decision_type=2 2 2 2 2 2 2 2 2
left_child=1 -1 3 6 -4 -6 7 -2 -7
right_child=2 -3 4 -5 5 8 -8 -9 -10
leaf_value=-0.016401498200504676 -0.001062288350472807 -0.0025052395297741554 0.012784900767578929 0.0059136963265694273 -0.0038293230801490132 0.0013663601182716495 0.0012000133169690415 -0.010446501036049095 0.0070605845509025293
leaf_weight=25 40 31 24 41 24 21 29 23 40
leaf_count=25 40 31 24 41 24 21 29 23 40
internal_value=4.83603e-06 -0.00928926 0.00228665 0 0.00513142 0.00258595 -0.00271953 -0.00498964 0.00560025
internal_weight=298 56 242 133 109 85 92 63 61
internal_count=298 56 242 133 109 85 92 63 61
is_linear=0
shrinkage=0.0885678


Tree=34
num_leaves=7
num_cat=0
split_feature=0 10 5 7 4 0
split_gain=0.494537 0.499574 0.359068 0.517196 0.495521 0.373825
threshold=1.0371666666666652e-05 0.7259500000000001 -0.0169421143091773 0.018642288165551635 -0.84026545285200283 7.5220000000000001e-05
decision_type=2 2 2 2 2 2
left_child=1 -1 -2 4 -4 -6
right_child=2 -3 3 -5 5 -7
leaf_value=0 0.012421618018526811 -0.017654220560373253 -0.0094405481483160903 -0.0097152504092669865 0.009442332498994007 0.00044789879862080801
leaf_weight=22 23 22 22 31 67 95
leaf_count=22 23 22 22 31 67 95
internal_value=0.000201722 -0.0082705 0.00190079 0.000622063 0.00253739 0.00436099
internal_weight=282 44 238 215 184 162
internal_count=282 44 238 215 184 162
is_linear=0
shrinkage=0.0885678


Tree=35
num_leaves=10
num_cat=0
split_feature=3 1 10 0 0 0 2 3 1
split_gain=0.507995 0.779434 0.526835 0.564356 1.06029 0.361558 0.290629 0.145431 0.321041
threshold=6.0694643114547848e-05 2.4232142857142854e-05 0.64720000000000011 6.2509999999999983e-05 9.5758333333333321e-05 3.3616666666666646e-05 2.9648333333333339e-05 3.7653179186956133e-05 7.9250000000000015e-05
decision_type=2 2 2 2 2 2 2 2 2
left_child=1 6 7 5 -5 -4 -1 8 -3
right_child=-2 2 3 4 -6 -7 -8 -9 -10
leaf_value=0.018084612878728746 -0.012741016290540528 0.012746218893452392 -0.0085814241449929836 -0.024256427180120485 -0.00037661548118152573 0.0054287901733901366 0.003124952952948565 -0.0019605728223989296 5.0465688251767609e-05
leaf_weight=24 23 29 21 27 37 43 28 21 44
leaf_count=24 23 29 21 27 37 43 28 21 44
internal_value=-9.85159e-05 0.000867107 -0.00130428 -0.0050936 -0.0109773 0.000352033 0.0106597 0.00354083 0.00552969
internal_weight=297 274 222 128 64 64 52 94 73
internal_count=297 274 222 128 64 64 52 94 73
is_linear=0
shrinkage=0.0885678


Tree=36
num_leaves=9
num_cat=0
split_feature=1 1 0 12 0 2 10 8
split_gain=0.966586 0.257788 0.359044 0.306262 0.47919 0.276455 0.23216 0.141978
threshold=1.0000000180025095e-35 3.2370714285714286e-05 4.9119999999999984e-05 3.5000000000000004 8.3493333333333329e-05 8.223976190476192e-05 0.66590000000000005 -0.00099875821387729303
decision_type=2 2 2 2 2 2 2 2
left_child=-1 7 6 4 -4 -5 -3 -2
right_child=1 2 3 5 -6 -7 -8 -9
leaf_value=-0.017986584335877118 0.013085594846254269 0 0.012195065649557484 -0.0079629644126973254 0 0.0032525941326393571 -0.012914597212497438 0.0023084962609364441
leaf_weight=21 21 23 44 34 52 30 23 34
leaf_count=21 21 23 44 34 52 30 23 34
internal_value=4.61543e-05 0.00162924 4.14902e-05 0.00216693 0.00541981 -0.00225346 -0.0066773 0.00700768
internal_weight=282 261 206 160 96 64 46 55
internal_count=282 261 206 160 96 64 46 55
is_linear=0
shrinkage=0.0885678


Tree=37
num_leaves=9
num_cat=0
split_feature=9 0 9 0 10 9 9 0
split_gain=0.98558 0.519723 0.55668 0.423332 0.331815 0.200151 0.0957848 0.249701
threshold=-0.032360218456371818 1.7178333333333314e-05 0.0069393501795123056 7.3951666666666665e-05 0.69915000000000016 0.001767631905573275 -0.001515893270293833 9.3903333333333319e-05
decision_type=2 2 2 2 2 2 2 2
left_child=-1 2 -2 4 5 -3 -5 -8
right_child=1 3 -4 6 -6 -7 7 -9
leaf_value=-0.013004626549385346 0.003786604171714112 0.0073754435696158612 -0.014080326801724087 0.0061512754449724342 0.001433420632758216 0.018633437415682973 -0.0074699930544549114 0.0033958723168917523
leaf_weight=29 29 39 23 26 33 36 24 52
leaf_count=29 29 39 23 26 33 36 24 52
internal_value=0.00217299 0.00397878 -0.0035836 0.00599483 0.00990967 0.013225 0.0015431 0
internal_weight=291 262 52 210 108 75 102 76
internal_count=291 262 52 210 108 75 102 76
is_linear=0
shrinkage=0.0885678


Tree=38
num_leaves=11
num_cat=0
split_feature=7 0 7 6 8 2 2 8 0 2
split_gain=0.777279 0.946975 0.879717 0.632296 0.54209 0.407285 0.31357 0.280478 0.252465 0.000515062
threshold=0.0054904489534147493 9.1486666666666652e-05 0.011343005374773752 0.0083595816277681773 -0.0062002632192885146 4.7390238095238104e-05 4.9183095238095249e-05 0.0060275462668581978 5.261333333333332e-05 9.3592619047619068e-05
decision_type=2 2 2 2 2 2 2 2 2 2
left_child=8 2 3 5 -4 -2 -6 -3 -1 -10
right_child=1 7 4 -5 6 -7 -8 -9 9 -11
leaf_value=0.012545131329868488 -0.016001356818132598 0 -0.01175312893826513 -0.025877248357918974 0.0065190614108276692 0 -0.0058618767245383202 0.011329449196552906 0 0.0011624684777571627
leaf_weight=27 22 36 33 30 44 21 23 26 21 22
leaf_count=27 22 36 33 30 44 21 23 26 21 22
internal_value=-0.00221655 -0.00472622 -0.00814948 -0.0156013 -0.00238404 -0.00761948 0.001821 0.00434293 0.00577124 0.000776241
internal_weight=305 235 173 73 100 43 67 62 70 43
internal_count=305 235 173 73 100 43 67 62 70 43
is_linear=0
shrinkage=0.0885678


Tree=39
num_leaves=8
num_cat=0
split_feature=1 3 3 7 0 9 0
split_gain=0.550157 0.522451 0.399794 0.796266 0.190076 0.272218 0.0671509
threshold=1.0330714285714278e-05 5.386553498021492e-05 3.9143257666133392e-05 0.014779750739948203 6.2509999999999983e-05 -0.0079159802310425059 4.2989999999999987e-05
decision_type=2 2 2 2 2 2 2
left_child=-1 2 4 6 -2 -6 -4
right_child=1 -3 3 -5 5 -7 -8
leaf_value=-0.011615469713089091 0.0075558192246585809 0.013602245767327966 -0.017478329197715334 0.0061299552734082798 -0.0062546168331776928 0.0029134177725710876 -0.0069217934255129763
leaf_weight=32 35 22 24 24 36 84 23
leaf_count=32 35 22 24 24 36 84 23
internal_value=-0.000691712 0.000610437 -0.00053922 -0.00612872 0.00183687 0 -0.0130149
internal_weight=280 248 226 71 155 120 47
internal_count=280 248 226 71 155 120 47
is_linear=0
shrinkage=0.0885678


Tree=40
num_leaves=9
num_cat=0
split_feature=0 4 10 10 9 2 9 10
split_gain=0.735622 0.507055 0.447987 0.303786 0.70474 0.251051 0.193103 0.146307
threshold=7.4099999999999807e-06 -1.1776422950784842 0.7259500000000001 0.66020000000000012 -0.0079159802310425059 4.3636190476190485e-05 0.005222079886900933 0.7188500000000001
decision_type=2 2 2 2 2 2 2 2
left_child=2 -2 -1 5 -5 -3 -7 -6
right_child=1 3 -4 4 7 6 -8 -9
leaf_value=0 0.015509423615248664 -0.001569510049741357 -0.019349719550529297 -0.013106613220320315 -0.00043278618942468861 0.011003790905037805 0.0014597326124110555 0.0070229173163299814
leaf_weight=21 21 34 21 33 45 44 40 30
leaf_count=21 21 34 21 33 45 44 40 30
internal_value=0.000399299 0.00234313 -0.0102676 0.000970022 -0.00224596 0.00416251 0.00683191 0.00217131
internal_weight=289 247 42 226 108 118 84 75
internal_count=289 247 42 226 108 118 84 75
is_linear=0
shrinkage=0.0885678


Tree=41
num_leaves=8
num_cat=0
split_feature=10 7 6 6 4 10 10
split_gain=0.402704 0.390271 0.305862 0.555318 0.38019 0.3191 0.166003
threshold=0.62275000000000003 0.010485772363514835 0.024333238169446884 0.0097476310519135651 -0.78424628785789896 0.73120000000000018 0.58895000000000008
decision_type=2 2 2 2 2 2 2
left_child=1 6 3 4 -2 -6 -1
right_child=2 -3 -4 -5 5 -7 -8
leaf_value=-0.0038147035965805554 -0.011665263428180203 0.014787019696775261 -0.012253275719795677 0.009006622513297079 -0.0034969371446604666 0.006796529996927609 0.0061177754872822933
leaf_weight=27 34 23 22 34 97 30 24
leaf_count=27 34 23 22 34 97 30 24
internal_value=-0.000274851 0.00523545 -0.00229501 -0.00100283 -0.00331313 -0.000822262 0.000289359
internal_weight=291 74 217 195 161 127 51
internal_count=291 74 217 195 161 127 51
is_linear=0
shrinkage=0.0885678


Tree=42
num_leaves=10
num_cat=0
split_feature=1 1 1 6 3 1 0 6 1
split_gain=0.463497 1.20532 0.548594 0.501623 0.391862 0.300519 0.213942 0.063788 0.0943897
threshold=6.8292857142857155e-05 4.2801428571428568e-05 3.021857142857143e-05 0.0050820417677446281 4.4106411197957012e-05 8.7670714285714295e-05 5.3693333333333316e-05 -0.0092211004626379638 9.8893571428571443e-05
decision_type=2 2 2 2 2 2 2 2 2
left_child=1 2 3 4 -1 -2 -3 -7 -9
right_child=5 6 -4 -5 -6 7 -8 8 -10
leaf_value=-0.003739925010825932 0.010387848102003383 -0.019696862863499805 0.013564512324430374 -0.012629134292201421 0.012438086354005501 -0.0035791514621074769 -0.0068971012711516021 -0.0015350805720070026 0.0051686661883040708
leaf_weight=22 35 29 25 22 21 21 32 22 34
leaf_count=22 35 29 25 22 21 21 32 22 34
internal_value=-0.000580845 -0.00387578 0.002363 -0.00153271 0.00350663 0.00359577 -0.0135316 9.68462e-05 0.00201383
internal_weight=263 151 90 65 43 112 61 77 56
internal_count=263 151 90 65 43 112 61 77 56
is_linear=0
shrinkage=0.0885678


Tree=43
num_leaves=7
num_cat=0
split_feature=8 4 2 1 2 9
split_gain=1.04194 0.253614 0.349982 0.179748 0.612708 0.244409
threshold=-0.021085377861279894 0.70747819431614689 4.0212142857142864e-05 6.8792857142857067e-06 2.9055238095238101e-05 0.0087863102933910548
decision_type=2 2 2 2 2 2
left_child=-1 3 -3 -2 -5 -6
right_child=1 2 -4 4 5 -7
leaf_value=-0.014321693859531972 -0.0019999556000774789 -0.0088405273489967368 0.0038133037893319489 0.019267306299138018 0.0065869439306953867 -0.00082956336631457282
leaf_weight=31 21 30 36 23 71 56
leaf_count=31 21 30 36 23 71 56
internal_value=0.00071641 0.00282377 -0.00150468 0.0046673 0.00580019 0.00308928
internal_weight=268 237 66 171 150 127
internal_count=268 237 66 171 150 127
is_linear=0
shrinkage=0.0885678


Tree=44
num_leaves=10
num_cat=0
split_feature=8 2 5 8 8 6 2 10 5
split_gain=0.410576 0.245029 0.35645 0.457068 0.529355 0.264697 0.441362 0.415061 0.0560926
threshold=-0.017152105631364874 5.0816428571428579e-05 0.012132769461125738 0.016414613389410308 0.0043356665818006243 0.0043300511957794505 8.7078333333333357e-05 0.64655000000000007 -0.002319371234131506
decision_type=2 2 2 2 2 2 2 2 2
left_child=8 2 3 4 -2 6 -3 -7 -1
right_child=1 5 -4 -5 -6 7 -8 -9 -10
leaf_value=-0.0014927498346769196 0 0.015951817946364882 0.010057822014391739 0.0080888805723824744 -0.013996354562462485 0.0076267532592465773 0.0013053758660685729 -0.0088509085573038465 -0.010284042557057071
leaf_weight=21 55 36 23 25 33 27 38 21 21
leaf_count=21 55 36 23 25 33 27 38 21 21
internal_value=0.00126316 0.00266917 0 -0.00196984 -0.00518087 0.00554654 0.00886497 0 -0.00663081
internal_weight=300 258 136 113 88 122 74 48 42
internal_count=300 258 136 113 88 122 74 48 42
is_linear=0
shrinkage=0.0885678


Tree=45
num_leaves=8
num_cat=0
split_feature=4 3 4 5 4 0 3
split_gain=0.354768 0.520035 0.603888 0.313417 0.233332 0.290868 0.202677
threshold=-1.2085318483150285 3.8560650098680255e-05 -0.10296627232269788 -0.0042630010716757085 0.86346660564391675 4.0874999999999984e-05 3.0103006130456588e-05
decision_type=2 2 2 2 2 2 2
left_child=-1 4 -3 -4 5 -2 -7
right_child=1 2 3 -5 -6 6 -8
leaf_value=0.0092472959147105391 0.010184412448489008 -0.016477065897153559 -0.0085019874968661271 0.0047543885719927327 0.010981791939940219 0.001392585569329642 -0.0067782633081555164
leaf_weight=35 23 28 23 34 23 91 31
leaf_count=35 23 28 23 34 23 91 31
internal_value=0.000911926 -0.000133483 -0.00587625 -9.31145e-05 0.00260101 0.0010479 -0.000452366
internal_weight=288 253 85 57 168 145 122
internal_count=288 253 85 57 168 145 122
is_linear=0
shrinkage=0.0885678


Tree=46
num_leaves=11
num_cat=0
split_feature=7 4 4 1 1 12 12 7 7 1
split_gain=0.583837 0.455217 0.464131 0.299493 0.458263 0.470473 0.216156 0.0972365 0.213289 0.0434887
threshold=0.013833470919612833 0.74932941764013938 -0.3744227429403888 6.2216428571428578e-05 2.9682142857142858e-05 3.5000000000000004 2.5000000000000004 0.0062932306823817756 0.0087685414787401408 9.2318571428571446e-05
decision_type=2 2 2 2 2 2 2 2 2 2
left_child=3 2 -2 4 6 -6 -1 9 -9 -5
right_child=1 -3 -4 7 5 -7 -8 8 -10 -11
leaf_value=-0.0062689005944862241 0.0087806694356904729 0.015142219570422279 -0.0051824627963196609 0.0066318472500162514 -0.0019609927394944608 -0.020835126032779996 0.0057147068610001435 -0.0076655819778196337 0.0029697058798149201 0.00017105569711543044
leaf_weight=21 37 30 35 23 25 24 26 26 29 29
leaf_count=21 37 30 35 23 25 24 26 26 29 29
internal_value=0.000357703 0.00589753 0.00158923 -0.00228445 -0.00590559 -0.0118765 0 0.000695242 -0.00153544 0.00361725
internal_weight=305 102 72 203 96 49 47 107 55 52
internal_count=305 102 72 203 96 49 47 107 55 52
is_linear=0
shrinkage=0.0885678


Tree=47
num_leaves=7
num_cat=0
split_feature=9 1 4 1 1 7
split_gain=0.681601 0.605322 0.440259 0.225833 0.262403 0.103823
threshold=-0.032360218456371818 1.1436428571428565e-05 -1.2529295990780018 6.2812142857142858e-05 3.2370714285714286e-05 0.0094985492585034446
decision_type=2 2 2 2 2 2
left_child=-1 -2 -3 4 -4 -5
right_child=1 2 3 5 -6 -7
leaf_value=-0.011522497181024369 0.016468185059675344 0.014587317798107005 0.0039967993841163998 0.0012574877895933283 -0.0053761362365202913 0.0078448542903351761
leaf_weight=23 28 21 33 67 65 37
leaf_count=23 28 21 33 67 65 37
internal_value=0.0026495 0.00407816 0.00236994 0.000933774 -0.00191562 0.00390105
internal_weight=274 251 223 202 98 104
internal_count=274 251 223 202 98 104
is_linear=0
shrinkage=0.0885678


Tree=48
num_leaves=10
num_cat=0
split_feature=9 7 0 7 8 3 7 1 7
split_gain=0.561567 0.406784 0.406132 0.423739 0.371233 0.286991 0.385987 0.0485545 0.016006
threshold=-0.029677472420828851 0.011343005374773752 9.2093333333333335e-05 0.0067806238783957541 -0.013216476473269899 4.1513720659707034e-05 0.01611833292935003 3.5786428571428569e-05 0.0057080159551090174
decision_type=2 2 2 2 2 2 2 2 2
left_child=4 2 3 -2 -1 6 -3 -5 -4
right_child=1 5 8 7 -6 -7 -8 -9 -10
leaf_value=-0.00061986139129612948 0 0.0069721934951648603 0 -0.0066158814922426578 -0.018407399522209607 0.010988136542734164 -0.0082932431637572426 -0.017002133648577722 0.0047096648379514657
leaf_weight=22 39 32 22 21 22 39 21 21 31
leaf_count=22 39 32 22 21 22 39 21 21 31
internal_value=-0.00108848 0.000574449 -0.00238786 -0.00645085 -0.0102466 0.00520439 0.000354584 -0.0125927 0.00326631
internal_weight=270 226 134 81 44 92 53 42 53
internal_count=270 226 134 81 44 92 53 42 53
is_linear=0
shrinkage=0.0885678


Tree=49
num_leaves=9
num_cat=0
split_feature=8 3 5 9 9 2 5 2
split_gain=0.366194 0.425448 0.218478 0.157478 0.166846 0.102359 0.270775 0.0202285
threshold=-0.0003830969072341483 4.4449277845551072e-05 -0.0057197790338980306 0.032105574065118721 -0.012223803842668355 7.0619523809523828e-05 0.001994135107055484 6.7430000000000024e-05
decision_type=2 2 2 2 2 2 2 2
left_child=1 5 -2 4 -4 6 -1 -6
right_child=2 -3 3 -5 7 -7 -8 -9
leaf_value=-0.0026855121301741416 -0.0027803271317304529 -0.011156727629143586 0 -0.00047128291991667572 0.011815835152011163 -0.0038356671947928855 0.0092249868760040602 0.0047696335193336192
leaf_weight=31 32 40 21 21 34 37 25 25
leaf_count=31 32 40 21 21 34 37 25 25
internal_value=-0.000162049 -0.00354831 0.00300202 0.00512967 0.00696571 0 0.00212515 0.00936899
internal_weight=266 133 133 101 80 93 56 59
internal_count=266 133 133 101 80 93 56 59
is_linear=0
shrinkage=0.0885678


Tree=50
num_leaves=10
num_cat=0
split_feature=10 8 10 8 6 6 8 1 8
split_gain=0.999855 0.51199 0.459332 0.261829 0.167066 0.541935 0.215506 0.311451 0.0877684
threshold=0.75050000000000006 1.0000000180025095e-35 0.64785000000000015 -0.01383019662577478 0.0078112821508870009 0.022105287209951311 0.0087449406049650031 5.402642857142857e-05 -0.011596092616578011
decision_type=2 2 2 2 2 2 2 2 2
left_child=1 2 8 -4 6 -6 -3 -8 -1
right_child=-2 4 3 -5 5 -7 7 -9 -10
leaf_value=0.0044329426132533193 -0.020575644057998728 0.010765461691520987 -0.018118655041988934 -0.0045349244227328887 -0.0099761525201508636 0.0079113061742074955 -0.0056173429459556229 0.0077152834102803391 -0.0023002259876150938
leaf_weight=27 21 36 23 38 26 26 24 29 30
leaf_count=27 21 36 23 38 26 26 24 29 30
internal_value=-0.00209157 -0.000456778 -0.004853 -0.0102031 0.00301483 -0.000470962 0.00537852 0.00112356 0.000377792
internal_weight=280 259 118 61 141 52 89 53 57
internal_count=280 259 118 61 141 52 89 53 57
is_linear=0
shrinkage=0.0885678


Tree=51
num_leaves=8
num_cat=0
split_feature=2 8 2 2 0 5 8
split_gain=0.716237 0.351722 0.565343 0.337436 0.392023 0.129401 0.0495428
threshold=1.8006666666666672e-05 0.019782406359535102 6.9542380952380975e-05 2.8833571428571436e-05 5.261333333333332e-05 -0.0042630010716757085 0.00031503001324062479
decision_type=2 2 2 2 2 2 2
left_child=-1 2 3 -2 -5 -4 -7
right_child=1 -3 5 4 -6 6 -8
leaf_value=-0.01559464223310426 0.0027753770602003914 0.0071052142291913702 0.008582624131288779 -0.014071418625482109 -0.0021309742678965312 -0.0013520704619453129 0.0037840711962149496
leaf_weight=29 22 36 25 50 50 32 23
leaf_count=29 22 36 25 50 50 32 23
internal_value=-0.00247192 -0.000731142 -0.00228268 -0.0061574 -0.00842077 0.00325773 0.000267988
internal_weight=267 238 202 122 100 80 55
internal_count=267 238 202 122 100 80 55
is_linear=0
shrinkage=0.0885678


Tree=52
num_leaves=10
num_cat=0
split_feature=6 5 6 6 6 2 1 1 2
split_gain=0.289191 0.477094 0.370664 0.382231 0.319975 0.262156 0.13764 0.123781 0.065206
threshold=-0.0037430871641225823 0.0010873697978474042 0.020470858251098071 0.029075356837706682 -0.010465859547776788 3.7903809523809531e-05 2.7744999999999996e-05 6.3912857142857146e-05 8.0376428571428581e-05
decision_type=2 2 2 2 2 2 2 2 2
left_child=1 4 5 -4 6 -2 -1 -7 -9
right_child=2 -3 3 -5 -6 7 -8 8 -10
leaf_value=-0.0016276208483034995 0.012211405315045313 -0.014252202534743869 -0.013202572744931026 0.0016367167564160497 -0.0094977420980620897 -0.0016346533167726919 0.0063854826982829588 0.0089068949040304584 0.0010337167926977471
leaf_weight=22 30 26 21 30 22 33 37 21 31
leaf_count=22 30 26 21 30 22 33 37 21 31
internal_value=-0.000179325 -0.00386145 0.00201834 -0.00393597 -0.000121674 0.00491956 0.002904 0.00196488 0.00481281
internal_weight=273 107 166 51 81 115 59 85 52
internal_count=273 107 166 51 81 115 59 85 52
is_linear=0
shrinkage=0.0885678


Tree=53
num_leaves=9
num_cat=0
split_feature=10 10 10 10 10 2 10 10
split_gain=0.443807 0.403369 0.482046 0.327765 0.300442 0.219326 0.216642 0.219657
threshold=0.74665000000000015 0.67145000000000021 0.69915000000000016 0.71225000000000016 0.65005000000000013 7.1813095238095254e-05 0.63715000000000011 0.61685000000000012
decision_type=2 2 2 2 2 2 2 2
left_child=1 4 -3 -4 6 -5 7 -1
right_child=-2 2 3 5 -6 -7 -8 -9
leaf_value=0.00059413180386678728 -0.011349244532161851 0.014052520235985565 -0.0058245187629433967 0.012373127162198638 -0.0095924954670560964 0 0.0078119046794088865 -0.0092307143155083184
leaf_weight=87 22 37 28 22 27 21 26 21
leaf_count=87 22 37 28 22 27 21 26 21
internal_value=0.000501861 0.00159261 0.00581741 0.00106944 -0.00106294 0.00625282 0.000452074 -0.00106223
internal_weight=291 269 108 71 161 43 134 108
internal_count=291 269 108 71 161 43 134 108
is_linear=0
shrinkage=0.0885678


Tree=54
num_leaves=10
num_cat=0
split_feature=8 8 3 4 11 8 9 12 8
split_gain=0.308233 0.272312 0.278951 0.296425 0.26963 0.120215 0.375279 0.234364 0.153152
threshold=-0.0027365835925670652 -0.029494318159217322 3.0103006130456588e-05 -0.1124970387860388 12.000000000000002 0.011416072983096328 0.016741129848551254 2.5000000000000004 0.023734245408623348
decision_type=2 2 2 2 2 2 2 2 2
left_child=1 -1 -3 -4 5 6 7 -2 -7
right_child=4 2 3 -5 -6 8 -8 -9 -10
leaf_value=0.002607618126175448 -0.0062961128497908284 -0.00041198265634861833 -0.0038228157531786495 -0.019891412297794085 0.007645099233616808 0.0062526951199677544 -0.013221042334474804 0.0050921477104293534 -0.0022802484270835421
leaf_weight=22 23 33 25 22 37 33 21 35 26
leaf_count=22 23 33 25 22 37 33 21 35 26
internal_value=-0.00122811 -0.00513628 -0.00763707 -0.0120486 0.000885374 -0.000724931 -0.00313359 5.82281e-05 0.00199946
internal_weight=277 102 80 47 175 138 79 58 59
internal_count=277 102 80 47 175 138 79 58 59
is_linear=0
shrinkage=0.0885678


Tree=55
num_leaves=8
num_cat=0
split_feature=9 9 4 0 0 9 4
split_gain=0.205573 0.341567 0.273592 0.448301 0.302698 0.22595 0.209788
threshold=-0.032360218456371818 -0.022539141600786402 0.16223031017965667 1.2171666666666655e-05 6.1704999999999993e-05 -0.001515893270293833 1.0641361499253128
decision_type=2 2 2 2 2 2 2
left_child=-1 -2 3 -3 -5 -4 -7
right_child=1 2 5 4 -6 6 -8
leaf_value=-0.0042857203127977233 0.01370651487701606 -0.0055094402861393145 -0.0070501020481315542 0.012900290380270088 0.0011305893647885234 -0.000886417859569165 0.008645434970727929
leaf_weight=31 22 21 34 48 36 65 23
leaf_count=31 22 21 34 48 36 65 23
internal_value=0.00210584 0.0030247 0.00184252 0.00519236 0.00822964 -0.000803525 0.00128941
internal_weight=280 249 227 105 84 122 88
internal_count=280 249 227 105 84 122 88
is_linear=0
shrinkage=0.0885678


Tree=56
num_leaves=10
num_cat=0
split_feature=7 9 5 5 3 7 8 5 7
split_gain=0.268816 0.165298 0.157815 0.378102 0.336821 0.262181 0.490277 0.249866 0.205829
threshold=0.016528019896964587 0.0015077191843597684 -0.0059278958292829356 -0.00048660963368002402 3.5954269362666532e-05 0.0067806238783957541 0.0043356665818006243 -0.013647919917078198 0.0039611502131890212
decision_type=2 2 2 2 2 2 2 2 2
left_child=2 -2 7 4 -4 8 -7 -1 -5
right_child=1 -3 3 5 -6 6 -8 -9 -10
leaf_value=0.00099877161438850933 0.010740289464385671 0.00041705230687677931 0 -0.0027352003433932411 0.013730174623174489 0 -0.013480674708425318 -0.010559331289156442 0.0076459947756253258
leaf_weight=21 29 32 22 24 27 47 33 29 30
leaf_count=21 29 32 22 24 27 47 33 29 30
internal_value=0.00056212 0.00583683 -0.000697281 0.000360402 0.00712632 -0.00190301 -0.00524002 -0.00513768 0.00249594
internal_weight=294 61 233 183 49 134 80 50 54
internal_count=294 61 233 183 49 134 80 50 54
is_linear=0
shrinkage=0.0885678


Tree=57
num_leaves=10
num_cat=0
split_feature=0 2 9 2 12 0 9 9 0
split_gain=0.276492 0.675823 0.170931 0.347318 0.2111 0.157773 0.154863 0.0837504 0.0252485
threshold=3.1113333333333326e-05 3.5036190476190486e-05 0.018206072057048609 4.5343333333333344e-05 1.5000000000000002 7.3951666666666665e-05 -0.0057183299499897746 -0.0053181636923961264 9.6664999999999997e-05
decision_type=2 2 2 2 2 2 2 2 2
left_child=1 -1 3 6 -5 -4 -2 -6 -7
right_child=2 -3 5 4 7 8 -8 -9 -10
leaf_value=-0.0020230420208923062 -0.0022658340693046089 0.015871961142231591 0.0074575577781733939 -0.0065997886137048158 -1.9620904712753083e-05 -0.0030605745115081604 -0.015066205641838798 0.005348297056786324 0.00056954839126530218
leaf_weight=34 21 28 28 27 30 21 22 39 25
leaf_count=34 21 28 28 27 30 21 22 39 25
internal_value=0.00034958 0.0056192 -0.00105086 -0.00297247 0 0.00215684 -0.00955802 0.00259615 -0.000455812
internal_weight=275 62 213 139 96 74 43 69 46
internal_count=275 62 213 139 96 74 43 69 46
is_linear=0
shrinkage=0.0885678


Tree=58
num_leaves=9
num_cat=0
split_feature=0 6 8 3 11 11 4 8
split_gain=0.438845 0.553311 0.858701 0.184123 0.355879 0.253536 0.11197 0.0058622
threshold=4.0874999999999984e-05 -0.020985984355279094 0.00729802164906146 2.642421783164531e-05 1.0000000180025095e-35 12.000000000000002 0.4937256083591901 0.0043356665818006243
decision_type=2 2 2 2 2 2 2 2
left_child=1 -1 -3 6 -5 -6 7 -2
right_child=3 2 -4 4 5 -7 -8 -9
leaf_value=-0.0057896567571082578 0.0043002784928959734 0.018138285369710325 -0.00065535462776107069 0.0019894813487863531 -0.014268844518451822 -0.0010047840641087985 -0.0032623610230816031 0.00039749317754786986
leaf_weight=21 40 41 30 35 31 26 26 24
leaf_count=21 40 41 30 35 31 26 26 24
internal_value=0.000878444 0.00592169 0.00981132 -0.00151361 -0.00436364 -0.00877262 0.00107595 0.00330666
internal_weight=274 92 71 182 92 57 90 64
internal_count=274 92 71 182 92 57 90 64
is_linear=0
shrinkage=0.0885678


Tree=59
num_leaves=10
num_cat=0
split_feature=8 1 1 1 3 8 1 1 3
split_gain=0.209492 1.01171 0.330882 0.471703 0.631715 0.333918 0.173591 0.153469 0.0599635
threshold=0.010697957603208909 4.6377142857142856e-05 3.3470714285714286e-05 6.8292857142857155e-05 4.1602624769586373e-05 -0.0021888974591225958 7.4312142857142866e-05 8.7670714285714295e-05 3.2637232244346666e-06
decision_type=2 2 2 2 2 2 2 2 2
left_child=2 -2 5 4 -4 -1 -3 -5 -9
right_child=1 6 3 7 -6 -7 -8 8 -10
leaf_value=0 -0.018681902539579638 0.0077674801153661665 -0.01752409360472746 0.007129375376869999 0 0.013721955773398247 -0.0019974135876969531 0.0021575322142070503 -0.0039241569779996264
leaf_weight=26 27 24 27 35 37 26 27 27 22
leaf_count=26 27 24 27 35 37 26 27 27 22
internal_value=-0.000873946 -0.00479887 0.000513472 -0.00146117 -0.00730043 0.00667744 0.00203771 0.00264584 0
internal_weight=278 78 200 148 64 52 51 84 49
internal_count=278 78 200 148 64 52 51 84 49
is_linear=0
shrinkage=0.0885678


Tree=60
num_leaves=9
num_cat=0
split_feature=9 6 3 3 12 9 9 9
split_gain=0.324634 0.284867 0.407031 0.563425 1.13961 0.182506 0.152258 0.0978947
threshold=-0.030756956414002497 -0.020292219614917336 3.9143257666133392e-05 4.4353129155778744e-05 2.5000000000000004 1.0000000180025095e-35 0.011675592302871853 -0.01437369731918947
decision_type=2 2 2 2 2 2 2 2
left_child=-1 -2 5 -4 -5 7 -7 -3
right_child=1 2 3 4 -6 6 -8 -9
leaf_value=0.0070840313188611156 0.0053368061027474862 0 -0.019053471428775341 -0.017306943664360374 0.0069588036041747124 0.0093891939857857661 0 -0.0071952230422765795
leaf_weight=37 35 23 25 25 36 21 51 29
leaf_count=37 35 23 25 25 36 21 51 29
internal_value=-0.000463851 -0.00173181 -0.00305681 -0.00773113 -0.00253757 0 0.00307349 -0.00378379
internal_weight=282 245 210 86 61 124 72 52
internal_count=282 245 210 86 61 124 72 52
is_linear=0
shrinkage=0.0885678


Tree=61
num_leaves=9
num_cat=0
split_feature=3 1 12 1 2 8 5 2
split_gain=0.686057 0.508371 0.346057 0.600322 0.485359 0.252265 0.379336 0.22327
threshold=5.4989330660858664e-05 9.2849999999999933e-06 3.5000000000000004 6.8662142857142878e-05 4.5343333333333344e-05 0.010697957603208909 0.0027741123991718024 8.1575000000000018e-05
decision_type=2 2 2 2 2 2 2 2
left_child=1 -1 3 4 -3 6 -4 -5
right_child=-2 2 5 7 -6 -7 -8 -9
leaf_value=0.0088028524545771085 0.011480976764692594 -0.005919919272298838 -0.0070528622950113938 0.0043918158015618563 -0.024387385961426245 0.0074014922062817122 0.0044649910151888681 -0.0055444026980815114
leaf_weight=29 33 37 54 32 21 28 35 37
leaf_count=29 33 37 54 32 21 28 35 37
internal_value=-0.000396688 -0.00195182 -0.00336055 -0.00655731 -0.0132048 0 -0.00219136 -0.000509113
internal_weight=306 273 244 127 58 117 89 69
internal_count=306 273 244 127 58 117 89 69
is_linear=0
shrinkage=0.0885678


Tree=62
num_leaves=9
num_cat=0
split_feature=3 3 2 0 3 2 2 6
split_gain=0.313493 0.392806 0.352968 0.352182 0.156801 0.301985 0.0719405 0.0141508
threshold=3.9909450461214703e-05 4.4566065030358363e-05 2.3942619047619053e-05 4.7073333333333322e-05 3.3454471328074255e-05 4.2444523809523814e-05 8.0180952380952389e-05 -0.008175723727305682
decision_type=2 2 2 2 2 2 2 2
left_child=4 -2 -3 -4 5 -1 -7 -8
right_child=1 2 3 -5 -6 6 7 -9
leaf_value=-0.0077220571985300692 -0.011436067172504481 -0.0095373625493391321 0.0098472051454816471 -0.0031981071159050659 0.0083212280622424542 0.0065685854599386029 0.003176975270766845 0
leaf_weight=22 31 21 34 26 36 40 21 53
leaf_count=22 31 21 34 26 36 40 21 53
internal_value=0.000511338 -0.00300134 0 0.00371422 0.00297206 0.00132352 0.00334412 0.00118273
internal_weight=284 112 81 60 172 136 114 74
internal_count=284 112 81 60 172 136 114 74
is_linear=0
shrinkage=0.0885678


Tree=63
num_leaves=9
num_cat=0
split_feature=0 0 4 3 4 11 0 0
split_gain=0.341846 0.560743 0.404314 0.209747 0.196425 0.187202 0.250097 0.118305
threshold=4.2989999999999987e-05 3.177999999999999e-05 0.84657301441037969 4.5088738829595085e-05 0.57375069197463835 1.0000000180025095e-35 8.1971666666666646e-05 7.8486666666666662e-05
decision_type=2 2 2 2 2 2 2 2
left_child=1 3 4 -1 5 -2 -7 -4
right_child=2 -3 7 -5 -6 6 -8 -9
leaf_value=-0.0051048467392557657 0.0074535902135600962 -0.014649459606746511 0.014284810072624204 0.0044117208206990218 -0.0070559248666485002 -0.0076242734104383231 0.002925187066149157 0.0028483290252523993
leaf_weight=32 32 27 25 41 24 26 51 21
leaf_count=32 32 27 25 41 24 26 51 21
internal_value=0.000208782 -0.00381406 0.00262421 0 0 0.00174098 -0.000268652 0.00975595
internal_weight=279 100 179 73 133 109 77 46
internal_count=279 100 179 73 133 109 77 46
is_linear=0
shrinkage=0.0885678


Tree=64
num_leaves=9
num_cat=0
split_feature=0 7 8 2 0 7 2 1
split_gain=0.381278 0.40658 0.357209 0.331244 0.270458 0.173337 0.125285 0.0986483
threshold=2.1224999999999977e-05 0.007363338765270829 -0.017971804748236116 6.6814047619047636e-05 3.8761666666666658e-05 0.012388734575980009 3.7903809523809531e-05 9.3613571428571439e-05
decision_type=2 2 2 2 2 2 2 2
left_child=5 3 -3 -2 -4 -1 -6 -5
right_child=1 2 4 7 6 -7 -8 -9
leaf_value=-0.0009033403682734717 -0.010197154677233396 -0.0049159500542972651 0.015528118236548961 0.0058893314924655807 -0.00059334199998529102 -0.012392775367307419 0.005890264073275228 -0.0014933568196143019
leaf_weight=30 31 22 24 21 22 23 79 33
leaf_count=30 31 22 24 21 22 23 79 33
internal_value=0.000151946 0.00180259 0.00469686 -0.00285394 0.00663306 -0.0064869 0.00418751 0.000847684
internal_weight=285 232 147 85 125 53 101 54
internal_count=285 232 147 85 125 53 101 54
is_linear=0
shrinkage=0.0885678


end of trees

feature_importances:
fr_ma_7=64
fr_ma_3=52
fr_ma_21=51
fr_zscore=48
oi_change_8h=46
oi_change_24h=46
return_24h=45
volatility_24h=44
fr_std_7=42
buy_ratio=36
return_8h=26
day_of_week=14
hour_utc=7

parameters:
[boosting: gbdt]
[objective: huber]
[metric: l1]
[tree_learner: serial]
[device_type: cpu]
[data_sample_strategy: bagging]
[data: ]
[valid: ]
[num_iterations: 584]
[learning_rate: 0.0885678]
[num_leaves: 15]
[num_threads: 1]
[seed: 42]
[deterministic: 1]
[force_col_wise: 0]
[force_row_wise: 0]
[histogram_pool_size: -1]
[max_depth: 5]
[min_data_in_leaf: 21]
[min_sum_hessian_in_leaf: 0.001]
[bagging_fraction: 0.529288]
[pos_bagging_fraction: 1]
[neg_bagging_fraction: 1]
[bagging_freq: 1]
[bagging_seed: 400]
[bagging_by_query: 0]
[feature_fraction: 0.47542]
[feature_fraction_bynode: 1]
[feature_fraction_seed: 30056]
[extra_trees: 0]
[extra_seed: 12879]
[early_stopping_round: 0]
[early_stopping_min_delta: 0]
[first_metric_only: 0]
[max_delta_step: 0]
[lambda_l1: 0.334947]
[lambda_l2: 0.294583]
[linear_lambda: 0]
[min_gain_to_split: 0]
[drop_rate: 0.1]
[max_drop: 50]
[skip_drop: 0.5]
[xgboost_dart_mode: 0]
[uniform_drop: 0]
[drop_seed: 17869]
[top_rate: 0.2]
[other_rate: 0.1]
[min_data_per_group: 100]
[max_cat_threshold: 32]
[cat_l2: 10]
[cat_smooth: 10]
[max_cat_to_onehot: 4]
[top_k: 20]
[monotone_constraints: ]
[monotone_constraints_method: basic]
[monotone_penalty: 0]
[feature_contri: ]
[forcedsplits_filename: ]
[refit_decay_rate: 0.9]
[cegb_tradeoff: 1]
[cegb_penalty_split: 0]
[cegb_penalty_feature_lazy: ]
[cegb_penalty_feature_coupled: ]
[path_smooth: 0]
[interaction_constraints: ]
[verbosity: -1]
[saved_feature_importance_type: 0]
[use_quantized_grad: 0]
[num_grad_quant_bins: 4]
[quant_train_renew_leaf: 0]
[stochastic_rounding: 1]
[linear_tree: 0]
[max_bin: 255]
[max_bin_by_feature: ]
[min_data_in_bin: 3]
[bin_construct_sample_cnt: 200000]
[data_random_seed: 175]
[is_enable_sparse: 1]
[enable_bundle: 1]
[use_missing: 1]
[zero_as_missing: 0]
[feature_pre_filter: 1]
[pre_partition: 0]
[two_round: 0]
[header: 0]
[label_column: ]
[weight_column: ]
[group_column: ]
[ignore_column: ]
[categorical_feature: ]
[forcedbins_filename: ]
[precise_float_parser: 0]
[parser_config_file: ]
[objective_seed: 16083]
[num_class: 1]
[is_unbalance: 0]
[scale_pos_weight: 1]
[sigmoid: 1]
[boost_from_average: 1]
[reg_sqrt: 0]
[alpha: 0.9]
[fair_c: 1]
[poisson_max_delta_step: 0.7]
[tweedie_variance_power: 1.5]
[lambdarank_truncation_level: 30]
[lambdarank_norm: 1]
[label_gain: ]
[lambdarank_position_bias_regularization: 0]
[eval_at: ]
[multi_error_top_k: 1]
[auc_mu_weights: ]
[num_machines: 1]
[local_listen_port: 12400]
[time_out: 120]
[machine_list_filename: ]
[machines: ]
[gpu_platform_id: -1]
[gpu_device_id: -1]
[gpu_use_dp: 0]
[num_gpu: 1]

end of parameters

pandas_categorical:[]
