tree
version=v4
num_class=1
num_tree_per_iteration=1
label_index=0
max_feature_idx=12
objective=huber
feature_names=fr_ma_3 fr_ma_7 fr_ma_21 fr_std_7 fr_zscore return_8h return_24h volatility_24h oi_change_8h oi_change_24h buy_ratio hour_utc day_of_week
feature_infos=[-0.00014946333333333336:0.00068181666666666666] [-6.2785714285714292e-05:0.00046383285714285714] [-4.9571428571428575e-06:0.0002989614285714286] [0:0.00038746377171967715] [-4.364357804719849:4.3287604499139158] [-0.065062702217603796:0.078280237071406189] [-0.099718129279361634:0.10365604232330572] [0.00038430504087347701:0.062823644839087547] [-0.18932200744341388:0.087889212061736499] [-0.2324396040180674:0.10575516034093102] [0.50509999999999999:0.78510000000000002] [0:16] [0:6]
tree_sizes=969 1018 923 822 844 902 998 1027 998 1073 905 1013 934 1002 1015 1028

Tree=0
num_leaves=10
num_cat=0
split_feature=1 6 1 1 1 6 4 12 5
split_gain=45.017 6.45116 4.40533 2.59053 1.31361 0.387134 0.150984 0.126101 0.0643038
threshold=9.9317857142857164e-05 -8.6760700930721399e-05 3.4411428571428576e-05 0.00013185642857142861 6.1212857142857162e-05 -0.0028898004113161453 0.8693282685286231 4.5000000000000009 0.005818490892513962
decision_type=2 2 2 2 2 2 2 2 2
left_child=1 4 8 -2 7 -5 -4 -1 -3
right_child=3 2 6 5 -6 -7 -8 -9 -10
leaf_value=0.71868627545982255 0.78631840984344714 0.7241149338875823 0.76389768682522219 0.80921852006145312 0.73859972102014559 0.83322204278917011 0.77324923592243755 0.70189663465010599 0.73942917310798506
leaf_weight=50 23 24 32 21 26 32 22 28 26
leaf_count=50 23 24 32 21 26 32 22 28 26
internal_value=0.755434 0.734042 0.750151 0.813491 0.718311 0.824554 0.767175 0.712058 0.731281
internal_weight=284 208 104 76 104 53 54 78 50
internal_count=284 208 104 76 104 53 54 78 50
is_linear=0
shrinkage=1


Tree=1
num_leaves=10
num_cat=0
split_feature=1 1 1 6 6 1 5 8 5
split_gain=40.0938 4.07554 3.45046 1.84645 1.27357 0.506489 0.212802 0.196431 0.0439042
threshold=9.5590000000000025e-05 0.00012049285714285716 3.4757857142857152e-05 -8.6760700930721399e-05 0.0050518443071934102 6.1212857142857162e-05 -0.00019936925540953163 0.00066009664516553112 0.001125535728713434
decision_type=2 2 2 2 2 2 2 2 2
left_child=2 -2 4 5 8 -4 -3 -5 -1
right_child=1 6 3 7 -6 -7 -8 -9 -10
leaf_value=-0.057435195647548912 0.015402511340310125 0.042470901457435872 -0.040914358512684337 -0.0095858988178600425 -0.027814785814934361 -0.017425877017326109 0.063686956161757083 0.0015789647564786926 -0.040568418512453602
leaf_weight=36 33 21 22 21 38 21 34 21 24
leaf_count=36 33 21 22 21 38 21 34 21 24
internal_value=-0.00743624 0.0414597 -0.0311397 -0.0173917 -0.0426744 -0.0303251 0.0563922 -0.00332995 -0.0514117
internal_weight=271 88 183 85 98 43 55 42 60
internal_count=271 88 183 85 98 43 55 42 60
is_linear=0
shrinkage=0.0885678


Tree=2
num_leaves=9
num_cat=0
split_feature=1 6 1 1 1 10 6 3
split_gain=38.4621 4.9944 3.29526 2.11262 1.91285 1.34201 0.200571 0.156562
threshold=9.5062857142857172e-05 0.0056487917638021754 0.00012049285714285716 6.0552142857142869e-05 2.4995000000000004e-05 0.71935000000000016 0.017270983941940491 8.9022821735525371e-05
decision_type=2 2 2 2 2 2 2 2
left_child=1 3 -2 5 -3 -1 -6 -4
right_child=2 4 7 -5 6 -7 -8 -9
leaf_value=-0.056384817556995058 0.013900213585505103 -0.029887127202134441 0.064422339390071096 -0.019830566140435425 -0.0076242594733581422 -0.030142558179344969 0.0033600501337991955 0.04429815675264237
leaf_weight=68 26 33 24 30 24 29 24 28
leaf_count=68 26 33 24 30 24 29 24 28
internal_value=-0.0113492 -0.0313125 0.0414249 -0.0423732 -0.0135148 -0.0489591 -0.00153085 0.0544641
internal_weight=286 208 78 127 81 97 48 52
internal_count=286 208 78 127 81 97 48 52
is_linear=0
shrinkage=0.0885678


Tree=3
num_leaves=8
num_cat=0
split_feature=3 3 6 4 6 4 3
split_gain=11.6427 6.08351 3.48957 3.43881 2.89475 0.457095 0.201903
threshold=6.6232963759686733e-05 2.2068870974280921e-05 -0.0037003571390099572 1.0955263499951973 0.019920434330507501 0.45275269795092193 1.0000000180025095e-35
decision_type=2 2 2 2 2 2 2
left_child=1 6 -2 4 5 -3 -1
right_child=2 3 -4 -5 -6 -7 -8
leaf_value=0.017561807221875302 0 -0.036293550056912191 0.04432558674983561 0.0088323765652014372 0.00014624563559038477 -0.019586952615664423 0.0044552210330624925
leaf_weight=21 21 105 38 21 22 26 32
leaf_count=21 21 105 38 21 22 26 32
internal_value=-0.00637101 -0.0155673 0.0284124 -0.0236125 -0.0282677 -0.0332551 0.0102734
internal_weight=286 227 59 174 153 131 53
internal_count=286 227 59 174 153 131 53
is_linear=0
shrinkage=0.0885678


Tree=4
num_leaves=8
num_cat=0
split_feature=0 0 6 3 2 12 2
split_gain=22.9306 5.71781 1.74531 0.988895 0.591917 0.43563 0.0821162
threshold=7.4304999999999974e-05 0.00010200166666666667 -0.0072312307601296024 3.8110586390746093e-05 4.1179285714285726e-05 3.5000000000000004 2.9075952380952386e-05
decision_type=2 2 2 2 2 2 2
left_child=2 5 4 -4 -1 -2 -5
right_child=1 -3 3 6 -6 -7 -8
leaf_value=-0.048893028898044678 0.00035318944372448203 0.049146099040011403 -0.0088892591417436256 -0.0347371945277936 -0.025638969746378311 0.015950919581709626 -0.020391272165909004
leaf_weight=41 41 42 38 29 21 25 22
leaf_count=41 41 42 38 29 21 25 22
internal_value=-0.00736853 0.0236023 -0.0297188 -0.020964 -0.0416514 0.00675353 -0.0292797
internal_weight=259 108 151 89 62 66 51
internal_count=259 108 151 89 62 66 51
is_linear=0
shrinkage=0.0885678


Tree=5
num_leaves=9
num_cat=0
split_feature=1 1 4 4 4 5 5 7
split_gain=25.3001 4.48055 2.20156 2.09209 0.719706 0.580369 0.487164 0.463009
threshold=0.00010499214285714288 3.3250000000000009e-05 -0.57004508226231521 0.13108609880578845 0.32950004074616418 -0.0016109305460754173 0.001125535728713434 0.010734617456492032
decision_type=2 2 2 2 2 2 2 2
left_child=1 6 -3 -2 5 -4 -1 -6
right_child=3 2 4 -5 7 -7 -8 -9
leaf_value=-0.039884101919037268 0.031251575544957125 -0.030450400627162189 -0.019703806910984559 0.069334808242201063 -0.002540582938094553 0 -0.02374489886149039 0.012570764558407404
leaf_weight=54 33 26 23 23 28 21 41 30
leaf_count=54 33 26 23 23 28 21 41 30
internal_value=-0.00521967 -0.0186874 -0.00754072 0.0477008 -0.00134012 -0.0100696 -0.033325 0.00479077
internal_weight=279 223 128 56 102 44 95 58
internal_count=279 223 128 56 102 44 95 58
is_linear=0
shrinkage=0.0885678


Tree=6
num_leaves=10
num_cat=0
split_feature=0 0 0 0 3 8 4 11 4
split_gain=25.1803 7.62799 0.753419 0.640462 0.618023 0.379172 0.144361 0.120064 0.205618
threshold=0.00013142000000000001 5.9143333333333286e-05 3.0858333333333295e-05 -2.2766666666667066e-06 2.2068870974280921e-05 -0.0046221420495848311 0.13703588993804994 1.0000000180025095e-35 0.5621991950219456
decision_type=2 2 2 2 2 2 2 2 2
left_child=1 2 3 -1 -3 -5 -2 -6 -9
right_child=6 4 -4 5 7 -7 -8 8 -10
leaf_value=-0.02183205039049772 0.042492653953205554 0.011125757322016636 -0.016577707773923259 -0.049738965441379297 0.0013638041566274 -0.03117654787817635 0.063792809522141461 0 -0.011946744601147193
leaf_weight=38 21 38 38 27 23 42 25 22 21
leaf_count=38 21 38 38 27 23 42 25 22 21
internal_value=-0.00480635 -0.0160336 -0.0291552 -0.0332876 0.00200705 -0.0390488 0.0550419 -0.00282174 -0.00573977
internal_weight=295 249 145 107 104 69 46 66 43
internal_count=295 249 145 107 104 69 46 66 43
is_linear=0
shrinkage=0.0885678


Tree=7
num_leaves=10
num_cat=0
split_feature=1 1 6 11 3 1 1 3 1
split_gain=16.1394 3.57831 2.33601 0.581614 0.570601 0.536964 0.269643 0.264647 0.129152
threshold=0.00012049285714285716 2.3732857142857148e-05 -0.00086797275608346814 1.0000000180025095e-35 0.00011257108875515525 7.6639285714285722e-05 9.9192857142857158e-06 3.0676330054462807e-05 4.2590714285714293e-05
decision_type=2 2 2 2 2 2 2 2 2
left_child=1 3 7 -1 -2 8 -5 -3 -4
right_child=4 2 5 6 -6 -7 -8 -9 -10
leaf_value=-0.017424976115168255 0.056298113273827985 -0.0093317263520291648 0.0031518811621282397 -0.045659412242956138 0.030029420726577057 0.013015202907486055 -0.025954137798289638 -0.025369331162997145 -0.0048976199524633267
leaf_weight=31 23 21 24 22 21 30 25 33 35
leaf_count=31 23 21 24 22 21 30 25 33 35
internal_value=-0.00393486 -0.0138012 -0.00520168 -0.0291092 0.0447136 0.00333732 -0.0360321 -0.0197633 -0.00112355
internal_weight=265 221 143 78 44 89 47 54 59
internal_count=265 221 143 78 44 89 47 54 59
is_linear=0
shrinkage=0.0885678


Tree=8
num_leaves=10
num_cat=0
split_feature=0 0 8 9 11 9 11 0 2
split_gain=21.508 7.22782 1.23038 0.617923 0.530761 0.338225 0.130007 0.0839074 0.0505042
threshold=5.9143333333333286e-05 0.00012859000000000001 0.0095762902907465825 -0.040683345606971115 1.0000000180025095e-35 0.014153926426096032 12.000000000000002 9.0928333333333301e-05 2.1504047619047621e-05
decision_type=2 2 2 2 2 2 2 2 2
left_child=2 5 3 -1 -5 6 7 -2 -4
right_child=1 -3 8 4 -6 -7 -8 -9 -10
leaf_value=-0.016423185031560966 0.00076283684442197898 0.047534025508167314 -0.0065018378259796448 -0.02375089761366949 -0.042815243080689874 0 0.016957709953152673 0.010586893233020183 -0.016928912554744702
leaf_weight=23 21 53 21 29 49 37 23 21 21
leaf_count=23 21 53 21 29 49 37 23 21 21
internal_value=-0.00172845 0.0210005 -0.0265643 -0.0320672 -0.0362221 0.00682625 0.01066 0.00641579 -0.0124984
internal_weight=298 155 143 101 78 102 65 42 42
internal_count=298 155 143 101 78 102 65 42 42
is_linear=0
shrinkage=0.0885678


Tree=9
num_leaves=11
num_cat=0
split_feature=1 4 10 10 1 10 10 4 3 1
split_gain=18.9301 2.00802 1.74192 1.46395 0.662278 0.527589 0.438828 0.380104 0.342426 0.317585
threshold=9.9056428571428598e-05 0.1654989633191154 0.61590000000000011 0.6634500000000001 9.9192857142857158e-06 0.71515000000000006 0.66585000000000016 -0.039470961483886409 3.2684582408012802e-05 4.0415714285714294e-05
decision_type=2 2 2 2 2 2 2 2 2 2
left_child=1 4 -3 7 -1 6 -4 -2 -6 -10
right_child=3 2 5 -5 8 -7 -8 -9 9 -11
leaf_value=-0.041462060166365278 0.028463028362775221 -0.029251790173498531 0 0.011514439441571534 -0.010859016869745702 0.0087956194826677315 -0.016361351641097692 0.050596847950163115 -0.018197824875219704 -0.036536859620108574
leaf_weight=30 21 27 23 21 21 21 23 28 27 24
leaf_count=30 21 27 23 21 21 21 23 28 27 24
internal_value=-0.00596762 -0.0201792 -0.0102947 0.0333205 -0.0289425 -0.00211985 -0.00776805 0.0419395 -0.023168 -0.0275666
internal_weight=266 196 94 70 102 67 46 49 72 51
internal_count=266 196 94 70 102 67 46 49 72 51
is_linear=0
shrinkage=0.0885678


Tree=10
num_leaves=9
num_cat=0
split_feature=0 0 10 4 9 9 8 8
split_gain=13.2614 3.59193 0.520615 0.455255 0.430863 0.446297 0.35492 0.304191
threshold=0.00012859000000000001 3.5499999999999941e-05 0.72365000000000013 -0.31119584079809071 0.011798613957922701 0.027023667930503373 -0.003102663793333404 -0.0011255804711615134
decision_type=2 2 2 2 2 2 2 2
left_child=1 2 3 -1 6 -6 -3 -2
right_child=7 4 -4 -5 5 -7 -8 -9
leaf_value=-0.032690683640124986 0.03368540889212901 0.012761410038161128 -0.007131474263194929 -0.015455261716775586 -0.013556326074039371 0.0027475695336630552 0 0.056863282896040167
leaf_weight=37 21 37 22 33 21 29 26 21
leaf_count=37 21 37 22 33 21 29 26 21
internal_value=0.00102665 -0.00815566 -0.0211506 -0.0250862 0.00218994 -0.00354953 0.00720908 0.0462911
internal_weight=247 205 92 70 113 50 63 42
internal_count=247 205 92 70 113 50 63 42
is_linear=0
shrinkage=0.0885678


Tree=11
num_leaves=10
num_cat=0
split_feature=1 1 6 10 6 5 2 2 10
split_gain=15.2942 3.04354 2.65996 1.60037 1.05624 0.483435 0.153258 0.422139 0.125653
threshold=0.00013185642857142861 7.1698571428571443e-05 -8.6760700930721399e-05 0.6584000000000001 0.030474675766978935 -0.00086488866735551218 1.695714285714286e-05 4.541357142857144e-05 0.6634500000000001
decision_type=2 2 2 2 2 2 2 2 2
left_child=1 2 6 -2 5 -4 -1 -8 -3
right_child=3 8 4 -5 -6 -7 7 -9 -10
leaf_value=-0.018108014137380314 0.051521973649618552 0.010442692809697694 -0.022814394045602881 0.017850419094279382 0.010111327594667509 -0.0055759384621036122 -0.040096039946445998 -0.020637353111854304 0.0008149055613373234
leaf_weight=22 37 30 22 21 22 47 32 26 28
leaf_count=22 37 30 22 21 22 47 32 26 28
internal_value=-0.000408917 -0.0108089 -0.0167966 0.0399913 -0.00599073 -0.011574 -0.0286517 -0.0320304 0.00633129
internal_weight=287 229 171 58 91 69 80 58 58
internal_count=287 229 171 58 91 69 80 58 58
is_linear=0
shrinkage=0.0885678


Tree=12
num_leaves=9
num_cat=0
split_feature=0 0 5 4 6 6 5 0
split_gain=14.4282 3.64159 1.96836 0.921312 0.474646 0.280076 0.238164 0.127406
threshold=0.00012278333333333333 3.5499999999999941e-05 -0.002244048668860132 0.21551094431970527 0.0085607616767633416 -0.00086797275608346814 -0.00086488866735551218 7.4304999999999974e-05
decision_type=2 2 2 2 2 2 2 2
left_child=1 4 5 -2 6 -3 -1 -4
right_child=3 2 7 -5 -6 -7 -8 -9
leaf_value=-0.031980611230469351 0.025167193604986138 -0.017021510365126637 0.002801714044645875 0.054654194768515761 -0.009638459139542992 -0.0027630993114011043 -0.018771456311425589 0.013409542328756003
leaf_weight=47 21 38 22 26 23 23 37 40
leaf_count=47 21 38 22 26 23 23 37 40
internal_value=-0.00208253 -0.0113326 -0.000679157 0.0423452 -0.0232671 -0.0121685 -0.0266002 0.0101527
internal_weight=277 230 123 47 107 61 84 62
internal_count=277 230 123 47 107 61 84 62
is_linear=0
shrinkage=0.0885678


Tree=13
num_leaves=10
num_cat=0
split_feature=1 4 6 5 4 4 2 11 4
split_gain=10.6324 3.27218 1.9548 1.73141 0.98342 0.880016 0.596262 0.53231 0.397201
threshold=9.9056428571428598e-05 0.8693282685286231 -0.010926608668353153 -0.00019936925540953163 -0.82457795293782044 0.10359398277019703 5.5161666666666678e-05 12.000000000000002 1.1530693266743806
decision_type=2 2 2 2 2 2 2 2 2
left_child=1 3 -2 6 -5 -4 -1 -6 -3
right_child=2 8 5 4 7 -7 -8 -9 -10
leaf_value=-0.031627245862899889 0.0037964478776961906 0.00038996075089551614 0.025661015112643074 -0.023955083418419693 0.0042181321479948745 0.05250067914346241 -0.011473757710882963 -0.011902363035886706 0.018254491108406549
leaf_weight=54 21 23 32 21 41 22 22 25 23
leaf_count=54 21 23 32 21 41 22 22 25 23
internal_value=-2.33419e-05 -0.0103952 0.0284133 -0.0163466 -0.00729705 0.0373676 -0.026249 -0.00146639 0.0100223
internal_weight=284 209 75 163 87 54 76 66 46
internal_count=284 209 75 163 87 54 76 66 46
is_linear=0
shrinkage=0.0885678


Tree=14
num_leaves=10
num_cat=0
split_feature=3 10 6 6 3 8 10 10 7
split_gain=4.46391 4.12643 1.78337 1.26528 0.933732 2.65587 0.468796 0.312985 0.181429
threshold=6.6232963759686733e-05 0.63880000000000015 -0.0072312307601296024 -0.0045295332633003551 3.4362596092065113e-05 -0.0098325520226447121 0.68505000000000016 0.6089500000000001 0.0091704860365463773
decision_type=2 2 2 2 2 2 2 2 2
left_child=2 -2 6 -3 8 -6 -1 -7 -4
right_child=1 3 4 -5 5 7 -8 -9 -10
leaf_value=-0.026174399748539957 0.044827353628560392 -0.01369397718529447 0.0021788061458798092 0.016040809114849671 -0.033048412347849748 -0.0052178899898921681 -0.0095101900755130853 0.0075626251658554673 0.013195380851213247
leaf_weight=33 29 21 35 23 22 22 36 38 27
leaf_count=33 29 21 35 23 22 22 36 38 27
internal_value=7.85702e-05 0.0190363 -0.0062969 0.00118278 -0.00046523 -0.00684764 -0.0179855 0.00238183 0.00749227
internal_weight=286 73 213 44 144 82 69 60 62
internal_count=286 73 213 44 144 82 69 60 62
is_linear=0
shrinkage=0.0885678


Tree=15
num_leaves=10
num_cat=0
split_feature=0 0 6 8 8 6 2 2 2
split_gain=15.7717 3.13599 1.04482 0.556536 0.373671 0.198941 0.136807 0.120765 0.0132794
threshold=0.00012859000000000001 3.8809999999999955e-05 0.0085607616767633416 -0.0011255804711615134 -0.012227375885423995 -0.0014163301881071619 5.1344285714285721e-05 4.2140714285714296e-05 1.3542380952380954e-05
decision_type=2 2 2 2 2 2 2 2 2
left_child=1 2 7 -2 -3 -6 -7 8 -1
right_child=3 4 -4 -5 5 6 -8 -9 -10
leaf_value=-0.017705780891011037 0.033854738267883266 0.012320346272032637 -0.0020192119788488556 0.058747175667405921 -0.0052784285648050256 -0.0011506782786752635 0.0062699051925115216 -0.012146831076680157 -0.027745789729556838
leaf_weight=28 24 26 32 26 32 25 43 21 41
leaf_count=28 24 26 32 26 32 25 43 21 41
internal_value=0.00235828 -0.00670073 -0.0168413 0.0476569 0.00289937 0.000125144 0.00311418 -0.021759 -0.0241923
internal_weight=298 248 122 50 126 100 68 90 69
internal_count=298 248 122 50 126 100 68 90 69
is_linear=0
shrinkage=0.0885678


end of trees

feature_importances:
fr_ma_7=25
return_24h=19
fr_ma_3=16
fr_zscore=16
fr_std_7=11
buy_ratio=11
fr_ma_21=9
return_8h=9
oi_change_8h=8
hour_utc=5
oi_change_24h=4
volatility_24h=2
day_of_week=2

parameters:
[boosting: gbdt]
[objective: huber]
[metric: l1]
[tree_learner: serial]
[device_type: cpu]
[data_sample_strategy: bagging]
[data: ]
[valid: ]
[num_iterations: 584]
[learning_rate: 0.0885678]
[num_leaves: 15]
[num_threads: 1]
[seed: 42]
[deterministic: 1]
[force_col_wise: 0]
[force_row_wise: 0]
[histogram_pool_size: -1]
[max_depth: 5]
[min_data_in_leaf: 21]
[min_sum_hessian_in_leaf: 0.001]
[bagging_fraction: 0.529288]
[pos_bagging_fraction: 1]
[neg_bagging_fraction: 1]
[bagging_freq: 1]
[bagging_seed: 400]
[bagging_by_query: 0]
[feature_fraction: 0.47542]
[feature_fraction_bynode: 1]
[feature_fraction_seed: 30056]
[extra_trees: 0]
[extra_seed: 12879]
[early_stopping_round: 0]
[early_stopping_min_delta: 0]
[first_metric_only: 0]
[max_delta_step: 0]
[lambda_l1: 0.334947]
[lambda_l2: 0.294583]
[linear_lambda: 0]
[min_gain_to_split: 0]
[drop_rate: 0.1]
[max_drop: 50]
[skip_drop: 0.5]
[xgboost_dart_mode: 0]
[uniform_drop: 0]
[drop_seed: 17869]
[top_rate: 0.2]
[other_rate: 0.1]
[min_data_per_group: 100]
[max_cat_threshold: 32]
[cat_l2: 10]
[cat_smooth: 10]
[max_cat_to_onehot: 4]
[top_k: 20]
[monotone_constraints: ]
[monotone_constraints_method: basic]
[monotone_penalty: 0]
[feature_contri: ]
[forcedsplits_filename: ]
[refit_decay_rate: 0.9]
[cegb_tradeoff: 1]
[cegb_penalty_split: 0]
[cegb_penalty_feature_lazy: ]
[cegb_penalty_feature_coupled: ]
[path_smooth: 0]
[interaction_constraints: ]
[verbosity: -1]
[saved_feature_importance_type: 0]
[use_quantized_grad: 0]
[num_grad_quant_bins: 4]
[quant_train_renew_leaf: 0]
[stochastic_rounding: 1]
[linear_tree: 0]
[max_bin: 255]
[max_bin_by_feature: ]
[min_data_in_bin: 3]
[bin_construct_sample_cnt: 200000]
[data_random_seed: 175]
[is_enable_sparse: 1]
[enable_bundle: 1]
[use_missing: 1]
[zero_as_missing: 0]
[feature_pre_filter: 1]
[pre_partition: 0]
[two_round: 0]
[header: 0]
[label_column: ]
[weight_column: ]
[group_column: ]
[ignore_column: ]
[categorical_feature: ]
[forcedbins_filename: ]
[precise_float_parser: 0]
[parser_config_file: ]
[objective_seed: 16083]
[num_class: 1]
[is_unbalance: 0]
[scale_pos_weight: 1]
[sigmoid: 1]
[boost_from_average: 1]
[reg_sqrt: 0]
[alpha: 0.9]
[fair_c: 1]
[poisson_max_delta_step: 0.7]
[tweedie_variance_power: 1.5]
[lambdarank_truncation_level: 30]
[lambdarank_norm: 1]
[label_gain: ]
[lambdarank_position_bias_regularization: 0]
[eval_at: ]
[multi_error_top_k: 1]
[auc_mu_weights: ]
[num_machines: 1]
[local_listen_port: 12400]
[time_out: 120]
[machine_list_filename: ]
[machines: ]
[gpu_platform_id: -1]
[gpu_device_id: -1]
[gpu_use_dp: 0]
[num_gpu: 1]

end of parameters

pandas_categorical:[]
