tree
version=v4
num_class=1
num_tree_per_iteration=1
label_index=0
max_feature_idx=15
objective=binary sigmoid:1
feature_names=ma_10_ratio ma_30_ratio ma_200_ratio rsi_14 macd_hist stoch_k atr_14_pct bb_width bb_position adx_14 return_1 volume_ratio hour_sin hour_cos rsi_14_1d ma_50_1d_ratio
feature_infos=[0.9282785459340519:1.0532712898913146] [0.87875853586900654:1.0844139724007646] [0.7795100955013029:1.1856964932129814] [3.3524097260552992:98.295538757966085] [-813.21435290308398:885.64154068106438] [0:100] [0.0012677903833889944:0.038271628713109629] [0.0029093838210345856:0.22734246689125856] [-0.48224355447518846:1.4629881476153488] [7.061020277189626:98.937580500733787] [-0.045467330160103847:0.050906205506907165] [0.077393029546948669:8.7551525217756545] [-1:1] [-1:1] [15.194615971692215:90.923160103372496] [0.79347929821036078:1.4331232090152759]
tree_sizes=1605 1732 1417 1723 1618 1698 1724 1614 1489 1522 1400 1384

Tree=0
num_leaves=14
num_cat=0
split_feature=13 2 15 2 9 2 15 2 15 14 11 14 12
split_gain=43.1891 19.1352 27.7555 20.8299 13.5772 13.414 12.9815 9.0858 8.78988 15.5641 7.92758 6.43305 5.59055
threshold=-0.37940952255126015 1.0100381625333896 0.94690253760792154 1.0603329629396279 32.642158338244009 1.0085059078246201 1.2962215673220479 0.98383239964070124 0.94067660679942477 46.688061402246838 2.1056245627635204 74.281064588839129 -0.37940952255126059
decision_type=2 2 2 2 2 2 2 2 2 2 2 2 2
left_child=5 2 12 4 -3 8 10 -4 -1 -10 -7 -5 -2
right_child=1 3 7 11 -6 6 -8 -9 9 -11 -12 -13 -14
leaf_value=-0.34114108655637848 -0.35041176326358087 -0.34121745213552196 -0.35252834497534197 -0.36013715713039174 -0.3493012119714784 -0.33735777447520965 -0.35042734319084218 -0.35945991398293309 -0.35503927053894163 -0.34503670674546683 -0.34877743146758139 -0.34887491082068872 -0.34251639060643424
leaf_weight=61.364814609289169 47.054442822933197 140.67823112010956 175.84778890013695 56.998938471078873 163.23525783419609 172.69465613365173 37.837593197822571 225.08516979217529 104.5384786427021 135.82725763320923 36.867398500442505 47.054442822933197 71.551858931779861
leaf_count=253 194 580 725 235 673 712 156 928 431 560 152 194 295
internal_value=-0.348919 -0.351585 -0.354119 -0.348478 -0.345692 -0.344539 -0.341087 -0.356651 -0.347644 -0.349181 -0.339122 -0.355832 -0.346074
internal_weight=1476.64 927.506 519.539 407.967 303.913 549.13 247.4 400.933 301.731 240.366 209.562 104.053 118.606
internal_count=6088 3824 2142 1682 1253 2264 1020 1653 1244 991 864 429 489
is_linear=0
shrinkage=1


Tree=1
num_leaves=15
num_cat=0
split_feature=6 13 2 11 2 2 2 10 4 1 5 5 0 8
split_gain=48.2916 30.5219 23.791 16.3364 10.0809 18.681 7.89402 7.53009 6.32113 3.58395 7.31621 5.47716 1.73558 1.64423
threshold=0.0061599329755271043 -0.37940952255126015 0.99039706872761923 0.53105202294548659 1.0055316508957441 0.96677790349246762 0.98188899104065286 -0.0019144012779436779 42.794204774639496 1.0137438449518372 48.390169109072424 84.03233288620622 1.00038754110816 0.43586550021855824
decision_type=2 2 2 2 2 2 2 2 2 2 2 2 2 2
left_child=2 9 6 12 5 -3 13 -6 -5 10 -2 -11 -4 -1
right_child=1 4 3 8 7 -7 -8 -9 -10 11 -12 -13 -14 -15
leaf_value=0.0046444484987586097 0.00027231974890360475 -0.00059604943986419354 -0.0014945056237906321 0.0080121866680029873 0.0025192550033629568 -0.010634779143439797 -0.0072399681574837147 -0.0038808582325042468 0.017444399615837498 -0.0061173005609720214 0.0077253408519434722 0.0037466759078510865 0.003399783059791499 0
leaf_weight=41.717805340886116 134.70030979812145 131.43528610467911 49.249841317534447 197.77994851768017 91.926193803548813 219.50060874223709 53.56408628821373 226.9907938092947 59.193362236022949 37.39679728448391 106.53177297115326 39.074156954884529 45.369585573673248 38.809022605419159
leaf_count=172 555 542 203 815 379 906 221 936 244 154 439 161 187 160
internal_value=0.000219305 -0.00227648 0.00538783 0.00811765 -0.00471951 -0.00710475 -0.00137301 -0.00184041 0.0107054 0.00268185 0.0038974 -0.000420056 0.000302842 0.0020231
internal_weight=1473.24 987.556 485.684 351.593 669.853 350.936 134.091 318.917 256.973 317.703 241.232 76.471 94.6194 80.5268
internal_count=6074 4072 2002 1449 2763 1448 553 1315 1059 1309 994 315 390 332
is_linear=0
shrinkage=0.02


Tree=2
num_leaves=12
num_cat=0
split_feature=7 0 15 11 15 11 15 9 9 0 1
split_gain=39.4899 20.1489 24.976 20.6829 19.2454 20.9095 12.1717 7.74379 6.88882 5.48101 4.76704
threshold=0.041846681474121496 0.99172668709698475 0.94324524155108491 0.26366139902903779 0.94901706161095101 1.0542258935824746 1.0616508512916178 65.49192571272421 35.371055819631934 0.99886001722710727 0.98558991269316076
decision_type=2 2 2 2 2 2 2 2 2 2 2
left_child=1 10 8 -4 9 7 -7 -6 -3 -2 -1
right_child=4 2 3 -5 5 6 -8 -9 -10 -11 -12
leaf_value=-0.00085830943092741812 0.0078542108508408807 0.017650275144871087 -0.010431199951958363 0.0023059519903573726 -0.012988831731107433 -0.0076142416784754806 0.006190495091333144 -0.0011012688273454962 0.0049309497518592758 -0.0015128412764631729 -0.011193122966805965
leaf_weight=51.889478459954262 39.065867617726326 48.068031802773476 47.974863499403 862.46145805716515 176.13575138151646 40.732209414243698 52.858859583735466 39.01838743686676 59.713859617710114 36.395470455288887 44.372695848345757
leaf_count=214 161 198 198 3555 727 168 218 161 246 150 183
internal_value=-4.37228e-05 0.00182409 0.00270079 0.00151593 -0.00556974 -0.0078129 0 -0.0111795 0.0116665 0.00277746 -0.00653219
internal_weight=1498.69 1114.48 1018.22 910.436 384.207 308.745 93.5911 215.154 107.782 75.4613 96.2622
internal_count=6179 4594 4197 3753 1585 1274 386 888 444 311 397
is_linear=0
shrinkage=0.02


Tree=3
num_leaves=15
num_cat=0
split_feature=6 15 13 5 11 15 5 7 1 7 15 3 11 6
split_gain=58.9904 32.6561 22.6694 21.5598 14.7634 14.742 10.967 19.0182 9.87503 17.5904 5.61821 5.01864 4.30204 0.9323
threshold=0.0061599329755271043 0.94778531194898841 -0.37940952255126015 65.228712582045702 0.57384637419825835 1.1001474322006219 40.981815110380339 0.037860424046700397 1.00041002739061 0.018901315197487386 1.1208094362860894 31.226484250706012 0.64426817812110426 0.0045246544290763304
decision_type=2 2 2 2 2 2 2 2 2 2 2 2 2 2
left_child=3 6 10 8 -5 -4 11 -8 9 -1 -3 -2 -10 -6
right_child=1 2 5 4 13 -7 7 -9 12 -11 -12 -13 -14 -15
leaf_value=0.008587496967570581 0.0045468676586151811 -0.0015076384564934417 -0.0087770395023855381 0.00067813148633036487 0.0086453457112630177 -0.0014853441028351395 0.019172512819744331 0 -0.0056455006913814559 -0.0038389292936919519 0.00449655956335964 -0.0050359505031294573 0.0012324646863044475 0.018422132355469124
leaf_weight=150.34349149465561 38.617381751537323 166.75551064312458 387.97214066982269 49.267036378383636 55.396397069096565 187.91625189781189 40.104488581418991 44.176614597439766 59.933476090431213 53.393071129918098 88.855121091008186 38.599192678928375 56.141385227441788 68.354484379291534
leaf_count=619 159 687 1603 203 228 776 165 182 247 220 366 159 231 281
internal_value=6.04343e-05 -0.00270423 -0.00434262 0.00572267 0.011405 -0.00653427 0.00524803 0.0100248 0.00233556 0.00502952 0.000395532 0 -0.00190979 0.0150173
internal_weight=1485.83 992.997 831.499 492.829 173.018 575.888 161.498 84.2811 319.811 203.737 255.611 77.2166 116.075 123.751
internal_count=6126 4097 3432 2029 712 2379 665 347 1317 839 1053 318 478 509
is_linear=0
shrinkage=0.02


Tree=4
num_leaves=14
num_cat=0
split_feature=6 2 2 9 2 2 7 5 14 9 14 14 14
split_gain=51.4039 20.6612 20.998 20.2597 14.1274 21.7145 14.321 11.5035 8.1968 17.9593 17.7796 7.4189 5.75876
threshold=0.0061599329755271043 0.99118418878990033 1.0550130001124403 37.434037298999677 1.0085059078246201 0.96533082963493422 0.039331446170313221 37.27071263288817 74.281064588839129 42.205870050995159 50.086766089022611 46.281130903300379 39.1977992577335
decision_type=2 2 2 2 2 2 2 2 2 2 2 2 2
left_child=1 3 7 11 5 12 -7 -3 10 -10 -6 -1 -2
right_child=4 2 -4 -5 8 6 -8 -9 9 -11 -12 -13 -14
leaf_value=0.0089070235427681065 -0.0037438124269607658 0.0026666648695770475 -0.0045909117699741648 -0.011112490853791049 0.0041462425382137302 -0.0041080701442299918 -0.013193338279965428 0.012231576669717907 -0.00067810344430113256 0.014282439031662972 -0.0051769012651567883 -0.0011234158321524585 0.0030709189625857986
leaf_weight=53.196950986981392 71.599764198064804 92.136021748185158 38.423120468854904 47.558853253722191 121.26282072067261 226.36402834951878 126.36338986456394 218.28575140237808 79.066886052489281 41.944005623459816 211.004140868783 39.546508461236954 127.24559645354748
leaf_count=219 295 379 158 196 500 935 523 897 326 173 871 163 525
internal_value=0 0.00529209 0.00788711 -0.000796563 -0.00258007 -0.004715 -0.00766947 0.00967012 0 0.00439223 -0.00158544 0.00417744 0.000291105
internal_weight=1494 489.147 348.845 140.302 1004.85 551.573 352.727 310.422 453.278 121.011 332.267 92.7435 198.845
internal_count=6160 2012 1434 578 4148 2278 1458 1276 1870 499 1371 382 820
is_linear=0
shrinkage=0.02


Tree=5
num_leaves=15
num_cat=0
split_feature=6 2 12 7 6 7 2 14 14 9 2 11 14 8
split_gain=36.268 24.3581 22.9108 18.3073 17.1635 16.2323 19.5187 11.24 25.5006 22.1623 9.47035 8.39882 5.28928 1.43483
threshold=0.0060185019935393219 0.9906806129986957 -0.25881904510252113 0.013281532860246897 0.0073579801618409652 0.011586481829440338 1.0293135951778563 60.418037096316567 49.757380635812758 50.704392284840765 1.0137900623615612 2.0060015494414869 63.039597302105797 0.45098796149665854
decision_type=2 2 2 2 2 2 2 2 2 2 2 2 2 2
left_child=1 3 4 -1 12 10 -7 8 -4 -9 -3 -6 -2 -5
right_child=2 5 7 13 11 6 -8 9 -10 -11 -12 -13 -14 -15
leaf_value=0.0048800950584283517 0.0039112367554421205 -0.0059050718820081605 0.0015236248515738927 -0.0032400279884414545 -0.0094730072175655596 0.014182176310037008 0.00075630085766328751 0 -0.0091194322302848557 0.015170964939207667 0.0055962211130895839 0 -0.004493932728556165 -0.012892183134912012
leaf_weight=57.761781603097916 72.705930799245834 45.986057937145233 263.93311913311481 38.082182973623276 287.24067786335945 148.86992056667805 74.785302311182022 137.57113446295261 126.22600954771042 47.240474015474319 59.189337968826294 50.889641717076302 41.419219329953194 36.885116457939148
leaf_count=238 300 189 1089 157 1187 611 307 568 522 195 243 210 171 152
internal_value=-0.000449177 0.00413109 -0.00257538 -0.00271035 -0.00591731 0.00707153 0.01007 0 -0.00183965 0.00407933 0 -0.00816321 0.000296507 -0.00924851
internal_weight=1488.79 461.56 1027.23 132.729 452.255 328.831 223.655 574.971 390.159 184.812 105.175 338.13 114.125 74.9673
internal_count=6139 1897 4242 547 1868 1350 918 2374 1611 763 432 1397 471 309
is_linear=0
shrinkage=0.02


Tree=6
num_leaves=15
num_cat=0
split_feature=6 14 15 14 13 9 14 14 14 5 9 14 6 14
split_gain=43.4217 31.6966 25.757 22.9787 19.8214 19.7913 17.9871 14.3499 11.4744 28.6096 17.7024 8.61311 8.02325 3.37852
threshold=0.0061850939851500093 55.177691937940011 0.94778531194898841 65.251884606708202 -0.37940952255126015 26.672204470724385 68.689292895597092 69.976961921672043 38.239745879351908 41.897474604995629 40.773440139676119 55.177691937940011 0.0044757762358181531 44.164556055332518
decision_type=2 2 2 2 2 2 2 2 2 2 2 2 2 2
left_child=1 5 8 -3 11 13 -5 -6 10 -10 -2 -4 -7 -1
right_child=2 3 4 6 7 12 -8 -9 9 -11 -12 -13 -14 -15
leaf_value=0.012470744695992511 0.0091086101065228336 0.019633255258265619 -0.0020430165328855694 -0.0052916188863328115 -0.0069321362831549181 -0.007499892316036664 0.009386530776744487 7.1152001359151736e-05 0 0.021981050204261558 -0.0085128313784639236 0.0050768263352662978 0.00038957680240043617 0.0021216552810608452
leaf_weight=42.130959883332253 39.100553423166275 78.989920631051064 122.67453481256962 36.534747421741486 441.46308319270611 83.39558807015419 117.41902452707291 135.78229470551014 42.470328584313393 38.175077244639397 42.221929803490639 126.21842421591282 91.446281224489212 44.04854641854763
leaf_count=173 161 324 506 150 1829 343 482 561 175 157 174 520 376 181
internal_value=0.000701316 0.00554094 -0.00167337 0.0108358 -0.00315181 0.000475293 0.00546891 -0.00519528 0.00537687 0.0104858 0 0.00136015 -0.00314378 0.00824552
internal_weight=1482.07 493.965 988.106 232.944 826.138 261.021 153.954 577.245 161.968 80.6454 81.3225 248.893 174.842 86.1795
internal_count=6112 2029 4083 956 3416 1073 632 2390 667 332 335 1026 719 354
is_linear=0
shrinkage=0.02


Tree=7
num_leaves=14
num_cat=0
split_feature=6 15 5 1 12 15 1 15 6 3 12 9 8
split_gain=47.4686 34.2149 21.3175 19.3173 16.1763 20.0423 14.648 9.76745 9.53756 9.34965 7.95954 4.86177 0.196804
threshold=0.0061599329755271043 0.94778531194898841 65.228712582045702 1.0043323992947946 -0.5 1.1031296221810913 0.99987552732491192 0.95885601398569642 0.0072590747581587935 49.187624212917044 -0.37940952255126059 26.81036479283215 0.95360134046667977
decision_type=2 2 2 2 2 2 2 2 2 2 2 2 2
left_child=2 6 7 11 8 -6 10 -1 -3 -9 -2 -4 -5
right_child=1 4 3 12 5 -7 -8 9 -10 -11 -12 -13 -14
leaf_value=-0.0059490484429881663 -0.0051569442221837888 0 0.0074943452948851401 0.019835630960085286 -0.0042412503956880884 0.0037527358478449974 0.01353687053869757 0.006651795359285795 -0.0091997152187478937 -0.00049963863860046608 0.0055025451556815321 -0.0011867880187998879 0.0086239402498937134
leaf_weight=41.842446699738503 40.258640721440315 65.336056724190712 37.083930104970932 62.575261473655701 355.12477758526802 181.49903029203415 61.105137199163437 159.73215353488922 238.21604155004025 104.41738104820251 62.191549092531204 41.120466023683548 38.132649391889572
leaf_count=172 166 270 152 256 1470 749 251 656 987 429 256 169 156
internal_value=0.000444848 -0.00199361 0.00558365 0.0110543 -0.00367048 -0.00141703 0.00611778 0.00206574 -0.00737218 0.00364517 0.000710359 0.00241161 0.0167667
internal_weight=1488.64 1003.73 484.904 178.912 840.176 536.624 163.555 305.992 303.552 264.15 102.45 78.2044 100.708
internal_count=6139 4149 1990 733 3476 2219 673 1257 1257 1085 422 321 412
is_linear=0
shrinkage=0.02


Tree=8
num_leaves=13
num_cat=0
split_feature=6 13 14 14 4 9 14 14 14 4 6 1
split_gain=43.1691 24.8352 18.7901 15.7417 17.8989 15.5414 7.94003 7.3231 11.0079 8.32634 5.72062 5.61237
threshold=0.0061399693372721524 -0.37940952255126015 55.177691937940011 75.235547030947359 -11.89523015600693 24.292849631670407 39.1977992577335 69.976961921672043 47.336782868376801 -61.385104312895926 0.0074551941231061668 1.0062118660112802
decision_type=2 2 2 2 2 2 2 2 2 2 2 2
left_child=2 6 5 4 -4 -1 -2 8 -3 -9 -8 -7
right_child=1 7 3 -5 -6 11 10 9 -10 -11 -12 -13
leaf_value=0.0089309344579559958 -0.0036891771275779218 -0.0021836785227582959 0.0037805427332491112 0 0.017864131856054316 -0.0037246941894427377 0 0.0062769016729955045 -0.0083800923159270731 -0.0038328872844930078 0.005935954516336682 0.0040767804556505003
leaf_weight=68.301497980952263 63.582429558038712 255.9853250682354 82.731895506381989 48.10492530465126 93.729924514889717 149.90415638685226 106.86250407993793 44.997192651033401 277.89622807502747 87.619373381137848 163.15619014203548 37.603232890367508
leaf_count=280 262 1059 339 197 383 617 440 186 1154 362 672 154
internal_value=4.16426e-05 -0.00228305 0.00497872 0.00917026 0.011878 0.000963787 0.00202919 -0.00452984 -0.00556821 0 0.00363647 -0.00178324
internal_weight=1480.47 1000.1 480.376 224.567 176.462 255.809 333.601 666.498 533.882 132.617 270.019 187.507
internal_count=6105 4135 1970 919 722 1051 1374 2761 2213 548 1112 771
is_linear=0
shrinkage=0.02


Tree=9
num_leaves=13
num_cat=0
split_feature=6 12 2 9 6 13 4 7 2 0 7 14
split_gain=36.7622 27.235 16.2363 22.4653 13.2861 12.1349 11.8059 18.3071 11.0807 11.0003 7.65884 6.88324
threshold=0.0061399693372721524 1.0000000180025095e-35 0.99039706872761923 31.648242708998037 0.0072590747581587935 -0.37940952255126015 -171.75528642791571 0.074275655806307336 1.0550130001124403 1.0010496975015368 0.012958486599637116 63.039597302105797
decision_type=2 2 2 2 2 2 2 2 2 2 2 2
left_child=2 4 3 10 11 -6 -3 -8 9 -4 -1 -2
right_child=1 6 8 -5 5 -7 7 -9 -10 -11 -12 -13
leaf_value=0.011953486709699796 0.0043855851781669855 0.010105210661223607 0.0040119240571799128 -0.0093611540664816067 -0.00047779210231068298 -0.0089715898744774595 0.0013792887877989973 -0.012549728997507142 -0.0019619958618786975 0.012552032733974651 0 -0.0053574523665999921
leaf_weight=36.561875000596046 71.234062284231186 47.428044363856316 171.0929206609726 66.094253197312355 105.78711450099945 310.46135137975216 388.97651825845242 36.736429676413536 38.288973778486252 134.11069513857365 36.728931620717049 40.156102582812309
leaf_count=150 294 196 701 273 436 1289 1607 152 157 547 151 166
internal_value=-3.1684e-06 -0.00222841 0.00446131 -0.000907895 -0.00535206 -0.00698667 0.00114908 0 0.00679401 0.00809982 0.00605994 0.000278454
internal_weight=1483.66 1000.78 482.878 139.385 527.639 416.248 473.141 425.713 343.493 305.204 73.2908 111.39
internal_count=6119 4140 1979 574 2185 1725 1955 1759 1405 1248 301 460
is_linear=0
shrinkage=0.02


Tree=10
num_leaves=12
num_cat=0
split_feature=6 14 14 14 7 10 11 14 7 14 2
split_gain=49.4245 21.5108 20.9495 12.8881 11.9022 13.2593 10.4621 9.20508 8.5016 5.20708 4.28434
threshold=0.0061399693372721524 55.177691937940011 65.251884606708202 84.564692298616947 0.041242540764040943 -0.0035042114061525904 0.75440624201755313 45.940002809208899 0.029703627906571734 69.900464266440821 0.98779622612614704
decision_type=2 2 2 2 2 2 2 2 2 2 2
left_child=1 6 -3 4 8 -6 7 -1 -2 -4 -8
right_child=3 2 9 -5 5 -7 10 -9 -10 -11 -12
leaf_value=0.00079492140668851726 -0.0034488280051209901 0.01750428484202099 0 0.0074276688551483793 0.00032661515979301502 -0.0080360586906496317 0 -0.0094825286466437095 0.0012677691995678193 0.0069171004124398425 0.0077145046103757687
leaf_weight=68.608450800180435 332.24752378463745 81.721817582845688 54.756713688373566 39.534043073654175 83.10264964401722 293.74569733440876 55.367375180125237 50.105406507849693 252.23376473784447 91.963505044579506 73.817610248923302
leaf_count=282 1374 333 224 163 344 1218 228 206 1043 376 302
internal_value=-0.000181734 0.00504592 0.0094276 -0.0027421 -0.00325868 -0.00605466 0.000664329 -0.00326581 -0.0013181 0.00410489 0.00471017
internal_weight=1477.2 476.341 228.442 1000.86 961.33 376.848 247.899 118.714 584.481 146.72 129.185
internal_count=6093 1951 933 4142 3979 1562 1018 488 2417 600 530
is_linear=0
shrinkage=0.02


Tree=11
num_leaves=12
num_cat=0
split_feature=6 2 7 13 11 1 2 2 2 9 7
split_gain=36.3415 30.7272 14.7605 14.0285 12.1731 8.5522 7.80706 13.6724 8.45065 6.36229 6.3539
threshold=0.0060185019935393219 0.99039706872761923 0.013281532860246897 -0.37940952255126015 0.46079711825623448 1.0046814100522101 1.0149720861549272 0.96677790349246762 1.0255531289955162 60.511915659695873 0.042910155945261132
decision_type=2 2 2 2 2 2 2 2 2 2 2
left_child=1 2 -1 9 -3 -6 7 -5 -8 10 -2
right_child=3 4 -4 6 5 -7 8 -9 -10 -11 -12
leaf_value=0.0034667103895645291 0.0018257971083494324 0 -0.0093583179708463492 0 0.0063864443300197613 0.015345957598466478 0.0056615857772469016 -0.0079456882844320606 -0.0026706023378124982 0.0076760813179583519 -0.0048261556108133178
leaf_weight=57.152581915259361 214.58885948359966 61.2465490847826 69.069673299789429 140.9763810634613 180.61212502419949 89.749226421117783 55.052116513252258 271.3179437816143 218.6337475925684 47.331781253218651 72.690634816884995
leaf_count=235 883 251 285 584 738 365 228 1129 906 195 300
internal_value=0.000103305 0.00479297 -0.00318317 -0.00195505 0.00800942 0.00980319 -0.00360758 -0.00535718 -0.000707774 0.00125932 0
internal_weight=1478.42 457.83 126.222 1020.59 331.608 270.361 685.98 412.294 273.686 334.611 287.279
internal_count=6099 1874 520 4225 1354 1103 2847 1713 1134 1378 1183
is_linear=0
shrinkage=0.02


end of trees

feature_importances:
rsi_14_1d=27
ma_200_ratio=22
atr_14_pct=16
ma_50_1d_ratio=13
bb_width=12
adx_14=12
volume_ratio=9
ma_30_ratio=7
stoch_k=7
hour_cos=7
hour_sin=5
ma_10_ratio=4
macd_hist=4
bb_position=3
rsi_14=2
return_1=2

parameters:
[boosting: gbdt]
[objective: binary]
[metric: binary_logloss]
[tree_learner: serial]
[device_type: cpu]
[data_sample_strategy: bagging]
[data: ]
[valid: ]
[num_iterations: 200]
[learning_rate: 0.02]
[num_leaves: 15]
[num_threads: 12]
[seed: 42]
[deterministic: 1]
[force_col_wise: 0]
[force_row_wise: 0]
[histogram_pool_size: -1]
[max_depth: 4]
[min_data_in_leaf: 150]
[min_sum_hessian_in_leaf: 0.001]
[bagging_fraction: 0.7]
[pos_bagging_fraction: 1]
[neg_bagging_fraction: 1]
[bagging_freq: 1]
[bagging_seed: 400]
[bagging_by_query: 0]
[feature_fraction: 0.6]
[feature_fraction_bynode: 1]
[feature_fraction_seed: 30056]
[extra_trees: 0]
[extra_seed: 12879]
[early_stopping_round: 0]
[early_stopping_min_delta: 0]
[first_metric_only: 0]
[max_delta_step: 0]
[lambda_l1: 3]
[lambda_l2: 5]
[linear_lambda: 0]
[min_gain_to_split: 0]
[drop_rate: 0.1]
[max_drop: 50]
[skip_drop: 0.5]
[xgboost_dart_mode: 0]
[uniform_drop: 0]
[drop_seed: 17869]
[top_rate: 0.2]
[other_rate: 0.1]
[min_data_per_group: 100]
[max_cat_threshold: 32]
[cat_l2: 10]
[cat_smooth: 10]
[max_cat_to_onehot: 4]
[top_k: 20]
[monotone_constraints: ]
[monotone_constraints_method: basic]
[monotone_penalty: 0]
[feature_contri: ]
[forcedsplits_filename: ]
[refit_decay_rate: 0.9]
[cegb_tradeoff: 1]
[cegb_penalty_split: 0]
[cegb_penalty_feature_lazy: ]
[cegb_penalty_feature_coupled: ]
[path_smooth: 0]
[interaction_constraints: ]
[verbosity: -1]
[saved_feature_importance_type: 0]
[use_quantized_grad: 0]
[num_grad_quant_bins: 4]
[quant_train_renew_leaf: 0]
[stochastic_rounding: 1]
[linear_tree: 0]
[max_bin: 255]
[max_bin_by_feature: ]
[min_data_in_bin: 3]
[bin_construct_sample_cnt: 200000]
[data_random_seed: 175]
[is_enable_sparse: 1]
[enable_bundle: 1]
[use_missing: 1]
[zero_as_missing: 0]
[feature_pre_filter: 1]
[pre_partition: 0]
[two_round: 0]
[header: 0]
[label_column: ]
[weight_column: ]
[group_column: ]
[ignore_column: ]
[categorical_feature: ]
[forcedbins_filename: ]
[precise_float_parser: 0]
[parser_config_file: ]
[objective_seed: 16083]
[num_class: 1]
[is_unbalance: 0]
[scale_pos_weight: 1]
[sigmoid: 1]
[boost_from_average: 1]
[reg_sqrt: 0]
[alpha: 0.9]
[fair_c: 1]
[poisson_max_delta_step: 0.7]
[tweedie_variance_power: 1.5]
[lambdarank_truncation_level: 30]
[lambdarank_norm: 1]
[label_gain: ]
[lambdarank_position_bias_regularization: 0]
[eval_at: ]
[multi_error_top_k: 1]
[auc_mu_weights: ]
[num_machines: 1]
[local_listen_port: 12400]
[time_out: 120]
[machine_list_filename: ]
[machines: ]
[gpu_platform_id: -1]
[gpu_device_id: -1]
[gpu_use_dp: 0]
[num_gpu: 1]

end of parameters

pandas_categorical:[]
