tree
version=v4
num_class=1
num_tree_per_iteration=1
label_index=0
max_feature_idx=17
objective=binary sigmoid:1
feature_names=ma_10_ratio ma_30_ratio ma_200_ratio rsi_14 macd_hist stoch_k atr_14_pct bb_width bb_position adx_14 return_1 volume_ratio hour_sin hour_cos rsi_14_1d ma_50_1d_ratio vol_ratio_7_30 return_skew_20
feature_infos=[0.9282785459340519:1.0779576195787481] [0.87875853586900654:1.0923856869432083] [0.7795100955013029:1.1856964932129814] [1.716112919094499:98.295538757966085] [-953.00223272314952:885.64154068106438] [0:100] [0.0012163816621198861:0.038271628713109629] [0.0023771303773671378:0.22734246689125856] [-0.48224355447518846:1.497140965354931] [4.7421618308105336:98.937580500733787] [-0.049101442053134936:0.050906205506907165] [0.077393029546948669:10.590528582247845] [-1:1] [-1:1] [15.194615971692215:90.923160103372496] [0.79347929821036078:1.4331232090152759] [0.28474336503425013:2.7839740274208058] [-3.8444836258086332:3.7759436419761463]
tree_sizes=1709 1717 1420 1437 990 1203 985 1624 1315 1723 1209 1219 1424 1746 1658 1067 1516 1427 1525 1419 1763 1224 1109 1302 1760 1407 1538 1339 1075 1105 769 1637 1327 1736 1729 1212 1760 1438 1227 1596 1701 1654 1718 1103 1487 1335 1767 1540 1227 1088 899 1631 1728 1745 1324 1289 1530 1233 1204 1303 1745 1332 1089 1648 906 1752 1412

Tree=0
num_leaves=15
num_cat=0
split_feature=13 2 9 2 9 15 2 15 14 14 1 14 15 15
split_gain=44.1232 17.0905 11.8359 23.346 21.8627 15.2288 17.2532 11.0506 23.161 9.46269 9.2307 7.64362 7.06023 5.16487
threshold=-0.37940952255126015 1.008637485421217 24.033156775228075 1.0282618942853794 15.453712110028405 0.92526886608028092 0.99124566554366089 0.94819517047872925 48.866576377656138 37.353166857556779 1.0138584316317705 38.275117770290372 1.0885292656240297 1.0354776260571066
decision_type=2 2 2 2 2 2 2 2 2 2 2 2 2 2
left_child=1 7 3 4 -2 9 -7 11 -9 -4 13 -1 -12 -3
right_child=2 10 5 -5 -6 6 -8 8 -10 -11 12 -13 -14 -15
leaf_value=-0.36495140666674697 -0.37593598473122875 -0.36164587737238268 -0.36581107303646537 -0.35548580028820154 -0.36374711122564146 -0.37279730025119928 -0.36722611103782327 -0.37153342618466628 -0.36186180386086164 -0.35507601325431642 -0.3594199426935839 -0.35419659658119634 -0.36985443679419494 -0.35487857122725108
leaf_weight=68.681808114051819 75.936928689479828 112.69620627164841 66.98894664645195 86.094097495079041 193.95355671644211 353.32437202334404 712.21100315451622 170.49533352255821 218.1372919678688 44.981747567653656 46.916446387767792 57.315452545881271 44.256235510110855 192.50253260135651
leaf_count=284 314 466 277 356 802 1461 2945 705 902 186 194 237 183 796
internal_value=-0.365367 -0.361868 -0.367411 -0.364349 -0.367088 -0.368388 -0.369155 -0.364429 -0.365976 -0.361754 -0.358745 -0.35936 -0.365077 -0.357083
internal_weight=2444.49 911.001 1533.49 355.985 269.89 1177.51 1065.54 514.63 388.633 111.971 396.371 125.997 91.1727 305.199
internal_count=10108 3767 6341 1472 1116 4869 4406 2128 1607 463 1639 521 377 1262
is_linear=0
shrinkage=1


Tree=1
num_leaves=15
num_cat=0
split_feature=6 15 2 17 2 1 4 17 2 7 4 15 15 9
split_gain=81.5637 44.4751 41.6155 25.0121 22.4861 12.7429 19.9631 12.4322 11.1638 10.3184 10.6968 8.21087 50.8923 10.9161
threshold=0.0061442787609098087 0.94943761343769273 1.0072801861502525 -1.0514316210468901 1.0076134392572216 1.0039544092014741 31.396496217902669 -0.22739387120255095 0.99045185207772768 0.035801612355806138 -21.707812556148458 1.0097972586522956 1.0271195264343911 25.129769209375063
decision_type=2 2 2 2 2 2 2 2 2 2 2 2 2 2
left_child=4 9 3 -3 5 6 -1 -4 -7 10 -2 13 -13 -6
right_child=1 2 7 -5 11 8 -8 -9 -10 -11 -12 12 -14 -15
leaf_value=0.0023424923819126589 0 -0.017413665454186555 0.0030002820384308075 -0.006387975756329255 0.0013457696377748051 0 -0.0066789068126466211 -0.0033084632754886629 0.011734047248871693 0.00037269562884373385 0.013265380114024733 -0.0092774609960965069 0.0086894180436938081 0.016241518596861969
leaf_weight=341.1289639621973 37.737268075346947 121.07571913301945 172.48150983452797 378.70863918960094 38.95151498913765 40.117651596665382 131.51085574924946 378.53414823114872 71.085820138454437 185.5317889302969 63.874794214963913 70.142922550439835 333.98405380547047 80.551672488451004
leaf_count=1411 156 501 713 1567 161 166 544 1565 294 767 264 290 1380 333
internal_value=6.29349e-05 -0.00322996 -0.00515531 -0.00932391 0.00409167 0.00124786 -8.57107e-05 -0.00121654 0.00719199 0.00357811 0.00857606 0.00710719 0.00534905 0.0121173
internal_weight=2445.42 1337.94 1050.8 499.784 1107.47 583.843 472.64 551.016 111.203 287.144 101.612 523.63 404.127 119.503
internal_count=10112 5533 4346 2068 4579 2415 1955 2278 460 1187 420 2164 1670 494
is_linear=0
shrinkage=0.02


Tree=2
num_leaves=12
num_cat=0
split_feature=11 1 16 16 2 13 11 2 4 2 1
split_gain=57.4556 29.3936 43.745 31.8125 23.2847 21.2287 14.3093 11.2732 8.88465 5.29307 4.81587
threshold=0.30600691297018734 1.0135982952467677 0.97369072116079558 1.0919009429758886 1.0131320941596094 -0.5 0.79015074831961052 1.0076134392572216 232.61483784098453 1.0289419575045828 1.0018344858615726
decision_type=2 2 2 2 2 2 2 2 2 2 2
left_child=7 2 4 5 -2 -3 -4 10 -5 -9 -1
right_child=1 3 6 8 -6 -7 -8 9 -10 -11 -12
leaf_value=-0.017123654769028621 0.0022663224180693039 -0.00061413223091055791 -0.0043689127816819448 0.0050481783995798765 0.0088424014141776971 -0.015219698816982917 0.0006315411501879864 0.0009076258164040506 -0.0044394885642416214 -0.0076427460531326499 -0.0044945986089676513
leaf_weight=83.298335790634155 608.23475892841816 74.01371406018734 347.55954509973526 113.41687074303627 366.42402918636799 113.61218650639057 606.0474645793438 38.944456681609154 49.063671097159386 47.901830762624741 36.242057055234909
leaf_count=345 2516 306 1438 469 1513 470 2506 161 203 198 150
internal_value=-3.94059e-05 0.000859989 0.00185162 -0.00438176 0.00483236 -0.00993515 -0.00114166 -0.0100375 0.00177796 -0.00331456 -0.0141107
internal_weight=2484.76 2278.37 1928.27 350.106 974.659 187.626 953.607 206.387 162.481 86.8463 119.54
internal_count=10275 9421 7973 1448 4029 776 3944 854 672 359 495
is_linear=0
shrinkage=0.02


Tree=3
num_leaves=12
num_cat=0
split_feature=11 7 13 11 15 2 9 13 3 7 3
split_gain=53.5507 30.1912 25.385 21.3992 18.0493 13.6453 9.8356 9.2616 5.9987 5.71437 1.9495
threshold=0.30600691297018734 0.025871895167339228 -0.78656609248549325 0.64358895310307174 0.94943761343769273 1.0082930841426849 16.29259350034533 0.60355339059327384 62.80002868586385 0.0077117948595580629 55.221262903812672
decision_type=2 2 2 2 2 2 2 2 2 2 2
left_child=5 3 8 6 -4 10 -2 -7 -3 -5 -1
right_child=1 2 4 9 -6 7 -8 -9 -10 -11 -12
leaf_value=-0.016933997732007201 -0.0081752508971366794 0.0012182493916876988 0.0017947013070327656 0.010815994316534362 -0.0048564340662188834 0.003140123099446137 0.00046815839462223375 -0.0088504149703655163 0.0090685215314123407 0.0041379691438682758 -0.0059487315005935758
leaf_weight=78.490341126918793 55.171268239617348 123.88912473618984 200.30542802810669 68.025365427136421 638.33294412493706 40.630279645323753 355.73291796445847 44.221912041306496 74.292336225509644 757.97591663897038 37.140047788619995
leaf_count=326 228 512 828 281 2643 168 1470 183 307 3131 154
internal_value=-1.31638e-05 0.000844428 -0.00163153 0.00296639 -0.00319549 -0.00981521 -0.000632442 -0.00258591 0.00460713 0.00482191 -0.0142958
internal_weight=2474.21 2273.73 1036.82 1236.91 838.638 200.483 410.904 84.8522 198.181 826.001 115.63
internal_count=10231 9400 4290 5110 3471 831 1698 351 819 3412 480
is_linear=0
shrinkage=0.02


Tree=4
num_leaves=8
num_cat=0
split_feature=17 4 12 0 0 17 14
split_gain=50.1043 23.686 18.7015 27.4601 15.288 2.82635 1.73231
threshold=-1.7742196309207567 274.49913368286258 -0.25881904510252113 1.0029093447849182 0.99070847322369371 -2.1127792203735196 49.600255636905295
decision_type=2 2 2 2 2 2 2
left_child=5 2 4 -4 -2 -1 -3
right_child=1 6 3 -5 -6 -7 -8
leaf_value=-0.018343689950365817 -0.0079655196992591479 -0.013606739753083233 0.00077205509341619015 0.0071553858255381918 0 -0.0061811385783799959 -0.0034935776032586491
leaf_weight=49.165143623948097 106.05087558925152 38.140394330024719 976.98382799327374 382.93008947372437 838.32658211886883 40.307529181241989 38.347353503108025
leaf_count=204 439 158 4039 1583 3466 167 159
internal_value=0.000138069 0.000727392 0.00112322 0.00263309 -0.000990229 -0.0141167 -0.00979825
internal_weight=2470.25 2380.78 2304.29 1359.91 944.377 89.4727 76.4877
internal_count=10215 9844 9527 5622 3905 371 317
is_linear=0
shrinkage=0.02


Tree=5
num_leaves=10
num_cat=0
split_feature=17 11 7 0 3 2 2 11 3
split_gain=39.6319 33.4969 17.3571 22.8547 20.8457 9.0598 15.6935 4.72864 3.63307
threshold=-1.7742196309207567 0.38532902253615686 0.041712897338912688 0.98484006917302402 70.35336778908453 1.0089930611524276 1.0571182132698607 0.25869380565648653 40.97510974869968
decision_type=2 2 2 2 2 2 2 2 2
left_child=8 5 4 -4 -3 7 -7 -2 -1
right_child=1 2 3 -5 -6 6 -8 -9 -10
leaf_value=-0.017154442392122844 -0.013402528085704602 0.0011386607896824827 0.0089786635437913691 -0.00475125461184513 0.0088398998805359185 0.0020035199178127377 -0.011397444611398907 -0.0052457970095827556 -0.0046574912105756252
leaf_weight=53.123468801379204 63.218686804175377 1452.7405518889427 49.493468716740608 332.99963676929474 155.76652391254902 119.49067012965679 41.799691051244736 151.45228807628155 36.106841564178467
leaf_count=221 263 6001 205 1379 643 494 173 628 150
internal_value=-0.000529475 0 0.00101422 -0.00272687 0.00194671 -0.00545724 -0.00134691 -0.0081714 -0.0132498
internal_weight=2456.19 2366.96 1991 382.493 1608.51 375.961 161.29 214.671 89.2303
internal_count=10157 9786 8228 1584 6644 1558 667 891 371
is_linear=0
shrinkage=0.02


Tree=6
num_leaves=8
num_cat=0
split_feature=11 17 7 3 11 16 8
split_gain=51.4213 33.162 23.7869 20.1094 16.4527 16.3895 12.2939
threshold=0.25869380565648653 -1.5886678843576354 0.042038340645747567 70.35336778908453 0.97604268375515157 0.99141758681777314 0.59277041313434542
decision_type=2 2 2 2 2 2 2
left_child=6 5 3 -3 -4 -2 -1
right_child=1 2 4 -5 -6 -7 -8
leaf_value=-0.016725685398281544 0 0.0020152116120792565 -0.0052042095733802743 0.0094679938903451805 0.0025375443037824914 -0.016397437069389058 -0.0017895241109089979
leaf_weight=76.065895408391953 42.618093088269234 1632.6812447160482 289.6332491338253 161.78907185792923 159.38030931353569 56.471050664782524 45.53553369641304
leaf_count=317 177 6745 1201 667 660 235 189
internal_value=0.000477114 0.00116904 0.00170036 0.00274494 -0.00232639 -0.00978801 -0.0118981
internal_weight=2464.17 2342.57 2243.48 1794.47 449.014 99.0891 121.601
internal_count=10191 9685 9273 7412 1861 412 506
is_linear=0
shrinkage=0.02


Tree=7
num_leaves=14
num_cat=0
split_feature=6 15 11 15 14 15 14 8 8 14 9 14 15
split_gain=79.8453 42.829 28.2983 23.5745 20.3418 15.6061 15.1418 12.9015 10.2274 10.1542 9.04607 6.55425 3.6405
threshold=0.0061442787609098087 0.94943761343769273 0.361828038583555 1.1185159855027209 77.73596710200674 1.0291969018873359 38.275117770290372 0.56782395088571069 0.27500999324294234 55.113687280872064 27.731968196940375 25.675850806930523 1.0282761512326064
decision_type=2 2 2 2 2 2 2 2 2 2 2 2 2
left_child=2 6 12 9 5 -4 11 -5 -8 -3 -6 -2 -1
right_child=1 3 4 7 10 -7 8 -9 -10 -11 -12 -13 -14
leaf_value=-0.0080408561588971236 0.0056401254443367403 -0.0086648456358379127 0.0036911985151323562 0.004536470573255692 0.0019124964731945344 0.0093190220421182808 0.00047831423659888851 -0.0036432720707664139 0.01273109842057496 -0.0033600537750733679 -0.010071803433618909 -0.0032328160171729643 0
leaf_weight=58.012102991342545 40.345811396837234 465.21411316096783 513.20053002238274 129.25796285271645 39.585903272032738 397.89999823272228 55.842196688055992 175.63403683900833 82.095654502511024 288.72406189143658 40.284345641732216 109.70094096660614 59.163278713822365
leaf_count=241 167 1930 2118 535 163 1640 231 727 339 1196 166 454 245
internal_value=0.000261638 -0.00297928 0.00425016 -0.00486008 0.00537826 0.00625195 0.00369601 0 0.00838074 -0.00674793 -0.00366235 -0.00035506 -0.00462895
internal_weight=2454.96 1346.81 1108.15 1058.83 990.971 911.101 287.985 304.892 137.938 753.938 79.8702 150.047 117.175
internal_count=10152 5579 4573 4388 4087 3758 1191 1262 570 3126 329 621 486
is_linear=0
shrinkage=0.02


Tree=8
num_leaves=11
num_cat=0
split_feature=11 12 4 15 15 15 4 7 16 0
split_gain=36 23.9833 23.6212 16.2006 22.916 19.9905 13.8483 4.64389 2.7619 2.16347
threshold=0.31585643700129734 -0.25881904510252113 -195.10990604862789 1.0354776260571066 0.94819517047872925 1.0447445459725981 115.77932836832191 0.020378212788917476 1.2718246480301696 1.0031560849770955
decision_type=2 2 2 2 2 2 2 2 2 2
left_child=7 2 8 4 -3 -5 -4 -1 -2 -9
right_child=1 3 6 5 -6 -7 -8 9 -10 -11
leaf_value=-0.001358850284674682 -0.0041770824287016683 0.0060356982396042071 0.00063164986782244961 0.017865278815399604 -0.0018448372289702891 0.0037630128029680376 -0.0056818621988982991 -0.011108583156229672 -0.015673824633039166 -0.0027752421027179182
leaf_weight=59.219496324658394 37.898775577545166 203.8043025881052 716.57107330858707 42.620015606284142 488.62472604215145 543.92541390657425 164.69329753518105 118.71030946075916 43.561519235372543 42.262133568525314
leaf_count=246 157 841 2961 176 2020 2245 682 495 181 176
internal_value=0 0.000782148 -0.00155905 0.00259038 0.000415272 0.0050315 -0.000505937 -0.0076054 -0.0115699 -0.00943175
internal_weight=2461.89 2241.7 962.725 1278.97 692.429 586.545 881.264 220.192 81.4603 160.972
internal_count=10180 9263 3981 5282 2861 2421 3643 917 338 671
is_linear=0
shrinkage=0.02


Tree=9
num_leaves=15
num_cat=0
split_feature=6 11 13 2 1 2 6 13 11 2 7 6 1 8
split_gain=73.3086 33.0029 27.4517 20.2857 12.0655 11.2181 9.79219 7.64689 6.93723 6.71085 4.58119 4.02396 4.01694 4.07924
threshold=0.0061442787609098087 0.38152150702572835 -0.37940952255126015 1.0482898550770343 1.0060400296895144 1.0602702781042013 0.0070288286854449005 -0.78656609248549325 0.29619318075381179 0.95488394300582258 0.054977314775608459 0.0079226777893033739 1.0034840844283519 0.44483189121298167
decision_type=2 2 2 2 2 2 2 2 2 2 2 2 2 2
left_child=1 12 6 4 -3 -5 7 -2 11 -10 -8 -4 13 -1
right_child=2 3 8 5 -6 -7 10 -9 9 -11 -12 -13 -14 -15
leaf_value=-0.0013965502402090374 0.0004406157944798833 0.0026247297372370294 -0.0022871270701142789 0.019929042123797428 0.0084211586911909254 0.0030614626959738411 0.0012161627010419311 -0.0085148904525231359 0 -0.0049498104327193159 0.0073504968228623084 -0.013183634290389785 0 -0.011472889117667679
leaf_weight=48.649832561612129 67.317512854933739 689.31654906272888 37.85084630548954 53.770834162831306 203.49929742515087 37.483229905366898 222.33920836448669 57.756766945123672 107.98852641880512 699.11120572686195 75.050664559006691 70.356853052973747 36.726236969232559 46.945666506886482
leaf_count=202 278 2842 158 221 837 154 919 239 448 2898 311 294 152 195
internal_value=2.35145e-05 0.00382235 -0.00310442 0.00511542 0.00405228 0.0141429 0.000988132 -0.00340192 -0.00505366 -0.00423524 0.00305861 -0.0101714 -0.0051933 -0.00726565
internal_weight=2454.16 1116.39 1337.77 984.07 892.816 91.2541 422.464 125.074 915.307 807.1 297.39 108.208 132.322 95.5955
internal_count=10148 4603 5545 4054 3679 375 1747 517 3798 3346 1230 452 549 397
is_linear=0
shrinkage=0.02


Tree=10
num_leaves=10
num_cat=0
split_feature=11 12 7 1 7 0 0 8 1
split_gain=50.7379 33.7118 24.3767 17.4248 16.2035 14.3433 13.9362 11.8211 8.55439
threshold=0.29619318075381179 -0.5 0.028666344972992547 1.0257937463595204 0.042844048565642674 0.99496547085201636 1.0017820713631969 0.40047414604959192 1.0039544092014741
decision_type=2 2 2 2 2 2 2 2 2
left_child=8 2 7 -4 6 -6 -3 -2 -1
right_child=1 4 3 -5 5 -7 -8 -9 -10
leaf_value=-0.013603038737147471 0.0041636058475729102 0.0016211743621657021 -0.0088314053149546722 0.0031573851181187626 0.0046052844569464783 -0.0048448202800188082 0.0062347349597070487 -0.002349894353723841 -0.0031404510743187927
leaf_weight=115.7815113812685 180.365299269557 767.7296390235424 278.69896943867207 47.612690642476082 83.951870575547218 198.64994992315769 442.48819130659103 270.94906969368458 70.604979187250137
leaf_count=485 745 3168 1157 198 348 824 1823 1118 294
internal_value=-0.000231833 0.000575578 -0.00275483 -0.00687975 0.00235389 -0.00179762 0.0033761 0.000138801 -0.0101388
internal_weight=2456.83 2270.45 777.626 326.312 1492.82 282.602 1210.22 451.314 186.386
internal_count=10160 9381 3218 1355 6163 1172 4991 1863 779
is_linear=0
shrinkage=0.02


Tree=11
num_leaves=10
num_cat=0
split_feature=17 7 16 11 3 11 2 9 2
split_gain=47.9042 32.412 18.5664 22.7606 18.0789 17.5354 14.5378 3.13169 1.06787
threshold=-1.7742196309207567 0.041712897338912688 0.92631832443077899 0.38532902253615686 67.80715549772448 0.55806112817298648 0.92911492868522572 44.287742634642704 0.99124566554366089
decision_type=2 2 2 2 2 2 2 2 2
left_child=7 2 3 -2 -4 8 -7 -1 -3
right_child=1 5 4 -5 -6 6 -8 -9 -10
leaf_value=-0.0073444035443876255 -0.0015342208489436324 -0.01114107812454632 -0.0010197718227672953 0.0058025781164355939 0.0067319807040024295 0.010149313855416319 -0.0023078360573425558 -0.01964640831266037 -0.00525379331592183
leaf_weight=54.23871286213398 204.00412875413895 82.928756728768349 822.37113708257675 706.20626717805862 135.62485517561436 37.9432313144207 266.72527912259102 35.796817943453789 109.01009096205235
leaf_count=227 848 346 3398 2908 558 157 1107 150 454
internal_value=0.000245008 0.000826759 0.00205483 0.00409324 4.46046e-05 -0.00364799 -0.00042385 -0.0136431 -0.00832038
internal_weight=2454.85 2364.81 1868.21 910.21 957.996 496.607 304.669 90.0355 191.939
internal_count=10153 9776 7712 3756 3956 2064 1264 377 800
is_linear=0
shrinkage=0.02


Tree=12
num_leaves=12
num_cat=0
split_feature=6 13 16 14 8 6 16 17 16 6 14
split_gain=59.9864 29.8146 14.7762 19.0628 12.5673 10.1744 14.633 9.91835 10.9502 7.64517 5.66109
threshold=0.0060336290387065531 -0.37940952255126015 0.5128096057328605 74.281064588839129 0.6581765992802332 0.0070288286854449005 0.8644925062377028 -1.4585325217840388 1.309682775827989 0.0032064206689232824 60.418037096316567
decision_type=2 2 2 2 2 2 2 2 2 2 2
left_child=2 5 -1 9 -5 6 -2 -3 -9 -4 -7
right_child=1 7 3 4 -6 10 -8 8 -10 -11 -12
leaf_value=-0.0054003562231208268 0.0046130383438820425 -0.012084238787940771 0.0094987108214170599 -0.0076340073478951232 0.005322212285738267 0.001560668892577597 -0.0077898058264738246 -0.0051867325725370615 0 0.0041931648994581808 0.0082299523485338411
leaf_weight=58.119765222072601 54.755428105592728 71.195873200893402 161.57782845199108 78.915537640452385 37.019081294536591 213.69442582130432 86.560603842139244 660.02677856385708 200.89454409480095 728.53786326944828 81.547815650701523
leaf_count=241 226 299 665 325 152 884 358 2741 834 3000 337
internal_value=7.18324e-05 -0.00266814 0.00364794 0.00425413 -0.00295182 0.00153096 -0.00258061 -0.00469649 -0.00395001 0.00527096 0.00370899
internal_weight=2432.85 1368.68 1064.17 1006.05 115.935 436.558 141.316 932.117 860.921 890.116 295.242
internal_count=10062 5679 4383 4142 477 1805 584 3874 3575 3665 1221
is_linear=0
shrinkage=0.02


Tree=13
num_leaves=15
num_cat=0
split_feature=6 15 15 14 2 14 2 2 2 15 14 2 15 9
split_gain=78.7088 39.2328 23.5723 38.0561 23.0946 20.0005 16.5574 14.6858 19.3375 14.4648 12.9533 16.9722 11.191 6.87803
threshold=0.0061182955362698221 0.94819517047872925 1.0291969018873359 61.374151443370941 1.0072801861502525 35.471683090677764 0.94826807661182044 1.0482898550770343 1.0602702781042013 1.0687000112877418 38.275117770290372 0.99620861180171205 1.1361166521028521 46.065009311314697
decision_type=2 2 2 2 2 2 2 2 2 2 2 2 2 2
left_child=2 10 3 5 6 -1 -3 9 -9 -4 13 -12 -6 -2
right_child=1 4 7 -5 12 -7 -8 8 -10 -11 11 -13 -14 -15
leaf_value=0.011270394271154387 0.0028040795555228969 0.0016947277414315982 0.009455545741655089 -0.011917180379691241 -0.0042181573816619305 0.00097372610122474881 -0.0092782192309570233 0.022568674168845667 0.0022174486900254152 0.0016791334135031098 0.012091483187975623 -0.0023322145809949969 0.0013485234835023474 -0.0054491570591496518
leaf_weight=93.407109275460243 85.457452997565269 50.594607502222061 182.55833697319031 72.029655829071999 357.82365910708904 404.46628361940384 460.29395765066147 49.764257162809372 41.145190879702568 249.00107809901237 96.024414569139481 36.86101596057415 215.4414871186018 64.642270103096962
leaf_count=385 354 211 751 297 1484 1667 1918 204 169 1024 397 152 892 268
internal_value=0 -0.00320521 0.00398048 0.00102594 -0.00495436 0.00311767 -0.00806934 0.00704923 0.0145792 0.00517677 0.00325734 0.00771587 -0.00202879 -0.000424513
internal_weight=2459.51 1367.14 1092.37 569.903 1084.15 497.873 510.889 522.469 90.9094 431.559 282.985 132.885 573.265 150.1
internal_count=10173 5676 4497 2349 4505 2052 2129 2148 373 1775 1171 549 2376 622
is_linear=0
shrinkage=0.02


Tree=14
num_leaves=14
num_cat=0
split_feature=6 15 15 11 8 15 5 5 15 12 9 4 6
split_gain=58.5622 38.2681 27.6509 26.2596 21.0374 12.2074 19.4783 11.9477 13.0327 11.7431 11.611 10.5388 8.03318
threshold=0.0061442787609098087 0.94943761343769273 1.1000740749054423 0.79731766327797515 0.56782395088571069 0.86503291052169629 28.233106445181509 66.872595591542989 1.0354776260571066 1.0000000180025095e-35 53.731051058536465 52.240001962433873 0.0095495991647857274
decision_type=2 2 2 2 2 2 2 2 2 2 2 2 2
left_child=3 5 12 10 -4 -2 -7 8 -5 -9 11 -1 -3
right_child=1 2 4 7 -6 6 -8 9 -10 -11 -12 -13 -14
leaf_value=0.0011732305735596565 0.01383560635484969 -0.0049885909102237213 0.0059994088594106931 0.00050707194884630144 -0.0038600107448148843 -0.0060624199195492392 0.0055495238593825848 0.0052130956366982064 0.0085780583073914018 0.015979880745400313 0.0084504057204981605 -0.0055106422106870794 -0.010716540419927504
leaf_weight=384.89931778609753 38.868278786540031 535.09103462100029 148.82281400263309 203.07616820931435 190.47401271760464 75.516093298792839 180.99569982290268 116.02394770085812 149.83876074850559 99.390957146883011 62.347583293914795 117.78979043662548 162.12104384601116
leaf_count=1586 161 2227 617 836 790 313 748 476 615 407 257 486 678
internal_value=0.000443989 -0.00236813 -0.0042025 0.00379728 0.000314595 0.00383184 0.00185103 0.00682468 0.00417341 0.0107028 0.00061383 -0.000313595 -0.00647276
internal_weight=2465.26 1331.89 1036.51 1133.37 339.297 295.38 256.512 568.33 352.915 215.415 565.037 502.689 697.212
internal_count=10197 5534 4312 4663 1407 1222 1061 2334 1451 883 2329 2072 2905
is_linear=0
shrinkage=0.02


Tree=15
num_leaves=9
num_cat=0
split_feature=4 2 15 1 12 15 15 2
split_gain=28.4371 20.4117 23.4109 19.5071 17.6889 12.9339 31.9768 5.90702
threshold=274.49913368286258 1.0082930841426849 0.94819517047872925 0.99799531523104301 -0.5 1.3104050495712656 1.2120626204565059 1.0681020465115616
decision_type=2 2 2 2 2 2 2 2
left_child=1 2 4 -4 -1 6 -3 -7
right_child=-2 5 3 -5 -6 7 -8 -9
leaf_value=-0.0028372512346333 -0.011659578496272572 0.0022175744336760763 -0.0053544606431725084 0.00012401200759975826 0.0066406172938621808 0 0.018812689321394741 -0.0096802162586798208
leaf_weight=108.05689503252506 75.929225876927376 939.95483019948006 537.79282058775425 458.68282610177994 216.83897930383682 38.246793881058693 45.533873409032822 41.034878045320511
leaf_count=447 317 3877 2237 1897 894 158 188 170
internal_value=0 0.000394875 -0.0012338 -0.00278475 0.00331128 0.00246846 0.00313601 -0.00481125
internal_weight=2462.07 2386.14 1321.37 996.476 324.896 1064.77 985.489 79.2817
internal_count=10185 9868 5475 4134 1341 4393 4065 328
is_linear=0
shrinkage=0.02


Tree=16
num_leaves=13
num_cat=0
split_feature=17 12 15 14 15 2 15 1 5 2 14 2
split_gain=36.9208 24.6909 42.6066 22.5577 18.7168 23.8242 18.1647 17.622 8.39747 7.62832 7.01246 6.93378
threshold=-0.87711291257785096 -0.25881904510252113 1.0314770320008455 47.40348050498077 0.94943761343769273 1.0063306536453915 1.0687000112877418 0.99840867076284734 11.172763379279724 1.0236705268296513 38.275117770290372 1.0263195814313064
decision_type=2 2 2 2 2 2 2 2 2 2 2 2
left_child=4 8 3 -3 10 7 -4 -6 -2 -10 -1 -7
right_child=1 2 6 -5 5 11 -8 -9 9 -11 -12 -13
leaf_value=-0.0019773744589623365 0.0057526774793969079 0.0024702406665727812 0.012029306797450946 -0.0054568376039832835 -0.013486208391333717 0.00511506603286136 0.0041593797855557571 0 -0.0032387495991322499 0.00075133014791434693 0.0076603400311640625 -0.004276770737684738
leaf_weight=53.808051928877831 54.842538774013519 355.5270970761776 195.83185689151287 230.49620991945267 187.37535575032234 55.309285834431648 400.85051815211773 46.701578140258789 530.47619745135307 263.02924168109894 46.666426554322243 60.365637317299843
leaf_count=223 227 1469 807 953 785 229 1653 194 2196 1088 193 249
internal_value=0.000122566 0.00129704 0.00317375 -0.000565927 -0.00499994 -0.00720391 0.00692052 -0.0108105 -0.00125229 -0.00184456 0.00208104 0
internal_weight=2481.28 2031.05 1182.71 586.023 450.226 349.752 596.682 234.077 848.348 793.505 100.474 115.675
internal_count=10266 8393 4882 2422 1873 1457 2460 979 3511 3284 416 478
is_linear=0
shrinkage=0.02


Tree=17
num_leaves=12
num_cat=0
split_feature=17 4 14 2 14 17 14 2 4 14 7
split_gain=38.167 20.004 15.9612 21.4948 21.2915 12.8223 15.1063 12.5709 6.03461 4.958 1.49825
threshold=-0.89544565315808522 261.53350039634057 44.083297360178015 0.99124566554366089 41.8044570581744 -1.7742196309207567 53.507107647882499 1.0139339384572659 -27.719995525222824 50.026168637083508 0.032299247347996989
decision_type=2 2 2 2 2 2 2 2 2 2 2
left_child=5 2 4 -4 -2 10 8 -8 -7 -3 -1
right_child=1 9 3 -5 -6 6 7 -9 -10 -11 -12
leaf_value=-0.005071279558821592 0.0024197113370362368 -0.013497335450270872 -0.0043035251148329989 0.0015512866689491036 0.013976878111006175 -0.0032096099618531384 -0.013189382642263046 -0.00050655728259617675 0.0035971351713843715 -0.0013927001367552813 -0.015853768509604318
leaf_weight=35.844841539859772 438.50261273980141 39.182460531592369 316.18006034195423 1123.3284017145634 75.71829180419445 101.45744661986828 83.678001120686531 64.965431302785873 96.794946804642677 39.767592161893845 50.733903080224991
leaf_count=150 1813 164 1310 4632 313 422 349 268 401 166 215
internal_value=-0.000218722 0.000908288 0.00134245 0.000213328 0.00435525 -0.00559051 -0.00352538 -0.00823367 0 -0.00856096 -0.0125654
internal_weight=2466.15 2032.68 1953.73 1439.51 514.221 433.475 346.896 148.643 198.252 78.9501 86.5787
internal_count=10203 8398 8068 5942 2126 1805 1440 617 823 330 365
is_linear=0
shrinkage=0.02


Tree=18
num_leaves=13
num_cat=0
split_feature=17 13 1 2 2 9 2 14 14 9 14 17
split_gain=30.1437 23.1873 19.1768 16.2854 15.0688 14.1866 9.01227 9.68313 9.08999 5.18296 5.7037 2.47737
threshold=-1.1212232200280641 -0.37940952255126015 0.99749472161988095 1.0602702781042013 1.0440246735950163 51.794788252411813 1.0069471638231933 49.195905904579206 57.019264253706481 39.104116193812537 44.524521940218484 -1.5179836037070473
decision_type=2 2 2 2 2 2 2 2 2 2 2 2
left_child=2 6 9 4 -3 -5 7 -2 -8 -1 -11 -4
right_child=1 3 11 5 -6 -7 8 -9 -10 10 -12 -13
leaf_value=-0.013520070174937553 -0.0010166090333158266 -0.0004197936035509699 -0.0013827840265079141 -0.011607717487379621 0.0075425820248533676 0.0014074358365103597 0.0098747547613603631 0.0048545378338696963 0.0031034454811549672 0 -0.0083901055367033312 0.0043574056105588274
leaf_weight=79.817293882369995 234.98803628981113 1111.7626023888588 36.456401586532593 86.619921758770943 98.402131855487823 39.405234709382057 154.3776408135891 189.14025583863258 250.76128248870373 46.415947780013084 77.925229743123055 53.533673763275146
leaf_count=334 969 4604 152 359 406 164 634 780 1030 194 328 221
internal_value=0.000279543 0.00112241 -0.00563997 -0.000469651 0.000206646 -0.00718183 0.00374705 0.00148787 0.00591886 -0.00901191 -0.00524336 0.00144994
internal_weight=2459.61 2165.46 294.149 1336.19 1210.16 126.025 829.267 424.128 405.139 204.158 124.341 89.9901
internal_count=10175 8946 1229 5533 5010 523 3413 1749 1664 856 522 373
is_linear=0
shrinkage=0.02


Tree=19
num_leaves=12
num_cat=0
split_feature=17 13 7 7 15 15 7 15 15 12 16
split_gain=42.9115 26.9949 32.3337 14.7821 21.41 15.9742 13.3809 9.40111 18.9341 12.914 1.29575
threshold=-1.1563512709778998 -0.37940952255126015 0.0077117948595580629 0.023244447685925186 0.94819517047872925 1.0775776616426478 0.041308494539404668 1.0323629567371257 1.0097972586522956 -0.25881904510252113 0.85118749918967662
decision_type=2 2 2 2 2 2 2 2 2 2 2
left_child=3 7 -3 10 -5 -6 -4 8 -2 -9 -1
right_child=1 2 6 4 5 -7 -8 9 -10 -11 -12
leaf_value=0.0027994739488594739 0.0041288072500810288 0.01331826696383491 4.6954113744768959e-05 0 -0.017595370647930465 -0.0003754709847794767 -0.0045964620800158732 0.00081302114031984714 -0.0058507743542350341 0.0090440856886268191 -0.0020003462403611868
leaf_weight=39.391433134675026 352.79749934375286 60.601031854748726 985.24989193677902 53.685005635023117 105.72953476011753 36.077244326472282 316.23490990698338 131.61163298785686 88.014964133501053 263.61588601768017 37.585756227374077
leaf_count=163 1453 249 4073 223 448 151 1320 542 363 1081 156
internal_value=0.000423104 0.00137857 -0.000319187 -0.00695476 -0.00981994 -0.0137851 -0.00104865 0.00420137 0.00195837 0.00649744 0
internal_weight=2470.59 2198.13 1362.09 272.469 195.492 141.807 1301.48 836.04 440.812 395.228 76.9772
internal_count=10222 9081 5642 1141 822 599 5393 3439 1816 1623 319
is_linear=0
shrinkage=0.02


Tree=20
num_leaves=15
num_cat=0
split_feature=6 15 14 16 4 15 14 13 15 14 5 14 15 14
split_gain=78.1752 33.6584 24.3302 20.275 22.739 20.3245 18.5737 17.7501 15.9804 15.5564 22.7568 8.66087 8.45754 6.30807
threshold=0.0061442787609098087 0.94943761343769273 55.113687280872064 0.8069904496554946 30.48089101856154 1.1131645482558479 75.202162604912274 0.1294095225512602 0.99276164628768016 33.482352644382601 28.233106445181509 58.134999114349775 1.0964636164313628 25.675850806930523
decision_type=2 2 2 2 2 2 2 2 2 2 2 2 2 2
left_child=3 9 12 4 5 -1 8 -4 -5 13 -11 -6 -3 -2
right_child=1 2 7 6 11 -7 -8 -9 -10 10 -12 -13 -14 -15
leaf_value=0.0062959387579880899 0.00078797760429552468 -0.0090856711032263546 0.0018783672939964113 0.0018019516176906792 -0.009125092945786983 -0.0067494468036363086 -0.002998560763240865 -0.0051950290537867696 0.0091793260961281192 -0.0030373281545613357 0.010588124909690759 0.00062947709270061338 -0.0001006802588138449 -0.0084197244977123331
leaf_weight=231.21778236329556 42.543970465660095 440.17715042829514 252.0054347217083 192.98221936821938 100.29349985718727 51.447280094027519 71.061113297939301 291.98423010110855 443.6197557747364 64.374205976724625 132.75068628787994 38.166970521211624 61.428169801831245 48.426828756928444
leaf_count=950 176 1843 1044 794 414 211 292 1217 1821 267 547 157 255 201
internal_value=9.40771e-06 -0.00323904 -0.00492246 0.00389781 0.000264205 0.00363695 0.00595893 -0.00182169 0.0070679 0.00264567 0.00587661 -0.00608976 -0.00811563 -0.0036717
internal_weight=2462.48 1333.69 1045.59 1128.79 421.126 282.665 707.663 543.99 636.602 288.096 197.125 138.46 501.605 90.9708
internal_count=10189 5550 4359 4639 1732 1161 2907 2261 2615 1191 814 571 2098 377
is_linear=0
shrinkage=0.02


Tree=21
num_leaves=10
num_cat=0
split_feature=11 12 15 15 15 0 4 1 1
split_gain=47.4643 30.1404 19.2875 27.4363 22.9603 16.3842 14.0907 8.97044 3.80839
threshold=0.25869380565648653 -0.25881904510252113 1.0354776260571066 1.0579705806859676 0.93242423883840131 0.99070847322369371 111.21613541740358 1.0057446302787312 0.98143971289713472
decision_type=2 2 2 2 2 2 2 2 2
left_child=7 5 4 -4 -3 8 -7 -1 -2
right_child=1 2 3 -5 -6 6 -8 -9 -10
leaf_value=-0.015832154004410022 -0.0036545652337397028 0.0073538942310859695 0.01391140936365004 0.0030188366057076615 -0.0012932222776127231 0.00041315299598498298 -0.0057921819031525471 -0.0017384539618963413 -0.012921356356488783
leaf_weight=79.515233665704727 68.697729632258415 148.58818911015987 117.66853003203869 505.21459051966667 591.4125142544508 689.84242169559002 176.40309895575047 37.803784340620041 55.122219935059547
leaf_count=337 288 611 484 2080 2448 2852 734 158 230
internal_value=8.18562e-05 0.000735846 0.00267927 0.0052665 0.000400238 -0.00187911 -0.000807629 -0.012038 -0.00858713
internal_weight=2470.27 2352.95 1362.88 622.883 740.001 990.065 866.246 117.319 123.82
internal_count=10222 9727 5623 2564 3059 4104 3586 495 518
is_linear=0
shrinkage=0.02


Tree=22
num_leaves=9
num_cat=0
split_feature=11 4 12 0 4 4 4 4
split_gain=36.1151 18.0935 15.5528 11.5702 8.99397 4.98283 1.83086 2.0273
threshold=0.30600691297018734 274.49913368286258 -0.70710678118654735 1.0022389413814938 -182.89854935491675 92.815418858288169 17.379992034533348 -31.932051569302356
decision_type=2 2 2 2 2 2 2 2
left_child=5 2 4 -4 -2 6 7 -1
right_child=1 -3 3 -5 -6 -7 -8 -9
leaf_value=-0.0084319840905856987 -0.0084701426012406319 -0.0089149633580848792 0.00078358537155038925 0.0044194127389531861 -0.00062890795453587423 -0.00011078366890297075 -0.014016417643641064 -0.00057311563883822659
leaf_weight=70.576166927814484 65.324833244085312 69.157861053943634 1065.2786032706499 561.5287409722805 511.76155251264572 41.080257028341293 53.091946616768837 38.357736751437187
leaf_count=297 274 290 4396 2312 2119 173 224 161
internal_value=0 0.00072018 0.00106919 0.00208504 -0.00168473 -0.00798368 -0.00955748 -0.00633794
internal_weight=2476.16 2273.05 2203.89 1626.81 577.086 203.106 162.026 108.934
internal_count=10246 9391 9101 6708 2393 855 682 458
is_linear=0
shrinkage=0.02


Tree=23
num_leaves=11
num_cat=0
split_feature=17 11 4 1 11 14 14 1 17 1
split_gain=47.6355 32.3616 18.5318 16.8076 11.7488 4.59184 9.46418 3.75551 12.3348 0.292964
threshold=-1.1388184437671818 0.38532902253615686 274.49913368286258 0.99759331399348039 0.79015074831961052 70.842650547265791 48.701568223125413 0.9828302764157727 -1.5442432167085218 1.0016247383437389
decision_type=2 2 2 2 2 2 2 2 2 2
left_child=3 5 4 7 -3 6 -2 8 -1 -5
right_child=1 2 -4 9 -6 -7 -8 -9 -10 -11
leaf_value=-0.012136724457095108 -0.0011918337745392197 0.00056230263902638485 -0.0080759552439708202 0.0013315121935529107 0.0039281246479636904 0 -0.009432670310530222 -0.013457554460394039 0.0017859743799695611 -0.00093730998820852965
leaf_weight=44.853913456201553 126.31675185263157 772.42231322824955 61.218118891119957 36.864581525325775 1031.0047101229429 58.228751286864281 136.05366770923138 117.24356926977634 37.007437884807587 43.901938945055008
leaf_count=191 528 3187 257 153 4244 242 568 494 155 182
internal_value=6.66804e-05 0.00109118 0.00212443 -0.00760073 0.00252523 -0.00467442 -0.00578606 -0.010657 -0.00541137 0
internal_weight=2465.12 2185.24 1864.65 279.871 1803.43 320.599 262.37 199.105 81.8614 80.7665
internal_count=10201 9026 7688 1175 7431 1338 1096 840 346 335
is_linear=0
shrinkage=0.02


Tree=24
num_leaves=15
num_cat=0
split_feature=13 12 15 4 12 1 4 15 3 15 1 5 5 3
split_gain=29.472 17.2805 16.1524 13.9261 12.2753 12.3602 11.9851 10.0503 12.791 8.46951 6.19876 12.1422 8.25215 3.45546
threshold=-0.37940952255126015 0.60355339059327384 1.0303823845560547 151.14614654979002 -0.25881904510252113 1.015761781609418 -177.64413891414327 1.0097972586522956 55.711803199893424 0.99276164628768016 0.99769073239625194 55.691284926921156 65.317043809059427 58.257631673670382
decision_type=2 2 2 2 2 2 2 2 2 2 2 2 2 2
left_child=2 3 7 6 13 -6 -2 9 -9 -1 11 -3 -12 -4
right_child=1 10 4 -5 5 -7 -8 8 -10 -11 12 -13 -14 -15
leaf_value=0.00010146761786288417 -0.0087597170533163932 0.00083895191087375674 -0.0014358139547880416 -0.0095075886396836957 0.0095257804558187831 -0.0010727039568475991 -0.0012573460443633762 -0.011935713768807938 0.0019644167110307443 0.007752139862908557 -9.7388781378050747e-05 -0.011157549403110596 0.0058236842439106252 0.0043971914497741059
leaf_weight=330.02675867080688 96.324280798435211 148.71506117284298 93.617965891957283 121.55830453336239 258.77181321382523 39.85253144800663 809.04080373048782 50.222943842411041 36.672896474599838 70.093298956751823 153.54390659928322 36.25910572707653 178.8254686743021 57.80976539850235
leaf_count=1361 405 619 386 509 1059 164 3354 208 151 289 635 152 739 238
internal_value=5.12067e-05 -0.00162055 0.00286388 -0.00313431 0.00557982 0.00791939 -0.00216518 0.00020094 -0.00562879 0.00166896 0.00127064 -0.00142857 0.00294959 0.00047683
internal_weight=2481.33 1544.27 937.068 1026.92 450.052 298.624 905.365 487.016 86.8958 400.12 517.344 184.974 332.369 151.428
internal_count=10269 6413 3856 4268 1847 1223 3759 2009 359 1650 2145 771 1374 624
is_linear=0
shrinkage=0.02


Tree=25
num_leaves=12
num_cat=0
split_feature=11 13 4 14 0 11 1 13 14 11 2
split_gain=37.265 23.9751 16.9342 18.2657 14.4631 10.3046 7.01952 6.03988 5.53307 3.48385 1.35293
threshold=0.3010288251973679 -0.37940952255126015 183.30595073532336 47.40348050498077 0.9897811759406 0.81051029838462174 1.0037099945157293 0.60355339059327384 54.565607979603506 1.9536226501524276 1.0042663859872953
decision_type=2 2 2 2 2 2 2 2 2 2 2
left_child=6 4 3 -3 9 -6 10 -8 -4 -2 -1
right_child=1 2 8 -5 5 -7 7 -9 -10 -11 -12
leaf_value=-0.01381453856543291 0 0.0029158283547766751 -0.012600347811321218 -0.0020644097241583055 0.00083044211038292549 0.0056801490306669202 0.0022488088896090476 -0.0079006534858497672 -0.0015617948198809995 -0.0086400753414041919 -0.0043068963846911593
leaf_weight=78.780058607459068 36.906074568629265 450.8165170699358 58.120420977473259 817.65968996286392 309.58037139475346 534.05408401787281 36.216898456215858 36.877440556883812 47.626617178320885 37.032785505056381 36.270497307181358
leaf_count=337 153 1868 244 3385 1273 2192 151 155 199 154 152
internal_value=0 0.000690235 -0.000947457 -0.000242819 0.00319984 0.00398658 -0.00845635 -0.00228147 -0.00846552 -0.00470065 -0.0116212
internal_weight=2479.94 2291.8 1374.22 1268.48 917.573 843.634 188.145 73.0943 105.747 73.9389 115.051
internal_count=10263 9468 5696 5253 3772 3465 795 306 443 307 489
is_linear=0
shrinkage=0.02


Tree=26
num_leaves=13
num_cat=0
split_feature=17 13 15 7 11 4 15 11 15 15 9 17
split_gain=44.9874 28.5226 17.7579 22.1893 16.1974 15.1527 11.8754 13.0898 11.2452 5.32753 2.63768 1.03176
threshold=-1.1388184437671818 -0.37940952255126015 0.95166292151546183 0.02518023178546518 0.29619318075381179 183.30595073532336 1.0344308878034638 0.94332591178691183 1.1721730030641073 1.0719209187695506 30.486072511914582 -0.26041653888535438
decision_type=2 2 2 2 2 2 2 2 2 2 2 2
left_child=2 6 -1 10 11 -6 7 -2 -8 -5 -4 -3
right_child=1 4 3 9 5 -7 8 -9 -10 -11 -12 -13
leaf_value=0.00070919439095295037 -0.002441560044651295 -0.0020779467625667855 -0.0045485393058941892 -0.018065224840298912 0.00059013658132973717 -0.0070357438291756922 0.0081235936190320011 0.0044122409790121261 0 -0.0049977860662382611 0.001706848741517411 -0.0091120836637942175
leaf_weight=66.002695232629776 184.65898957848549 41.123475506901741 45.853644475340843 96.337137252092361 1132.6493591666222 109.5277806520462 310.25646103918552 246.29872012138367 87.084854260087013 36.107065632939339 36.208751007914543 86.642204314470291
leaf_count=275 761 174 190 413 4681 460 1269 1012 357 152 151 365
internal_value=-2.61373e-05 0.000917658 -0.00751899 -0.0102826 -0.000818444 -5.96705e-05 0.00384872 0.00134354 0.00636626 -0.0152507 -0.00115977 -0.00746348
internal_weight=2478.75 2198.24 280.509 214.507 1369.94 1242.18 828.299 430.958 397.341 132.444 82.0624 127.766
internal_count=10260 9079 1181 906 5680 5141 3399 1773 1626 565 341 539
is_linear=0
shrinkage=0.02


Tree=27
num_leaves=11
num_cat=0
split_feature=11 17 16 2 11 2 2 10 17 10
split_gain=39.7746 19.1612 18.6034 14.924 11.2942 7.32803 9.99752 5.37939 3.8821 0.272005
threshold=0.31585643700129734 -0.87711291257785096 1.3657449666875341 0.94626360654780706 1.6232473678062769 1.0076134392572216 1.0249085176411155 -0.00056058729524921514 -1.4295123695188128 -0.0010183558733677931
decision_type=2 2 2 2 2 2 2 2 2 2
left_child=5 2 7 9 -5 -1 -7 -2 -4 -3
right_child=1 3 8 4 -6 6 -8 -9 -10 -11
leaf_value=-0.011360606650767631 0.0024944689448830218 0.012471483278462933 -0.016396618820561908 0.00028093378420853185 0.0044435226081798763 0.0040327408191983159 -0.0081749443365478989 -0.0029498127896135508 -0.0051066750888478498 0.0039579570518015316
leaf_weight=128.1571090221405 116.03374509513378 43.967157199978828 38.225584045052528 1460.7800030857325 323.57059228420258 36.920629099011421 55.425306677818298 162.95071992278099 59.137709677219391 36.477511793375015
leaf_count=547 484 182 163 6022 1330 154 232 678 247 151
internal_value=-0.000121947 0.000657512 -0.00338219 0.00151175 0.00107961 -0.00814918 -0.00272141 -0.000470125 -0.0107097 0.00977076
internal_weight=2461.65 2241.14 376.348 1864.8 1784.35 220.503 92.3459 278.984 97.3633 80.4447
internal_count=10190 9257 1572 7685 7352 933 386 1162 410 333
is_linear=0
shrinkage=0.02


Tree=28
num_leaves=9
num_cat=0
split_feature=11 7 15 3 1 3 13 4
split_gain=32.1989 21.0657 23.1273 20.4463 11.682 9.87471 10.2549 9.73087
threshold=0.26487822408537004 0.041308494539404668 0.87093550231648675 77.638030824846126 1.0049511781876785 68.881553164415934 1.0000000180025095e-35 47.22375182418228
decision_type=2 2 2 2 2 2 2 2
left_child=4 5 -3 -4 -1 7 -7 -2
right_child=1 2 3 -5 -6 6 -8 -9
leaf_value=-0.013747657073043434 0.0019625848830646647 0.011039770421645752 -0.0062486947018342495 0.0043493800827390542 0 0.0095960252328860084 0 -0.0016582359628595856
leaf_weight=82.601867094635963 1263.0465316474438 36.526462703943253 381.22036403417587 79.060287445783615 44.019071459770203 116.41794531047344 80.145782306790352 366.07061691582203
leaf_count=355 5206 151 1595 330 185 476 329 1512
internal_value=9.28376e-05 0.000661011 -0.00292806 -0.00427218 -0.00950199 0.00167578 0.00592611 0.00110967
internal_weight=2449.11 2322.49 496.807 460.281 126.621 1825.68 196.564 1629.12
internal_count=10139 9599 2076 1925 540 7523 805 6718
is_linear=0
shrinkage=0.02


Tree=29
num_leaves=9
num_cat=0
split_feature=17 7 15 13 9 7 12 2
split_gain=29.0008 21.5259 17.7708 13.6926 11.2165 21.7113 10.857 2.31429
threshold=-1.7742196309207567 0.042844048565642674 0.87093550231648675 -0.37940952255126015 15.453712110028405 0.012225691447846769 0.25881904510252091 0.97994360331550479
decision_type=2 2 2 2 2 2 2 2
left_child=7 4 -3 -4 5 -2 -6 -1
right_child=1 2 3 -5 6 -7 -8 -9
leaf_value=-0.01610998955206365 0.006991761192056585 0.0087496763237717955 0.00044979775204038731 -0.0068372574556135246 0.00047159403592020847 -0.009490222789263798 0.0037446049503594655 -0.0052340570774321591
leaf_weight=35.977202102541924 39.499431431293488 36.801011055707932 130.7621248960495 308.63123953342438 1039.6709038615227 91.480417534708977 718.49783277511597 48.638427957892418
leaf_count=155 162 152 542 1299 4290 378 2957 208
internal_value=0 0.000421802 -0.00332 -0.00455298 0.00140294 -0.00400421 0.00185001 -0.0111687
internal_weight=2449.96 2365.34 476.194 439.393 1889.15 130.98 1758.17 84.6156
internal_count=10143 9780 1993 1841 7787 540 7247 363
is_linear=0
shrinkage=0.02


Tree=30
num_leaves=6
num_cat=0
split_feature=17 4 7 13 15
split_gain=40.1276 19.5538 12.7466 12.4141 12.1169
threshold=-1.7742196309207567 274.49913368286258 0.0077117948595580629 -0.12940952255126037 1.0131279387774574
decision_type=2 2 2 2 2
left_child=-1 2 4 -4 -2
right_child=1 -3 3 -5 -6
leaf_value=-0.013765324726672556 0 -0.0098465353135018373 0.0016368348441165696 -0.0013765261586443428 0.012599755813975488
leaf_weight=82.524619117379189 47.293291941285133 72.622911885380745 1015.1539400368929 1173.1563277095556 59.50915889441967
leaf_count=355 194 307 4173 4874 243
internal_value=-0.000466129 1.41926e-07 0.000358527 0 0.00694612
internal_weight=2450.26 2367.74 2295.11 2188.31 106.802
internal_count=10146 9791 9484 9047 437
is_linear=0
shrinkage=0.02


Tree=31
num_leaves=14
num_cat=0
split_feature=6 15 15 17 11 14 8 0 4 5 15 14 4
split_gain=50.9059 25.9577 29.5273 20.1403 19.919 15.2342 13.5488 12.8128 16.9561 12.6911 7.30325 7.23385 6.86784
threshold=0.0060570976051884081 0.94943761343769273 1.1213709422657976 -1.4295123695188128 0.35757237401046088 38.275117770290372 0.56782395088571069 1.0008681507175277 52.240001962433873 23.076773365790721 1.0282761512326064 25.675850806930523 108.53758751482435
decision_type=2 2 2 2 2 2 2 2 2 2 2 2 2
left_child=4 5 3 -3 10 11 -4 8 -6 -7 -1 -2 -9
right_child=1 2 6 -5 7 9 -8 12 -10 -11 -12 -13 -14
leaf_value=-0.0092861244289625094 0.0044434782135571952 -0.016244001491236868 0.0057270429345304495 -0.004994657718639336 0.0028869150770125668 -0.0012314665078176764 -0.0025110080219179149 0.0078296872666576527 -0.0097758050030810444 0.010821203819721752 0 -0.0044867397523861959 0.00073256532946094596
leaf_weight=56.469125747680664 42.566081404685974 74.166697025299072 133.22243286669254 689.45814976096153 510.5744277536869 38.313459128141403 175.05534827709198 354.97606146335602 39.579536601901054 101.20194539427757 57.714060515165329 112.24796599149704 88.326199188828468
leaf_count=238 176 322 552 2881 2093 159 727 1450 163 416 240 466 361
internal_value=-9.15409e-05 -0.00269385 -0.00415551 -0.00626387 0.00306206 0.00240936 0.000892133 0.00400567 0.00178801 0.00716805 -0.00446805 -0.00159374 0.00657339
internal_weight=2473.87 1366.23 1071.9 763.625 1107.64 294.329 308.278 993.456 550.154 139.515 114.183 154.814 443.302
internal_count=10244 5699 4482 3203 4545 1217 1279 4067 2256 575 478 642 1811
is_linear=0
shrinkage=0.02


Tree=32
num_leaves=11
num_cat=0
split_feature=17 11 4 15 7 4 15 9 9 15
split_gain=38.9792 31.4076 23.1884 17.8477 15.0793 11.858 8.78761 8.52442 3.88301 2.68456
threshold=-1.1388184437671818 0.35363257990543884 274.49913368286258 0.94943761343769273 0.025871895167339228 -50.201891136483994 1.0687000112877418 14.922677767332521 29.780196574543094 1.0859041280714234
decision_type=2 2 2 2 2 2 2 2 2 2
left_child=3 5 7 -1 8 -2 -6 -3 -5 -7
right_child=1 2 -4 4 6 9 -8 -9 -10 -11
leaf_value=0.0013316841816032586 0.00034247788857487763 -0.0034663803932256233 -0.0098827634460859314 -0.0062271020636565314 -0.017886021850676021 -0.0061695296711551245 -0.0032125365091228365 0.0022881615123512338 0.0010544274374887474 -0.014805269134383077
leaf_weight=60.689527660608292 69.52372319996357 96.964282840490341 62.361453920602798 48.577340558171272 90.311763346195221 147.09017130732536 35.92300121486187 1774.0287607163191 37.757621869444847 35.981511235237122
leaf_count=253 292 399 264 202 393 620 152 7303 158 151
internal_value=-0.000253748 0.000617082 0.00151239 -0.00732153 -0.0100417 -0.00589896 -0.014449 0.00194951 -0.00250229 -0.00853434
internal_weight=2459.21 2185.95 1933.35 273.259 212.57 252.595 126.235 1870.99 86.335 183.072
internal_count=10187 9029 7966 1158 905 1063 545 7702 360 771
is_linear=0
shrinkage=0.02


Tree=33
num_leaves=15
num_cat=0
split_feature=6 0 14 14 3 16 10 16 6 14 13 14 6 6
split_gain=41.6497 13.5262 15.825 21.3935 15.9921 12.851 10.5329 9.78736 11.9882 8.91934 6.22853 4.57611 4.45778 5.04805
threshold=0.0061666669869201631 1.0017820713631969 37.071754679761874 28.788785373688153 42.120149616042745 0.82321984079210242 -0.003546139179536278 0.80363421336506058 0.0077158670835588859 72.071988531945365 0.60355339059327384 56.213553712825323 0.011853608339162143 0.0095495991647857274
decision_type=2 2 2 2 2 2 2 2 2 2 2 2 2 2
left_child=1 2 3 -1 -4 11 12 10 -9 -7 -8 -3 13 -2
right_child=6 5 4 -5 -6 9 7 8 -10 -11 -12 -13 -14 -15
leaf_value=-0.00065736574945006844 0.0010454338371453059 -0.0025971354694701273 0.0039345630896344495 0.017590770829314574 -0.0023881861040064511 0.010027102372659785 0.0020434989081016689 -0.0076736100962422182 -0.0023488307444592378 0 -0.0046281465031789938 0.0047983190786424681 0.0051338690847868408 -0.0059986609282133667
leaf_weight=39.325639709830284 156.40081103146076 74.346908077597618 252.12080334126949 45.796671807765961 418.67884048819542 211.4189228117466 180.16566842794418 302.534707441926 500.70830120146275 47.269950807094574 75.214875862002373 51.261516749858856 68.949449226260185 47.155407845973969
leaf_count=162 651 306 1036 189 1720 863 750 1260 2098 193 317 209 288 197
internal_value=-5.11814e-05 0.00272291 0.00105694 0.00892581 0 0.00579011 -0.00247361 -0.00338521 -0.00446366 0.00830596 0 2.97534e-05 0.000848696 -0.000403386
internal_weight=2471.35 1140.22 755.922 85.1223 670.8 384.297 1331.13 1058.62 803.243 258.689 255.381 125.608 272.506 203.556
internal_count=10239 4678 3107 351 2756 1571 5561 4425 3358 1056 1067 515 1136 848
is_linear=0
shrinkage=0.02


Tree=34
num_leaves=15
num_cat=0
split_feature=6 15 15 15 14 15 14 16 14 6 6 14 3 1
split_gain=45.5402 27.2235 29.081 21.5671 38.5813 19.5198 18.8284 15.3205 14.7077 18.0217 11.1816 8.06396 7.88143 6.07166
threshold=0.0061442787609098087 0.94943761343769273 1.1000740749054423 1.0282761512326064 60.887631132153224 1.3034424602232886 38.275117770290372 0.52410123034820744 74.281064588839129 0.0031586942385598395 0.0094138005595995281 45.940002809208899 55.221262903812672 1.0020113442358645
decision_type=2 2 2 2 2 2 2 2 2 2 2 2 2 2
left_child=3 6 10 4 7 -4 13 -1 9 -5 -3 -8 -10 -2
right_child=1 2 5 8 -6 -7 11 -9 12 -11 -12 -13 -14 -15
leaf_value=-0.0088179745686231357 -0.0047517728343265129 -0.0048640518848299102 0.0029710305452548499 0.017620668634407415 -0.013755656642010419 -0.0081484862166705981 0.011461207579012566 0.0030797462510856982 -0.00352404834969605 0.0052919465985956007 -0.011337074349453658 0 0.0067295237116734479 0.0028642720033888402
leaf_weight=40.731906518340111 105.90483003854752 530.29130929708481 275.02943375706673 59.71043162047863 66.171051695942879 75.903369799256325 87.216318786144257 473.44093416631222 90.458629563450813 357.47303695976734 167.45414356887341 47.982937380671501 38.436377674341202 53.042855814099312
leaf_count=170 440 2224 1143 243 273 315 359 1944 371 1460 712 198 157 220
internal_value=-0.000187935 -0.00269363 -0.00421957 0.00274481 0 0.000316734 0.00252563 0.00194581 0.00557876 0.00738643 -0.00657252 0.00796208 0 -0.00183439
internal_weight=2469.25 1342.83 1048.68 1126.42 580.344 350.933 294.147 514.173 546.078 417.183 697.745 135.199 128.895 158.948
internal_count=10229 5611 4394 4618 2387 1458 1217 2114 2231 1703 2936 557 528 660
is_linear=0
shrinkage=0.02


Tree=35
num_leaves=10
num_cat=0
split_feature=11 2 7 1 2 2 11 2 2
split_gain=32.6711 16.6905 17.5179 13.2002 12.4205 11.6206 10.1866 6.56064 2.20906
threshold=0.30600691297018734 1.0151203581179782 0.0099835987047982629 1.0167001451390807 1.0082930841426849 1.0681020465115616 0.79731766327797515 1.0470648089168393 0.97107578915008241
decision_type=2 2 2 2 2 2 2 2 2
left_child=4 3 -3 6 8 -4 -2 -6 -1
right_child=1 2 5 -5 7 -7 -8 -9 -10
leaf_value=-0.0038178271666261107 -0.0018279139873840344 0.012742608961070214 0.0031430608247605984 -0.0086373897062973857 0.0031486443418332348 -0.0032660580928638066 0.0016573626796995125 -0.0072486634438015838 -0.014014975686561505
leaf_weight=35.480140879750252 642.58177021145821 65.727397844195366 674.10884922742844 70.175894856452942 48.332151979207993 122.81427118182182 690.66756263375282 35.880165874958038 80.307866677641869
leaf_count=154 2666 268 2774 294 203 510 2852 151 347
internal_value=0.000113179 0.000827013 0.00301767 -0.000482861 -0.00750504 0.00206632 0 -0.000766739 -0.0116745
internal_weight=2466.08 2266.08 862.651 1403.43 200 796.923 1333.25 84.2123 115.788
internal_count=10219 9364 3552 5812 855 3284 5518 354 501
is_linear=0
shrinkage=0.02


Tree=36
num_leaves=15
num_cat=0
split_feature=6 15 14 14 15 14 14 16 14 12 15 15 6 14
split_gain=47.2649 27.8218 24.2197 22.2955 20.4848 39.0129 15.9676 14.3065 14.3004 12.1298 10.3225 8.88477 8.24274 5.80523
threshold=0.00588832126493478 0.94943761343769273 55.113687280872064 38.275117770290372 1.0291969018873359 61.374151443370941 74.281064588839129 0.53577385804504851 55.113687280872064 -0.25881904510252113 1.0964636164313628 1.1038904074855131 0.012874506588888278 46.631797616012399
decision_type=2 2 2 2 2 2 2 2 2 2 2 2 2 2
left_child=4 3 10 12 5 7 8 -1 -6 -4 -3 -8 -2 -5
right_child=1 2 9 13 6 -7 11 -9 -10 -11 -12 -13 -14 -15
leaf_value=-0.0075999887441689489 -0.0052829916015536193 -0.0075548117730322517 -0.0037733972149363079 0.011166352762549519 0.0029166054062000945 -0.012895769491683208 0.0068299695490871108 0.0040705162418271917 0.011472610400267338 0.0019014354570726986 0.00054761616867060841 -0.0043722140343849334 0.0033531124601550483 0.00022153465603542901
leaf_weight=38.740912958979607 100.1901268362999 472.48081411421299 266.24117065966129 107.28276444971561 153.80717806518078 66.543598726391792 40.021508052945137 428.71833296120167 239.34320268034935 322.7260921895504 56.06309899687767 71.046458765864372 63.937620416283607 37.623404562473297
leaf_count=162 415 1995 1114 441 628 275 164 1759 975 1340 233 291 266 155
internal_value=0.000338628 -0.00199471 -0.00348699 0.00318013 0.00359641 0.000724333 0.00648334 0.00290613 0.00835471 -0.000573012 -0.00658585 0 -0.00156428 0.00882707
internal_weight=2464.77 1426.55 1117.51 309.034 1038.22 534.003 504.218 467.459 393.15 588.967 528.544 111.068 164.128 144.906
internal_count=10213 5959 4682 1277 4254 2196 2058 1921 1603 2454 2228 455 681 596
is_linear=0
shrinkage=0.02


Tree=37
num_leaves=12
num_cat=0
split_feature=6 11 17 1 16 16 1 11 1 16 0
split_gain=39.927 22.9114 12.0258 11.4517 24.3673 22.5869 7.33025 5.6643 5.34479 4.05435 2.37625
threshold=0.0060886425748443145 0.38152150702572835 -1.7742196309207567 1.0130818274125117 1.509416137833514 0.92631832443077899 1.0097565452673616 2.3321326556209967 1.0035930280314818 0.72050541852513394 1.0058050724133176
decision_type=2 2 2 2 2 2 2 2 2 2 2
left_child=1 8 -2 5 -5 -4 7 -3 9 -1 -8
right_child=2 6 3 4 -6 -7 10 -9 -10 -11 -12
leaf_value=-0.010735025270729589 -0.011031337650021376 0.0034028013830401842 0.002896574384427847 -0.007470139252084439 0.0075411038993916935 -0.003294914311400264 0.012433834905364987 -0.0020823614717003489 0.0001788052692285269 -0.00052836728638728061 0.0041125286734785453
leaf_weight=56.063322350382805 61.613662347197533 777.00973649322987 374.31774938106537 286.61463709175587 42.779766425490379 599.24807648360729 51.926604092121124 65.984377756714821 36.438264712691307 39.572554528713226 70.374371379613876
leaf_count=237 270 3176 1560 1198 179 2502 211 270 151 165 286
internal_value=-0.00021314 0.00259382 -0.00251549 -0.0020263 -0.00525753 -0.000850452 0.00370094 0.00289295 -0.00489996 -0.00734397 0.00846651
internal_weight=2461.94 1097.37 1364.57 1302.96 329.394 973.566 965.295 842.994 132.074 95.6359 122.301
internal_count=10205 4496 5709 5439 1377 4062 3943 3446 553 402 497
is_linear=0
shrinkage=0.02


Tree=38
num_leaves=10
num_cat=0
split_feature=17 11 2 17 16 2 11 9 7
split_gain=33.7515 21.001 15.344 13.9698 12.0999 20.5601 13.0517 5.86361 4.00006
threshold=-1.7742196309207567 0.38532902253615686 1.0053324404884536 0.95188579764274961 0.92921267825748066 1.0657560633701502 0.80475549458431606 43.647444665744835 0.036275164320291695
decision_type=2 2 2 2 2 2 2 2 2
left_child=7 2 8 -4 5 -3 -6 -1 -2
right_child=1 4 3 -5 6 -7 -8 -9 -10
leaf_value=-0.0048139772631377378 -0.0044633847319638029 0.0039030259665793865 0.0036894390952062401 -0.0090107620755929211 -0.0028600102275131286 -0.0091718691756592762 0.0014565542067558133 -0.018593604653127718 -0.012260600081544823
leaf_weight=47.533063411712646 117.94844505190849 772.54639269411564 126.80520544946194 41.727028533816338 428.38596686720848 44.132666781544685 785.18323588371277 36.290756091475487 69.048104897141457
leaf_count=207 499 3169 529 175 1780 182 3241 159 296
internal_value=-3.89697e-05 0.00038657 -0.00402575 3.02027e-05 0.00119671 0.00307194 -2.34238e-05 -0.0121661 -0.00789931
internal_weight=2469.6 2385.78 355.529 168.532 2030.25 816.679 1213.57 83.8238 186.997
internal_count=10237 9871 1499 704 8372 3351 5021 366 795
is_linear=0
shrinkage=0.02


Tree=39
num_leaves=14
num_cat=0
split_feature=6 12 11 15 15 3 4 9 4 15 3 8 12
split_gain=38.3953 31.9458 17.5751 14.44 15.2838 14.3913 9.11164 6.37265 8.41403 5.95935 5.42781 3.89042 1.82553
threshold=0.0061442787609098087 -0.25881904510252113 0.39578522161429269 0.94943761343769273 1.1131645482558479 68.63477365421663 42.293628952702818 62.909725437810629 96.119584348545388 0.89462439051546994 56.03578919321675 0.97519358581514071 0.25881904510252091
decision_type=2 2 2 2 2 2 2 2 2 2 2 2 2
left_child=2 5 6 10 -5 9 12 8 -4 -2 -3 -7 -1
right_child=1 3 7 4 -6 11 -8 -9 -10 -11 -12 -13 -14
leaf_value=0.0029666071195838489 0 0.0077308267723019729 0.0038802602514655584 -0.0034467576902893443 0.0033561339768598325 -0.0019557746487953139 -0.011112013453152362 0.011826472874948502 -0.0016743017311861364 -0.007869562190051636 0 0.005407322739436427 -0.0022649194207808622
leaf_weight=37.29157555103302 40.190209522843361 116.9399030059576 816.35962121188641 388.56582826375961 187.39172729849815 66.617364227771759 40.306212186813354 37.458839550614357 106.69223056733608 456.80905073881149 50.54594874382019 39.338654220104218 64.790465399622917
leaf_count=155 167 482 3332 1637 776 281 170 153 435 1922 208 165 270
internal_value=-0.000111342 -0.0023971 0.00262314 0.00030545 -0.00112028 -0.00580314 -0.003637 0.00362732 0.00316802 -0.00722657 0.00544651 0.000357673 0
internal_weight=2449.3 1346.4 1102.9 743.443 575.958 602.955 142.388 960.511 923.052 496.999 167.486 105.956 102.082
internal_count=10153 5638 4515 3103 2413 2535 595 3920 3767 2089 690 446 425
is_linear=0
shrinkage=0.02


Tree=40
num_leaves=15
num_cat=0
split_feature=6 12 15 15 11 4 1 1 15 11 15 1 15 11
split_gain=32.0643 32.531 20.3469 24.2015 19.1397 18.1294 17.0262 15.221 10.301 8.92579 8.4343 7.01344 5.50051 5.24167
threshold=0.0061442787609098087 -0.25881904510252113 0.94943761343769273 1.0314770320008455 0.81557309877216821 50.964868149007053 1.0015281174423067 1.0065976821658891 1.004372872447304 2.0579393575494489 0.9890784282706111 1.0267968385047122 1.0291969018873359 0.42658227693438189
decision_type=2 2 2 2 2 2 2 2 2 2 2 2 2 2
left_child=4 8 13 -4 5 7 -7 -1 10 12 -2 -10 -6 -3
right_child=1 2 3 -5 9 6 -8 -9 11 -11 -12 -13 -14 -15
leaf_value=0.0001433588363562208 -0.0039169023684300103 0 -0.0061600183253989905 0.0020645535168228196 0.0034869938149197774 -0.014961974071101322 -0.00015945254314050556 0.011164480886951893 -0.009113679454232507 0 0.0055645482263775668 0 0.0088163978657795072 0.0086457591715965176
leaf_weight=385.32837553322315 230.45981898903847 39.060529440641403 232.88035693764687 341.3879966288805 221.28420519828796 51.680679038167 88.16584087908268 54.867673873901367 296.56392106413841 122.46913711726665 35.568850129842758 39.643283426761627 210.41859659552574 123.40570904314518
leaf_count=1584 969 163 988 1420 904 216 362 224 1248 499 151 168 854 506
internal_value=-0.000132757 -0.00224764 0.000499663 -0.00119152 0.00231016 -0.000134284 -0.00637164 0.0017618 -0.00568376 0.00495434 -0.00234856 -0.00807385 0.00629322 0.00669286
internal_weight=2473.18 1338.97 736.735 574.268 1134.21 580.043 139.847 440.196 602.236 554.172 266.029 336.207 431.703 162.466
internal_count=10256 5613 3077 2408 4643 2386 578 1808 2536 2257 1120 1416 1758 669
is_linear=0
shrinkage=0.02


Tree=41
num_leaves=14
num_cat=0
split_feature=6 14 14 11 12 17 6 7 10 17 0 9 17
split_gain=28.5702 24.9222 23.8091 19.521 14.7729 11.1729 13.3173 8.54619 8.2952 9.26332 8.1624 5.02852 2.68258
threshold=0.0059235359298837045 36.890852076065848 26.669904809884574 0.59760926539658288 -0.5 -0.89544565315808522 0.0077158670835588859 0.023591995853333218 -0.0055389448452312076 1.4096870503802141 1.0016700482299525 57.036260376680303 -0.37651672127865748
decision_type=2 2 2 2 2 2 2 2 2 2 2 2 2
left_child=1 2 -1 10 8 11 -7 -5 12 -10 -3 -6 -2
right_child=4 3 -4 7 5 6 -8 -9 9 -11 -12 -13 -14
leaf_value=-0.00056193937083367975 -0.0019026026407181144 -0.0046728806817696138 0.017165930540018016 0.0020464589412600843 -0.0065404977070219897 -0.002185786499923546 0.0032240728141418803 0.0087486540049413874 -0.0067664052189271582 0.0022342461750309893 0.0024379601684895746 0.00030960791706923098 0.0048502376174293146
leaf_weight=37.711804553866386 36.829104781150818 236.45058399438858 76.515243664383888 524.14166957139969 141.63051542639732 324.20097571611404 388.05798178911209 97.358469650149345 391.83558890223503 38.485183864831924 72.314989909529686 37.379813224077225 36.134419456124306
leaf_count=155 156 977 314 2135 600 1342 1619 397 1651 162 297 160 151
internal_value=-0.000111466 0.00235721 0.0110318 0.00117463 -0.00200514 -0.000377376 0.000679928 0.00325358 -0.00473764 -0.0058072 -0.00280394 -0.00481449 0.000768661
internal_weight=2439.05 1044.49 114.227 930.266 1394.55 891.269 712.259 621.5 503.284 430.321 308.766 179.01 72.9635
internal_count=10116 4275 469 3806 5841 3721 2961 2532 2120 1813 1274 760 307
is_linear=0
shrinkage=0.02


Tree=42
num_leaves=15
num_cat=0
split_feature=6 15 14 14 15 14 2 15 14 14 4 2 2 2
split_gain=44.603 33.6856 28.6222 22.1784 22.9188 22.5921 19.9337 19.3259 17.8437 14.9928 23.0822 13.8574 5.42486 3.89585
threshold=0.0059235359298837045 0.94943761343769273 56.64124552679057 38.064250330274952 1.0291969018873359 61.374151443370941 0.94957614739544505 0.97690226183736939 74.972796861742395 37.353166857556779 -13.742890172530307 0.98489078996152424 0.97107578915008241 0.97674760014177786
decision_type=2 2 2 2 2 2 2 2 2 2 2 2 2 2
left_child=3 9 6 7 5 -5 -3 13 -6 12 -11 -4 -2 -1
right_child=1 2 11 4 8 -7 -8 -9 -10 10 -12 -13 -14 -15
leaf_value=0.0081192686641909078 -0.0033343086290591982 0.0037282905054230298 0.010186797348662546 0.00054709620807370601 0.0069489530892863265 -0.011807699605487547 -0.0082328190073321268 0.020922476152972876 -0.001869187294198732 0 0.015604546738065774 -0.0015020654152320704 0.0049420602620442065 0
leaf_weight=36.98648376762867 106.56877633929253 52.246103048324585 38.379100471735001 359.94719779491425 384.82042719423771 64.233270764350891 514.58278645575047 46.246839046478271 104.85502064228058 82.715746089816093 73.276850268244743 522.91005033254623 36.28712260723114 45.14669406414032
leaf_count=152 443 223 162 1478 1566 266 2177 189 429 342 300 2181 150 185
internal_value=3.11824e-05 -0.00223844 -0.00384361 0.00319176 0.00198691 -0.00129974 -0.00700245 0.0109225 0.00493961 0.00358694 0.00781308 -0.00051398 -0.000730179 0.00372575
internal_weight=2469.2 1426.97 1128.12 1042.24 913.856 424.18 566.829 128.38 489.675 298.848 155.993 561.289 142.856 82.1332
internal_count=10243 5978 4743 4265 3739 1744 2400 526 1995 1235 642 2343 593 337
is_linear=0
shrinkage=0.02


Tree=43
num_leaves=9
num_cat=0
split_feature=15 2 15 15 7 15 10 16
split_gain=20.6611 24.8959 22.0131 22.3655 19.6805 9.97633 9.78456 9.36568
threshold=0.86503291052169629 1.0076134392572216 1.3104050495712656 1.2120626204565059 0.039323402896803229 0.95042483611642037 -0.0053485585804747817 1.0329055018521927
decision_type=2 2 2 2 2 2 2 2
left_child=-1 4 3 -3 5 -2 -6 -4
right_child=1 2 7 -5 6 -7 -8 -9
leaf_value=0.013744612964868338 0.0034619808175624578 0.0021439551311613595 -0.011927200843571177 0.015238972700444173 0.00041425251202382773 -0.0015813049810855732 -0.0080648432337219397 0
leaf_weight=39.012399658560753 186.78747670352459 988.01687337458134 53.978875190019608 52.601081565022469 51.903106421232224 784.03348350524902 250.69241878390312 35.956369563937187
leaf_count=161 766 4074 224 217 218 3256 1070 150
internal_value=0.000157448 -6.62126e-05 0.00206312 0.00293297 -0.00200426 -0.000536715 -0.0064323 -0.00699407
internal_weight=2442.98 2403.97 1130.55 1040.62 1273.42 970.821 302.596 89.9352
internal_count=10136 9975 4665 4291 5310 4022 1288 374
is_linear=0
shrinkage=0.02


Tree=44
num_leaves=13
num_cat=0
split_feature=11 12 15 15 4 11 4 14 14 1 11 1
split_gain=27.4395 20.262 15.3879 17.2218 6.89888 13.5445 8.98459 5.5539 5.43754 3.01895 5.77192 0.837751
threshold=0.34929467119697216 -0.25881904510252113 0.93373382270379868 1.0335267763022946 154.37769482992758 1.124156871643432 -177.64413891414327 39.552834046344977 68.755807350406627 1.004193049796936 0.26946889702976617 1.0128674305754322
decision_type=2 2 2 2 2 2 2 2 2 2 2 2
left_child=8 4 7 -4 6 -6 -2 -3 9 10 -1 -11
right_child=1 2 3 -5 5 -7 -8 -9 -10 11 -12 -13
leaf_value=-0.013893186699201469 -0.0067324868114794281 0.0037813391262363615 -0.0014042110013693426 0.0035795555949967206 -0.012321543040465496 0 -0.00017068181904598368 0.013688388016348186 0 0 -0.0042686478818093569 -0.0048354258350388219
leaf_weight=69.938085049390793 92.834489777684212 87.100297018885612 506.07482850551605 575.31004336476326 63.28511917591095 60.642263278365135 728.15458999574184 52.914244368672371 64.04924401640892 42.119161576032639 84.918392866849899 37.356635451316833
leaf_count=308 394 357 2095 2357 268 254 3013 215 269 177 360 159
internal_value=-0.000394524 0.000367516 0.00208791 0.00119626 -0.00179239 -0.00619582 -0.00102157 0.00828203 -0.00603975 -0.00743833 -0.00928932 -0.00278509
internal_weight=2464.7 2166.32 1221.4 1081.38 944.916 123.927 820.989 140.015 298.382 234.332 154.856 79.4758
internal_count=10226 8953 5024 4452 3929 522 3407 572 1273 1004 668 336
is_linear=0
shrinkage=0.02


Tree=45
num_leaves=11
num_cat=0
split_feature=7 15 9 7 12 2 7 4 7 7
split_gain=18.6181 15.406 13.5311 20.9051 11.1967 13.9546 12.1368 9.75915 10.5964 4.94763
threshold=0.041712897338912688 0.87093550231648675 15.193136706257107 0.012355939606204298 -0.25881904510252113 1.0139339384572659 0.028875427906444238 -258.85536947598592 0.082921062266271814 0.0201065387253039
decision_type=2 2 2 2 2 2 2 2 2 2
left_child=2 -2 3 -1 6 -6 -4 -3 -9 -5
right_child=1 7 4 9 5 -7 -8 8 -10 -11
leaf_value=0.0056338966107130073 0.0077017965302619094 0.0024984782908529096 0.00081635812275578394 -0.015365301151089217 0.00060238563368762764 0.0054476445074829374 -0.0048630211083046928 -0.0040180412135016746 -0.013613347027082501 -0.0028087791665641604
leaf_weight=36.672301158308983 36.793669790029526 54.527122497558594 555.14692138135433 48.074737504124641 653.20881015062332 402.83587536215782 196.44545122981071 368.72654542326927 59.354303702712059 38.1192357391119
leaf_count=150 152 232 2292 199 2697 1648 825 1561 253 159
internal_value=-0.000160116 -0.00352232 0.000720248 -0.00548889 0.00118937 0.00252415 -0.000611099 -0.00457129 -0.0056288 -0.0109286
internal_weight=2449.9 519.402 1930.5 122.866 1807.64 1056.04 751.592 482.608 428.081 86.194
internal_count=10168 2198 7970 508 7462 4345 3117 2046 1814 358
is_linear=0
shrinkage=0.02


Tree=46
num_leaves=15
num_cat=0
split_feature=6 15 1 11 15 1 14 14 14 15 0 14 6 14
split_gain=29.1097 25.9586 21.3985 18.8803 17.6462 18.1497 12.3013 13.9492 11.6828 10.406 9.86615 9.70705 8.31825 7.85227
threshold=0.0060336290387065531 0.94943761343769273 1.0064503660435831 0.56586700066127371 1.1000740749054423 1.0037099945157293 46.370646439989976 54.77763760591742 33.482352644382601 0.99276164628768016 0.99070847322369371 27.467493487128149 0.0095495991647857274 37.071754679761874
decision_type=2 2 2 2 2 2 2 2 2 2 2 2 2 2
left_child=2 8 3 13 12 -6 -4 -8 11 -5 -10 -2 -3 -1
right_child=1 4 6 9 5 -7 7 -9 10 -11 -12 -13 -14 -15
leaf_value=0.0035089073393452142 0.0015698267902021052 -0.0043254224598705529 0.014031566640616416 -0.0013803243839288206 0.0049507530569181113 -0.0040982084398306596 -0.0046950303123860756 0.0073594894417118063 -0.0018654239551588834 0.0042173051058197967 0.0077201969711588984 -0.010297042730332294 -0.010037106909918818 -0.0052883200858605765
leaf_weight=36.542623817920685 59.704614087939262 564.43060643970966 73.150219604372978 173.44584979116917 148.56146065890789 203.34798517823219 47.076854974031448 110.90480513870716 43.553393930196762 404.95749400556087 158.7404550909996 36.858043059706688 159.71603344380856 238.32738156616688
leaf_count=152 248 2384 297 709 618 847 192 450 181 1649 653 154 688 987
internal_value=-0.000535307 -0.00248263 0.00187868 0.000328076 -0.00394976 -9.41656e-05 0.00722083 0.0033654 0.00258048 0.00243845 0.00537177 -0.00265293 -0.00572765 -0.00386259
internal_weight=2459.32 1374.91 1084.41 853.273 1076.06 351.909 231.132 157.982 298.857 578.403 202.294 96.5627 724.147 274.87
internal_count=10209 5773 4436 3497 4537 1465 939 642 1236 2358 834 402 3072 1139
is_linear=0
shrinkage=0.02


Tree=47
num_leaves=13
num_cat=0
split_feature=6 12 4 9 1 11 14 1 14 14 14 7
split_gain=25.2194 25.7091 18.4385 16.725 13.082 14.4878 13.8927 9.09426 11.145 6.57484 11.287 2.37172
threshold=0.0059235359298837045 -0.25881904510252113 -221.56611465910706 46.307295559209678 1.0065976821658891 0.35757237401046088 77.73596710200674 1.024870849597032 63.329540790911345 46.370646439989976 54.77763760591742 0.013489163208180712
decision_type=2 2 2 2 2 2 2 2 2 2 2 2
left_child=4 7 -3 -4 5 11 -7 8 -2 -6 -11 -1
right_child=1 2 3 -5 9 6 -8 -9 -10 10 -12 -13
leaf_value=-0.00012014376521711395 -0.00313337205381067 0.012344383702254639 0.0022768075456802844 -0.0040560443479388184 0.012351379175788355 0.0032623120378919941 -0.0058001992726350602 0.0018659972013607522 -0.0096493368678484369 -0.0036123065783115527 0.0075717683010436713 -0.0088576066421294057
leaf_weight=35.769872009754181 392.97226929664612 47.720084577798843 477.46624991297722 249.6280982196331 70.09011372923851 680.65740233659744 66.237900078296661 65.02105787396431 172.95243529975414 43.40916533768177 98.463461503386497 48.802350595593452
leaf_count=150 1662 199 1990 1048 284 2777 271 276 727 177 399 208
internal_value=0.000261273 -0.00145805 0.000918804 7.7858e-06 0.00263077 0.00138939 0.00234559 -0.0044555 -0.00529688 0.00707955 0.00373475 -0.00604494
internal_weight=2449.19 1405.76 774.814 727.094 1043.43 831.468 746.895 630.946 565.925 211.963 141.873 84.5722
internal_count=10168 5902 3237 3038 4266 3406 3048 2665 2389 860 576 358
is_linear=0
shrinkage=0.02


Tree=48
num_leaves=10
num_cat=0
split_feature=17 11 1 11 2 2 2 15 2
split_gain=29.2489 22.5073 18.8607 16.0836 9.03674 8.3299 10.7808 4.69039 0.000865889
threshold=-1.7742196309207567 0.38532902253615686 1.0135982952467677 1.124156871643432 0.94826807661182044 1.0053324404884536 1.0571182132698607 0.94943761343769273 0.98041226344712762
decision_type=2 2 2 2 2 2 2 2 2
left_child=8 5 4 -4 -3 7 -7 -2 -1
right_child=1 2 3 -5 -6 6 -8 -9 -10
leaf_value=-0.015419818910278223 -0.00054579511547413943 0.0076187129340561594 -0.0072210676145737628 0.001410281756253123 0.0014190486812859294 0.0017186188047047198 -0.0094743913909606705 -0.0091663246116298162 -0.0061933359735448648
leaf_weight=36.669655054807663 50.094958767294884 101.87397769093513 183.51468025147915 138.9801781475544 1595.598950907588 130.54970437288284 39.657299041748047 140.07888862490654 44.870002523064613
leaf_count=163 211 423 768 576 6568 546 167 604 196
internal_value=-0.000257048 0.000133017 0.000981421 -0.00335341 0.00184765 -0.00440651 -0.000742793 -0.00727511 -0.0116871
internal_weight=2461.89 2380.35 2019.97 322.495 1697.47 360.381 170.207 190.174 81.5397
internal_count=10222 9863 8335 1344 6991 1528 713 815 359
is_linear=0
shrinkage=0.02


Tree=49
num_leaves=9
num_cat=0
split_feature=11 4 3 16 16 14 14 14
split_gain=20.4372 17.7161 12.7119 13.6153 7.19241 5.15294 3.69764 1.80384
threshold=0.3010288251973679 274.49913368286258 76.312712602930731 1.3379188107386526 1.0815954732328132 42.248491366350478 65.200257152949277 50.026168637083508
decision_type=2 2 2 2 2 2 2 2
left_child=5 2 3 -2 -4 -1 7 -7
right_child=1 -3 4 -5 -6 6 -8 -9
leaf_value=0 0.0010367729721690556 -0.0093922983650764798 0.00046744466514863996 -0.0035297088712606429 0.011332860875241362 -0.0034762890377278881 -0.0018722946588333484 -0.013471016799604579
leaf_weight=47.776317521929741 1792.6881139874458 65.500428885221481 57.184657648205757 297.73663736879826 64.721899941563606 35.176662281155586 49.999814882874489 57.717306017875671
leaf_count=207 7398 280 236 1247 267 154 212 252
internal_value=-9.01354e-05 0.000417148 0.000755159 0.00035087 0.00692806 -0.00631281 -0.00816469 -0.01067
internal_weight=2468.5 2277.83 2212.33 2090.42 121.907 190.67 142.894 92.894
internal_count=10253 9428 9148 8645 503 825 618 406
is_linear=0
shrinkage=0.02


Tree=50
num_leaves=7
num_cat=0
split_feature=11 4 14 14 9 3
split_gain=19.5506 12.584 8.98348 25.6902 16.4066 3.24779
threshold=0.26487822408537004 286.55736224146136 44.083297360178015 55.113687280872064 46.537627147108346 57.167810067316339
decision_type=2 2 2 2 2 2
left_child=5 2 4 -4 -2 -1
right_child=1 -3 3 -5 -6 -7
leaf_value=-0.010468704362877642 0.0046365665366789278 -0.0081680598193148071 -0.0033142534907969414 0.0017468407455379833 -0.0023503050042050504 -0.0011607221861322675
leaf_weight=77.052315011620522 444.27747714519501 63.504448741674423 658.78628648817539 1001.7820998430252 175.45068654417992 39.447502285242081
leaf_count=338 1838 273 2733 4136 729 170
internal_value=-0.000151056 0.000229127 0.000506596 -0.000228912 0.0025595 -0.00798826
internal_weight=2460.3 2343.8 2280.3 1660.57 619.728 116.5
internal_count=10217 9709 9436 6869 2567 508
is_linear=0
shrinkage=0.02


Tree=51
num_leaves=14
num_cat=0
split_feature=7 2 3 12 2 15 3 10 15 12 2 1 7
split_gain=20.4401 15.8098 20.7853 17.5206 12.6935 10.9841 15.8445 10.1595 8.18572 7.48074 6.88246 3.1747 0.235356
threshold=0.04741919935785819 1.0139339384572659 71.021157422484649 -0.25881904510252113 1.0627981384138703 0.94943761343769273 80.21148488243675 -0.0029626048719351701 1.0097972586522956 0.37940952255126054 0.97304747370390543 0.97806533006810348 0.024841798648973314
decision_type=2 2 2 2 2 2 2 2 2 2 2 2 2
left_child=1 2 10 4 -3 9 7 -7 -5 11 -1 -2 -4
right_child=5 3 12 8 -6 6 -8 -9 -10 -11 -12 -13 -14
leaf_value=0.0012939557537313901 -0.0066508444982161883 0.0011585165418152529 0.0033737772220310443 0.010659263314075091 -0.0094365780469976915 -0.0005471642629911428 0.0033858755647365362 -0.010902131858782312 0.0037261294093494757 0.0070639008470707058 -0.0021857551260674904 0 0.011269117912160689
leaf_weight=278.76037193834782 37.095454633235931 296.80979557335377 36.860134914517403 105.56756830215454 47.716831773519516 65.077318772673607 45.608993232250214 171.23592287302017 358.19905734062195 43.572180852293968 882.28966304659843 45.35256914794445 44.998488202691078
leaf_count=1166 155 1226 150 434 199 278 193 737 1465 181 3656 190 186
internal_value=0 0.000825075 -0.000550969 0.00300517 -0.000251239 -0.00405089 -0.00623282 -0.00836958 0.00552918 0.000423977 -0.00129688 -0.00260223 0.00880357
internal_weight=2459.14 2051.2 1242.91 808.293 344.527 407.942 281.922 236.313 463.767 126.02 1161.05 82.448 81.8586
internal_count=10216 8482 5158 3324 1425 1734 1208 1015 1899 526 4822 345 336
is_linear=0
shrinkage=0.02


Tree=52
num_leaves=15
num_cat=0
split_feature=13 15 15 14 14 7 14 14 8 16 15 15 9 15
split_gain=16.8726 15.4379 15.3863 14.5009 25.4617 14.8704 19.1098 13.9777 11.9604 9.66715 8.90748 8.80308 8.29659 7.82082
threshold=-0.37940952255126015 1.0344308878034638 1.0097972586522956 47.40348050498077 55.113687280872064 0.020659612517993472 38.275117770290372 62.252396919092284 0.53610988816607474 0.9152628694553967 1.2945729122050189 0.99276164628768016 19.794161746335579 1.0067477473179227
decision_type=2 2 2 2 2 2 2 2 2 2 2 2 2 2
left_child=1 2 11 5 13 9 -7 -6 -4 -2 12 -1 -3 -5
right_child=3 10 8 4 7 6 -8 -9 -10 -11 -12 -13 -14 -15
leaf_value=5.5318891348944991e-06 0.010513089070390348 -0.00040776661941291646 -0.013583666810781152 -0.0028090567028463539 0.0040536666972617605 -0.0054360957263519041 0.003318076542623965 -0.0022959856170735832 0 0 -0.002609118673063634 0.007813975934230815 0.0071011822508111671 -0.010267712542749705
leaf_weight=333.24773025512695 90.466624185442924 52.620755702257156 48.820113971829414 127.19242851436138 187.47530025243759 183.47168830037117 201.56135550141335 475.18253900110722 53.26397867500782 72.137812003493309 42.326470911502838 69.231679230928421 336.51241639256477 177.96283033490181
leaf_count=1374 372 214 203 536 784 774 850 1977 219 296 174 285 1377 748
internal_value=5.89536e-05 0.00218668 -7.93831e-05 -0.00121865 -0.00270577 0.0013016 -0.000715744 -0.000392808 -0.00693256 0.00631531 0.00494471 0.00157533 0.00594126 -0.00744771
internal_weight=2451.47 936.023 504.564 1515.45 967.813 547.637 385.033 662.658 102.084 162.604 431.46 402.479 389.133 305.155
internal_count=10183 3846 2081 6337 4045 2292 1624 2761 422 668 1765 1659 1591 1284
is_linear=0
shrinkage=0.02


Tree=53
num_leaves=15
num_cat=0
split_feature=6 2 16 6 17 8 7 2 4 4 12 17 6 6
split_gain=41.4368 16.5233 16.2558 11.5534 11.329 15.4692 10.6914 12.9338 10.1417 10.135 8.88274 7.14183 5.35217 2.66047
threshold=0.0060570976051884081 1.0076134392572216 0.80363421336506058 0.0052750681346908574 -1.1212232200280641 0.21210987069806844 0.022552192859622296 1.0482898550770343 29.332757352076452 -23.639442537277471 -0.25881904510252113 0.33445163742531986 0.011299774896536127 0.011016993677098725
decision_type=2 2 2 2 2 2 2 2 2 2 2 2 2 2
left_child=1 2 8 -4 9 12 7 -3 -1 13 -7 -8 -6 -2
right_child=4 6 3 -5 5 10 11 -9 -10 -11 -12 -13 -14 -15
leaf_value=0.00019805391053046763 -0.012163640821523857 0.0018538533924503612 0.0055333696708906631 -0.0022864322382870977 0.001342167416120183 -0.004650486703755106 0.018217299566112163 0.010706428743715652 -0.0077293483169155698 0 -0.00058946163741489669 0.0050728183777046512 0.009733243916683185 -0.0024760501425419093
leaf_weight=120.84663270413876 85.780925899744034 329.87639555335045 267.11168974637985 88.789822608232498 163.85663995146751 399.48282395303249 43.062441036105156 88.194656103849411 105.88570293784142 69.35174249112606 550.79388198256493 61.123285606503487 42.258837312459946 36.324472814798355
leaf_count=497 375 1343 1092 364 684 1686 175 358 439 298 2297 248 176 157
internal_value=0.000239796 0.00312526 0.000679166 0.0034116 -0.002084 -0.00125887 0.00570802 0.00396764 -0.00333208 -0.00660344 -0.00237487 0.0116407 0.00353653 -0.00996455
internal_weight=2452.74 1104.89 582.634 355.902 1347.85 1156.39 522.257 418.071 226.732 191.457 950.277 104.186 206.115 122.105
internal_count=10189 4516 2392 1456 5673 4843 2124 1701 936 830 3983 423 860 532
is_linear=0
shrinkage=0.02


Tree=54
num_leaves=11
num_cat=0
split_feature=12 17 1 8 7 14 1 11 1 15
split_gain=18.3043 16.1205 16.6855 13.8561 12.5222 22.2023 12.3276 10.0547 7.82913 1.52775
threshold=-0.25881904510252113 -1.7742196309207567 1.0313194837143864 0.7938453576263681 0.024226600215821775 34.448257125457225 1.004193049796936 0.93588761672497711 1.0241485283154066 0.94943761343769273
decision_type=2 2 2 2 2 2 2 2 2 2
left_child=4 -2 3 -3 5 -1 -7 9 -9 -6
right_child=1 2 -4 -5 7 6 -8 8 -10 -11
leaf_value=0.013522824222088677 -0.0091907427993165938 0.0010450301535626174 -0.010668116909541647 0.0063224283816181951 -0.0024739989819954232 0.00065094193393369431 -0.0064560236413965279 -0.0029687914193192279 0.0058849174210043936 -0.0082642880713245763
leaf_weight=39.51268295943737 50.421043902635574 1092.870217859745 35.978276446461678 252.70446637272835 62.256571710109711 324.77096299827099 127.73281718790531 225.14849832653999 40.391413524746895 199.96828383207321
leaf_count=162 222 4519 152 1033 261 1338 525 946 170 857
internal_value=-0.000198095 0.00123183 0.00168725 0.00210031 -0.00226075 0 -0.0012727 -0.00438551 -0.0013164 -0.00718612
internal_weight=2451.76 1431.97 1381.55 1345.57 1019.78 492.016 452.504 527.765 265.54 262.225
internal_count=10185 5926 5704 5552 4259 2025 1863 2234 1116 1118
is_linear=0
shrinkage=0.02


Tree=55
num_leaves=11
num_cat=0
split_feature=6 14 4 3 11 14 3 11 14 7
split_gain=31.7019 15.123 13.874 16.7099 12.2674 11.0857 8.14833 7.13529 5.90077 2.6071
threshold=0.0059235359298837045 74.281064588839129 274.49913368286258 77.638030824846126 0.53779809901889275 44.083297360178015 55.221262903812672 2.3321326556209967 46.631797616012399 0.012569340436309251
decision_type=2 2 2 2 2 2 2 2 2 2
left_child=1 4 3 5 8 -2 9 -6 -1 -3
right_child=2 6 -4 -5 7 -7 -8 -9 -10 -11
leaf_value=0.0042231259579599964 0.00061233850053113697 -0.010615796741462891 -0.010545636695061216 0.0079459939283046104 0.0057206730269552019 -0.0033141210574810526 0.0029553583201936129 0 -0.0022321897878435138 -0.0017228625755165586
leaf_weight=77.015262961387634 395.9143685400486 42.501989349722862 69.306372001767159 64.210840329527855 586.85693404078484 851.40764552354813 39.366041585803032 79.686451554298401 175.14057168364525 49.249175637960434
leaf_count=319 1660 174 300 268 2385 3584 160 324 725 202
internal_value=0 0.00260509 -0.00199619 -0.0014605 0.00354499 -0.00202244 -0.00342806 0.0049591 0 -0.00679822
internal_weight=2430.66 1049.82 1380.84 1311.53 918.699 1247.32 131.117 666.543 252.156 91.7512
internal_count=10101 4289 5812 5512 3753 5244 536 2709 1044 376
is_linear=0
shrinkage=0.02


Tree=56
num_leaves=13
num_cat=0
split_feature=6 1 14 17 14 6 17 6 1 14 10 8
split_gain=29.8587 15.4344 14.5744 12.9337 11.9635 11.2949 10.4373 7.60463 8.47917 6.94554 5.91015 0.0486558
threshold=0.0061442787609098087 1.0076615223000651 37.071754679761874 0.32396317379660494 48.763735605377484 0.0050154171161159574 -2.1127792203735196 0.0077158670835588859 1.014499723168113 48.544528315105403 -0.0055389448452312076 0.89211639868633463
decision_type=2 2 2 2 2 2 2 2 2 2 2 2
left_child=1 2 5 11 -4 -1 -2 10 -9 -5 -8 -3
right_child=6 3 4 9 -6 -7 7 8 -10 -11 -12 -13
leaf_value=0.012238341619745935 -0.012764495993104457 0.016759631175793335 -0.0036467297432669771 0.0088746993780234092 0.0017418240059043164 0 0.0025363914589375995 0.00079547934621651735 -0.0038409322904217908 -0.00065201671702102106 -0.0043098619545076352 0.0066519750092798704
leaf_weight=73.631672590970993 31.845264121890068 44.87280236184597 218.21060045063496 37.344532072544098 609.03644515573978 39.33256097137928 41.900155156850815 591.23248709738255 205.72208517789841 75.170799151062965 453.14617569744587 38.09791786968708
leaf_count=301 145 182 894 151 2492 161 175 2490 870 305 1900 154
internal_value=1.05557e-05 0.00240817 0.00124939 0.00751204 0.000234972 0.00784459 -0.00200247 -0.00164277 -0.00034301 0.00224245 -0.00359085 0.0134424
internal_weight=2459.54 1135.7 940.211 195.486 827.247 112.964 1323.85 1292 796.955 112.515 495.046 82.9707
internal_count=10220 4640 3848 792 3386 462 5580 5435 3360 456 2075 336
is_linear=0
shrinkage=0.02


Tree=57
num_leaves=10
num_cat=0
split_feature=17 11 14 14 1 1 16 10 16
split_gain=20.4063 13.212 10.3652 12.2328 12.1898 8.04458 9.20821 4.34582 2.23347
threshold=-1.7742196309207567 0.55806112817298648 68.334558877864595 55.113687280872064 0.99840867076284734 1.0174761414926821 1.1482783880140741 0.00022076142846161331 0.93210286008844123
decision_type=2 2 2 2 2 2 2 2 2
left_child=8 5 3 -3 -4 6 -2 -7 -1
right_child=1 2 4 -5 -6 7 -8 -9 -10
leaf_value=-0.0023747225928128493 0.00034438263677590057 0.0015374450416872837 0.0036839193513151826 0.0062813488902105268 -0.003515333713583162 -0.012179668080293027 -0.0063721705096195236 -0.00074360748515387299 -0.012088833415791289
leaf_weight=37.916119143366814 620.78199085593224 873.29758179187775 139.26110854744911 314.58604209125042 250.37724104523659 35.109735935926437 87.252832502126694 39.799103036522865 47.219840928912163
leaf_count=167 2596 3604 575 1296 1029 150 369 169 212
internal_value=0.00048319 0.000861267 0.00192824 0.00286513 -0.000776128 -0.00121097 -0.000438046 -0.00728125 -0.00879994
internal_weight=2445.6 2360.47 1577.52 1187.88 389.638 782.944 708.035 74.9088 85.136
internal_count=10167 9788 6504 4900 1604 3284 2965 319 379
is_linear=0
shrinkage=0.02


Tree=58
num_leaves=10
num_cat=0
split_feature=17 15 1 9 15 3 15 17 17
split_gain=19.5433 15.7998 13.7823 13.736 11.8498 12.7189 9.19168 3.85382 3.39101
threshold=-1.1212232200280641 0.94943761343769273 0.99967405396535447 14.624979510968249 0.93373382270379868 47.399246534736783 0.9134663838649355 0.055444242834228753 -1.7742196309207567
decision_type=2 2 2 2 2 2 2 2 2
left_child=1 -1 8 7 6 -6 -5 -2 -3
right_child=3 2 -4 4 5 -7 -8 -9 -10
leaf_value=0.0032003369501536799 0 -0.015410975005726187 0.00030300313213622811 0.0018109192123724224 0.0028221377467398541 -0.00056020791100771584 0.010772593151951657 -0.0089001980566430512 -0.0065493130480040653
leaf_weight=64.508660241961479 46.334145292639732 53.596137285232544 55.263617053627968 143.0482561737299 694.19471484422684 1165.1974831223488 83.976165071129799 63.151434510946274 108.26318673789501
leaf_count=270 191 244 231 590 2876 4822 344 262 466
internal_value=0.000191603 -0.00468932 -0.00732279 0.000854091 0.00124522 0.000674574 0.00554514 -0.00580429 -0.0102171
internal_weight=2477.53 281.632 217.123 2195.9 2086.42 1859.39 227.024 109.486 161.859
internal_count=10296 1211 941 9085 8632 7698 934 453 710
is_linear=0
shrinkage=0.02


Tree=59
num_leaves=11
num_cat=0
split_feature=11 1 11 17 0 1 1 7 4 1
split_gain=20.7133 14.3247 23.6864 15.7415 9.55306 8.79763 7.09712 4.73328 1.61039 0.893232
threshold=0.30600691297018734 1.0138584316317705 1.1368219969350946 -1.7742196309207567 1.0016700482299525 1.0039544092014741 1.0204642297294313 0.042844048565642674 9.9897826245565273 1.0107677734167397
decision_type=2 2 2 2 2 2 2 2 2 2
left_child=5 3 7 -2 -5 8 -4 -3 -1 -7
right_child=1 2 6 4 -6 9 -8 -9 -10 -11
leaf_value=-0.0050592211882241082 -0.0079787847219412629 -0.0019164871087193301 -0.0014629816992246898 0.00054563366456390988 0.003679409217743785 0.0016099370503868627 0.0070692500134770485 -0.0098974788472725918 -0.013011028245824676 -0.0024991003120047707
leaf_weight=72.633050546050072 64.577518671751022 68.524611875414848 56.077450409531593 1255.1330297142267 602.11985014379025 36.088794872164726 73.954749286174774 131.27583393454552 52.866806134581566 35.156076341867447
leaf_count=318 286 284 231 5180 2474 153 309 557 233 151
internal_value=0 0.000543 -0.00322818 0.00122806 0.00160097 -0.00614575 0.00302739 -0.00756686 -0.00923886 0
internal_weight=2448.41 2251.66 329.833 1921.83 1857.25 196.745 130.032 199.8 125.5 71.2449
internal_count=10176 9321 1381 7940 7654 855 540 841 551 304
is_linear=0
shrinkage=0.02


Tree=60
num_leaves=15
num_cat=0
split_feature=6 15 14 11 1 15 17 8 14 8 14 17 17 15
split_gain=25.7474 23.406 19.4707 16.0469 13.2826 12.5235 11.1539 11.0549 9.73089 10.5204 9.73096 7.4386 4.674 5.69324
threshold=0.0061442787609098087 0.94943761343769273 55.113687280872064 0.75934790903799965 1.0051916290663649 1.1015961024945027 0.45143038223923287 0.31433427342289622 33.482352644382601 0.38365320287540478 25.675850806930523 0.3435295663172207 -0.92323594301334055 1.0282761512326064
decision_type=2 2 2 2 2 2 2 2 2 2 2 2 2 2
left_child=3 8 5 4 7 -3 -4 -1 10 -10 -2 -6 -5 -14
right_child=1 2 6 12 11 -7 -8 -9 9 -11 -12 -13 13 -15
leaf_value=0.0029408871051496595 0.003602659963932602 -0.0075760005351650905 -0.0028874736345278545 -0.00011137925398158447 0.010025417098561843 0.0015700744168342003 0.0030603628238450643 -0.0042577152331602789 0.00018667959638409993 0.0099671285109637717 -0.0084403135844880826 0 0.0023282256079300433 0.006971652071719233
leaf_weight=103.51114910840988 43.635519757866859 435.57165560126305 360.76392850279808 61.666561350226402 57.035761088132858 55.405047222971916 181.22275485098362 306.03672455251217 102.24064181745052 95.120437487959862 46.761983245611191 67.943779572844505 266.63092948496342 272.63864576816559
leaf_count=425 181 1870 1520 253 232 232 758 1266 424 390 196 277 1084 1102
internal_value=-0.00018957 -0.0021067 -0.00353496 0.0019872 -0.000434209 -0.0064175 -0.000779223 -0.00228004 0.00278818 0.00532678 -0.002114 0.00500786 0.00422585 0.00482852
internal_weight=2456.19 1320.72 1032.96 1135.46 534.527 490.977 541.987 409.548 287.759 197.361 90.3975 124.98 600.936 539.27
internal_count=10210 5571 4380 4639 2200 2102 2278 1691 1191 814 377 509 2439 2186
is_linear=0
shrinkage=0.02


Tree=61
num_leaves=11
num_cat=0
split_feature=17 9 7 9 12 11 9 14 14 7
split_gain=17.4951 13.2709 17.8036 13.1 12.4081 13.3093 7.55619 6.92118 4.93387 3.0668
threshold=-0.89544565315808522 15.453712110028405 0.012569340436309251 18.537449184573557 -0.25881904510252113 0.30600691297018734 56.642897036475986 67.109981515963511 41.154469558897183 0.0202424831939544
decision_type=2 2 2 2 2 2 2 2 2 2
left_child=3 2 -2 -1 7 -6 8 -3 -5 -4
right_child=1 4 9 6 5 -7 -8 -9 -10 -11
leaf_value=0.0062587254431542881 0.0043353799721247959 6.6483739687341509e-05 -0.014730782202253989 -0.001038536336536079 -0.0042807777942038749 0.0030620872677340656 0.00031211824557206275 -0.0041921918243460589 -0.0079192643823115614 -0.0035388301844049724
leaf_weight=35.98778261244297 37.721259653568268 597.96357138454914 46.07753574848175 78.161017552018166 98.607386410236359 1009.0040919184685 62.281194880604744 188.87300705909729 236.02869790792465 38.943917587399483
leaf_count=151 154 2491 192 331 424 4137 269 785 1008 162
internal_value=-0.000226534 0.000517297 -0.00565754 -0.0039707 0.000962797 0.00233815 -0.00517506 -0.000900016 -0.0064386 -0.0107521
internal_weight=2429.65 2017.19 122.743 412.459 1894.45 1107.61 376.471 786.837 314.19 85.0215
internal_count=10104 8345 508 1759 7837 4561 1608 3276 1339 354
is_linear=0
shrinkage=0.02


Tree=62
num_leaves=9
num_cat=0
split_feature=11 4 17 15 15 14 2 3
split_gain=23.5466 23.4731 15.9651 11.3082 7.58367 6.97554 3.40663 0.41965
threshold=0.26487822408537004 274.49913368286258 -0.87711291257785096 0.93487807383586363 1.0162192779210601 50.026168637083508 1.0076134392572216 47.399246534736783
decision_type=2 2 2 2 2 2 2 2
left_child=6 2 4 -4 -2 -3 7 -1
right_child=1 5 3 -5 -6 -7 -8 -9
leaf_value=-0.014570815746032218 0 -0.016196765380179876 0.0062506893406578988 0.0011869872469460426 -0.0058253743712906782 -0.0014386163473735167 -0.0018804181411189458 -0.0047704022881416997
leaf_weight=37.500202119350433 219.78161087632179 35.771226122975349 203.01355054974556 1687.411576166749 163.70827612280846 34.97554737329483 44.547181308269501 35.062963888049126
leaf_count=171 934 156 830 6959 692 150 190 156
internal_value=0.000148006 0.000616533 0.00100334 0.00177749 -0.0026322 -0.0102694 -0.00838216 -0.0112216
internal_weight=2461.77 2344.66 2273.92 1890.43 383.49 70.7468 117.11 72.5632
internal_count=10238 9721 9415 7789 1626 306 517 327
is_linear=0
shrinkage=0.02


Tree=63
num_leaves=14
num_cat=0
split_feature=6 14 2 2 14 14 14 2 6 9 17 17 14
split_gain=33.6911 18.4092 24.7612 15.1778 12.7511 11.8113 10.2275 16.0176 10.0675 8.67104 8.29621 5.73099 5.28666
threshold=0.00600924683562857 74.972796861742395 1.0272466595251479 0.95488394300582258 39.552834046344977 45.285691541450127 79.677969522895609 1.0294534382141867 0.012007071877607307 22.398704114242335 -0.93768032249691979 -0.23522108097215341 47.847716427169878
decision_type=2 2 2 2 2 2 2 2 2 2 2 2 2
left_child=1 2 5 4 8 -1 10 -8 -2 -3 -5 -4 -6
right_child=3 9 11 6 12 -7 7 -9 -10 -11 -12 -13 -14
leaf_value=0.0056447718914458805 -0.0096702945561794804 0.0020734581538443455 0.001454711590004521 -0.0074957760289288211 0.013345577461302672 0.00028266219362226279 0.011296591574782236 -0.0023232628109133976 0.0028754476608949218 -0.0082967531413590118 -0.0026364835154508688 0.012751312969068585 0.0017150058172695957
leaf_weight=245.59496557712555 35.421595945954323 37.212342470884323 37.080162480473518 195.46797505021095 43.248118579387665 556.4858683347702 44.448382541537285 97.811964735388756 55.671943232417107 78.640964239835739 830.44627790153027 126.24591457843781 46.364985808730125
leaf_count=1001 150 152 150 849 181 2278 186 408 233 322 3488 511 199
internal_value=4.76673e-06 0.00265278 0.0035944 -0.00207552 0.0030993 0.00202367 -0.00293696 0.00176381 -0.00162789 -0.00452137 -0.00365239 0.0106625 0.00837083
internal_weight=2430.14 1081.26 965.407 1348.88 180.707 802.081 1168.17 142.26 91.0935 115.853 1025.91 163.326 89.6131
internal_count=10108 4414 3940 5694 763 3279 4931 594 383 474 4337 661 380
is_linear=0
shrinkage=0.02


Tree=64
num_leaves=7
num_cat=0
split_feature=15 17 12 15 0 9
split_gain=19.2178 14.9135 17.4071 20.5638 8.36479 6.73937
threshold=0.86503291052169629 -1.7742196309207567 -0.25881904510252113 1.0271195264343911 0.99070847322369371 44.745536813831258
decision_type=2 2 2 2 2 2
left_child=-1 5 4 -4 -3 -2
right_child=1 2 3 -5 -6 -7
leaf_value=0.01264400139420881 -0.0019970896588728253 -0.0077267164953234201 -0.001184868056475595 0.0036705719618110662 -0.0015060257873214173 -0.015280218130824209
leaf_weight=40.091855809092522 49.552184119820595 100.52082671225071 668.31691807508469 693.31074617803097 855.4864896684885 33.524260327219963
leaf_count=165 223 426 2770 2853 3565 152
internal_value=-0.000242579 -0.000508557 -0.000174731 0.0012479 -0.00225934 -0.00860167
internal_weight=2440.8 2400.71 2317.63 1361.63 956.007 83.0764
internal_count=10154 9989 9614 5623 3991 375
is_linear=0
shrinkage=0.02


Tree=65
num_leaves=15
num_cat=0
split_feature=17 3 13 15 15 12 15 2 2 17 3 2 2 4
split_gain=18.7387 14.0873 16.3641 11.7774 22.1674 14.8599 10.2799 33.6524 15.9343 13.6428 9.16456 6.29998 5.74824 2.10727
threshold=-0.87711291257785096 47.57567388950509 -0.12940952255126037 1.0354776260571066 1.0104363132572702 -0.25881904510252113 1.0131279387774574 1.0063306536453915 1.0282618942853794 -1.7742196309207567 71.021157422484649 0.96489398336938559 0.99445259455627999 -2.2729648088408179
decision_type=2 2 2 2 2 2 2 2 2 2 2 2 2 2
left_child=6 3 10 4 -2 -5 9 13 -9 -1 -3 -11 -4 -8
right_child=1 2 12 5 -6 -7 7 8 -10 11 -12 -13 -14 -15
leaf_value=-0.0089655821798184116 0.0030238814797010406 0.00030700684217012039 -0.0056951403547398013 0 -0.0080211518768159157 0.0091548060480290527 -0.017529490701560117 0.011456894779397644 -0.0046392731842031772 -0.0031600640501061911 0.0063027700066876791 0.0043640066967768195 -0.0013478427375134547 -0.0069233305009706262
leaf_weight=57.172139897942543 327.58048209547997 441.59887419641018 186.10510036349297 127.54768960177898 87.131936445832253 195.40090183913708 66.969931304454803 35.979559406638145 51.850235506892204 54.133749142289162 138.35111893713474 126.66925041377544 514.55177271366119 47.084568649530411
leaf_count=260 1357 1808 782 530 363 799 293 150 215 229 568 532 2141 202
internal_value=-9.78332e-05 0.000694488 -0.000535176 0.00289925 0.000492432 0.00575237 -0.00383517 -0.00713655 0.00157013 -0.000698303 0.00188156 0.00176391 -0.00261975 -0.0141296
internal_weight=2458.13 2018.27 1280.61 737.661 414.712 322.949 439.859 201.884 87.8298 237.975 579.95 180.803 700.657 114.054
internal_count=10229 8348 5299 3049 1720 1329 1881 860 365 1021 2376 761 2923 495
is_linear=0
shrinkage=0.02


Tree=66
num_leaves=12
num_cat=0
split_feature=7 11 11 12 1 14 15 5 11 16 14
split_gain=18.571 12.3977 10.6389 11.4078 15.7619 7.91637 4.95978 4.49369 5.65586 5.08035 4.01004
threshold=0.04741919935785819 0.54932997534285699 0.2532831844084899 -0.5 0.99701109877117455 33.855958678862862 0.94819517047872925 38.267076644547977 1.1368219969350946 1.3310373548539023 60.725495630021143
decision_type=2 2 2 2 2 2 2 2 2 2 2
left_child=2 6 -1 5 -5 -4 -2 9 -9 -3 -8
right_child=1 7 3 4 -6 -7 10 8 -10 -11 -12
leaf_value=-0.0062891723880950283 -0.00058916703358607157 0.006315933519955217 0.0059528904588545609 -0.00091782024547484202 0.0036926450256934513 -0.0016692525792770462 -0.013123321895320107 -0.0061132452374333878 0.00094544120039760334 -0.0019516451897110126 -0.0022848874698936377
leaf_weight=74.268878236413002 42.293116942048073 54.149278521537781 52.357753440737724 411.95655232667923 897.97116513550282 621.23851473629475 78.071111351251602 92.55117192864418 59.368437677621841 40.860744297504425 37.166070476174355
leaf_count=326 179 229 217 1709 3677 2588 345 393 250 175 159
internal_value=0 -0.0038729 0.000789812 0.00110019 0.0021991 -0.000948879 -0.00821002 -0.00075981 -0.0030302 0.00224057 -0.0103671
internal_weight=2462.25 404.46 2057.79 1983.52 1309.93 673.596 157.53 246.93 151.92 95.01 115.237
internal_count=10247 1730 8517 8191 5386 2805 683 1047 643 404 504
is_linear=0
shrinkage=0.02


end of trees

feature_importances:
ma_50_1d_ratio=108
rsi_14_1d=96
ma_200_ratio=67
volume_ratio=62
return_skew_20=51
ma_30_ratio=50
macd_hist=44
atr_14_pct=42
bb_width=40
hour_sin=28
adx_14=27
vol_ratio_7_30=27
rsi_14=24
hour_cos=20
ma_10_ratio=16
bb_position=15
stoch_k=8
return_1=8

parameters:
[boosting: gbdt]
[objective: binary]
[metric: binary_logloss]
[tree_learner: serial]
[device_type: cpu]
[data_sample_strategy: bagging]
[data: ]
[valid: ]
[num_iterations: 200]
[learning_rate: 0.02]
[num_leaves: 15]
[num_threads: 12]
[seed: 42]
[deterministic: 1]
[force_col_wise: 0]
[force_row_wise: 0]
[histogram_pool_size: -1]
[max_depth: 4]
[min_data_in_leaf: 150]
[min_sum_hessian_in_leaf: 0.001]
[bagging_fraction: 0.7]
[pos_bagging_fraction: 1]
[neg_bagging_fraction: 1]
[bagging_freq: 1]
[bagging_seed: 400]
[bagging_by_query: 0]
[feature_fraction: 0.5]
[feature_fraction_bynode: 1]
[feature_fraction_seed: 30056]
[extra_trees: 0]
[extra_seed: 12879]
[early_stopping_round: 0]
[early_stopping_min_delta: 0]
[first_metric_only: 0]
[max_delta_step: 0]
[lambda_l1: 3]
[lambda_l2: 5]
[linear_lambda: 0]
[min_gain_to_split: 0]
[drop_rate: 0.1]
[max_drop: 50]
[skip_drop: 0.5]
[xgboost_dart_mode: 0]
[uniform_drop: 0]
[drop_seed: 17869]
[top_rate: 0.2]
[other_rate: 0.1]
[min_data_per_group: 100]
[max_cat_threshold: 32]
[cat_l2: 10]
[cat_smooth: 10]
[max_cat_to_onehot: 4]
[top_k: 20]
[monotone_constraints: ]
[monotone_constraints_method: basic]
[monotone_penalty: 0]
[feature_contri: ]
[forcedsplits_filename: ]
[refit_decay_rate: 0.9]
[cegb_tradeoff: 1]
[cegb_penalty_split: 0]
[cegb_penalty_feature_lazy: ]
[cegb_penalty_feature_coupled: ]
[path_smooth: 0]
[interaction_constraints: ]
[verbosity: -1]
[saved_feature_importance_type: 0]
[use_quantized_grad: 0]
[num_grad_quant_bins: 4]
[quant_train_renew_leaf: 0]
[stochastic_rounding: 1]
[linear_tree: 0]
[max_bin: 255]
[max_bin_by_feature: ]
[min_data_in_bin: 3]
[bin_construct_sample_cnt: 200000]
[data_random_seed: 175]
[is_enable_sparse: 1]
[enable_bundle: 1]
[use_missing: 1]
[zero_as_missing: 0]
[feature_pre_filter: 1]
[pre_partition: 0]
[two_round: 0]
[header: 0]
[label_column: ]
[weight_column: ]
[group_column: ]
[ignore_column: ]
[categorical_feature: ]
[forcedbins_filename: ]
[precise_float_parser: 0]
[parser_config_file: ]
[objective_seed: 16083]
[num_class: 1]
[is_unbalance: 0]
[scale_pos_weight: 1]
[sigmoid: 1]
[boost_from_average: 1]
[reg_sqrt: 0]
[alpha: 0.9]
[fair_c: 1]
[poisson_max_delta_step: 0.7]
[tweedie_variance_power: 1.5]
[lambdarank_truncation_level: 30]
[lambdarank_norm: 1]
[label_gain: ]
[lambdarank_position_bias_regularization: 0]
[eval_at: ]
[multi_error_top_k: 1]
[auc_mu_weights: ]
[num_machines: 1]
[local_listen_port: 12400]
[time_out: 120]
[machine_list_filename: ]
[machines: ]
[gpu_platform_id: -1]
[gpu_device_id: -1]
[gpu_use_dp: 0]
[num_gpu: 1]

end of parameters

pandas_categorical:[]
