tree
version=v4
num_class=1
num_tree_per_iteration=1
label_index=0
max_feature_idx=18
objective=binary sigmoid:1
feature_names=ma_10_ratio ma_30_ratio ma_200_ratio rsi_14 macd_hist stoch_k atr_14_pct bb_width bb_position adx_14 return_1 volume_ratio hour_sin hour_cos rsi_14_1d ma_50_1d_ratio vol_ratio_7_30 return_skew_20 funding_rate_zscore
feature_infos=[0.86433382433732697:1.1277008720553474] [0.81982753647824447:1.1650455413803251] [0.71805132261291704:1.3104067021923687] [0.71710526315797551:97.597619933060599] [-50.583708829789828:63.243127739989006] [0:99.978616486688296] [0.0024313617249273425:0.058364830648416563] [0.0054161936997855582:0.35848173092310892] [-0.45091002706235556:1.5325486734843763] [5.8247107180127617:100] [-0.1186231676074454:0.096070770100350256] [0.088236660126977645:10.007459729693421] [-1:1] [-1:1] [11.33326238007632:92.244811473307365] [0.66833787477123929:1.4784421291316647] [0.36157823469739186:2.6746311735311559] [-3.7209207281661554:3.9412349785279668] [-13.784237676902324:13.784237676902315]
tree_sizes=2768 2473 3047 3066 2300 3045 2736 3073 3070 2540 3047 3039 3058 1872

Tree=0
num_leaves=25
num_cat=0
split_feature=6 1 18 6 15 14 9 1 18 14 17 11 14 14 9 17 12 18 9 15 1 0 0 18
split_gain=121.751 43.4037 37.0434 36.6505 36.8471 28.7109 25.0367 26.1357 24.1212 21.2464 19.8209 16.8563 17.6376 25.7503 19.2002 34.2242 17.1143 14.3195 13.2649 19.3308 13.0823 10.4613 10.4503 8.08773
threshold=0.0086968055614558507 0.99916266576773427 -2.1517873100049099 0.018797224453544443 0.9314979224547596 36.26440563462112 51.654995899128267 1.0153676913950289 -0.66954898952337194 44.950210302681761 0.39948479859266411 0.35396253424400365 69.964976300716913 75.433893896307453 30.517215255070703 -0.58010468456502762 -0.78656609248549303 -1.2961657480139341 31.553265573642165 0.94476895857075116 1.0024339778224005 0.99707989818387666 0.9991446237412791 0.23025036421286083
decision_type=2 2 2 2 2 2 2 2 2 2 2 2 2 2 2 2 2 2 2 2 2 2 2 2
left_child=1 8 21 4 6 -6 7 -4 17 -7 18 -3 14 -14 15 -13 -16 -1 23 -20 -5 -2 -8 -10
right_child=2 11 3 20 5 9 22 -9 10 -11 -12 12 13 -15 16 -17 -18 -19 19 -21 -22 -23 -24 -25
leaf_value=-0.66654575313018205 -0.6695553846521769 -0.67235706699771736 -0.67111450232980285 -0.67600289535380764 -0.67574592519515164 -0.66820507718205879 -0.66541526093965442 -0.66677098147272473 -0.66871835117795408 -0.67188730962975673 -0.66937744363539808 -0.66536744691953165 -0.66313444095646579 -0.67015862534351833 -0.67147094540828789 -0.67221752347716246 -0.66733125824477857 -0.67174708987590148 -0.6602313271942033 -0.6654801751583147 -0.67168318662195003 -0.66508727240167831 -0.66928022652327812 -0.66521696965058463
leaf_weight=23.064794734120369 27.095535561442375 37.620247721672058 220.79502531886101 52.847490847110748 45.233869284391403 45.457799330353737 42.322778686881065 42.098848640918732 34.261297032237053 317.75673522055149 33.365576848387718 22.393004596233368 30.45448625087738 22.616934642195702 31.126276388764381 96.961709901690483 127.6401261985302 30.902346342802048 31.350206434726715 62.924342915415764 34.037366986274719 30.902346342802048 36.052737399935722 44.114219054579735
leaf_count=103 121 168 986 236 202 203 189 188 153 1419 149 100 136 101 139 433 570 138 140 281 152 138 161 197
internal_value=-0.669764 -0.668034 -0.670978 -0.671256 -0.670881 -0.671919 -0.669644 -0.670396 -0.666431 -0.671414 -0.665634 -0.66918 -0.668802 -0.66612 -0.66934 -0.670873 -0.668169 -0.669554 -0.664937 -0.663595 -0.674398 -0.667071 -0.667117 -0.666666
internal_weight=1523.4 628.796 894.601 836.603 749.718 408.448 341.269 262.894 259.983 363.215 206.016 368.813 331.193 53.0714 278.121 119.355 158.766 53.9671 172.65 94.2745 86.8849 57.9979 78.3755 78.3755
internal_count=6803 2808 3995 3736 3348 1824 1524 1174 1161 1622 920 1647 1479 237 1242 533 709 241 771 421 388 259 350 350
is_linear=0
shrinkage=1


Tree=1
num_leaves=22
num_cat=0
split_feature=7 17 15 15 3 3 18 2 15 15 17 15 15 2 2 17 8 2 2 2 8
split_gain=77.1659 39.1272 28.7317 34.0963 43.0383 33.611 27.2886 23.4501 25.4359 24.1586 20.1352 19.0272 17.9728 16.7084 14.6078 16.8262 14.3187 13.5305 12.5011 8.80701 5.77913
threshold=0.031315704956944808 -1.2809455958399167 0.73871732915715593 0.93379223321276006 77.490960982290815 29.725943764347921 -1.5070157574167224 1.0697462941699605 0.9739016029402271 0.94848805154907334 -0.69952743429190134 0.91518523882565694 0.85387864291635129 1.0240735417008409 0.99278599909723897 0.58767426946796164 0.1068766388679516 0.98973606989942575 0.9554482439372235 0.99895807147496141 0.27300827784516779
decision_type=2 2 2 2 2 2 2 2 2 2 2 2 2 2 2 2 2 2 2 2 2
left_child=1 19 -2 4 5 12 20 8 9 11 -10 -3 -4 -12 16 -16 -8 -11 -7 -1 -5
right_child=2 7 3 6 -6 18 14 -9 10 17 13 -13 -14 -15 15 -17 -18 -19 -20 -21 -22
leaf_value=0.0031901410467721535 -0.0050751774192619708 0.00022569713110379754 0.00072702178908847425 0 0.006350576330709623 0.00039138826430205637 0 -0.0036653676761068672 -0.0011165206956689948 -0.0050993974269073102 0.0037716830920092466 0.0045984631339657635 0.0057658252365906486 0.00096650848669292634 -0.0025703685029455194 0 -0.0047244590741945518 -6.7944163776313446e-06 -0.0017895055697298384 0.0081716145030896591 0.0034817898143280155
leaf_weight=24.641940534114838 42.04407811164856 186.57829834520817 49.718788102269173 25.075376316905022 27.555451944470406 107.25121359527111 22.160232946276665 25.749975994229317 38.526973083615303 30.68161478638649 162.17147436738014 29.571913167834282 30.697005212306976 91.830992937088013 170.54018115997314 113.49856339395046 87.740418344736099 26.206777125597 182.29586872458458 22.639103800058365 24.422070950269699
leaf_count=110 188 833 222 112 123 479 99 115 172 137 724 132 137 410 762 507 392 117 814 101 109
internal_value=-2.57303e-06 0.00135275 -0.000986769 -0.000771142 0.000313514 -0.000148822 -0.00174839 0.000980366 0.00120527 6.57519e-05 0.00225344 0.000862155 0.00274961 0.00277966 -0.00220305 -0.00155762 -0.00380561 -0.00285894 -0.000973078 0.00579469 0.0017735
internal_weight=1521.6 638.599 882.999 840.955 397.518 369.963 443.437 591.318 565.568 273.039 292.529 216.15 80.4158 254.002 393.939 284.039 109.901 56.8884 289.547 47.281 49.4974
internal_count=6795 2851 3944 3756 1775 1652 1981 2640 2525 1219 1306 965 359 1134 1760 1269 491 254 1293 211 221
is_linear=0
shrinkage=0.00513164


Tree=2
num_leaves=27
num_cat=0
split_feature=6 1 18 2 6 2 2 14 1 18 18 18 17 14 14 14 2 17 14 11 14 2 1 17 8 18
split_gain=133.456 52.7879 39.3429 33.1729 32.2452 28.8522 27.4833 37.0982 25.0391 23.8631 25.0256 22.4821 23.2741 22.597 43.0935 20.1997 30.6859 21.4269 16.6834 13.723 13.7063 13.5518 13.3579 12.9699 11.6937 8.15181
threshold=0.0089486640467890746 1.0001060127658044 -2.1517873100049099 1.0196919427124251 0.019423178148535874 0.95459664299970381 0.99503929910753497 45.922239787194648 0.97292557103964217 -0.89231160067454474 0.44522331046695413 0.72453089874199861 0.55369126671149582 73.301242707526029 56.792476265137914 39.255040423629175 0.96314146862286287 -0.088584456041252632 69.964976300716913 0.81040970925450628 31.104334792465227 1.0648965933364918 1.0091006854144309 0.19656326341813266 0.28571746167937667 0.1036406024275256
decision_type=2 2 2 2 2 2 2 2 2 2 2 2 2 2 2 2 2 2 2 2 2 2 2 2 2 2
left_child=1 11 24 15 5 9 8 -8 -7 19 -11 12 13 14 -1 20 -17 -18 23 -4 -3 -20 -6 -5 -2 -22
right_child=2 3 4 18 22 6 7 -9 -10 10 -12 -13 -14 -15 -16 16 17 -19 21 -21 25 -23 -24 -25 -26 -27
leaf_value=0.0022080913026388824 8.3845521506555558e-05 0.0031065639843432381 -0.0043086168682775344 0 -0.005899213414417126 0.0016344540932141498 0.0017315427309873574 -0.0019526804262186379 -0.0039550044929001649 0.0040457963720710415 -0.0010706364939679345 0.0060497169695401679 -0.0015586853815997821 -0.0010173059338438764 0.0077211041851709666 -0.0022162450503859761 0.0010743474291818114 0.00602846493051585 0.00388283172262159 0.00041955482384122608 -0.0034447787773638563 -0.0015373731537196209 -0.0010401928855106471 -0.0038575446129828373 0.0048494723296159115 2.8356327116785774e-05
leaf_weight=136.75377535820007 25.762058705091476 25.313875690102577 29.325745075941086 33.599131733179092 58.957706362009048 22.393098831176758 98.956615447998047 249.67661282420158 176.53812390565872 65.818244308233261 38.280634835362434 64.167769581079483 29.78773558139801 28.021002843976021 52.479377880692482 22.385149389505386 38.984065681695938 64.314748868346214 22.200424164533615 31.568566173315048 25.536200538277626 23.074852302670479 22.826917305588722 67.855004787445068 30.961910411715508 47.705413669347763
leaf_count=610 115 113 131 150 264 100 442 1116 789 294 171 286 133 125 234 100 174 287 99 141 114 103 102 303 138 213
internal_value=7.4979e-05 0.00176605 -0.00127757 0.000445865 -0.0015759 -0.00121464 -0.00178198 -0.000895653 -0.00330399 0.000649052 0.0021455 0.00332149 0.0025723 0.00315862 0.00379573 0.00168954 0.00304267 0.00422498 -0.00143231 -0.00185138 -2.28579e-05 0.00108951 -0.00461763 -0.00258692 0.00278857 -0.00118107
internal_weight=1533.24 682.179 851.066 370.969 794.342 712.558 547.564 348.633 198.931 164.993 104.099 311.21 247.042 217.254 189.233 224.239 125.684 103.299 146.729 60.8943 98.5555 45.2753 81.7846 101.454 56.724 73.2416
internal_count=6847 3044 3803 1656 3550 3184 2447 1558 889 737 465 1388 1102 969 844 1001 561 461 655 272 440 202 366 453 253 327
is_linear=0
shrinkage=0.00513164


Tree=3
num_leaves=27
num_cat=0
split_feature=6 18 1 6 18 14 18 15 9 18 9 15 18 15 14 18 18 9 15 5 18 18 15 15 14 6
split_gain=119.831 43.1101 39.8885 38.9181 29.6675 29.0937 24.4399 35.9846 31.6475 22.8275 34.0326 21.8507 22.5875 21.4299 20.1431 18.4015 17.9175 16.687 15.3119 14.0671 13.1679 12.2896 20.3078 17.3741 15.4272 9.71786
threshold=0.0079145272949360194 -2.1517873100049099 1.0001060127658044 0.011091156084459385 -1.380228624279537 22.456824646114729 0.55697059694774975 0.97613665583947407 24.29287122082361 -0.58260060827017102 33.266094360624898 0.93379223321276006 0.48763380920809229 0.94993476874649019 45.792151726205454 -0.29603357117270179 -0.2952917254073964 31.049426575646169 0.85387864291635129 17.848150453249847 0.82605804321778031 -0.013809712036768658 0.9901606033149003 1.0091539041758526 42.071462065759754 0.0052747780918583993
decision_type=2 2 2 2 2 2 2 2 2 2 2 2 2 2 2 2 2 2 2 2 2 2 2 2 2 2
left_child=2 14 6 4 -3 -5 7 13 -9 19 -11 12 -6 18 -2 -10 -13 20 -1 -7 25 22 -19 24 -23 -4
right_child=1 3 17 5 11 9 -8 8 15 10 -12 16 -14 -15 -16 -17 -18 21 -20 -21 -22 23 -24 -25 -26 -27
leaf_value=-0.0010745830719781089 0.0054681167347132324 0.0052567894606968257 -0.0038894820553419676 0.0025438058504296556 0.0022817371456478656 -0.00051902259798711204 0.0063404569291706748 -2.8165764223677131e-05 0.0023704777143643079 -0.0038307687602000323 -0.00039134683252615277 -0.0033628819665066406 -0.0013808345105689045 -0.0040944521737131829 -0.00051767961229246635 0.0084559179407858384 -0.0005319023284580972 0.00050516223803414922 0.0044046112072342498 -0.0049993891609927364 0.0024698940094146126 0 0.0073656182191580146 -0.0026829803649052316 0.0050147687906658073 -0.00038732507286760626
leaf_weight=24.435929581522942 36.808587282896042 23.287151396274567 29.993501827120781 29.296451568603516 111.79833224415779 23.935825139284134 63.838958203792572 26.243563011288643 22.661179006099701 127.89461927115917 189.47378480434418 85.909487128257751 70.765053823590279 23.296035185456276 22.436748743057251 43.362183421850204 193.80710701644421 23.753504380583763 25.812620595097542 121.36038202047348 26.453520447015762 35.855338096618652 22.885477170348167 25.541500806808472 27.349162563681602 70.779925793409348
leaf_count=109 164 104 134 131 499 107 284 117 101 572 847 384 316 104 100 193 866 106 115 543 118 160 102 114 122 316
internal_value=-1.04973e-05 -0.0010022 0.0020691 -0.00126327 -0.000224324 -0.0022792 0.00362823 0.00252409 0.00463599 -0.00259751 -0.00179704 -0.000521138 0.000845747 -0.000119605 0.00318886 0.00649958 -0.0014239 0.000682818 0.00172148 -0.00429338 -0.000631021 0.00193399 0.0040448 0.000747964 0.00220813 -0.00149623
internal_weight=1529.04 1036.77 492.262 977.528 485.567 491.961 229.65 165.812 92.2669 462.665 317.368 462.28 182.563 73.5446 59.2453 66.0234 279.717 262.612 50.2486 145.296 127.227 135.385 46.639 88.746 63.2045 100.773
internal_count=6828 4633 2195 4369 2169 2200 1023 739 411 2069 1419 2065 815 328 264 294 1250 1172 224 650 568 604 208 396 282 450
is_linear=0
shrinkage=0.00513164


Tree=4
num_leaves=20
num_cat=0
split_feature=7 8 15 3 14 3 15 14 14 4 10 16 4 15 15 14 14 11 14
split_gain=95.7874 28.7534 26.5929 36.7962 36.4042 21.8565 44.6327 17.8142 23.512 19.8348 19.3985 16.7554 17.0212 13.711 37.1567 14.2645 13.3728 10.5369 5.81961
threshold=0.032630286327971936 0.33738931818431883 0.73871732915715593 22.99734289353994 22.456824646114729 73.218196449651188 0.88230037160944474 36.838816708235434 73.301242707526029 -5.4639366411923671 -0.0050766674212893151 0.64541989158537871 -3.3762255745774734 0.97738699949342156 1.0623959807780723 40.604876679954145 36.714491786517591 1.1875659617613368 39.819687207645657
decision_type=2 2 2 2 2 2 2 2 2 2 2 2 2 2 2 2 2 2 2
left_child=1 7 -2 17 -5 16 -7 -1 9 -9 -11 18 -13 15 -15 -14 -6 -4 -3
right_child=2 11 3 4 5 6 -8 8 -10 10 -12 12 13 14 -16 -17 -18 -19 -20
leaf_value=-0.00061734711608236483 -0.0051597201354622651 -0.0039246132085725173 0.00061959658774193827 0.0047717660448708616 -0.0030031009600712082 0.0059786245993892163 -0.0011907908651172341 0 -0.00030425104602917061 0.00092992339240658534 0.006243595821023077 -0.0030426683184909525 -0.00081493070482264215 0.0039640828795043668 -0.00036966133749521523 0.0020454291998712728 -0.0013187377278939157 0.0048682859730154729 -0.00026249306398133042
leaf_weight=28.498684093356133 39.899102553725243 22.185542851686478 33.826789438724518 24.217118814587593 185.37608255445957 28.697272062301636 93.764256849884987 22.880227774381638 31.394166305661201 24.251536428928375 101.98924596607685 23.278074413537979 114.42096784710884 127.40880677103996 85.149270758032799 74.200192034244537 422.94277469813824 30.932450175285339 26.444775477051735
leaf_count=127 179 99 151 108 829 128 419 102 140 108 454 104 511 568 380 331 1891 138 118
internal_value=1.82141e-05 0.00145458 -0.00111843 -0.000910065 -0.00123242 -0.00144377 0.000510296 0.00303871 0.00363297 0.00447755 0.00526683 0.000741795 0.00107458 0.00133021 0.00222216 0.000300598 -0.00184239 0.00275165 -0.00205358
internal_weight=1541.76 682.101 859.656 819.757 754.998 730.78 122.462 209.014 180.515 149.121 126.241 473.088 424.457 401.179 212.558 188.621 608.319 64.7592 48.6303
internal_count=6885 3042 3843 3664 3375 3267 547 931 804 664 562 2111 1894 1790 948 842 2720 289 217
is_linear=0
shrinkage=0.00513164


Tree=5
num_leaves=27
num_cat=0
split_feature=6 1 2 6 2 16 2 1 2 15 14 2 15 15 2 2 6 17 6 14 17 14 17 16 14 6
split_gain=110.005 43.2399 28.8227 28.0419 33.9872 25.7952 22.8545 32.7921 21.5988 37.1416 21.0263 41.2609 35.9895 28.975 31.9277 32.7273 17.59 16.5656 16.2186 36.0627 18.3586 16.4055 14.3971 13.9564 13.8311 12.9621
threshold=0.0086968055614558507 1.0036900967831648 1.0182778392302767 0.018797224453544443 0.95627840935048525 0.95277849047307905 0.99278599909723897 0.97435219259547734 1.0660365819027953 1.2329886338416289 40.091672905494569 0.98300246405104252 0.96265255643302072 0.95848148495110508 0.98973606989942575 1.0162244420206969 0.0064803399879781289 0.43074965283749195 0.011364978703907812 31.548183221554755 -0.32577459018178118 41.356221444100463 0.5265132361985817 1.4267896192040981 69.964976300716913 0.0105905793322275
decision_type=2 2 2 2 2 2 2 2 2 2 2 2 2 2 2 2 2 2 2 2 2 2 2 2 2 2
left_child=1 10 5 4 18 22 7 -6 17 -10 11 -1 -13 16 -15 -16 -12 -8 20 -20 -2 -21 -3 -5 -4 -9
right_child=3 2 24 23 6 -7 8 25 9 -11 13 12 -14 14 15 -17 -18 -19 19 21 -22 -23 -24 -25 -26 -27
leaf_value=0.00501479776173374 0.0058720054784245773 -0.0012403930667029734 -0.0030905978888314005 -0.0046796181873077674 0.002298649874979619 0.0045641253941853645 -0.00078009477275064857 -0.0021227824282963942 -0.0050731773775314747 0.00074391113245919605 0.0092214178380414669 -0.0042121588179107796 0.003164355150686254 -0.0011994061991656754 0.0061833406315982458 0.0012575343856271136 0.0039596674100186692 0.0018643869757236878 0.0027993769730923958 -0.0048917385790278141 0 -3.9235574751881016e-05 0.0032641549789144248 -7.1987967515046175e-05 0.0010054700767026046 -0.0051120062007389928
leaf_weight=38.157365530729294 31.179398506879807 69.926865503191948 79.669416800141335 78.753872901201248 26.432675823569298 46.675414234399796 194.31605499982834 82.272030919790268 65.236015811562538 49.138868749141693 30.159923166036606 45.72838382422924 26.057670339941978 48.271579176187515 66.370968744158745 80.641385138034821 51.704921215772629 90.159272253513336 67.407030582427979 33.95968408882618 23.961837351322174 40.967346131801605 23.988180637359619 23.870067074894905 27.576650694012642 85.947362035512924
leaf_count=170 139 312 356 353 118 208 869 368 292 220 134 204 116 215 295 359 230 403 301 152 107 183 107 107 123 385
internal_value=2.16814e-05 0.00165491 -7.55281e-06 -0.00113609 -0.000800336 0.00150283 -0.00141539 -0.0028563 -0.000697485 -0.00256757 0.00272357 0.000776646 -0.00148408 0.00347764 0.00235054 0.00353703 0.00604995 5.20766e-05 0.00102998 8.39983e-05 0.00335895 -0.002325 -2.86142e-05 -0.0036517 -0.00200985 -0.00369584
internal_weight=1528.53 634.929 247.837 893.602 790.978 140.59 593.502 194.652 398.85 114.375 387.092 109.943 71.7861 277.149 195.284 147.012 81.8648 284.475 197.475 142.334 55.1412 74.927 93.915 102.624 107.246 168.219
internal_count=6826 2829 1106 3997 3537 627 2655 871 1784 512 1723 490 320 1233 869 654 364 1272 882 636 246 335 419 460 479 753
is_linear=0
shrinkage=0.00513164


Tree=6
num_leaves=24
num_cat=0
split_feature=2 14 14 14 18 15 1 15 14 15 1 15 14 2 14 15 18 4 14 15 15 15 1
split_gain=56.0614 58.1116 60.9179 52.4139 41.8943 35.6509 35.197 48.4744 31.1718 33.7511 26.8939 25.4816 50.8923 23.157 21.6864 20.8985 20.483 20.1005 17.4544 16.2866 15.0927 15.4631 9.67334
threshold=1.0648965933364918 39.529766099140041 44.950210302681761 22.456824646114729 -0.66954898952337194 0.9739016029402271 1.004245933116293 1.0623959807780723 42.41597268941829 0.87044106361785112 1.0264433445678536 0.97738699949342156 36.838816708235434 0.95034692546637201 37.156239393453909 1.2204133614529489 0.60160725701409168 -3.6816893559809794 70.13551279429241 0.98664542124409726 1.0894827863799625 0.99818429292222288 1.0297191153371241
decision_type=2 2 2 2 2 2 2 2 2 2 2 2 2 2 2 2 2 2 2 2 2 2 2
left_child=1 3 5 -1 18 8 7 -6 9 -3 11 14 -13 -10 -5 20 -8 -17 19 -4 21 -2 -19
right_child=15 2 4 10 6 -7 16 -9 13 -11 -12 12 -14 -15 -16 17 -18 22 -20 -21 -22 -23 -24
leaf_value=0.0043027971335350707 -0.0050540032387850877 0.0025744876744206151 -0.0013212511708546901 -0.0016917849859803174 0.0034875821036294504 0.0097249175249783208 0.00081400578698142038 -0.00063641625984112941 0.00061773049968636459 -0.0045766405990971225 0.0032524954367460679 -0.0020327719786761922 0.005698170555833772 0.0070419902786327685 -0.0046887152946899933 -0.0044469226416424456 -0.0027284454655248105 0.0036259151458152869 0.0010985395621813227 -0.0055691276683962508 -0.006723807044992201 0.00035547465307656596 -0.00095168802271815441
leaf_weight=43.491897374391556 26.574511870741844 64.460429325699806 59.640538513660431 296.94685061275959 214.14729435741901 22.245671182870865 91.123726144433022 112.89983515441418 22.188019931316376 22.178980633616447 28.223516434431076 65.445499747991562 32.337404474616051 52.806952580809593 83.449805557727814 22.997144997119904 77.892999932169914 22.340170443058014 31.35477240383625 42.657259732484818 42.598257020115852 25.51246565580368 22.561717182397842
leaf_count=194 119 288 266 1329 953 99 407 504 99 99 126 292 144 235 373 103 348 100 140 191 191 114 101
internal_value=-5.94996e-05 0.000279063 0.00115102 -0.00100518 0.000383896 0.00374029 0.00107531 0.0020578 0.00282608 0.000668131 -0.00147702 -0.00177069 0.000534809 0.00522467 -0.00237112 -0.00289688 -0.000809123 -0.000651106 -0.00214522 -0.00317021 -0.00444458 -0.0024038 0.0012982
internal_weight=1526.08 1363.49 813.596 549.895 629.716 183.88 496.064 327.047 161.634 86.6394 506.403 478.18 97.7829 74.995 380.397 162.584 169.017 67.899 133.653 102.298 94.6852 52.087 44.9019
internal_count=6815 6087 3629 2458 2809 820 2212 1457 721 387 2264 2138 436 334 1702 728 755 304 597 457 424 233 201
is_linear=0
shrinkage=0.00513164


Tree=7
num_leaves=27
num_cat=0
split_feature=6 17 9 6 14 15 9 17 14 15 9 3 1 14 14 15 6 9 15 15 14 17 17 17 14 15
split_gain=126.405 34.2289 35.9717 31.0179 30.636 28.0652 30.7665 26.7733 21.8825 19.8187 19.7538 17.4178 18.5109 48.1063 18.3397 17.4012 16.8439 21.7264 16.235 14.9058 14.8592 11.5904 10.8226 21.0102 10.3086 9.49655
threshold=0.0080095908674427882 -0.86608828987250475 31.820427639465318 0.011091156084459385 69.964976300716913 0.93994185404169872 34.46199812461689 0.9195402207370359 33.372140370342542 1.0523024467503104 60.450067423064475 29.008061467663634 1.0235596374569924 45.922239787194648 35.174010361098276 0.85275026327833969 0.019115263033108492 53.626014770003607 1.2503447655999596 0.95554414723769165 46.367843022265724 -0.43965277479419773 1.4178826371952422 1.0467368830873978 44.950210302681761 0.99818429292222288
decision_type=2 2 2 2 2 2 2 2 2 2 2 2 2 2 2 2 2 2 2 2 2 2 2 2 2 2
left_child=1 19 4 5 7 6 -2 9 -8 -3 15 14 16 -14 -5 -4 17 -13 -15 -1 -16 25 23 -23 -17 -7
right_child=3 2 10 11 -6 21 8 -9 -10 -11 -12 12 13 18 20 24 -18 -19 -20 -21 -22 22 -24 -25 -26 -27
leaf_value=0.0082230018121494299 -0.0010215187158634288 0.00086451516356811137 0.000119122272841436 -0.0023949357317377537 0.0037258523767003484 -0.0044664940521675998 0.0070461203478010383 -0.0058115179938621406 0.0017582855127488302 -0.0036772011626213809 -0.001102179577792201 -0.0028892321137126849 0.0042055700716952128 -0.0055051250769939915 0.0048190018671492012 0.0058177391200605654 -0.0054989858351804184 0.00092571764761241416 2.0069628550789935e-05 0.0032319307680748499 -0.00060770928628886198 -0.00060736552150949445 -0.0034273241053694834 0.0044051930204836278 0.0029653234055925402 -0.0011638121895368998
leaf_weight=28.879963472485542 80.622950032353401 118.27788849174976 33.414946585893631 38.630543440580368 46.091519355773926 38.68855656683445 26.888662829995155 23.956700101494789 92.611497208476067 30.735905691981316 25.322840392589569 253.57387712597847 36.99555367231369 32.344313412904739 26.188796833157539 70.118429362773895 53.410526171326637 44.487583890557289 22.103667676448822 46.337289229035378 23.508008420467377 143.56479275226593 24.355684474110603 24.604702562093735 87.077598690986633 65.339618638157845
leaf_count=128 360 527 149 173 205 173 120 107 413 137 113 1136 165 145 117 312 240 199 99 206 105 642 109 110 387 292
internal_value=2.29353e-05 0.00210979 0.00153747 -0.00101129 5.55671e-05 -8.21691e-05 0.00139087 -0.000925689 0.00303708 -7.59531e-05 0.00301737 -0.00187189 -0.00228626 -0.000189866 0.000175021 0.00358435 -0.00282031 -0.00230807 -0.00325985 0.00529648 0.00224273 -0.00108821 -0.000318796 0.000136511 0.00429461 -0.00246146
internal_weight=1538.13 510.213 434.996 1027.92 219.062 496.676 200.123 172.97 119.5 149.014 215.934 531.243 442.916 91.4435 88.3273 190.611 351.472 298.061 54.448 75.2173 49.6968 296.553 192.525 168.169 157.196 104.028
internal_count=6869 2271 1937 4598 976 2219 893 771 533 664 961 2379 1984 409 395 848 1575 1335 244 334 222 1326 861 752 699 465
is_linear=0
shrinkage=0.00513164


Tree=8
num_leaves=27
num_cat=0
split_feature=6 6 1 2 15 2 15 2 1 1 16 6 4 2 15 15 7 15 2 15 16 7 13 10 2 4
split_gain=131.388 36.9985 33.0124 22.1336 21.8284 20.8818 30.3419 18.3992 39.5087 17.9209 17.5519 18.3341 21.6234 17.299 25.3598 21.3929 20.6932 16.9837 16.7634 16.2962 13.933 13.6009 17.7185 13.0245 12.9126 12.0501
threshold=0.0079805010727769157 0.011091156084459385 1.0000070701898882 1.0079404440600468 0.94993476874649019 0.99850232016011764 0.94256377858495566 0.97187982256735728 0.99916266576773427 1.014782896788234 0.64541989158537871 0.006163307330916191 -0.95149181038090969 0.9554482439372235 0.73871732915715593 1.3679599260531801 0.04345734627866097 0.97987843290816878 1.0795514397511827 1.0894827863799625 1.1115596499724723 0.031954866805227938 -0.37940952255126015 0.0015014812223513865 0.99805374326246354 -4.6907652954132288
decision_type=2 2 2 2 2 2 2 2 2 2 2 2 2 2 2 2 2 2 2 2 2 2 2 2 2 2
left_child=2 4 10 5 7 6 -4 8 -2 23 -1 24 25 14 -3 16 -15 -8 -18 20 -5 -6 -23 -9 -12 -13
right_child=1 13 3 19 21 -7 17 9 -10 -11 11 12 -14 15 -16 -17 18 -19 -20 -21 -22 22 -24 -25 -26 -27
leaf_value=-0.00055312330038911938 0.0062389356076955676 -0.0044978037032931987 0.0043090197054141272 -0.0022952452400636153 0.00030991174297503101 0.0052509684887637968 -0.0048378869007593712 0.00041969566783621129 -0.0017525826638299527 0.0033214934011961206 0.0035117102251041974 0.0042247123962497355 0.0059046217310123215 -0.0051046245309422072 4.8183765153535918e-05 0.0017004316497653252 -0.0013358561083592617 0.00093278001312001888 -0.0049322716080680631 0.0032592370882705882 0.0018178541601199122 4.5038592731177933e-05 -0.003338772232322808 -0.0031992929849830164 0.0078986590040237576 -2.1042890724331105e-05
leaf_weight=22.48991172015667 43.827460154891014 38.180853515863419 38.356310322880745 88.322642371058464 122.94808526337147 44.496571287512779 22.599384814500809 71.688629239797592 23.960979580879211 34.511017441749573 40.563068956136703 22.745417505502701 36.982989236712456 94.199846237897873 170.68548282980919 25.004554554820061 163.60760629177094 28.330131828784943 44.071619719266891 23.53621332347393 26.70835953950882 67.483459487557411 95.10262992978096 38.738461136817932 44.49353338778019 60.366954043507576
leaf_count=100 195 172 171 394 549 198 101 320 107 154 180 101 164 423 763 112 733 126 198 105 119 302 426 173 197 268
internal_value=4.06835e-06 -0.00103809 0.00216247 0.000934551 -2.4668e-05 0.00241682 0.000915022 0.00120927 0.00339047 0.000146953 0.00360442 0.00407558 0.0026891 -0.00197256 -0.000791255 -0.00271188 -0.00309319 -0.00162683 -0.00213987 -0.000484 -0.00130429 -0.000955931 -0.00192658 -0.000845283 0.00592717 0.00115248
internal_weight=1534 1034.01 499.991 272.35 498.261 133.782 89.2858 212.727 67.7884 144.938 227.642 205.152 120.095 535.75 208.866 326.884 301.879 50.9295 207.679 138.567 115.031 285.534 162.586 110.427 85.0566 83.1124
internal_count=6851 4627 2224 1214 2226 596 398 949 302 647 1010 910 533 2401 935 1466 1354 227 931 618 513 1277 728 493 377 369
is_linear=0
shrinkage=0.00513164


Tree=9
num_leaves=22
num_cat=0
split_feature=15 15 9 15 15 13 15 15 16 11 1 15 4 9 15 15 16 13 0 1 0
split_gain=39.7796 46.2847 27.3904 40.6489 29.2944 31.352 23.4855 54.0144 22.6974 20.6331 19.9664 19.5387 20.1337 30.5676 16.6742 13.3696 12.1008 4.5284 3.243 7.60647 1.91764
threshold=0.73871732915715593 1.1058788443268217 34.627079961548652 1.0493689051953159 0.9739016029402271 1.0000000180025095e-35 0.88230037160944474 0.85387864291635129 1.3936468239829318 0.76842095989794912 1.0091006854144309 1.2280256008591832 -5.8092260665474322 27.476369856497801 1.0452103697599127 0.95133708356809976 1.0648692773149679 -0.60355339059327384 1.0072846718609036 1.0023100015299236 0.99960313775741227
decision_type=2 2 2 2 2 2 2 2 2 2 2 2 2 2 2 2 2 2 2 2 2
left_child=-1 2 4 6 5 15 7 -4 -8 -7 14 17 -13 -14 -6 -2 -15 20 19 -19 -3
right_child=1 11 3 -5 10 9 8 -9 -10 -11 -12 12 13 16 -16 -17 -18 18 -20 -21 -22
leaf_value=-0.0048594007453208899 0.00095113002189718796 -0.00010376305104326887 0.00065687260326697584 0.0059415923227842159 0.002880066183849755 -0.004140701631310262 -0.00048087812362215213 0.0060881987054652257 0.003716046271878542 -0.00026594094123310198 -0.0019067396163988093 -0.0038941453619668301 0.0058611203083291531 -0.0028218280873153114 -0.0010590781609677846 -0.0027063436366837296 0.0014644476213722933 -0.0038439803198715193 -0.0052033583289923481 -0.00065505179941316937 -0.0023629611897960133
leaf_weight=43.269501268863678 140.13901135325432 22.577804118394852 195.79943124949932 43.650268107652664 126.32357282936573 109.41464480757713 306.86638887226582 63.56799852848053 36.810749307274818 56.633486554026604 41.368462532758713 27.629055351018906 23.714036658406258 34.819488540291786 34.307117074728012 30.848082587122917 31.256971061229706 65.404229238629341 26.480481386184692 32.405839323997498 22.126221433281898
leaf_count=195 625 101 874 194 562 490 1369 283 164 253 185 124 106 156 153 138 140 293 119 145 99
internal_value=-8.30806e-05 5.94474e-05 0.000508975 0.00122103 -0.000340551 -0.00126928 0.000862116 0.00202372 -1.00618e-05 -0.00284984 0.00119222 -0.00178478 -0.000145113 0.00101457 0.00201815 0.000257962 -0.000759973 -0.00289622 -0.00341772 -0.00284091 -0.00132379
internal_weight=1515.41 1472.14 1185.73 646.695 539.034 337.035 603.045 259.367 343.677 166.048 201.999 286.414 117.42 89.7905 160.631 170.987 66.0765 168.995 124.291 97.8101 44.704
internal_count=6768 6573 5290 2884 2406 1506 2690 1157 1533 743 900 1283 526 402 715 763 296 757 557 438 200
is_linear=0
shrinkage=0.00513164


Tree=10
num_leaves=27
num_cat=0
split_feature=6 17 6 16 16 14 17 17 14 7 6 17 16 1 14 14 4 1 17 0 12 0 9 14 16 1
split_gain=116.146 55.4085 32.448 30.2502 26.1862 21.6145 32.8114 30.4487 18.8269 16.0608 20.051 16.8536 16.5402 15.6291 14.8643 32.7164 14.3429 13.5166 20.7554 10.5083 10.1597 7.99052 7.31105 7.08801 5.77299 5.06764
threshold=0.011091156084459385 -1.9098109150048881 0.0079805010727769157 0.69434638246754943 1.1084696798652762 70.13551279429241 0.31388686235186575 0.13923124487800931 46.858554798509445 0.043158111231665901 0.019115263033108492 0.90032145450987866 0.83864657965273348 1.0203400685593953 43.227254919973142 39.529766099140041 -5.372819821714292 1.0023100015299236 -1.4685280810387049 1.0070294184200952 -0.70710678118654735 0.99364757883623966 51.045492600530743 50.456759651910566 0.55977177567894343 1.0013203721864099
decision_type=2 2 2 2 2 2 2 2 2 2 2 2 2 2 2 2 2 2 2 2 2 2 2 2 2 2
left_child=1 -1 3 24 14 7 -7 -5 -6 12 11 17 -2 22 15 -4 -16 18 -11 -19 -10 -14 -12 -13 -3 -26
right_child=9 2 4 5 8 6 -8 -9 20 10 13 23 21 -15 16 -17 -18 19 -20 -21 -22 -23 -24 -25 25 -27
leaf_value=0.0079343780077920992 -0.00039763365946970898 0.001167460325672137 -0.0010206174852477139 0.0033251113310700901 0.0037064048054884493 0.0022218326291463361 0.0097743965427649002 0.00019826871973516939 -0.0019364275593528263 0.0024663137216122148 -0.0063984324084738102 -0.0010522056213053174 -0.001898581774927654 0.00022255307818877076 -0.0050158347066451003 0.0046510190256440391 -0.0011452365999944833 0.003608918856440269 -0.0019372302679335196 0 0.0017042252089578638 -0.0054462181631783997 -0.002714803134180553 -0.0049884467590179818 2.9476770644843249e-05 -0.0028005374167117086
leaf_weight=29.106332123279572 37.647145256400108 23.574546009302139 105.12923194468021 172.59878659248352 66.825949236750603 44.404716596007347 23.895493507385254 159.67931877076626 36.25164321064949 34.501835376024246 33.024088725447655 25.946397498250008 28.292467445135117 22.12686812877655 29.931390881538391 34.351136311888695 161.51170685887337 35.951672554016113 125.85804279148579 49.121888160705566 42.300784602761269 70.312596246600151 37.346178278326988 28.04395267367363 24.520942315459251 39.642124474048615
leaf_count=129 169 105 470 766 298 197 106 711 162 154 149 116 127 99 134 153 722 161 564 220 189 316 168 126 109 177
internal_value=6.54264e-05 0.00110054 0.000880655 0.00180854 -6.66076e-05 0.00240698 0.00504269 0.00183832 0.00173248 -0.00187421 -0.00132596 -0.000661408 -0.00340127 -0.00340528 -0.000869876 0.000384922 -0.0017963 -7.16191e-05 -0.000958581 0.00155411 0 -0.00449721 -0.00457169 -0.00322192 -0.000884685 -0.00169355
internal_weight=1521.9 993.724 964.618 488.316 476.302 400.578 68.3002 332.278 145.378 528.173 391.921 299.424 136.252 92.4971 330.923 139.48 191.443 245.433 160.36 85.0736 78.5524 98.6051 70.3703 53.9904 87.7376 64.1631
internal_count=6797 4428 4299 2171 2128 1780 303 1477 649 2369 1757 1341 612 416 1479 623 856 1099 718 381 351 443 317 242 391 286
is_linear=0
shrinkage=0.00513164


Tree=11
num_leaves=27
num_cat=0
split_feature=6 1 17 6 9 18 14 14 17 16 9 14 14 9 18 1 6 1 11 16 9 1 14 14 9 5
split_gain=122.343 59.7264 39.6472 25.4993 25.0328 45.3193 27.643 23.1443 21.947 21.538 20.8835 25.5762 33.7028 19.3453 18.6481 17.1237 18.761 16.5437 14.3703 10.4968 10.2022 9.95267 8.79248 8.45521 13.5891 7.76386
threshold=0.008745829470009887 1.0036900967831648 -1.227876840545852 0.019115263033108492 34.131587151406684 0.72453089874199861 47.20513489686072 23.866603907992964 -0.67182742811494411 0.94104402872754334 53.204630955735226 46.103954524724607 39.529766099140041 31.189896690051985 0.69327313780807442 1.0235596374569924 0.016089805335987473 1.0200018587154254 0.71306095516083712 0.8476021382083011 24.29287122082361 0.99105424261888164 56.953217201419683 42.071462065759754 41.382723374812635 25.851771733387888
decision_type=2 2 2 2 2 2 2 2 2 2 2 2 2 2 2 2 2 2 2 2 2 2 2 2 2 2
left_child=1 2 21 7 5 6 -4 -2 -6 20 15 12 -12 -11 -15 16 -9 25 -10 -7 -3 -1 -13 -22 -25 -5
right_child=3 9 4 17 8 19 -8 10 18 13 11 22 -14 14 -16 -17 -18 -19 -20 -21 23 -23 -24 24 -26 -27
leaf_value=0.004353832866280021 0.0037217784430375535 -0.0038290042483199596 -0.0032018350977305867 -0.0020436573115043921 9.4555239114422752e-05 0.0022185227647257013 0.0013188104378836888 -0.0016098697029736681 0.0071758029077431213 -0.0010591003692225463 -0.00013581008053449912 -0.003359005211857453 0.0062517895715182995 0.0055291022241132403 -0.00015008321263760909 0.00088631808639051267 -0.0052769401840564818 0 0.0031336890349673552 0.0071009387986614445 -0.0022487271597484721 0.0094091649030255652 -1.3638953678115988e-06 0.0027151245058770045 -0.002013052714652539 -0.0061204653190014245
leaf_weight=29.161500081419945 25.169006913900375 37.370204448699951 57.67308996617794 21.951690539717674 32.687805980443954 25.482181116938591 87.79786741733551 483.02956521511078 46.718872621655464 43.493654161691666 54.348658815026283 37.992145657539368 33.925345838069916 37.34679402410984 23.322154104709625 62.561736568808556 39.868364751338959 22.346270084381104 60.238820910453796 28.710360959172249 50.411586105823517 25.571105629205704 46.864800244569778 33.631135731935501 27.774922475218773 50.06592033803463
leaf_count=129 112 167 257 99 145 113 390 2165 207 194 243 170 151 166 104 280 179 100 267 127 225 113 210 150 124 226
internal_value=-3.69844e-05 0.00165159 0.0028988 -0.00128596 0.00221445 0.00101683 -0.000465286 -0.000973492 0.00387971 -0.000281192 -0.00113946 0.000409914 0.00234075 0.00148383 0.00333986 -0.00160272 -0.00190782 -0.00380027 0.00499315 0.00496703 -0.00153599 0.00693544 -0.00156835 -0.000707094 0.000530506 -0.00497833
internal_weight=1525.52 647.392 394.042 878.124 339.309 199.663 145.471 783.76 139.645 253.35 758.591 173.131 88.274 104.163 60.6689 585.46 522.898 94.3639 106.958 54.1925 149.188 54.7326 84.8569 111.818 61.4061 72.0176
internal_count=6813 2878 1748 3935 1506 887 647 3510 619 1130 3398 774 394 464 270 2624 2344 425 474 240 666 242 380 499 274 325
is_linear=0
shrinkage=0.00513164


Tree=12
num_leaves=27
num_cat=0
split_feature=7 9 1 17 11 14 7 18 15 14 9 14 3 17 14 18 15 14 15 11 14 7 11 4 3 14
split_gain=75.2681 45.1528 30.6289 34.8736 28.9435 26.754 37.8312 31.596 23.4138 31.3109 34.4756 31.93 18.4678 15.3779 14.9096 13.9479 13.8825 22.5181 21.7528 13.7126 12.8878 10.4646 13.1735 10.2775 9.27503 8.52015
threshold=0.032630286327971936 31.553265573642165 0.99989970197283617 1.0260154820192693 1.5505557298512014 39.255040423629175 0.01699766597852528 0.69753662856156196 0.73871732915715593 46.858554798509445 34.627079961548652 39.391679969458359 24.106034809937388 0.33863345983154985 37.156239393453909 0.49460227885361802 1.0623959807780723 59.148753042152975 1.1650693318891316 0.68526044469209491 33.664559637410576 0.029322916770011594 0.70829198411983241 -1.3465695975753758 36.656441920188037 50.316358420826141
decision_type=2 2 2 2 2 2 2 2 2 2 2 2 2 2 2 2 2 2 2 2 2 2 2 2 2 2
left_child=1 5 21 15 8 14 7 23 -2 10 -10 -12 -6 -14 20 19 17 -8 -18 -4 -1 22 -3 -7 -24 -11
right_child=4 2 3 -5 12 6 16 -9 9 25 11 -13 13 -15 -16 -17 18 -19 -20 -21 -22 -23 24 -25 -26 -27
leaf_value=-0.00272434438613752 -0.0060317149377329196 0.0070476946963907959 -0.0012209653758288464 0.0062904874325755361 0.004263465172429955 0.0040034634544681416 -0.0014598667301434979 0.0081999995679752271 -0.0023990483133372676 -0.0053045684046899274 -0.00059060628632825888 0.0033284764672452142 -0.0015761260540161201 0.0020200028138108559 -0.0054017541494148511 -0.0022466799321292489 -0.0063159428852716908 0.0027349396456504758 -0.00014206961521569453 0.0031768492169912191 0.0018904911180193165 0.0011720972976625413 0.0060291877225699736 -0.00020339785428144991 0.0018786953846075744 -0.0022888591532513715
leaf_weight=39.128341063857079 28.935628563165665 50.186798512935638 31.213292345404625 25.422513738274574 31.658619165420532 23.195084989070892 69.81095016002655 26.006639987230301 137.08795280754566 29.298330843448639 148.24649973213673 84.364631205797195 72.52624499797821 52.999846905469894 28.56972561776638 49.49183177947998 22.346779778599739 62.162183374166489 44.278663992881775 40.952752903103828 24.414880201220512 26.349492147564888 22.867447048425674 37.027918577194214 47.584349572658539 260.94574289023876
leaf_count=175 131 222 139 113 141 103 311 115 615 131 663 376 325 237 128 221 100 276 198 182 109 117 101 165 211 1171
internal_value=-0.000105039 0.00117497 0.00267726 0.000980877 -0.00112406 0 0.000776227 0.00359089 -0.00157849 -0.00136702 -0.000364366 0.000828471 0.000844889 -2.8519e-05 -0.00238654 -0.000159257 -0.0004462 0.000500586 -0.00233989 0.00124539 -0.000901811 0.00433039 0.00497513 0.00141825 0.00335415 -0.00262629
internal_weight=1517.07 671.01 294.068 147.08 846.063 376.941 284.828 86.2296 688.879 659.943 369.699 232.611 157.185 125.526 92.1129 121.658 198.599 131.973 66.6254 72.166 63.5432 146.988 120.639 60.223 70.4518 290.244
internal_count=6776 2986 1306 655 3790 1680 1268 383 3087 2956 1654 1039 703 562 412 542 885 587 298 321 284 651 534 268 312 1302
is_linear=0
shrinkage=0.00513164


Tree=13
num_leaves=16
num_cat=0
split_feature=2 15 14 14 14 15 2 9 3 15 0 14 15 15 1
split_gain=46.538 47.4395 59.6242 41.9753 56.4118 48.611 28.2122 27.2629 23.0053 22.709 19.0196 14.4656 13.7439 14.8431 2.147
threshold=1.0648965933364918 0.73871732915715593 22.456824646114729 39.529766099140041 44.950210302681761 0.97613665583947407 0.99391803247422861 21.586262393662391 75.452165561852482 1.2242066563408647 1.0000141419488564 78.585820023893604 1.0747216496784004 0.99818429292222288 0.99916266576773427
decision_type=2 2 2 2 2 2 2 2 2 2 2 2 2 2 2
left_child=1 -1 -3 7 5 -5 -6 14 -9 12 -11 -12 13 -2 -4
right_child=9 2 3 4 6 -7 -8 8 -10 10 11 -13 -14 -15 -16
leaf_value=-0.0049103459009360749 -0.0050069440017571007 0.0072542793046865743 -0.0021072343146690798 0.0024506064179833859 -0.0012059906317326004 0.010418684265660876 0.0010636405437203791 -0.0006966373290835182 0.0042245603635173165 -0.0040544833248753751 0.0043864349950077193 -0.0012205079541498052 -0.0063435921520221114 0.00033240845358299464 -0.0045451860481125553
leaf_weight=42.826115325093269 24.472569361329079 32.211502730846405 23.861417919397354 164.26873742043972 217.50416557490826 22.401028722524643 419.04878908395767 378.88912504911423 25.363208994269371 22.005599975585938 22.987062960863113 22.049468114972115 43.01988273859024 26.855103716254234 46.547880575060844
leaf_count=194 110 143 107 731 971 99 1867 1694 113 99 103 99 194 120 209
internal_value=8.5839e-06 0.000317809 0.000493118 0.000315797 0.00101771 0.00348922 0.000282461 -0.000894599 -0.000367661 -0.00258453 -0.000240941 0.00161879 -0.00419176 -0.00221689 -0.00381527
internal_weight=1534.31 1372.92 1330.1 1297.88 823.223 186.67 636.553 474.662 404.252 161.39 67.0421 45.0365 94.3476 51.3277 70.4093
internal_count=6853 6128 5934 5791 3668 830 2838 2123 1807 725 301 202 424 230 316
is_linear=0
shrinkage=0.00513164


end of trees

feature_importances:
rsi_14_1d=58
ma_50_1d_ratio=58
ma_200_ratio=28
ma_30_ratio=27
return_skew_20=25
funding_rate_zscore=25
atr_14_pct=24
adx_14=21
vol_ratio_7_30=13
rsi_14=8
macd_hist=8
bb_width=8
volume_ratio=8
ma_10_ratio=7
bb_position=4
hour_cos=3
stoch_k=2
return_1=2
hour_sin=2

parameters:
[boosting: gbdt]
[objective: binary]
[metric: binary_logloss]
[tree_learner: serial]
[device_type: cpu]
[data_sample_strategy: bagging]
[data: ]
[valid: ]
[num_iterations: 2000]
[learning_rate: 0.00513164]
[num_leaves: 27]
[num_threads: 1]
[seed: 42]
[deterministic: 1]
[force_col_wise: 0]
[force_row_wise: 0]
[histogram_pool_size: -1]
[max_depth: 6]
[min_data_in_leaf: 99]
[min_sum_hessian_in_leaf: 0.001]
[bagging_fraction: 0.79107]
[pos_bagging_fraction: 1]
[neg_bagging_fraction: 1]
[bagging_freq: 1]
[bagging_seed: 400]
[bagging_by_query: 0]
[feature_fraction: 0.653796]
[feature_fraction_bynode: 1]
[feature_fraction_seed: 30056]
[extra_trees: 0]
[extra_seed: 12879]
[early_stopping_round: 0]
[early_stopping_min_delta: 0]
[first_metric_only: 0]
[max_delta_step: 0]
[lambda_l1: 0.594279]
[lambda_l2: 1.31493]
[linear_lambda: 0]
[min_gain_to_split: 0]
[drop_rate: 0.1]
[max_drop: 50]
[skip_drop: 0.5]
[xgboost_dart_mode: 0]
[uniform_drop: 0]
[drop_seed: 17869]
[top_rate: 0.2]
[other_rate: 0.1]
[min_data_per_group: 100]
[max_cat_threshold: 32]
[cat_l2: 10]
[cat_smooth: 10]
[max_cat_to_onehot: 4]
[top_k: 20]
[monotone_constraints: ]
[monotone_constraints_method: basic]
[monotone_penalty: 0]
[feature_contri: ]
[forcedsplits_filename: ]
[refit_decay_rate: 0.9]
[cegb_tradeoff: 1]
[cegb_penalty_split: 0]
[cegb_penalty_feature_lazy: ]
[cegb_penalty_feature_coupled: ]
[path_smooth: 0]
[interaction_constraints: ]
[verbosity: -1]
[saved_feature_importance_type: 0]
[use_quantized_grad: 0]
[num_grad_quant_bins: 4]
[quant_train_renew_leaf: 0]
[stochastic_rounding: 1]
[linear_tree: 0]
[max_bin: 255]
[max_bin_by_feature: ]
[min_data_in_bin: 3]
[bin_construct_sample_cnt: 200000]
[data_random_seed: 175]
[is_enable_sparse: 1]
[enable_bundle: 1]
[use_missing: 1]
[zero_as_missing: 0]
[feature_pre_filter: 1]
[pre_partition: 0]
[two_round: 0]
[header: 0]
[label_column: ]
[weight_column: ]
[group_column: ]
[ignore_column: ]
[categorical_feature: ]
[forcedbins_filename: ]
[precise_float_parser: 0]
[parser_config_file: ]
[objective_seed: 16083]
[num_class: 1]
[is_unbalance: 0]
[scale_pos_weight: 1]
[sigmoid: 1]
[boost_from_average: 1]
[reg_sqrt: 0]
[alpha: 0.9]
[fair_c: 1]
[poisson_max_delta_step: 0.7]
[tweedie_variance_power: 1.5]
[lambdarank_truncation_level: 30]
[lambdarank_norm: 1]
[label_gain: ]
[lambdarank_position_bias_regularization: 0]
[eval_at: ]
[multi_error_top_k: 1]
[auc_mu_weights: ]
[num_machines: 1]
[local_listen_port: 12400]
[time_out: 120]
[machine_list_filename: ]
[machines: ]
[gpu_platform_id: -1]
[gpu_device_id: -1]
[gpu_use_dp: 0]
[num_gpu: 1]

end of parameters

pandas_categorical:[]
