tree
version=v4
num_class=1
num_tree_per_iteration=1
label_index=0
max_feature_idx=18
objective=binary sigmoid:1
feature_names=ma_10_ratio ma_30_ratio ma_200_ratio rsi_14 macd_hist stoch_k atr_14_pct bb_width bb_position adx_14 return_1 volume_ratio hour_sin hour_cos rsi_14_1d ma_50_1d_ratio vol_ratio_7_30 return_skew_20 funding_rate_zscore
feature_infos=[0.86433382433732697:1.0929254010287113] [0.81982753647824447:1.155536430257861] [0.71805132261291704:1.3104067021923687] [0.71710526315797551:97.597619933060599] [-50.583708829789828:45.744341063271257] [0:99.978616486688296] [0.0028636477114721121:0.058364830648416563] [0.0054161936997855582:0.35848173092310892] [-0.45091002706235556:1.5325486734843763] [5.9639208050341939:100] [-0.1186231676074454:0.096070770100350256] [0.088236660126977645:10.007459729693421] [-1:1] [-1:1] [11.33326238007632:92.244811473307365] [0.66833787477123929:1.4784421291316647] [0.36157823469739186:2.5735624592079605] [-3.7209207281661554:3.9412349785279668] [-13.784237676902324:13.784237676902315]
tree_sizes=2972 2746 3024 2963 3067 3030 2417 3055 3057 3045

Tree=0
num_leaves=27
num_cat=0
split_feature=6 14 6 1 18 15 14 6 18 18 18 14 14 15 1 11 6 0 14 14 18 1 9 0 9 0
split_gain=100.41 44.7584 43.0887 36.8041 43.8328 28.3897 37.8544 25.5549 25.4498 39.3971 41.6341 22.6693 20.6822 18.1073 18.268 16.9506 15.8911 15.8737 14.99 23.1401 12.7629 23.3904 16.3009 12.6079 8.41934 6.86564
threshold=0.008221403456358068 40.604876679954145 0.014746702703371509 1.0009714879157783 -0.65860654562859278 0.97671741263582568 28.902758764808613 0.0072813260697127472 -1.3734608787224996 -0.7077751611189107 1.0000000180025095e-35 65.885527413068672 20.908498426953106 0.83661950873801161 1.0070469353165448 1.8488375633172491 0.01125592429796725 0.99692930274252689 47.064594533470462 69.964976300716913 0.8024268288248223 1.0122669530916208 50.234606106251363 1.0070097625150678 34.188028081125402 0.99362458943662124
decision_type=2 2 2 2 2 2 2 2 2 2 2 2 2 2 2 2 2 2 2 2 2 2 2 2 2 2
left_child=1 5 8 4 -3 6 -1 24 16 17 11 -11 -4 -8 -15 -12 -2 -10 -5 23 21 22 -14 -20 -6 -18
right_child=2 3 12 18 7 -7 13 -9 9 10 15 -13 20 14 -16 -17 25 -19 19 -21 -22 -23 -24 -25 -26 -27
leaf_value=-0.66869125147548336 -0.66780138648847909 -0.67264432251983075 -0.67104416661829658 -0.66765845080212394 -0.66664548068057339 -0.6689906921702351 -0.67143140858531081 -0.6702451533971584 -0.67317446464282327 -0.66921218024379658 -0.67375007534149056 -0.67391267426439094 -0.67745606019464122 -0.67806987900325155 -0.67258189536330515 -0.67077730627558729 -0.67413019562602872 -0.67722576443511462 -0.67440901696302602 -0.66829198907501197 -0.6779601188753992 -0.67090161955532035 -0.67365859680248452 -0.67016748201499954 -0.6629185218174326 -0.67050742202990266
leaf_weight=27.967870235443115 39.155018329620361 37.365074634552002 25.954183578491211 23.493010997772217 61.529314517974854 41.168704986572266 23.045525074005127 38.260046482086182 42.511162757873535 120.37371349334717 372.75577449798584 32.890215396881104 74.058920383453369 54.369539737701416 24.164239883422852 56.38322639465332 23.045525074005127 73.387691497802734 70.702775955200195 30.876528739929199 53.922053813934326 28.862842082977295 55.264511585235596 23.045525074005127 37.812560558319092 29.757813930511475
leaf_count=125 175 167 116 105 275 184 103 171 190 538 1666 147 331 243 108 252 103 328 316 138 241 129 247 103 169 133
internal_value=-0.672405 -0.670508 -0.67332 -0.669388 -0.667797 -0.672616 -0.673815 -0.666468 -0.672737 -0.673076 -0.672524 -0.670245 -0.675229 -0.675284 -0.67645 -0.673349 -0.670226 -0.675791 -0.671312 -0.672067 -0.675761 -0.674952 -0.675886 -0.673318 -0.665091 -0.672149
internal_weight=1522.12 493.801 1028.32 323.085 174.967 170.716 129.547 137.602 790.26 698.302 582.403 153.264 238.063 101.579 78.5338 429.139 91.9584 115.899 148.118 124.625 212.108 158.186 129.323 93.7483 99.3419 52.8033
internal_count=6803 2207 4596 1444 782 763 579 615 3532 3121 2603 685 1064 454 351 1918 411 518 662 557 948 707 578 419 444 236
is_linear=0
shrinkage=1


Tree=1
num_leaves=24
num_cat=0
split_feature=7 3 8 18 15 15 2 2 2 7 18 18 2 2 15 2 15 18 15 12 2 17 15
split_gain=72.1336 29.2481 23.4744 22.6753 19.7103 19.406 22.4309 18.4101 17.9003 15.2223 14.6161 15.4733 13.9475 18.1073 13.6591 27.2516 11.0076 10.5431 9.13649 8.44691 10.2718 2.9106 2.87151
threshold=0.032653928987706853 22.753793825716034 0.46498727687711305 -0.6784910204594633 0.73871732915715593 0.8443899253790359 1.0445581516233851 0.9230324144284402 0.98483155395312971 0.03455809416741841 -2.3168152204228512 -0.6784910204594633 0.95193719832633972 0.99512482613737474 0.91826360114605765 1.0062502751985682 0.97564965768573586 -0.59175969733999223 0.87951742546395317 0.12940952255126045 0.9831144924892673 -0.13218304219052554 0.96466164771202467
decision_type=2 2 2 2 2 2 2 2 2 2 2 2 2 2 2 2 2 2 2 2 2 2 2
left_child=2 7 3 16 -3 -5 8 -2 -7 22 -11 -12 -4 19 18 -16 -1 -9 -15 20 -14 -21 -6
right_child=1 4 12 5 9 6 -8 17 -10 10 11 -13 13 14 15 -17 -18 -19 -20 21 -22 -23 -24
leaf_value=0.0018255369309368298 -0.0012107935904664545 -0.0054183897602259968 0.0039935564516337067 -0.00076901131208879177 -0.0022374932108410483 0.0013667551973323624 -0.00090010062392947214 0.0013173013196278935 0.0053198775262544165 0.0021130345299523322 -0.002508342822713863 -0.0006732807984003318 0.0014254491388649366 0.00037255213125389215 0.0059493761431947349 0.00063010459156983829 -0.0023785542792653827 0.006307979558846633 -0.0035261513923370261 -0.0014994528428604328 -0.0029009646276416013 -0.0044383864639017667 -0.0052371216306649291
leaf_weight=29.977308467030525 28.182214766740799 28.62088306248188 24.625497534871101 27.75836868584156 25.283651784062386 43.89377897977829 23.06510566174984 25.50462007522583 126.75280521810055 37.37625552713871 159.89556424319744 526.33788181841373 34.68703818321228 39.369305491447449 30.662948995828629 133.59944301843643 32.667496666312218 23.278069153428078 23.704500183463097 22.147911623120308 22.589448198676109 25.943343982100487 24.382047697901726
leaf_count=134 126 128 110 124 113 196 103 114 566 167 715 2353 155 176 137 597 146 104 106 99 101 116 109
internal_value=-4.98077e-05 -0.00100607 0.00125503 0.00235448 -0.00129893 0.00312293 0.0036977 0.00197684 0.00433901 -0.00113359 -0.000935096 -0.00110927 0.000366929 7.47045e-05 0.000897625 0.00168084 -0.000322926 0.00386268 -0.00108739 -0.00166138 -0.00025562 -0.00322255 -0.003867
internal_weight=1520.31 878.861 641.444 284.115 801.896 221.47 193.712 76.9649 170.647 773.275 723.61 686.233 357.329 332.704 227.336 164.262 62.6448 48.7827 63.0738 105.368 57.2765 48.0913 49.6657
internal_count=6795 3929 2866 1269 3585 989 865 344 762 3457 3235 3068 1597 1487 1016 734 280 218 282 471 256 215 222
is_linear=0
shrinkage=0.00513164


Tree=2
num_leaves=27
num_cat=0
split_feature=6 6 1 14 14 18 2 18 18 18 17 6 18 14 2 14 18 18 6 13 2 14 18 2 8 8
split_gain=100.868 46.4477 44.8192 45.5824 38.7898 37.0963 29.875 28.2025 31.3457 54.1878 24.4837 21.3696 21.2629 23.6753 14.8191 13.6691 13.4748 31.9371 12.5366 15.4862 10.0988 8.68846 7.32477 7.05462 6.28228 0.535539
threshold=0.0076839232730938302 0.016716903119298788 1.0024494804735709 40.551590778248929 23.866603907992964 -0.6784910204594633 1.0192018945838626 -1.3734608787224996 -0.63136725656580139 1.0000000180025095e-35 0.72257822553163031 0.011180141906650901 0.27826244686003004 37.683968428370967 0.95105974380010116 37.506281691229127 0.81732627648365919 0.35291503017238207 0.019394518487233527 0.37940952255126048 0.99405052656320436 68.193342369170878 -2.2036134002760117 1.0257360777569529 0.8232597823470148 0.50222147040961318
decision_type=2 2 2 2 2 2 2 2 2 2 2 2 2 2 2 2 2 2 2 2 2 2 2 2 2 2
left_child=2 4 3 15 -2 -5 12 11 23 -10 14 -6 20 -14 18 -1 17 -7 -3 -20 -4 24 -13 -9 -8 -16
right_child=1 10 6 5 7 16 21 8 9 -11 -12 22 13 -15 25 -17 -18 -19 19 -21 -22 -23 -24 -25 -26 -27
leaf_value=0.0021078091115499273 0.0060170441094185012 0.00025954552714016715 -0.0024689689255070358 0 0.0046749060453616341 0.0070439474456155098 -0.0053187535702539698 -0.003538826429634098 0.0021598481734082277 -0.0011985166766760606 0.0014496442543126449 0.0020448802432992369 0 0.0067521608383308918 -0.0073195355070693208 -0.0024428933259035526 0.0090987103492267303 0.00083820960698692895 -0.0061908391564313506 -0.00073816012111972197 0.0019895906201407841 0.0001118844557457897 -0.001501043140929879 -0.00041156790222329683 -0.0012836224555950872 -0.0045483999078757458
leaf_weight=37.38734433054924 23.053054377436638 24.585711553692818 28.406474173069 30.195087775588036 43.004637181758881 68.431525975465775 25.269382834434509 119.09029941260815 165.00410974025726 524.05227530002594 22.34976452589035 25.071933880448341 23.058090507984161 33.133487969636917 30.374321296811104 30.195307150483131 34.999294072389603 34.090216532349586 33.735452070832253 25.481066405773163 22.598080098628998 23.066277220845222 35.323281168937683 25.696323841810226 22.152596995234489 22.120698541402817
leaf_count=167 103 110 127 135 192 305 113 533 737 2343 100 112 103 148 136 135 156 152 151 114 101 103 158 115 99 99
internal_value=1.66797e-06 -0.000796433 0.00216708 0.00363054 -0.000365868 0.0050549 0.00019962 -0.000534326 -0.000850974 -0.00038731 -0.00335916 0.0019687 0.00191292 0.00405826 -0.00417618 2.25151e-05 0.0061762 0.00504655 -0.00270273 -0.00396192 -0.000434914 -0.00235074 0 -0.00301338 -0.00358185 -0.00634817
internal_weight=1531.93 1118.94 412.983 235.299 960.296 167.716 177.684 937.243 833.843 689.056 158.647 103.4 107.196 56.1916 136.297 67.5827 137.521 102.522 83.8022 59.2165 51.0046 70.4883 60.3952 144.787 47.422 52.495
internal_count=6847 5003 1844 1050 4293 748 794 4190 3728 3080 710 462 479 251 610 302 613 457 375 265 228 315 270 648 212 235
is_linear=0
shrinkage=0.00513164


Tree=3
num_leaves=26
num_cat=0
split_feature=6 14 6 15 14 1 15 6 15 9 14 18 15 14 14 14 1 14 13 5 15 7 14 14 0
split_gain=105.201 45.9978 40.2064 37.1851 44.9889 30.9974 30.0572 29.8971 28.6004 27.4463 36.6154 44.2245 26.3454 41.8996 21.3418 31.3724 33.5234 21.0226 18.1105 17.4224 16.4262 14.3388 10.3612 7.59917 3.6786
threshold=0.0079639533175321353 70.13551279429241 0.015552657707187315 1.0622185544220357 40.604876679954145 1.0012887587862547 1.343059168945828 0.0058636452464102913 1.0289532416778606 34.900053812055106 46.117004886457543 -1.755359670054865 0.97564965768573586 28.902758764808613 46.117004886457543 38.346411974007047 1.0160837250000514 48.124250186604606 -0.60355339059327384 29.499328973081521 1.1799598130320195 0.083945536870978915 62.817205130604144 29.833661648907903 1.0062379497176162
decision_type=2 2 2 2 2 2 2 2 2 2 2 2 2 2 2 2 2 2 2 2 2 2 2 2 2
left_child=1 3 6 4 12 7 9 -6 -3 18 11 -11 13 -1 15 16 23 -7 22 -20 -5 -12 -2 -4 -16
right_child=2 8 14 20 5 17 -8 -9 -10 10 21 -13 -14 -15 24 -17 -18 -19 19 -21 -22 -23 -24 -25 -26
leaf_value=0.0045080524276164971 0.0014893854495227634 0.0030780996632981715 -0.0025331252627969849 -0.0046654543158522977 0.0089366333314222311 0.0050005736912272971 0.0053434586429185619 0.0032242201175843531 0.010411091578351081 0.0076971853709242527 -0.00061718535707669386 0.00090022276537776659 0.0036182345618108579 -0.002599239838418681 -0.0062112805329309602 0.0037296145883803692 0.0022032634868093728 -0.00071482694240883023 0.00012359865951968883 -0.0029283938025126961 0.00081588566779936499 -0.004754042772281513 -0.0021674911814649422 -0.0059070431765630661 -0.0030138365635585893
leaf_weight=26.446380138397217 65.548863962292671 38.130059599876404 42.652433767914772 32.895209655165672 42.056511774659157 23.763144433498383 22.360342487692833 66.017681837081909 24.469999343156815 28.019522950053215 224.33493547141552 195.91755920648575 41.238680750131607 99.019581437110901 44.617446824908257 22.122398167848587 25.709929600358009 49.438813120126724 61.513911262154579 211.28851160407066 22.85115310549736 23.698267266154289 27.729388147592545 42.60395385324955 23.222803711891174
leaf_count=118 293 170 191 147 187 106 100 294 109 125 1003 876 184 443 200 99 115 221 275 945 102 106 124 191 104
internal_value=5.33987e-05 0.00208346 -0.000837166 0.00142788 0.00205625 0.00381653 -0.000348622 0.00555576 0.00614745 -0.000512261 0.000300273 0.00180418 0.000109064 -0.00104585 -0.00289824 -0.00164282 -0.00277217 0.00115511 -0.00156545 -0.00223179 -0.00239811 -0.00104766 0.000355026 -0.00431846 -0.00523896
internal_weight=1527.67 466.327 1061.34 403.727 347.981 181.276 860.411 108.074 62.6001 838.051 471.97 223.937 166.705 125.466 200.929 133.089 110.966 73.202 366.081 272.802 55.7464 248.033 93.2783 85.2564 67.8403
internal_count=6828 2081 4747 1802 1553 808 3847 481 279 3747 2110 1001 745 561 900 596 497 327 1637 1220 249 1109 417 382 304
is_linear=0
shrinkage=0.00513164


Tree=4
num_leaves=27
num_cat=0
split_feature=7 14 3 4 15 15 14 7 14 8 14 15 14 3 15 14 14 13 12 7 14 15 0 0 7 16
split_gain=59.6936 36.6627 29.9257 27.8053 42.0845 33.2014 27.34 26.8135 22.8356 21.3718 45.9415 21.1482 20.9862 32.1199 31.2437 17.8259 24.9611 13.6024 12.5463 10.5893 10.1559 10.3049 8.04632 4.175 4.08012 3.18831
threshold=0.031186445911062299 57.924360378085666 26.033266186144029 -3.3323494516569911 1.0622185544220357 1.2151486630896566 51.576802175140266 0.059005002362426423 22.456824646114729 0.45220718290506173 40.551590778248929 0.7689762985155576 55.269227712271608 64.895764692319645 1.3751261814148761 71.947592337265164 74.728935438812485 -0.37940952255126015 0.37940952255126054 0.019111269714254659 29.559675890555983 0.97564965768573586 0.97908548996566946 1.00247677156839 0.021574704041848084 0.93209621195709247
decision_type=2 2 2 2 2 2 2 2 2 2 2 2 2 2 2 2 2 2 2 2 2 2 2 2 2 2
left_child=1 6 7 -3 15 -6 9 -2 -4 10 17 25 13 -13 -14 23 -17 -1 22 -12 -11 -22 -9 -5 -8 -10
right_child=2 3 8 4 5 -7 24 18 11 20 19 12 14 -15 -16 16 -18 -19 -20 -21 21 -23 -24 -25 -26 -27
leaf_value=0.0019885542491078069 0.0051098584984722922 -0.00064877306418968856 0.0034161476265126001 0.0080861155135276263 -0.0045851378308315524 0.0035982259513673304 -0.004255831156659725 0.0035078056200552737 -0.0060269324217209772 0.002686004018379064 0.0079949848959588402 -0.0013112450702667331 -0.0027869587596363386 0.0015477636959614939 0.0032077376917164905 -0.00075367410545314933 0.0064334874261625895 -0.0024755364149194777 -0.0031871992491521481 0.0033830945095641263 -0.0014804667540676915 0.0012677529190178911 -0.00055196022269333176 0.0044350898732233085 -0.0014273898154360729 -0.0026962953101641349
leaf_weight=32.043535858392715 37.892375156283379 43.059395268559456 26.421413749456406 51.203331336379051 22.357794672250748 27.775835052132607 25.956084787845612 22.125758394598961 24.541999742388725 26.878921940922737 28.37299557030201 335.76872812211514 243.90876859426498 147.39320701360703 23.698822900652885 23.988142743706703 23.762277007102966 37.157776609063148 23.010212987661362 36.122561067342758 116.27229630947113 49.499224349856377 25.490266174077988 22.408189088106155 40.516075864434242 22.744305998086929
leaf_count=143 169 192 118 228 100 124 116 99 110 120 126 1502 1092 659 106 107 106 166 103 161 520 221 114 100 181 102
internal_value=9.1787e-06 0.00126163 -0.00080352 0.00296239 0.00388477 -1.58981e-05 0.000318161 0.00170435 -0.00113949 0.000937757 0.00250462 -0.0012995 -0.00107963 -0.000430949 -0.00223165 0.00550386 0.00283732 -0.000366665 -0.00014038 0.00557751 -0.000143511 -0.00063808 0.00131574 0.00711274 -0.00263796 -0.00460397
internal_weight=1540.37 607.374 932.996 214.555 171.496 50.1336 392.819 108.519 824.477 326.347 133.697 798.056 750.77 483.162 267.608 121.362 47.7504 69.2013 70.6262 64.4956 192.65 165.772 47.616 73.6115 66.4722 47.2863
internal_count=6885 2711 4174 957 765 224 1754 485 3689 1457 596 3571 3359 2161 1198 541 213 309 316 287 861 741 213 328 297 212
is_linear=0
shrinkage=0.00513164


Tree=5
num_leaves=27
num_cat=0
split_feature=6 1 6 16 3 15 14 14 6 2 15 2 14 2 17 2 5 1 2 15 14 17 15 1 14 2
split_gain=114.454 56.291 32.3291 30.7227 25.426 27.0589 23.9716 21.1074 43.3542 29.5833 43.2751 19.9632 21.0558 17.3704 16.4173 16.3625 16.3507 15.5807 15.5428 13.6785 13.7532 12.6197 12.6081 12.5872 11.2549 12.5221
threshold=0.0089433805886359654 1.0000727469230466 0.018829724206797967 0.93777750371840574 30.079410733095319 1.3751261814148761 62.453410776228203 40.551590778248929 0.0071680770404805643 0.98194621079021704 0.96265255643302072 1.0215701745780368 68.193342369170878 1.0014342324080927 1.08021906487593 1.0078423602777422 21.542295241556602 1.020710437560731 0.99322156175653908 0.96265255643302072 57.924360378085666 0.18427510412827539 0.90953672094140348 1.0097909941176269 39.262304585926252 0.98066431747140925
decision_type=2 2 2 2 2 2 2 2 2 2 2 2 2 2 2 2 2 2 2 2 2 2 2 2 2 2
left_child=1 7 4 15 -2 6 13 9 16 -1 -11 18 -13 -6 -8 24 -9 -4 -5 -10 -21 -20 -17 -24 -3 -26
right_child=2 3 17 11 5 -7 14 8 19 10 -12 12 -14 -15 -16 22 -18 -19 21 20 -22 -23 23 -25 25 -27
leaf_value=0.005515705970735643 0.0016976765185810849 -0.0012342091699814592 -0.0048388232010615154 0.00048761708256910561 -0.0014103709257414121 0.0042154888218607512 -0.0036175331068466761 0.0030560961160555418 0.004031649612354719 -0.004422850605690495 0.0044162022678519127 -0.002280256682728059 0.0035932438337209177 0.00058206505529676716 0.00095150584356938866 -0.0053515991063123247 0.007743531001687602 0 0.0023936041230552723 -0.0025323559172801711 0.0022418065152378058 0.0078161866464083532 0.0002680882886641085 -0.0039069276539322826 3.8445592056924444e-05 0.0049896956973688846
leaf_weight=26.66255684196949 100.45699462294579 47.19300976395607 78.183505475521088 25.720711722970009 307.82541134953499 23.285017997026443 139.06724187731743 32.424318090081215 41.917399138212204 35.10132808983326 22.862468078732491 38.673397108912468 25.531902506947517 180.14959505200386 22.54809159040451 25.697245582938194 79.984588116407394 22.56438222527504 24.169853195548058 25.758908107876778 36.799164891242981 28.458600297570229 51.976370453834534 27.510852560400963 34.485232055187225 22.182241544127464
leaf_count=119 449 211 351 115 1377 104 623 144 187 157 102 173 114 806 101 115 355 101 108 115 164 127 232 123 154 99
internal_value=0.00016315 0.00178814 -0.00104841 0.000380095 -0.000684033 -0.00104675 -0.0012482 0.00341124 0.00426187 0.00116387 -0.000864421 0.0022123 3.40954e-05 -0.000668987 -0.00295882 -0.000860863 0.00646923 -0.00377063 0.00392897 0.00180717 0.000216589 0.00550143 -0.00228069 -0.00117922 0.000558602 0.00209839
internal_weight=1527.19 653.11 874.08 351.599 773.332 672.875 649.59 301.511 216.884 84.6264 57.9638 142.554 64.2053 487.975 161.615 209.045 112.409 100.748 78.3492 104.475 62.5581 52.6285 105.184 79.4872 103.86 56.6675
internal_count=6826 2914 3912 1571 3460 3011 2907 1343 965 378 259 637 287 2183 724 934 499 452 350 466 279 235 470 355 464 253
is_linear=0
shrinkage=0.00513164


Tree=6
num_leaves=21
num_cat=0
split_feature=14 14 14 14 3 15 2 14 2 1 2 18 14 4 2 2 14 14 15 14
split_gain=37.2725 43.0483 54.2364 51.2707 31.8468 29.4071 55.9316 80.7796 38.0839 27.792 23.6173 21.2842 18.9283 16.2924 15.7944 25.2569 13.8918 23.8881 24.5643 16.7054
threshold=22.456824646114729 39.262304585926252 44.950210302681761 42.41597268941829 34.730247777989 1.0622185544220357 1.0492941949629391 58.705004501809732 0.99746798705465267 1.0281072629938057 1.0765932627179413 0.26513746681781641 57.118154182598694 -1.7822576436436102 0.96699154789937025 0.98740300099430556 24.574375380457422 29.559675890555983 0.82344072955307801 32.945293716282663
decision_type=2 2 2 2 2 2 2 2 2 2 2 2 2 2 2 2 2 2 2 2
left_child=-1 9 3 14 -5 6 7 -4 12 16 -10 -6 -7 -8 -3 -16 -2 18 -18 -19
right_child=1 2 5 4 11 8 13 -9 10 -11 -12 -13 -14 -15 15 -17 17 19 -20 -21
leaf_value=0.0045927869243651076 -0.0049571182236730566 -0.0020880570285516978 -0.00052630951861717338 0.010778354988003561 0.00049341806794506681 -0.0014932336293432254 -0.006115283799429206 0.0042899083585847724 0.00062983013648769425 0.0035243954444999564 -0.0028364515481012664 0.0064187570213976395 -0.00615391852461034 -0.0012433638620166873 0.0062272260979096628 -9.3313823890007317e-05 -0.0018138361828307842 -0.0041982860523467691 0.003490376270179256 -0.0014266374808247465
leaf_weight=43.69870238006115 33.033848494291306 39.12378565967083 206.95034126937389 23.387673452496529 31.842879772186279 47.605947583913803 28.840185895562172 161.67117781937122 206.60521951317787 26.173131287097931 67.411749601364136 33.891597136855125 49.699894815683365 52.784026682376862 22.656076669692993 51.401777923107147 44.227156788110733 79.282315969467163 44.517057970166206 229.94081889092922
leaf_count=195 148 175 924 104 142 213 129 720 924 117 302 151 223 236 101 230 198 355 199 1029
internal_value=-5.39326e-06 -0.000147075 0.000435333 0.00280702 0.0056912 -0.000148519 0.000728059 0.0015855 -0.00121841 -0.00145557 -0.000221318 0.00365987 -0.00395496 -0.00307118 0.000470024 0.00187474 -0.00177484 -0.0014876 0.000825184 -0.00216185
internal_weight=1524.75 1481.05 1023.87 202.304 89.1222 821.569 450.246 368.622 371.323 457.174 274.017 65.7345 97.3058 81.6242 113.182 74.0579 431.001 397.967 88.7442 309.223
internal_count=6815 6620 4574 903 397 3671 2009 1644 1662 2046 1226 293 436 365 506 331 1929 1781 397 1384
is_linear=0
shrinkage=0.00513164


Tree=7
num_leaves=27
num_cat=0
split_feature=6 1 6 14 14 15 14 6 9 14 3 6 14 1 1 14 7 6 14 15 5 6 6 15 14 15
split_gain=105.037 44.4856 38.9187 52.9368 31.6779 40.3571 36.1346 35.2504 20.3202 18.4738 16.4759 19.2125 26.8398 15.514 14.3307 14.1431 13.9867 12.9599 10.9585 10.8908 7.07268 6.10782 13.9474 10.1353 4.01513 0.832957
threshold=0.0079639533175321353 1.0035571945010686 0.01849987325733209 22.456824646114729 40.551590778248929 0.97439480877956364 37.506281691229127 0.0071680770404805643 34.188028081125402 70.13551279429241 29.837053134449715 0.014746702703371509 75.843260107274773 1.0225946222759705 1.0125195002075396 62.263186822229905 0.071330039071774029 0.0070626370217441031 62.344059880157189 0.85387864291635129 24.645674836616369 0.0050632710646970154 0.0062004541181868407 0.99028001764838436 50.113858140428711 0.75858771689964399
decision_type=2 2 2 2 2 2 2 2 2 2 2 2 2 2 2 2 2 2 2 2 2 2 2 2 2 2
left_child=1 4 3 -2 5 6 -1 8 9 -6 18 12 -12 20 21 -9 -13 -16 19 -5 -4 -3 -23 -24 -10 -22
right_child=2 14 13 10 7 -7 -8 15 24 -11 11 16 -14 -15 17 -17 -18 -19 -20 -21 25 22 23 -25 -26 -27
leaf_value=0.0015539224620890436 0.0067358602016492838 -0.0030051233751420799 -0.0021117184059804921 -0.00025661517634831949 0.0025975694913031645 0.006053008471449961 -0.0063829292129298698 -0.0017135819046489268 0.010466724777643748 0.0079894388565902794 -0.00093285472321585016 -0.0046481716260659053 0.003449088541406767 0 -0.00025843854117624167 0.0033412706877974916 -0.00055274638537259127 0.0048298581366671796 -0.0018085990490415444 0.003314849464600624 -0.0070052988237621324 0.002296464912011179 -0.0034343513666590356 0.00039896404914500189 0.0062565189794163197 -0.0044999930802364831
leaf_weight=35.825326830148697 24.268367230892181 26.378870114684105 25.806407272815704 34.682849258184433 68.919801399111748 24.046102479100227 23.855560854077339 27.137134701013565 22.621808290481567 23.477777183055878 689.44232234358788 59.901861175894737 37.355952471494675 22.345981180667877 23.726423144340515 27.896598115563393 37.708183482289314 25.327570542693138 25.072522103786469 54.908538490533829 25.111121013760567 35.137269601225853 36.237857863306999 32.259272113442421 30.910325437784195 36.461827337741852
leaf_count=160 108 118 116 155 306 107 107 121 100 104 3085 269 167 100 106 124 169 113 112 245 113 157 162 144 137 164
internal_value=6.42142e-06 0.00204572 -0.000873508 -0.000537421 0.00330164 0.000594556 -0.0016378 0.00440321 0.00571719 0.00409304 -0.000737783 -0.000993266 -0.000697621 -0.00375543 2.25719e-05 0.00081278 -0.00312525 0.00236571 0.00106322 0.00191499 -0.00471834 -0.000853107 -0.000245491 -0.00161183 0.00829957 -0.00569533
internal_weight=1536.82 463.758 1073.07 963.341 284.69 83.727 59.6809 200.963 145.93 92.3976 939.072 824.408 726.798 109.725 179.067 55.0337 97.61 49.054 114.664 89.5914 87.3794 130.013 103.634 68.4971 53.5321 61.5729
internal_count=6869 2066 4803 4310 1266 374 267 892 647 410 4202 3690 3252 493 800 245 438 219 512 400 393 581 463 306 237 277
is_linear=0
shrinkage=0.00513164


Tree=8
num_leaves=27
num_cat=0
split_feature=6 1 6 4 2 2 7 15 15 15 15 1 6 2 6 16 15 1 12 13 7 16 6 15 15 15
split_gain=101.255 38.1414 34.0675 26.6661 24.529 33.7407 32.3146 21.3133 25.4496 22.5154 20.6699 28.1323 19.9782 19.659 17.2598 17.0232 16.6742 19.296 15.2947 15.2168 20.0573 14.8221 13.6609 11.4645 9.98861 7.78578
threshold=0.0078571111959174628 0.9999577718942726 0.014746702703371509 1.0061952204829743 0.95543075144208922 0.99279633062974448 0.051713308586749475 0.80550998760041015 0.90768788830376801 0.84699580203469982 0.87444753945935094 1.024093159371626 0.01849987325733209 0.94904031989726045 0.0065311709474170114 0.79709506233684013 1.3335510868213933 0.99340894917948097 1.0000000180025095e-35 -0.70710678118654757 0.029360413892728834 0.7721045899156127 0.0089258252171978362 0.93379223321276006 0.97671741263582568 0.94476895857075116
decision_type=2 2 2 2 2 2 2 2 2 2 2 2 2 2 2 2 2 2 2 2 2 2 2 2 2 2
left_child=1 3 4 14 7 6 22 -2 9 -9 11 12 13 -4 21 25 17 -7 -10 -17 -21 -1 -6 -8 -16 -3
right_child=2 15 10 -5 5 16 23 8 18 -11 -12 -13 -14 -15 24 19 -18 -19 -20 20 -22 -23 -24 -25 -26 -27
leaf_value=0.0013638260925023368 -0.0019027145157600003 0.0006490709772551767 0.0026783246321642551 0.0085226382668980791 -0.0011060865659548991 0.0019950951578505786 0.0027789680391167196 0.0019690584730582151 -0.002523826692112088 0.0085477586082995279 -0.0042848703559701749 0.0039039730613262655 -0.0043163292193904258 -0.0034921403907025501 -0.00061048982040108276 -0.00090188989386490149 0.0041955312256813475 -0.00069528391308240351 0.0030457233795717232 0.0015412105302044145 0.0070090283137233672 0.0059057806183052518 -0.004305285385904572 -0.0017654120771230753 0.0028970263533181395 -0.0022006517629737528
leaf_weight=31.33657018840313 33.498104006052017 42.289654344320297 30.393080905079842 26.143325597047806 53.93867900967598 85.241341292858124 35.392179936170578 34.248531863093376 27.735261797904968 24.904627189040184 103.00860102474689 22.175130039453506 57.295834675431252 22.484891220927238 40.627074122428894 38.054050713777542 22.872497275471687 366.21334725618362 22.155783802270889 83.817375063896179 22.430764734745026 61.215882331132889 126.79518957436085 22.354518070816994 40.567401990294456 55.537516087293625
leaf_count=139 150 189 136 116 241 381 158 153 124 111 463 99 258 101 181 170 102 1639 99 374 100 271 568 100 180 248
internal_value=5.04515e-07 0.00207077 -0.00083718 0.00372589 -0.000355671 -0.00074751 -0.00231653 0.00157151 0.00267637 0.0049149 -0.00256253 -0.00117023 -0.00225289 0 0.00292812 0.000679106 3.91694e-05 -0.000176246 0 0.00180016 0.00279548 0.00444109 -0.00338215 0.000968005 0.00112326 -0.000945717
internal_weight=1532.73 442.02 1090.71 199.89 855.35 712.808 238.481 142.542 109.044 59.1532 235.358 132.349 110.174 52.878 173.747 242.129 474.327 451.455 49.891 144.302 106.248 92.5525 180.734 57.7467 81.1945 97.8272
internal_count=6851 1968 4883 887 3826 3189 1067 637 487 264 1057 594 495 237 771 1081 2122 2020 223 644 474 410 809 258 361 437
is_linear=0
shrinkage=0.00513164


Tree=9
num_leaves=27
num_cat=0
split_feature=15 13 9 15 15 15 15 1 4 0 16 9 11 16 3 3 15 15 1 8 0 1 8 9 0 15
split_gain=44.0334 29.2746 29.5506 40.6529 21.9412 17.2857 25.7283 16.6904 18.0118 25.5706 23.5283 15.3612 15.2237 11.7556 18.7938 10.5482 14.348 10.4205 9.79931 8.92899 10.318 7.8391 6.53936 6.49036 5.15601 4.82997
threshold=0.73871732915715593 0.1294095225512602 35.420841444232344 1.1625724923554339 0.97671741263582568 1.0622185544220357 1.1847797969242235 1.0000727469230466 -2.5662419431085732 1.0058926450024159 0.93556546762098625 32.43540552032114 0.77434759018650345 1.0178849574653175 59.860868530860238 74.780963302767688 0.81436208904292096 1.0483460670066429 1.0043058799040236 0.67493017714804571 1.015106681799506 0.97265698287746727 0.70755839070672766 20.166310212379496 0.99997781308460654 0.88084676179317734
decision_type=2 2 2 2 2 2 2 2 2 2 2 2 2 2 2 2 2 2 2 2 2 2 2 2 2 2
left_child=-1 7 4 15 12 18 -7 8 11 10 -10 17 22 14 23 16 -4 -2 -6 -15 -21 -13 -3 -9 -14 -16
right_child=1 2 3 -5 5 6 -8 13 9 -11 -12 21 24 19 25 -17 -18 -19 -20 20 -22 -23 -24 -25 -26 -27
leaf_value=-0.0049064433608201462 7.1649063781328897e-05 -0.0049193737693410495 -0.0019371172893163739 -0.0033090483053757383 0.002711610435385751 -0.0060700952768913408 0 -0.0011987863615295429 0.004878182744990172 -0.0023223479673686606 0.001043125496490691 -0.00026352739171753092 0.0004467749606427267 -0.00091572404784933043 -0.00031092069074527897 0.0040954306043897472 0.0014348731465291989 -0.0037357927656897702 -0.0011268197716307142 0.0031364056393441138 -1.2993286093996877e-05 0.0026776046507179267 -0.0016383156150683359 0.0015007927041851465 -0.0024981311506168777 -0.0025352909225296533
leaf_weight=43.957975074648857 55.074624598026276 78.297876983880997 37.272475317120552 59.767890483140945 51.672803714871407 25.395296037197113 62.066326841711998 28.15670408308506 107.41651041805744 22.055108830332756 74.009640291333199 31.985439851880074 33.344950243830681 33.723421320319176 41.161790892481804 30.89552740752697 218.79808278381824 26.352563917636871 23.932040154933929 73.358030676841736 40.229329809546471 74.013613611459732 26.115313649177551 100.42513771355152 25.688635259866714 88.941858723759651
leaf_count=198 245 351 167 268 230 114 278 126 478 99 330 143 149 151 184 138 977 118 107 328 180 330 117 449 115 398
internal_value=7.54268e-05 0.00023071 -0.000553754 0.000482191 -0.00166068 -0.000302711 -0.00185852 0.000897089 0.00165293 0.0027086 0.00334919 0.000479785 -0.00298375 0.000158865 -0.000491242 0.00129388 0.000924824 -0.0011635 0.00145845 0.00131525 0.00200706 0.00176934 -0.00415816 0.000880014 -0.000810685 -0.00186491
internal_weight=1514.11 1470.15 673.247 346.734 326.513 163.066 87.4616 796.904 390.908 203.481 181.426 187.426 163.447 405.996 258.685 286.966 256.071 81.4272 75.6048 147.311 113.587 105.999 104.413 128.582 59.0336 130.104
internal_count=6768 6570 3011 1550 1461 729 392 3559 1743 907 808 836 732 1816 1157 1282 1144 363 337 659 508 473 468 575 264 582
is_linear=0
shrinkage=0.00513164


end of trees

feature_importances:
rsi_14_1d=50
ma_50_1d_ratio=44
atr_14_pct=26
ma_200_ratio=25
ma_30_ratio=19
funding_rate_zscore=19
bb_width=10
ma_10_ratio=9
rsi_14=8
adx_14=7
bb_position=6
vol_ratio_7_30=6
hour_cos=5
macd_hist=4
return_skew_20=4
stoch_k=3
hour_sin=3
volume_ratio=2

parameters:
[boosting: gbdt]
[objective: binary]
[metric: binary_logloss]
[tree_learner: serial]
[device_type: cpu]
[data_sample_strategy: bagging]
[data: ]
[valid: ]
[num_iterations: 2000]
[learning_rate: 0.00513164]
[num_leaves: 27]
[num_threads: 1]
[seed: 42]
[deterministic: 1]
[force_col_wise: 0]
[force_row_wise: 0]
[histogram_pool_size: -1]
[max_depth: 6]
[min_data_in_leaf: 99]
[min_sum_hessian_in_leaf: 0.001]
[bagging_fraction: 0.79107]
[pos_bagging_fraction: 1]
[neg_bagging_fraction: 1]
[bagging_freq: 1]
[bagging_seed: 400]
[bagging_by_query: 0]
[feature_fraction: 0.653796]
[feature_fraction_bynode: 1]
[feature_fraction_seed: 30056]
[extra_trees: 0]
[extra_seed: 12879]
[early_stopping_round: 0]
[early_stopping_min_delta: 0]
[first_metric_only: 0]
[max_delta_step: 0]
[lambda_l1: 0.594279]
[lambda_l2: 1.31493]
[linear_lambda: 0]
[min_gain_to_split: 0]
[drop_rate: 0.1]
[max_drop: 50]
[skip_drop: 0.5]
[xgboost_dart_mode: 0]
[uniform_drop: 0]
[drop_seed: 17869]
[top_rate: 0.2]
[other_rate: 0.1]
[min_data_per_group: 100]
[max_cat_threshold: 32]
[cat_l2: 10]
[cat_smooth: 10]
[max_cat_to_onehot: 4]
[top_k: 20]
[monotone_constraints: ]
[monotone_constraints_method: basic]
[monotone_penalty: 0]
[feature_contri: ]
[forcedsplits_filename: ]
[refit_decay_rate: 0.9]
[cegb_tradeoff: 1]
[cegb_penalty_split: 0]
[cegb_penalty_feature_lazy: ]
[cegb_penalty_feature_coupled: ]
[path_smooth: 0]
[interaction_constraints: ]
[verbosity: -1]
[saved_feature_importance_type: 0]
[use_quantized_grad: 0]
[num_grad_quant_bins: 4]
[quant_train_renew_leaf: 0]
[stochastic_rounding: 1]
[linear_tree: 0]
[max_bin: 255]
[max_bin_by_feature: ]
[min_data_in_bin: 3]
[bin_construct_sample_cnt: 200000]
[data_random_seed: 175]
[is_enable_sparse: 1]
[enable_bundle: 1]
[use_missing: 1]
[zero_as_missing: 0]
[feature_pre_filter: 1]
[pre_partition: 0]
[two_round: 0]
[header: 0]
[label_column: ]
[weight_column: ]
[group_column: ]
[ignore_column: ]
[categorical_feature: ]
[forcedbins_filename: ]
[precise_float_parser: 0]
[parser_config_file: ]
[objective_seed: 16083]
[num_class: 1]
[is_unbalance: 0]
[scale_pos_weight: 1]
[sigmoid: 1]
[boost_from_average: 1]
[reg_sqrt: 0]
[alpha: 0.9]
[fair_c: 1]
[poisson_max_delta_step: 0.7]
[tweedie_variance_power: 1.5]
[lambdarank_truncation_level: 30]
[lambdarank_norm: 1]
[label_gain: ]
[lambdarank_position_bias_regularization: 0]
[eval_at: ]
[multi_error_top_k: 1]
[auc_mu_weights: ]
[num_machines: 1]
[local_listen_port: 12400]
[time_out: 120]
[machine_list_filename: ]
[machines: ]
[gpu_platform_id: -1]
[gpu_device_id: -1]
[gpu_use_dp: 0]
[num_gpu: 1]

end of parameters

pandas_categorical:[]
