tree
version=v4
num_class=1
num_tree_per_iteration=1
label_index=0
max_feature_idx=18
objective=binary sigmoid:1
feature_names=ma_10_ratio ma_30_ratio ma_200_ratio rsi_14 macd_hist stoch_k atr_14_pct bb_width bb_position adx_14 return_1 volume_ratio hour_sin hour_cos rsi_14_1d ma_50_1d_ratio vol_ratio_7_30 return_skew_20 funding_rate_zscore
feature_infos=[0.9282785459340519:1.0779576195787481] [0.87875853586900654:1.0923856869432083] [0.7795100955013029:1.1856964932129814] [1.716112919094499:98.295538757966085] [-953.00223272314952:885.64154068106438] [0:100] [0.0012163816621198861:0.038271628713109629] [0.0023771303773671378:0.22734246689125856] [-0.48224355447518846:1.497140965354931] [4.7421618308105336:98.937580500733787] [-0.049101442053134936:0.050906205506907165] [0.077393029546948669:10.590528582247845] [-1:1] [-1:1] [15.194615971692215:90.923160103372496] [0.79347929821036078:1.4331232090152759] [0.28474336503425013:2.7839740274208058] [-3.8444836258086332:3.7759436419761463] [-13.78423767680826:13.784237670674855]
tree_sizes=1059 1533 785 1077 1315 1202 1091 1084 1198 1096 1203 1088 1083 1286 1094 1207 785 1188 1429 775 1187 965 1091 785 784 1294 969 952 1390 1058 1288 1099 986 1173 988 1099 988 999 889 976 971 1097 1095 866 1183 975 1218 980 1080 1202 993 991 876 779 687 1212 785 1098 1070 1084 1226 978 1070 891 861 1204 1107 1094 1051 1082 1093 1283 1007 970 988 1092 864 799 947 866 892 1318 1081 861 1116 887 995 880 1198 1175 1040 773 1554 1197 1125 777 1195 1421 1053 1196 1095 971 908 886 1276 798 1006 988 1059 1284 966 872 1281 802 983 987 1084 1101 1151 878 1098 1271 962 881 886 1245 797 970 878 998 966 794 1077 983 1619 909 900 883 1087 856 1159 900 1150 789 1277 875 781 1357 991 798 982 1085 1275 1174 1082 675 1597 999 780 1087 952 1033 1058 1087 1097 806 1013 1699 787 959 885 671 1074 1121 1093 666 804 1097 890 986 1296 803 999 1079 1153 1065 1716 1002 774 797 885 780 867 898 1418 1295 770 889 878

Tree=0
num_leaves=9
num_cat=0
split_feature=5 3 3 11 5 3 3 11
split_gain=1460.84 189.346 183.136 54.7845 26.0302 23.9076 14.0428 11.3611
threshold=25.966809979085856 34.823938210543965 42.201871110274787 0.54592126275949604 39.312521556146102 30.276051391485236 46.881726766445986 0.88778986608821953
decision_type=2 2 2 2 2 2 2 2
left_child=2 5 3 -1 6 -2 -3 -4
right_child=1 4 7 -5 -6 -7 -8 -9
leaf_value=-2.2967270599607361 -2.2770284483724135 -2.3378694884173377 -2.3401601863433377 -2.2382164239685243 -2.3675067431496624 -2.3267031792661017 -2.3615482098046252 -2.3104502310168207
leaf_weight=19.95318342000246 13.863055147230623 33.896371833980083 14.023321680724623 83.899530284106731 388.64634372293949 18.190251551568508 26.443978026509285 13.943188413977621
leaf_count=249 173 423 175 1047 4850 227 330 174
internal_value=-2.33968 -2.36057 -2.26384 -2.24813 -2.365 -2.30175 -2.34786 -2.32566
internal_weight=612.859 481.04 131.819 103.853 448.987 32.0533 60.3403 27.9665
internal_count=7648 6003 1645 1296 5603 400 753 349
is_linear=0
shrinkage=1


Tree=1
num_leaves=13
num_cat=0
split_feature=10 11 17 11 17 10 15 17 17 15 9 15
split_gain=261.849 95.7518 74.2239 37.1528 55.2321 37.0274 21.9013 14.5608 9.35249 4.39441 2.3965 0.212746
threshold=-0.0026708946396943874 0.87323072488965836 0.53895457664950186 0.54592126275949604 -0.38098265596507841 -0.0007279491560353012 1.0596289224955562 -0.53322190924691781 0.098317577697393591 0.95027527825138758 35.855240789347512 0.91466828186196036
decision_type=2 2 2 2 2 2 2 2 2 2 2 2
left_child=1 7 8 9 6 -6 -5 -1 -3 11 -9 -2
right_child=3 2 -4 4 5 -7 -8 10 -10 -11 -12 -13
leaf_value=0.022061637685587537 -0.010396774407388541 0.067517167882688647 -0.00066285947837266648 0.020834650629499171 0.0072314554659657837 -0.017297195683005244 -0.0050033665320931755 0 0.029230994859361599 -0.021292629312396609 -0.01357798313805098 -0.00085027771680606544
leaf_weight=14.762645706534384 13.546045213937761 50.046732984483242 14.676229223608969 62.994911596179008 50.719450980424881 165.98693418502808 28.816372111439705 15.392434448003767 14.052694052457808 147.2776241004467 16.819992214441299 15.753368005156515
leaf_count=180 171 594 182 774 629 2096 360 194 171 1860 211 198
internal_value=-0.00106293 0.031885 0.0490413 -0.00977832 -0.0041325 -0.0113448 0.012318 0.00148503 0.0607954 -0.0192596 -0.00731999 -0.00700723
internal_weight=610.845 125.751 78.7757 485.095 308.518 216.706 91.8113 46.9751 64.0994 176.577 32.2124 29.2994
internal_count=7620 1532 947 6088 3859 2725 1134 585 765 2229 405 369
is_linear=0
shrinkage=0.0258891


Tree=2
num_leaves=6
num_cat=0
split_feature=8 16 8 15 8
split_gain=2139.07 68.7028 51.1811 6.87574 2.84171
threshold=0.20058274972011378 1.1141972076156397 0.255583734712516 0.97406046297537685 0.29820422226737847
decision_type=2 2 2 2 2
left_child=1 -1 3 -2 -4
right_child=2 -3 4 -5 -6
leaf_value=0.11464961484879849 0.018038193435154108 0.069336386541755862 -0.01277700833247424 -0.003188823493775183 -0.027310943159374726
leaf_weight=63.329694680869579 13.954199090600012 67.777976542711258 25.747054867446423 21.411122165620327 428.43638995289803
leaf_count=734 168 776 318 261 5480
internal_value=0.000563665 0.0927869 -0.0242913 0.0044734 -0.0266354
internal_weight=620.656 131.108 489.549 35.3653 454.183
internal_count=7737 1510 6227 429 5798
is_linear=0
shrinkage=0.0258891


Tree=3
num_leaves=9
num_cat=0
split_feature=5 5 1 17 1 1 2 1
split_gain=1290.99 120.279 111.341 78.5117 46.102 19.7516 13.0575 5.00739
threshold=26.374004178441172 35.742631593258388 0.99811537533256822 -1.140182850050844 0.99473099000387644 0.98931943393642663 0.98018927528797184 0.99905681595913565
decision_type=2 2 2 2 2 2 2 2
left_child=2 4 3 -1 6 -3 -2 -6
right_child=1 5 -4 -5 7 -7 -8 -9
leaf_value=0.031535800065103044 0.0097071127267840257 -0.0006954010126983246 0.0061553729311492446 0.083842548092047123 0 -0.026888323558677322 0.048544035435075003 -0.01782435931764223
leaf_weight=30.49784404784441 14.665700621902941 24.055371858179569 20.847324892878532 108.30095918476582 14.015202231705191 374.15335118025541 17.46437905728817 17.052036829292774
leaf_count=331 176 301 253 1169 174 4907 208 219
internal_value=0.00177043 -0.0201354 0.064879 0.0732007 0.0123093 -0.0254251 0.0335339 -0.00893817
internal_weight=621.052 461.406 159.646 138.799 63.1973 398.209 32.1301 31.0672
internal_count=7738 5985 1753 1500 777 5208 384 393
is_linear=0
shrinkage=0.0258891


Tree=4
num_leaves=11
num_cat=0
split_feature=3 11 3 7 3 3 11 7 15 1
split_gain=953.665 179.379 65.7585 52.2617 37.0797 34.5115 23.7171 9.28363 1.00348 0.813265
threshold=42.201871110274787 0.54592126275949604 30.668783065242717 0.025685658509767395 47.927869426167398 30.276051391485236 0.92173140780701546 0.022630936071297052 1.0143565003946047 0.99737129988183437
decision_type=2 2 2 2 2 2 2 2 2 2
left_child=1 5 8 -4 6 -1 9 -7 -3 -2
right_child=4 2 3 -5 -6 7 -8 -9 -10 -11
leaf_value=0.036106268329607026 -0.0076450858145221965 0.086718013175641304 0.057360275914232275 0.014406296738038388 -0.027272326447256676 0.0067729962499984567 0.012279955531193465 -0.016626881764822715 0.054221227706420558 -0.021546351361514421
leaf_weight=14.327216789126394 20.270189940929413 45.679067194461823 51.737476579844952 36.784702569246292 325.93027314543724 13.863888226449488 26.317824132740498 28.150620326399803 24.106082908809185 27.706706531345844
leaf_count=164 258 465 564 417 4355 172 319 350 245 365
internal_value=3.72976e-05 0.0439241 0.0579274 0.0406255 -0.0234814 0.00326232 -0.00603015 -0.00794839 0.0777192 -0.0170297
internal_weight=614.874 214.649 158.307 88.5222 400.225 56.3417 74.2947 42.0145 69.7852 47.9769
internal_count=7674 2377 1691 981 5297 686 942 522 710 623
is_linear=0
shrinkage=0.0258891


Tree=5
num_leaves=10
num_cat=0
split_feature=3 3 17 1 9 1 9 3 18
split_gain=824.126 111.763 70.0878 46.1901 48.006 37.6082 36.3467 5.86639 2.57109
threshold=42.201871110274787 33.480925040403577 -1.3954324727807565 0.99748828782921617 22.860385927080191 0.99885054215347102 33.924670799451896 47.586269295303389 0.80226950927393037
decision_type=2 2 2 2 2 2 2 2 2
left_child=1 2 -1 4 -2 6 -3 -6 -4
right_child=3 5 8 -5 7 -7 -8 -9 -10
leaf_value=0.012205913329915493 0.033689686702393876 0.042721218827972807 0.070652290995864314 -0.026964487440289002 -0.004378116229027583 -0.017545100441387157 0.0078394044080321648 -0.023983765242571196 0.039822164024467754
leaf_weight=22.861310996115208 15.791515812277792 40.23042394220829 78.406353302299976 323.32757373154163 27.988189518451691 14.056576177477835 47.324606746435165 26.494435504078865 17.855832941830158
leaf_count=235 185 433 785 4419 350 177 549 353 181
internal_value=-0.000330688 0.0394549 0.0565282 -0.0228297 -0.00300569 0.0183928 0.0248836 -0.0151412 0.0661997
internal_weight=614.337 220.735 119.123 393.602 70.2741 101.612 87.555 54.4826 96.2622
internal_count=7667 2360 1201 5307 888 1159 982 703 966
is_linear=0
shrinkage=0.0258891


Tree=6
num_leaves=9
num_cat=0
split_feature=5 3 3 17 17 3 5 5
split_gain=1048.55 125.066 63.4745 25.1918 27.2825 24.2971 14.6248 2.7139
threshold=28.431045774653331 45.692090538832673 41.992567050424121 0.67659332736872957 -1.3954324727807565 31.053858713488882 38.312630491811468 33.863709752222775
decision_type=2 2 2 2 2 2 2 2
left_child=1 3 5 4 -1 -2 -7 -4
right_child=2 -3 7 -5 -6 6 -8 -9
leaf_value=0.026797532241325837 0.027630257244117249 -0.0057445894954699017 -0.0089331853412308593 0.021827809719083921 0.068154795339869984 0.0046529124332726967 -0.018809394848954237 -0.027183948021097623
leaf_weight=19.170095100998878 14.379459097981451 20.626265347003937 15.126660846173761 16.67084988206625 125.11663137376308 28.804290011525154 35.266838014125824 337.67371406406164
leaf_count=191 153 256 198 171 1195 338 450 4719
internal_value=0 0.0519566 -0.0219078 0.0596007 0.0633494 -0.000262132 -0.00775795 -0.0265728
internal_weight=612.835 181.584 431.251 160.958 144.287 78.4506 64.0711 352.8
internal_count=7671 1813 5858 1557 1386 941 788 4917
is_linear=0
shrinkage=0.0258891


Tree=7
num_leaves=9
num_cat=0
split_feature=5 11 5 17 17 5 15 5
split_gain=911.327 91.0329 43.5017 16.2738 16.987 6.21231 4.93808 5.97147
threshold=30.804712329950721 0.50729238182793257 40.432721898963528 -1.4517549691655882 0.66135699593676767 20.131747945169501 0.94939396802517872 36.499399485751212
decision_type=2 2 2 2 2 2 2 2
left_child=1 5 6 -3 -5 -1 -2 -8
right_child=2 3 -4 4 -6 -7 7 -9
leaf_value=0.015932821883582787 0.0083357062762255078 0.020115284954604983 -0.026851121245868755 0.057368972736270042 0.022435403204956298 -0.0041438386755099366 0 -0.017841209125710956
leaf_weight=15.111245162785051 14.559974886476992 17.763512223958969 340.25694388896227 137.34904661029577 17.975708834826946 20.004539094865322 31.988502241671085 19.631171219050884
leaf_count=160 175 172 4833 1281 189 231 391 258
internal_value=-0.000500619 0.043257 -0.0231132 0.050922 0.0539016 0.00366387 -0.00305517 -0.00725408
internal_weight=614.641 208.204 406.437 173.088 155.325 35.1158 66.1796 51.6197
internal_count=7690 2033 5657 1642 1470 391 824 649
is_linear=0
shrinkage=0.0258891


Tree=8
num_leaves=10
num_cat=0
split_feature=5 3 3 5 0 3 3 16 5
split_gain=842.706 111.415 73.0567 28.5462 20.6076 21.5796 10.3391 3.54023 1.64171
threshold=31.129682689871029 47.586269295303389 31.393229875293375 15.295701277684275 0.99716745721731015 47.227820043358044 41.077295473342453 1.3321113273932152 36.499399485751212
decision_type=2 2 2 2 2 2 2 2 2
left_child=1 3 -2 7 5 -4 -5 -1 -6
right_child=2 -3 4 6 8 -7 -8 -9 -10
leaf_value=0.064042219927448588 0.034790733497821205 -0.014610078850194261 0.014201246562178374 0.039458723785450962 -0.011539432459463221 -0.022730409891334229 0.012060237197532365 0.035487103432774024 -0.027533725670416551
leaf_weight=68.588896565139294 12.157547391951082 20.013104729354382 17.169412299990654 86.10572288185358 17.690987624228001 20.78420152515173 18.027555838227272 19.724989913403988 330.04786752164364
leaf_count=597 129 249 206 804 227 298 200 168 4801
internal_value=-0.000543452 0.0408146 -0.0228215 0.0468833 -0.0249005 -0.00503777 0.0354076 0.0589701 -0.0269072
internal_weight=610.31 212.46 397.85 192.447 385.692 37.9536 104.133 88.3139 347.739
internal_count=7679 2018 5661 1769 5532 504 1004 765 5028
is_linear=0
shrinkage=0.0258891


Tree=9
num_leaves=9
num_cat=0
split_feature=5 1 5 1 5 16 16 1
split_gain=787.743 77.1074 76.543 37.694 18.8655 7.40716 2.69632 0.95372
threshold=28.431045774653331 0.99864562603590101 40.432721898963528 0.99778056092658629 24.899941057328608 1.1859429917242124 1.0840320082520836 0.98772499039680739
decision_type=2 2 2 2 2 2 2 2
left_child=1 4 3 6 5 -1 -2 -4
right_child=2 -3 7 -5 -6 -7 -8 -9
leaf_value=0.056562337719070217 0.0061039210948833373 -0.0035288166253463239 -0.0099563736277598416 -0.021468742813196814 0.017892422302745258 0.037397099727158198 0.021929350005105611 -0.027018509316452423
leaf_weight=102.38483974337578 26.756882764399052 20.498448058962822 13.241022028028963 27.736550003290176 20.309467904269695 56.760277099907398 24.370835863053799 306.649638466537
leaf_count=878 315 238 175 380 198 487 268 4579
internal_value=4.64295e-05 0.0418398 -0.020894 0.00141257 0.0472465 0.0504839 0.0149522 -0.0265064
internal_weight=598.708 199.953 398.755 78.8643 179.455 159.145 51.1277 319.891
internal_count=7518 1801 5717 963 1563 1365 583 4754
is_linear=0
shrinkage=0.0258891


Tree=10
num_leaves=10
num_cat=0
split_feature=5 5 5 15 12 7 5 5 5
split_gain=835.479 93.5835 23.6221 10.5847 7.67744 21.5333 5.31522 4.87366 0.225721
threshold=26.374004178441172 40.432721898963528 23.567444542145946 0.94509895591910198 0.37940952255126054 0.025503399824958684 35.372904094067884 14.38307869948193 43.156099434172077
decision_type=2 2 2 2 2 2 2 2 2
left_child=2 3 4 -2 5 -1 -5 -6 -3
right_child=1 8 -4 6 7 -7 -8 -9 -10
leaf_value=0.068288966442149324 0.02044064052348565 -0.011637867524374649 0.015812778810463824 0.0034049241302171111 0.044258616587904552 0.040067756244230902 -0.010344488061712122 0.020286552648396662 -0.026783098049051726
leaf_weight=53.002585753798485 16.789214350283146 14.961829364299772 22.970158696174622 50.069146178662777 30.003031194210052 65.805331274867058 26.537621766328812 24.84388992190361 300.16088704019785
leaf_count=444 192 214 221 586 251 549 350 233 4575
internal_value=0.00147876 -0.0195431 0.0451595 0.00276388 0.0485943 0.0538362 -0.000927972 0.0351427 -0.0262705
internal_weight=605.144 408.519 196.625 93.396 173.655 118.808 76.6068 54.8469 315.123
internal_count=7615 5917 1698 1128 1477 993 936 484 4789
is_linear=0
shrinkage=0.0258891


Tree=11
num_leaves=9
num_cat=0
split_feature=5 3 3 5 3 5 3 3
split_gain=740.684 87.4928 69.7376 25.9228 15.3592 9.3365 9.42731 1.62752
threshold=30.064496447985096 46.528189803170797 30.276051391485236 36.161647620723691 41.528188464440163 20.131747945169501 30.668783065242717 44.375328810117864
decision_type=2 2 2 2 2 2 2 2
left_child=1 5 -2 4 -4 -1 -7 -5
right_child=2 -3 3 7 -6 6 -8 -9
leaf_value=0.0481784869158964 0.035010679238123663 -0.0086388800981160637 0.013807448667043637 -0.017062912124258076 -0.01826440537159385 0.044935608129367831 0.019636713937568721 -0.027095711536034402
leaf_weight=136.214460067451 12.070802487432955 22.365493677556515 17.884593717753887 51.200226306915283 18.032938092947006 25.645065031945705 40.026724152266979 280.25980516523123
leaf_count=1076 122 264 204 712 241 220 383 4399
internal_value=0.000562462 0.0377642 -0.0213824 -0.0235122 -0.0012398 0.0431492 0.0310815 -0.0257755
internal_weight=603.7 224.252 379.448 367.378 35.9175 201.886 65.6718 331.46
internal_count=7621 1943 5678 5556 445 1679 603 5111
is_linear=0
shrinkage=0.0258891


Tree=12
num_leaves=9
num_cat=0
split_feature=3 11 3 11 1 3 17 11
split_gain=557.704 104.649 40.747 24.187 23.6707 14.1975 11.411 2.22099
threshold=42.974070837554528 0.55830259635514023 47.927869426167398 0.83362385468296962 0.99737129988183437 31.053858713488882 -0.83324204655387912 0.44409447802677066
decision_type=2 2 2 2 2 2 2 2
left_child=1 5 3 -2 6 -1 -3 -7
right_child=2 4 -4 -5 -6 7 -8 -9
leaf_value=0.015900361627852001 -0.017063477178245797 0.026980928518067795 -0.026972771677325778 0.01384234721012384 0.0062980354321934204 -0.014498163674209448 0.045269788365237984 0
leaf_weight=18.346764467656612 36.935229979455471 60.828931152820587 271.34951743483543 27.537447437644005 19.695498079061508 26.934744346886873 119.73142693936825 15.463975664228199
leaf_count=171 519 515 4298 330 220 331 993 180
internal_value=-0.000492086 0.0277177 -0.0225762 -0.00318801 0.0366864 -0.00135341 0.0396689 -0.0101439
internal_weight=596.824 261.001 335.822 64.4727 200.256 60.7455 180.56 42.3987
internal_count=7557 2410 5147 849 1728 682 1508 511
is_linear=0
shrinkage=0.0258891


Tree=13
num_leaves=11
num_cat=0
split_feature=3 11 3 3 3 7 1 7 7 7
split_gain=558.172 91.6505 25.9012 22.4229 20.3987 22.0568 12.0543 11.775 8.11956 2.95032
threshold=42.766457827955897 0.55830259635514023 48.108304441142458 29.941824603014727 34.823938210543965 0.021078974981433147 0.99540354362187144 0.023869873628177957 0.033451827515291653 0.015121577994408624
decision_type=2 2 2 2 2 2 2 2 2 2
left_child=1 3 6 -1 7 -6 -2 -3 -5 -8
right_child=2 4 -4 8 5 -7 9 -9 -10 -11
leaf_value=0.02344816076629902 0.0065948226754951531 0.057222436125156234 -0.026423346094965217 0 0.036145585135217484 0.0054496654884253377 -0.0049244366386755672 0.034647083535479482 -0.021605706918515721 -0.022183759781530539
leaf_weight=17.881088614463806 22.575725894421339 40.625582277774811 264.41164515167475 25.987256530672312 37.135199628770351 33.992138542234898 22.097128588706255 89.171960406005383 18.940647087991238 22.657351069152355
leaf_count=162 271 304 4276 310 347 345 296 701 229 323
internal_value=-0.000346763 0.0275896 -0.0227153 0 0.0360571 0.0225618 -0.00721919 0.0427184 -0.00951211 -0.01511
internal_weight=595.476 263.734 331.742 62.809 200.925 71.1273 67.3302 129.798 44.9279 44.7545
internal_count=7564 2398 5166 701 1697 692 890 1005 539 619
is_linear=0
shrinkage=0.0258891


Tree=14
num_leaves=9
num_cat=0
split_feature=3 3 7 3 16 3 3 9
split_gain=588.983 46.2255 39.597 25.7535 23.2615 15.9527 14.3103 12.4919
threshold=42.974070837554528 30.276051391485236 0.023869873628177957 46.528189803170797 0.93370150718256772 19.505813342718408 36.157599098269522 27.511849287281191
decision_type=2 2 2 2 2 2 2 2
left_child=1 5 6 7 -4 -1 -3 -2
right_child=3 2 4 -5 -6 -7 -8 -9
leaf_value=0.017580082664797967 0.0091700653935550703 0.045901589626756417 -0.014853589803296803 -0.026115874567587023 0.014134847831183262 0.046216960676394143 0.019553005895613863 -0.01630417996288196
leaf_weight=25.089173413813114 20.973321806639433 30.473053246736526 25.054407682269812 282.65524869039655 54.148539155721664 90.652939647436142 50.412867840379477 25.36461179330945
leaf_count=184 262 245 289 4648 546 681 499 340
internal_value=0.000100812 0.0279775 0.0181381 -0.0231642 0.00430254 0.0407383 0.0307766 -0.00395498
internal_weight=604.824 275.831 160.089 328.993 79.2029 115.742 80.8859 46.3379
internal_count=7694 2444 1579 5250 835 865 744 602
is_linear=0
shrinkage=0.0258891


Tree=15
num_leaves=10
num_cat=0
split_feature=8 8 7 15 7 15 8 5 8
split_gain=969.627 37.5214 20.1021 17.9222 14.6926 10.1611 4.54111 2.44927 0.369862
threshold=0.20058274972011378 0.27587921033530594 0.020050770370437957 1.0346180378174268 0.037711173583752498 0.95027527825138758 -0.010900768384483717 24.492108239717432 0.35966264065475423
decision_type=2 2 2 2 2 2 2 2 2
left_child=2 4 3 -1 7 -4 -7 -2 -3
right_child=1 8 5 -5 -6 6 -8 -9 -10
leaf_value=0.044301229130324297 -0.0014867575062913335 -0.018214811246133607 0.051663742481460925 0.0824036592091342 0.013854717343902086 0.015976558279365751 0.035972871101541182 -0.018621908476995713 -0.027205053336028413
leaf_weight=40.263589039444923 16.232437238097191 52.28953094035387 44.6264503672719 24.850553281605244 19.834032151848078 24.746050789952278 57.316852368414402 20.222486674785614 298.31254065036774
leaf_count=300 147 646 324 194 184 175 441 232 4973
internal_value=-0.000254822 -0.0229348 0.0474032 0.0612889 -0.00235939 0.0391816 0.0309271 -0.012554 -0.0260861
internal_weight=598.695 406.891 191.803 65.1141 56.289 126.689 82.0629 36.4549 350.602
internal_count=7616 6182 1434 494 563 940 616 379 5619
is_linear=0
shrinkage=0.0258891


Tree=16
num_leaves=6
num_cat=0
split_feature=8 3 3 7 7
split_gain=991.144 187.887 21.0486 1.74549 0.804167
threshold=0.20058274972011378 30.276051391485236 38.871306106604138 0.025685658509767395 0.051584418349250337
decision_type=2 2 2 2 2
left_child=2 -2 3 -1 -5
right_child=1 -3 -4 4 -6
leaf_value=0.048238046203443935 0.040178022381206345 -0.027612357306897123 0.067575174828468212 0.028261307853675522 0.044115352381266897
leaf_weight=73.462087236344814 27.513536550104618 375.01152213662863 37.462880790233612 63.240760914981365 32.050942592322826
leaf_count=498 237 6000 313 456 230
internal_value=0.0008398 -0.0227154 0.0468302 0.0413163 0.0347494
internal_weight=608.742 402.525 206.217 168.754 95.2917
internal_count=7734 6237 1497 1184 686
is_linear=0
shrinkage=0.0258891


Tree=17
num_leaves=10
num_cat=0
split_feature=0 1 7 15 0 0 1 1 7
split_gain=472.189 127.955 10.6279 10.4873 10.1097 9.51273 4.51345 4.39847 3.94384
threshold=0.99841674909238609 0.99885054215347102 0.016553342120823416 1.0375290864861013 0.99545228880566783 0.99919817838452207 0.99905681595913565 0.98888099590718737 0.017885132152810571
decision_type=2 2 2 2 2 2 2 2 2
left_child=1 2 3 -1 -4 6 -2 -7 -3
right_child=5 8 4 -5 -6 7 -8 -9 -10
leaf_value=0.025414971584726397 0 -0.0016047258103402675 0.028033047919486156 0.055169900756783817 0.011403331860484554 -0.006839962945988807 -0.018118916585110948 -0.026507423752778543 -0.02275964770228156
leaf_weight=32.29028357192874 17.908760987222198 13.260617248713968 167.11487388983369 24.768574945628643 44.26265200227499 15.664532441645859 13.202205583453177 245.59558944776654 31.305148489773273
leaf_count=256 204 176 1254 198 432 200 218 4281 493
internal_value=-0.0001869 0.0217797 0.0285695 0.0403423 0.0248787 -0.0238412 -0.00758116 -0.0255478 -0.017707
internal_weight=605.373 313.002 268.436 57.0589 211.378 292.371 31.111 261.26 44.5658
internal_count=7712 2809 2140 454 1686 4903 422 4481 669
is_linear=0
shrinkage=0.0258891


Tree=18
num_leaves=12
num_cat=0
split_feature=17 16 9 15 17 17 15 17 16 7 16
split_gain=40.181 38.3586 16.804 13.945 12.6496 7.73194 6.85576 6.24741 6.3118 3.90916 3.75017
threshold=-0.038174209018194578 0.91697028906268385 51.490583644705957 1.0097179705977595 -1.0526339325521519 -1.1791804419559606 0.99064876496716059 0.67659332736872957 1.1183956703939113 0.018948649975178044 0.72876514727606634
decision_type=2 2 2 2 2 2 2 2 2 2 2
left_child=1 5 7 6 -5 -1 -3 10 -9 -7 -2
right_child=2 3 -4 4 -6 9 -8 8 -10 -11 -12
leaf_value=-0.0178260346025709 -0.0082134994342395011 0.015021089598209679 -0.020474646848189303 -0.010817780702075966 0.010371964495577386 0.0040361514793583421 0.035138889875101512 -0.0034711955537382036 -0.020773592660973051 -0.0064166872912576776 0.0021393584768735333
leaf_weight=24.534014597535133 28.220110654830933 99.669647537171841 50.205057449638844 22.189105231314898 70.936789609491825 40.83216978982091 18.516633383929729 57.254693225026131 22.456904049962759 47.85338357463479 105.38888902962208
leaf_count=369 408 934 793 221 843 567 179 808 388 691 1422
internal_value=0.000332351 0.00648514 -0.00707326 0.0130233 0.00475633 -0.0053513 0.0190079 -0.00357421 -0.00922569 -0.00113744 0
internal_weight=588.057 324.532 263.526 211.312 93.1259 113.22 118.186 213.321 79.7116 88.6856 133.609
internal_count=7623 3804 3819 2177 1064 1627 1113 3026 1196 1258 1830
is_linear=0
shrinkage=0.0258891


Tree=19
num_leaves=6
num_cat=0
split_feature=5 3 11 17 3
split_gain=463.077 89.3748 63.9782 20.2648 17.3363
threshold=40.432721898963528 47.723081024005971 0.54183199964629325 -1.3355288895102275 30.668783065242717
decision_type=2 2 2 2 2
left_child=1 2 4 -4 -1
right_child=-2 -3 3 -5 -6
leaf_value=0.018183082685438914 -0.026156899515478067 -0.019967151503132212 0.007217145247337099 0.032920431361677042 -0.010090102100086828
leaf_weight=20.872788220643997 270.6528690867126 32.18013846129179 29.076871514320374 206.73259162157774 38.833712346851826
leaf_count=172 4870 475 221 1527 435
internal_value=-0.00111879 0.019458 0.023991 0.0300118 0
internal_weight=598.349 327.696 295.516 235.809 59.7065
internal_count=7700 2830 2355 1748 607
is_linear=0
shrinkage=0.0258891


Tree=20
num_leaves=10
num_cat=0
split_feature=5 3 11 5 3 11 3 7 3
split_gain=507.514 66.9024 39.0826 24.8804 11.7973 5.0182 3.92661 3.9191 3.32168
threshold=34.96016497707587 45.692090538832673 0.54592126275949604 40.432721898963528 29.941824603014727 0.73250478474992986 42.974070837554528 0.02926059915725741 35.771116676333655
decision_type=2 2 2 2 2 2 2 2 2
left_child=1 2 4 6 -1 -3 -2 -4 -5
right_child=3 5 7 8 -6 -7 -8 -9 -10
leaf_value=0.021592446225518019 0.0051747349866116859 -0.020531167115477231 0.038173395721609993 -0.0035079600974914395 -0.0030508982764845317 0 -0.012083337042109671 0.026566059154713547 -0.026709198804111049
leaf_weight=18.330008015036583 19.684049930423498 14.041363295167686 116.33073362708092 9.2247383035719377 29.499498456716537 17.334027692675591 12.37601203098893 101.59000580757856 254.16783638671041
leaf_count=147 220 204 808 115 306 211 200 703 4716
internal_value=0.000404505 0.0242959 0.0285447 -0.0234771 0.00594786 -0.00997965 -0.00048251 0.0332181 -0.0260898
internal_weight=592.578 297.126 265.75 295.453 47.8295 31.3754 32.0601 217.921 263.393
internal_count=7630 2379 1964 5251 453 415 420 1511 4831
is_linear=0
shrinkage=0.0258891


Tree=21
num_leaves=8
num_cat=0
split_feature=5 1 17 1 7 5 14
split_gain=490.974 75.493 27.2849 12.197 12.0254 5.74374 0.597079
threshold=36.161647620723691 0.9991706425613669 -1.020840455614179 0.98798058042931558 0.027085033557310553 21.793158236929482 59.372361745761417
decision_type=2 2 2 2 2 2 2
left_child=1 2 5 -2 -4 -1 -3
right_child=3 6 4 -5 -6 -7 -8
leaf_value=0.016463312281731528 -0.0015909828604400279 -0.017831643884411753 0.038134587869207592 -0.025786965752246368 0.022675708665509744 0 -0.0030464405007187422
leaf_weight=42.072555266320705 19.065634910017252 19.138803582638506 116.98080199584365 266.70147242024541 92.58680884167552 22.901219584047794 12.070325214415787
leaf_count=292 254 251 856 4991 682 208 158
internal_value=0 0.0227149 0.0270979 -0.0243439 0.031758 0.0109708 -0.0139049
internal_weight=591.518 305.751 274.541 285.767 209.568 64.9738 31.2091
internal_count=7692 2447 2038 5245 1538 500 409
is_linear=0
shrinkage=0.0258891


Tree=22
num_leaves=9
num_cat=0
split_feature=1 11 1 14 1 14 11 14
split_gain=393.812 84.8214 13.9787 22.5849 5.82591 5.56479 5.12067 2.53074
threshold=0.99831543978754034 0.55830259635514023 0.99289809896158043 48.30081580487559 0.99905681595913565 39.616402669245595 0.342037545124798 59.907542177216591
decision_type=2 2 2 2 2 2 2 2
left_child=1 6 5 -4 -2 -3 -1 -8
right_child=4 2 3 -5 -6 -7 7 -9
leaf_value=-0.014865394598046503 -0.0029794491154894651 0.018426944424914032 -0.002443307951074873 0.024134527546090485 -0.025422919784496172 0.032868794394140491 -0.0043474386065706552 0.0076406471613496138
leaf_weight=23.978983253240585 13.142426826059816 49.433414459228516 28.710958391427994 57.608360297977924 230.18710746988654 135.8962638489902 35.606805276125669 15.186198621988295
leaf_count=326 195 358 303 526 4366 970 435 170
internal_value=0.000646929 0.0184131 0.0251283 0.0149281 -0.0244188 0.0294602 -0.00543097 0
internal_weight=589.751 346.421 271.649 86.3193 243.33 185.33 74.772 50.793
internal_count=7649 3088 2157 829 4561 1328 931 605
is_linear=0
shrinkage=0.0258891


Tree=23
num_leaves=6
num_cat=0
split_feature=8 8 9 9 8
split_gain=732.125 21.7273 10.1105 9.16983 5.82039
threshold=0.20462228834801818 0.27930730458179426 38.367376945315691 27.164398964248338 1.0000000180025095e-35
decision_type=2 2 2 2 2
left_child=3 2 -2 -1 -5
right_child=1 -3 -4 4 -6
leaf_value=0.046827205625109017 -0.01774062727489148 -0.025607033673612677 0.002404852381252568 0.020806587311115152 0.035512662852676166
leaf_weight=63.073571886867285 28.309060383588076 304.82823098823428 29.700954131782055 55.755575612187386 112.66038567572832
leaf_count=411 287 5605 275 335 762
internal_value=5.29475e-05 -0.0227888 -0.00693119 0.0359434 0.031167
internal_weight=594.328 362.838 58.01 231.49 168.416
internal_count=7675 6167 562 1508 1097
is_linear=0
shrinkage=0.0258891


Tree=24
num_leaves=6
num_cat=0
split_feature=8 3 17 16 3
split_gain=686.507 149.781 62.7983 16.1382 0.872438
threshold=0.20058274972011378 30.276051391485236 -1.140182850050844 1.1859429917242124 37.541945515341162
decision_type=2 2 2 2 2
left_child=2 -2 -1 4 -4
right_child=1 -3 3 -5 -6
leaf_value=0.004128857385112962 0.033847238417052422 -0.027407897876221395 0.04048256184979513 0.027245028617780803 0.058066326010387186
leaf_weight=41.805442914366722 26.981705836951733 332.11150275543332 87.155215464532375 67.298889197409153 37.535126097500324
leaf_count=284 218 6017 514 427 262
internal_value=-2.72406e-05 -0.0225412 0.0342773 0.0405196 0.0468584
internal_weight=592.888 359.093 233.795 191.989 124.69
internal_count=7722 6235 1487 1203 776
is_linear=0
shrinkage=0.0258891


Tree=25
num_leaves=11
num_cat=0
split_feature=3 3 3 1 1 3 9 3 9 2
split_gain=334.868 30.9453 22.9705 9.24096 8.01838 5.4229 17.5336 6.30275 4.725 2.47825
threshold=42.974070837554528 36.700094278917277 48.108304441142458 0.99947107333078455 0.99799248639881699 30.668783065242717 34.153864536110582 19.505813342718408 44.698364740295652 1.0088348556388589
decision_type=2 2 2 2 2 2 2 2 2 2
left_child=1 5 3 9 8 7 -7 -1 -3 -2
right_child=2 4 -4 -5 -6 6 -8 -9 -10 -11
leaf_value=0.011708260571463153 -0.0035063772554559535 0.011500847197422741 -0.025920763547921208 -0.020607690386936349 -0.011575365657915306 0.02748080295646177 0.0027500984670670056 0.029068893043598075 -0.0020064230969698451 0.0095358611354270182
leaf_weight=30.506575435400009 28.392630904912949 51.172924965620041 211.29085591062903 18.759910698980093 15.830894056707619 39.168577026575804 45.415278568863869 114.52125965803862 17.767552945762873 12.420094829052685
leaf_count=187 376 438 4366 339 214 285 400 727 218 146
internal_value=-0.000766594 0.0172897 -0.02186 -0.00641494 0.00322158 0.0222309 0.0150352 0.025899 0.00744028 0
internal_weight=585.247 314.383 270.863 59.5726 84.7714 229.612 84.5839 145.028 68.9405 40.8127
internal_count=7696 2469 5227 861 870 1599 685 914 656 522
is_linear=0
shrinkage=0.0258891


Tree=26
num_leaves=8
num_cat=0
split_feature=5 3 7 5 3 3 9
split_gain=366.523 40.4949 14.1637 11.6751 11.1861 7.11377 0.979594
threshold=37.72041728321895 48.295930538597993 0.020470371612520483 24.899941057328608 34.600253763489036 37.133983210644324 31.714851807279441
decision_type=2 2 2 2 2 2 2
left_child=1 2 5 -4 -2 -1 -3
right_child=4 6 3 -5 -6 -7 -8
leaf_value=0.036018209124305804 0 -0.0024578083183818241 0.018714574002284098 0.0034700875707261844 -0.025513560670670152 0.018234781945458547 -0.019392230761263552
leaf_weight=52.135423809289932 11.171699546277521 11.932440638542177 152.03308042883873 53.958469312638044 237.13534685969353 52.021337743848562 12.2025931738317
leaf_count=319 123 176 969 496 4940 445 197
internal_value=-0.000525975 0.01706 0.0196361 0.0149946 -0.0243286 0.0280004 -0.0134416
internal_weight=582.59 334.283 310.148 205.992 248.307 104.157 24.135
internal_count=7665 2602 2229 1465 5063 764 373
is_linear=0
shrinkage=0.0258891


Tree=27
num_leaves=8
num_cat=0
split_feature=5 1 3 5 1 5 1
split_gain=377.78 60.8095 18.8252 14.4994 13.3736 5.81186 0.917288
threshold=36.961546465657662 0.9995898048240156 42.974070837554528 24.492108239717432 0.9930644706485936 52.944799035854551 0.99511766595538587
decision_type=2 2 2 2 2 2 2
left_child=1 2 3 -1 5 -2 -4
right_child=4 -3 6 -5 -6 -7 -8
leaf_value=0.02754375216653682 0 -0.01706006298358994 0.0069896537239033029 0.011681298851747315 -0.026107221557132299 -0.020538876185519944 0
leaf_weight=205.35113941133022 23.562033284455538 27.374099399894476 17.192071422934532 65.631166227161884 216.27227032184601 11.147234883159397 20.181541945785284
leaf_count=1220 315 398 156 537 4675 199 225
internal_value=0.00022325 0.0182193 0.0215712 0.0239623 -0.0236362 -0.00652508 0.00282111
internal_weight=586.712 335.73 308.356 270.982 250.982 34.7093 37.3736
internal_count=7725 2536 2138 1757 5189 514 381
is_linear=0
shrinkage=0.0258891


Tree=28
num_leaves=12
num_cat=0
split_feature=10 11 11 17 14 17 17 10 10 10 14
split_gain=83.9802 37.6057 15.419 14.9121 9.52367 8.55244 7.52395 3.83418 3.78218 2.80171 1.0345
threshold=-0.00033356671245432507 0.55830259635514023 0.72608883991244622 -0.38914852338318257 70.344308941108594 1.1036585379081096 -1.365760351865249 0.0018764559286044149 0.0020345609778977818 -0.0026388341992526483 29.787042561912063
decision_type=2 2 2 2 2 2 2 2 2 2 2
left_child=1 4 10 8 9 6 -3 -5 -4 -1 -2
right_child=2 5 3 7 -6 -7 -8 -9 -10 -11 -12
leaf_value=0 -0.0026144723267607149 0 0.012646598324192569 -0.0027497271583688835 0.010767851680565661 -0.0016221054024085039 0.016468141290570264 -0.016372117369390416 0 -0.01543993022500661 -0.018933770775191493
leaf_weight=16.485470227897167 9.7924092859029752 21.802409164607525 23.344040706753731 31.919160973280668 12.058419745415447 17.538757264614105 203.20221265032887 50.15373333543539 31.209476888179779 42.739808898419142 111.40127919614315
leaf_count=226 163 174 245 495 176 272 1906 935 384 682 1952
internal_value=-0.000245234 0.00864958 -0.0112253 -0.00472455 -0.00735572 0.0135511 0.0149295 -0.0117637 0.00512864 -0.0119654 -0.0180262
internal_weight=571.647 313.827 257.82 136.626 71.2837 242.543 225.005 82.0729 54.5535 59.2253 121.194
internal_count=7610 3436 4174 2059 1084 2352 2080 1430 629 908 2115
is_linear=0
shrinkage=0.0258891


Tree=29
num_leaves=9
num_cat=0
split_feature=3 1 17 3 1 3 3 3
split_gain=343.691 39.8262 30.753 12.008 5.6979 3.65899 2.49225 2.19675
threshold=45.692090538832673 0.99831543978754034 -1.1594849908278673 29.941824603014727 0.99577384826513116 30.668783065242717 39.143145613309521 50.035453297857096
decision_type=2 2 2 2 2 2 2 2
left_child=1 2 5 -4 7 -1 -3 -2
right_child=4 6 3 -5 -6 -7 -8 -9
leaf_value=0.0075385135693204061 0 0 0.030916797142440271 0.01774480857736976 -0.026005811049674189 -0.0043462882687171989 -0.014730403238252612 -0.015641975371730611
leaf_weight=37.755899272859097 11.691358350217344 11.515539944171904 101.95043675601482 161.07164365798235 197.30649074539542 24.902375735342503 20.514378491789103 10.186230789870022
leaf_count=252 169 140 584 1352 4352 248 321 187
internal_value=0.000866849 0.0165551 0.0193063 0.0231874 -0.0244669 0.00214905 -0.0096764 -0.00783788
internal_weight=576.894 357.71 325.68 263.022 219.184 62.6583 32.0299 21.8776
internal_count=7605 2897 2436 1936 4708 500 461 356
is_linear=0
shrinkage=0.0258891


Tree=30
num_leaves=11
num_cat=0
split_feature=3 3 3 7 10 12 3 7 12 3
split_gain=272.006 19.4657 16.8042 30.6366 11.4588 11.2572 9.86303 7.43962 1.77486 0.277521
threshold=42.555082854993138 47.723081024005971 30.668783065242717 0.018034935057499792 -0.0037242806071693941 -0.60355339059327362 25.222015844525469 0.012149791708663449 -0.25881904510252113 19.505813342718408
decision_type=2 2 2 2 2 2 2 2 2 2
left_child=2 4 6 8 -2 -5 9 -6 -4 -1
right_child=1 -3 3 5 7 -7 -8 -9 -10 -11
leaf_value=0.0071748697414217646 0.012621060477552242 -0.025678505046219054 0.031524171852508921 0.010917817388715102 0 -0.0061843132860152517 0.028952045563214693 -0.019727224129842832 0.014922684697952016 0.016128492135735171
leaf_weight=32.525684215128422 11.687508430331944 193.8913177959621 23.484245076775551 38.717618577182293 13.948361843824385 69.32934708148241 67.123863562941551 33.587145648896694 33.464301720261574 44.852731987833977
leaf_count=194 113 4386 182 313 202 707 416 541 259 264
internal_value=-0.00173192 -0.021626 0.0144283 0.00820171 -0.00728402 0 0.0210549 -0.0133391 0.0232542 0.0131599
internal_weight=562.612 253.114 309.498 164.996 59.223 108.047 144.502 47.5355 56.9485 77.3784
internal_count=7577 5242 2335 1461 856 1020 874 743 441 458
is_linear=0
shrinkage=0.0258891


Tree=31
num_leaves=9
num_cat=0
split_feature=8 9 8 15 15 15 8 8
split_gain=549.971 18.3781 15.3146 9.54339 8.49388 5.77848 3.0066 1.33757
threshold=0.20462228834801818 33.24393612915005 0.25946297794849044 0.97340820431273245 0.95234468682515505 1.0314770320008455 0.039052217007924349 0.37974123397008658
decision_type=2 2 2 2 2 2 2 2
left_child=1 6 3 -2 -3 -6 -1 -4
right_child=2 4 7 -5 5 -7 -8 -9
leaf_value=0.028294993862088419 0.0063415411231975971 0.030992181343662863 -0.017712632358341873 -0.016332520430500996 0.0075565240278061127 0.022695773681559929 0.045069808120466535 -0.026510811146243547
leaf_weight=53.882764302194118 17.552658326923847 49.831058792769909 68.3514748737216 26.352640114724636 50.903143711388111 43.250664807856083 51.548964571207762 213.35939916595817
leaf_count=289 158 295 907 256 304 259 330 4876
internal_value=-0.00019255 0.0285484 -0.022376 -0.00641908 0.0213107 0.0152555 0.0375115 -0.0246537
internal_weight=575.033 249.417 325.616 43.9053 143.985 94.1538 105.432 281.711
internal_count=7674 1477 6197 414 858 563 619 5783
is_linear=0
shrinkage=0.0258891


Tree=32
num_leaves=8
num_cat=0
split_feature=8 3 3 9 1 1 15
split_gain=576.511 89.9972 42.2215 13.3411 3.23404 3.11606 2.30449
threshold=0.20462228834801818 30.276051391485236 35.982656954315154 38.218803471181239 0.98798058042931558 0.99473099000387644 0.97249090108128777
decision_type=2 2 2 2 2 2 2
left_child=2 -2 3 4 -1 -4 -5
right_child=1 -3 5 6 -6 -7 -8
leaf_value=0.020375491091681422 0.020105523312414168 -0.027232241316143893 0.03574146103244108 0.018009295640787973 0.036265028461183395 0.058578897538074458 0.0065419723303623634
leaf_weight=49.363191314041615 27.304040245711803 290.37279785424471 46.329309388995171 40.445367783308029 43.375827722251415 28.441625565290451 44.307404458522797
leaf_count=277 205 5966 294 233 228 188 258
internal_value=0.000133263 -0.0229384 0.0293166 0.0215966 0.028808 0.0461506 0.0127743
internal_weight=569.94 317.677 252.263 177.492 92.739 74.7709 84.7528
internal_count=7649 6171 1478 996 505 482 491
is_linear=0
shrinkage=0.0258891


Tree=33
num_leaves=10
num_cat=0
split_feature=4 11 7 4 7 4 11 14 4
split_gain=191.31 38.1872 16.3421 12.598 8.24633 9.23231 5.63824 4.52472 1.31244
threshold=-37.661205904179617 0.44409447802677066 0.0061814091243569931 -6.4860258839023279 0.013949029171055683 -106.4096032512718 0.68151046495747314 56.554799962207234 -137.51246739813499
decision_type=2 2 2 2 2 2 2 2 2
left_child=1 8 -2 6 7 -6 -4 -3 -1
right_child=2 4 3 -5 5 -7 -8 -9 -10
leaf_value=0 0.010309959914275586 0.013005053502430365 -0.017593281466840728 -0.02285864226687153 0.017551736465995671 0.0059052794430096336 0 0.037438456893687272 -0.012698774760406841
leaf_weight=13.186925377696751 10.250147264450787 19.422712061554193 20.092012044042349 170.80159313976765 160.43871806934476 85.594423465430737 36.464155875146389 21.748471301048994 28.271034605801105
leaf_count=136 167 169 400 3830 1077 780 452 200 430
internal_value=-4.40087e-06 0.0126869 -0.0177053 -0.0192283 0.0160904 0.0137469 -0.00715679 0.0279372 -0.00957677
internal_weight=566.27 328.662 237.608 227.358 287.204 246.033 56.5562 41.1712 41.458
internal_count=7641 2792 4849 4682 2226 1857 852 369 566
is_linear=0
shrinkage=0.0258891


Tree=34
num_leaves=8
num_cat=0
split_feature=3 4 1 15 1 3 1
split_gain=248.878 47.3442 21.2197 6.46864 3.59987 3.29679 0.251754
threshold=47.586269295303389 -11.741971254539591 0.99831543978754034 0.95746297908904876 1.0016650597518728 41.528188464440163 0.99591638790829495
decision_type=2 2 2 2 2 2 2
left_child=1 2 3 -1 -4 -3 -2
right_child=6 5 4 -5 -6 -7 -8
leaf_value=0.023755132079117076 -0.010578100334620573 -0.0025540604169662245 0.0013150270702943481 0.013944301051749319 -0.014353559575579917 -0.01904298802566233 -0.02588906650668811
leaf_weight=91.878610160201788 14.197792485356329 23.861240457743406 17.92177897691727 218.69002614542842 12.578000660985706 22.899976905435324 165.76460998877883
leaf_count=596 277 268 227 1535 210 411 4145
internal_value=0 0.0116528 0.0150576 0.0171043 -0.00422865 -0.0119267 -0.0250356
internal_weight=567.792 387.83 341.068 310.569 30.4998 46.7612 179.962
internal_count=7669 3247 2568 2131 437 679 4422
is_linear=0
shrinkage=0.0258891


Tree=35
num_leaves=9
num_cat=0
split_feature=5 3 0 3 9 3 0 9
split_gain=326.949 46.6027 35.2785 13.9028 5.33822 4.10287 0.712476 0.700607
threshold=40.432721898963528 47.927869426167398 0.99841674909238609 31.661684747776665 49.049142795961963 37.32460003753696 0.99638136413018052 28.290156320149851
decision_type=2 2 2 2 2 2 2 2
left_child=1 2 4 -4 -1 -2 -7 -3
right_child=5 7 3 -5 -6 6 -8 -9
leaf_value=0.024353233389756191 -0.003980487812029131 -0.0032092171576850715 0.015245888532280977 -0.014303873597791587 0.013209371823274177 -0.0046624056859899086 -0.026378869641081798 -0.020495462807511508
leaf_weight=231.02229017391801 11.583687514066694 10.340635832399132 14.795792356133459 26.1882782317698 63.864994652569294 6.8341914713382712 178.83591936528683 14.957183897495268
leaf_count=1454 160 173 119 341 414 150 4525 289
internal_value=0.00174129 0.0164314 0.0190511 -0.0024273 0.0221798 -0.0248442 -0.0258636 -0.0157111
internal_weight=558.423 361.169 335.871 40.9841 294.887 197.254 185.67 25.2978
internal_count=7625 2790 2328 460 1868 4835 4675 462
is_linear=0
shrinkage=0.0258891


Tree=36
num_leaves=8
num_cat=0
split_feature=8 3 0 14 9 8 8
split_gain=477.682 105.498 23.3947 11.7999 5.25573 4.77267 1.14896
threshold=0.20058274972011378 29.941824603014727 0.99083021528909454 51.635096398051132 35.411755993523755 0.053112358939734115 -0.089692949336332137
decision_type=2 2 2 2 2 2 2
left_child=2 -2 5 4 -4 6 -1
right_child=1 -3 3 -5 -6 -7 -8
leaf_value=0.015190441920464847 0.025093741391293223 -0.02710523067317672 0.030028761930254114 0.041040404127965419 0.0114497930445573 0.024218458120126022 0.0055111820549484563
leaf_weight=31.518182039260864 26.373399809002876 276.85685430839658 37.583151362836361 74.293966457247734 32.207588367164135 36.487845614552498 44.431265167891979
leaf_count=166 189 6004 208 423 188 212 241
internal_value=-0.000288247 -0.0223032 0.025541 0.0327692 0.0225587 0.0155327 0.010343
internal_weight=559.752 303.23 256.522 144.085 69.7907 112.437 75.9494
internal_count=7631 6193 1438 819 396 619 407
is_linear=0
shrinkage=0.0258891


Tree=37
num_leaves=8
num_cat=0
split_feature=5 1 17 5 5 4 1
split_gain=288.457 27.2627 24.6439 9.87384 8.58361 5.0301 4.27441
threshold=34.96016497707587 0.9991706425613669 -1.3954324727807565 26.374004178441172 43.537074577977251 -96.255950293582814 0.99563086800592193
decision_type=2 2 2 2 2 2 2
left_child=1 2 -1 -4 6 -3 -2
right_child=4 5 3 -5 -6 -7 -8
leaf_value=-0.0010849254096931397 -0.0010822086635632893 0.0004694208256254169 0.022356545607757523 0.0075133073261501992 -0.025923436900400876 -0.018828486891008515 -0.01934037699013702
leaf_weight=38.719946175813675 24.692408833652735 11.555068682879211 221.35094336420298 48.458509232848883 175.11694722622633 14.129075117409228 19.066078469157219
leaf_count=261 300 143 1257 428 4584 239 392
internal_value=-5.78416e-05 0.0149667 0.0171501 0.0199174 -0.0231333 -0.00908816 -0.010437
internal_weight=553.089 334.214 308.529 269.809 218.875 25.6841 43.7585
internal_count=7604 2328 1946 1685 5276 382 692
is_linear=0
shrinkage=0.0258891


Tree=38
num_leaves=7
num_cat=0
split_feature=0 3 3 0 7 3
split_gain=241.544 51.8462 46.6053 5.77123 8.7326 4.84145
threshold=0.99848175536659778 48.108304441142458 29.941824603014727 0.99730426348778989 0.016698822306231917 36.157599098269522
decision_type=2 2 2 2 2 2
left_child=1 3 -2 4 -1 -5
right_child=2 -3 -4 5 -6 -7
leaf_value=0.026745856384529559 0.024054048879732691 -0.017757314192131154 -0.025892422813762125 0.013505048565720037 0.014072613101113388 -0.003200343772297806
leaf_weight=59.990657161921263 11.136401154100893 31.647012297064066 190.5966482385993 18.745981857180595 229.25549484789371 18.936408165842295
leaf_count=345 85 685 4791 133 1426 202
internal_value=-0.000111897 0.0125445 -0.022736 0.0156901 0.0169974 0.00423836
internal_weight=560.309 358.576 201.733 326.929 289.246 37.6824
internal_count=7667 2791 4876 2106 1771 335
is_linear=0
shrinkage=0.0258891


Tree=39
num_leaves=8
num_cat=0
split_feature=5 3 3 18 2 5 5
split_gain=225.777 29.962 13.4687 7.21073 8.21684 3.39114 1.55139
threshold=36.161647620723691 45.884319585906319 30.276051391485236 -1.4816962871968029 0.94882136651344051 21.284402101749041 48.941717317055712
decision_type=2 2 2 2 2 2 2
left_child=1 3 -2 -1 -5 -3 -4
right_child=2 5 6 4 -6 -7 -8
leaf_value=7.7797210756767643e-05 0.0075156589930862475 0 -0.015767411699031432 0.027487203614806274 0.012940348211512636 -0.019795413193232185 -0.026123561016502834
leaf_weight=29.306941527873278 6.6325896829366675 11.008696835488083 49.525493886321783 37.648036114871502 251.01069121807814 16.518195804208517 148.02189940214157
leaf_count=187 52 128 987 210 1593 306 4161
internal_value=-0.00107576 0.0115818 -0.0226207 0.0138993 0.0151435 -0.0129236 -0.0239088
internal_weight=549.673 345.493 204.18 317.966 288.659 27.5269 197.547
internal_count=7624 2424 5200 1990 1803 434 5148
is_linear=0
shrinkage=0.0258891


Tree=40
num_leaves=8
num_cat=0
split_feature=5 1 5 15 3 16 4
split_gain=250.189 43.2606 9.42686 12.835 5.4384 3.94873 1.51998
threshold=40.432721898963528 0.9995898048240156 26.374004178441172 0.94509895591910198 34.326099326548452 1.2669871409942288 -92.998082293964643
decision_type=2 2 2 2 2 2 2
left_child=1 2 5 -4 -2 -1 -3
right_child=4 6 3 -5 -6 -7 -8
leaf_value=0.019680438511211082 0 -0.0026447892558109426 0.024271503551437368 0.00032031444655086219 -0.025518999761609693 0.01040178271592742 -0.021646839789589267
leaf_weight=195.31150598078966 6.5730583667755118 10.75963192433119 19.088767923414707 67.800242837518454 171.43047223240137 73.243687022477388 18.376337945461273
leaf_count=1122 78 153 170 672 4782 407 376
internal_value=0.000511387 0.0123251 0.0148879 0.00645294 -0.0246401 0.0173957 -0.0165926
internal_weight=562.584 384.58 355.444 86.889 178.004 268.555 29.136
internal_count=7760 2900 2371 842 4860 1529 529
is_linear=0
shrinkage=0.0258891


Tree=41
num_leaves=9
num_cat=0
split_feature=5 0 3 3 3 14 9 0
split_gain=272.291 25.2899 19.7545 13.0826 7.97739 6.3354 6.13307 5.63571
threshold=37.72041728321895 0.99871931750563026 45.692090538832673 31.393229875293375 33.245070921050228 37.010594968230642 25.211455703769332 0.9962267250160447
decision_type=2 2 2 2 2 2 2 2
left_child=1 2 5 -2 -3 -1 -4 -5
right_child=3 4 6 7 -6 -7 -8 -9
leaf_value=0.028676912829054997 0.0071017010303819619 0.0065101463372954447 0.0092802732766924852 -0.001160177409365604 -0.017090153481912868 0.01660550439909746 -0.013058024555148741 -0.025940384664072138
leaf_weight=52.359255835413933 6.143026638776063 13.771889958530666 11.810216352343561 10.409034375101326 18.203519213944674 255.08394007384777 16.364974923431873 168.51230298168957
leaf_count=297 55 113 150 205 278 1497 269 4768
internal_value=0.00196845 0.0149177 0.0170433 -0.0234171 -0.00582551 0.0189545 -0.00224401 -0.0247654
internal_weight=552.658 367.594 335.618 185.064 31.9754 307.443 28.1752 178.921
internal_count=7632 2604 2213 5028 391 1794 419 4973
is_linear=0
shrinkage=0.0258891


Tree=42
num_leaves=9
num_cat=0
split_feature=4 11 4 18 18 15 4 6
split_gain=117.571 31.9496 10.989 10.3262 7.7468 4.39954 2.75904 0.200963
threshold=7.7235141693173697 0.50295065231336145 -108.46119345268582 0.5705450922319506 0.38207170514051131 0.94828401551637731 -140.80572428464865 0.0027122265158401933
decision_type=2 2 2 2 2 2 2 2
left_child=1 5 4 -4 -3 -1 -7 -2
right_child=7 2 3 -5 -6 6 -8 -9
leaf_value=0.0025450860224252481 -0.0031843216585453289 0.0092100122059214536 0.0089326096707712729 -0.0039903520395513847 0.022420655692564063 0 -0.014877250394461342 -0.022595807167768919
leaf_weight=11.971278488636015 6.3227434549480668 102.73020803928375 124.13799737580121 55.101207947358489 60.461638431996107 15.429848259314893 46.027692440897226 121.35767159424722
leaf_count=142 171 630 1312 617 411 152 826 3372
internal_value=-0.000397683 0.00620418 0.00958455 0.00471894 0.0145566 -0.00883513 -0.0117503 -0.0220278
internal_weight=543.54 415.86 342.431 179.239 163.192 73.4288 61.4575 127.68
internal_count=7633 4090 2970 1929 1041 1120 978 3543
is_linear=0
shrinkage=0.0258891


Tree=43
num_leaves=7
num_cat=0
split_feature=5 3 11 15 3 9
split_gain=236 34.108 20.6771 3.96157 3.87712 0.0282897
threshold=40.432721898963528 48.108304441142458 0.41605702187199062 0.93443682507907833 34.823938210543965 26.163758957538807
decision_type=2 2 2 2 2 2
left_child=1 2 -1 -4 -2 -3
right_child=4 5 3 -5 -6 -7
leaf_value=-0.0040992959802034368 0 -0.0039856977122167047 0.023969013727529607 0.014657964719545932 -0.025020948267206269 -0.019811862416917812
leaf_weight=30.933021541684866 6.2211680151522151 9.6003280244767684 64.879800405353308 258.32151242345572 158.31471311114728 13.80969989672303
leaf_count=315 81 162 374 1606 4684 300
internal_value=0.00140094 0.012746 0.0148238 0.0167815 -0.0242281 -0.0157883
internal_weight=542.08 377.544 354.134 323.201 164.536 23.41
internal_count=7522 2757 2295 1980 4765 462
is_linear=0
shrinkage=0.0258891


Tree=44
num_leaves=10
num_cat=0
split_feature=5 1 11 17 5 1 5 11 11
split_gain=207.404 26.7711 20.1591 14.9435 10.7979 5.00253 2.82758 2.2276 1.82867
threshold=35.742631593258388 0.99937625088230664 0.51153456954845644 -0.75675991448616886 48.941717317055712 0.99799248639881699 20.55329577558263 1.0670675454805869 0.82908720749905807
decision_type=2 2 2 2 2 2 2 2 2
left_child=1 2 6 -4 5 7 -1 -2 -3
right_child=4 8 3 -5 -6 -7 -8 -9 -10
leaf_value=0.0040818137340178111 -0.0077978811350129839 -0.018965794004587731 0.0068639400706519121 0.020320281781901438 -0.026140477392905741 -0.02048314179247095 -0.0078944576641513976 0.004105177157822615 0
leaf_weight=19.971108671277761 23.07616881094873 14.031359959393741 96.779119402170181 193.15416778624058 132.79250902123749 20.060050055384636 24.953966148197651 11.735345352441071 10.362844958901404
leaf_count=137 375 242 558 1098 4149 536 256 152 145
internal_value=0 0.0115605 0.0135422 0.0160468 -0.021889 -0.0103358 -0.00168424 -0.00258941 -0.013053
internal_weight=546.917 359.253 334.858 289.933 187.664 54.8716 44.9251 34.8115 24.3942
internal_count=7648 2436 2049 1656 5212 1063 393 527 387
is_linear=0
shrinkage=0.0258891


Tree=45
num_leaves=8
num_cat=0
split_feature=1 4 11 7 4 4 11
split_gain=174.828 38.3394 26.3071 6.618 4.68955 4.31441 2.92424
threshold=0.99905681595913565 -7.728750579985614 0.44832983158782597 0.025685658509767395 -108.46119345268582 25.144583975567226 0.342037545124798
decision_type=2 2 2 2 2 2 2
left_child=1 2 6 -4 -2 -3 -1
right_child=4 5 3 -5 -6 -7 -8
leaf_value=-0.0155932388860308 -0.0057037531644542243 -0.0003166485941733506 0.018932860281968972 0.01008324542255914 -0.025657873172543449 -0.018598775251393817 0
leaf_weight=16.036923805251718 15.815000042319296 19.634018924087286 146.56700659170747 160.06226327084005 132.36807795986533 27.442758601158857 19.403810342773795
leaf_count=185 265 281 955 1011 4077 619 211
internal_value=-6.66167e-05 0.0089688 0.01205 0.0145389 -0.0239113 -0.0121537 -0.00797988
internal_weight=537.33 389.147 342.07 306.629 148.183 47.0768 35.4407
internal_count=7604 3262 2362 1966 4342 900 396
is_linear=0
shrinkage=0.0258891


Tree=46
num_leaves=10
num_cat=0
split_feature=5 11 5 17 11 17 5 5 5
split_gain=179.83 28.1847 6.81645 6.93714 5.9605 4.89066 1.42515 0.256308 0.440172
threshold=40.432721898963528 0.55830259635514023 26.374004178441172 -0.14324230719266959 0.31215089406549079 -1.2400539351198268 25.188180300417681 49.350307126063306 47.177102993396538
decision_type=2 2 2 2 2 2 2 2 2
left_child=1 4 5 -4 -1 -3 -6 8 -2
right_child=7 2 3 -5 6 -7 -8 -9 -10
leaf_value=-0.018813794202920689 -0.01714468658301524 0.0038197935003226624 0.010138497860507953 -0.0054176208224894443 0.0020546241417872578 0.015452865907006197 -0.005690698247794411 -0.026064969706875905 -0.00069792840504546484
leaf_weight=16.631784612312913 22.403120676055554 40.892133422195911 44.703793950378895 27.402445597574115 29.89617432653904 206.52810892090201 24.522374941036105 126.70155238173902 7.4837401937693349
leaf_count=196 525 236 402 333 239 1116 339 4144 180
internal_value=-0.000999937 0.00831951 0.0116355 0.00364865 -0.00591515 0.0137459 -0.000729264 -0.0243538 -0.0146721
internal_weight=547.165 390.577 319.526 72.1062 71.0503 247.42 54.4185 156.588 29.8869
internal_count=7710 2861 2087 735 774 1352 578 4849 705
is_linear=0
shrinkage=0.0258891


Tree=47
num_leaves=8
num_cat=0
split_feature=3 11 3 7 3 7 3
split_gain=177.493 23.3031 20.6264 11.1841 12.3631 4.71956 3.46672
threshold=47.927869426167398 0.55399457082838599 29.941824603014727 0.025685658509767395 33.741933685509558 0.013291405680721884 41.992567050424121
decision_type=2 2 2 2 2 2 2
left_child=1 2 -1 6 -5 -4 -3
right_child=-2 3 5 4 -6 -7 -8
leaf_value=0.014784385879593355 -0.024845234865217201 0.019551014021717349 0 0.011181090544610502 -0.0042452205415944265 -0.015388317748989093 0.0072921447690443624
leaf_weight=27.206582926213741 134.721948267892 128.29015169665217 11.610776320099829 123.64364409819245 42.282187128439546 45.509798131883144 35.190740009769797
leaf_count=185 4359 739 164 665 413 717 452
internal_value=0.000685199 0.00917379 -0.00250652 0.0122929 0.00698688 -0.0116789 0.0172822
internal_weight=548.456 413.734 84.3272 329.407 165.926 57.1206 163.481
internal_count=7694 3335 1066 2269 1078 881 1191
is_linear=0
shrinkage=0.0258891


Tree=48
num_leaves=9
num_cat=0
split_feature=5 3 3 1 16 3 5 16
split_gain=196.246 28.9641 14.1343 8.68006 3.78321 5.02326 2.96087 1.76739
threshold=37.72041728321895 41.309780957957592 31.393229875293375 0.99937625088230664 1.5308684342336367 29.941824603014727 21.284402101749041 0.51333862596263591
decision_type=2 2 2 2 2 2 2 2
left_child=1 4 -2 6 5 -1 -3 -4
right_child=2 3 7 -5 -6 -7 -8 -9
leaf_value=0.020110458774906057 0.010632384908430924 0.0070353355559542264 0 -0.019366112549952109 0.0038881803006740796 0.011412711780708944 -0.0044408650831510351 -0.024806397422805739
leaf_weight=125.30677892267704 5.4592654481530181 29.021376073360443 5.3870643004775038 15.734676742926238 31.796999417245388 145.08331663161516 24.499205969274044 152.78968038223684
leaf_count=646 50 206 171 326 171 914 281 4821
internal_value=0.000684632 0.0111642 -0.0227048 -0.00336512 0.0146376 0.0157081 0.00101985 -0.0242327
internal_weight=535.078 371.442 163.636 69.2553 302.187 270.39 53.5206 158.177
internal_count=7586 2544 5042 813 1731 1560 487 4992
is_linear=0
shrinkage=0.0258891


Tree=49
num_leaves=10
num_cat=0
split_feature=8 1 8 9 8 7 0 7 1
split_gain=307.252 27.6474 15.8939 10.4138 9.67294 5.8904 1.37409 0.793798 0.745933
threshold=0.20058274972011378 0.9939716143870615 0.27587921033530594 31.565164350811347 0.031177121112976245 0.024666327668682552 0.98811668587671242 0.037192626786650224 0.98688220848321584
decision_type=2 2 2 2 2 2 2 2 2
left_child=1 4 3 -2 6 -6 -1 -5 -4
right_child=2 -3 8 7 5 -7 -8 -9 -10
leaf_value=0.0024550826535031118 -0.021823222362129437 0.034833613078891268 -0.009329382336295022 -0.0036917494021405884 0.029702563733454136 0.013749109386403705 0.010211589653727163 0.0031750642762477829 -0.025436093685079406
leaf_weight=53.505619242787361 22.214720612391829 54.923777960240841 13.598918715491889 21.064128875732422 30.930356152355671 89.617873832583427 46.044039592146873 20.13898054510355 185.89327673614025
leaf_count=269 221 294 204 197 168 480 213 154 5472
internal_value=-0.000922131 0.0180671 -0.0209388 -0.00825521 0.0134424 0.018569 0.0065884 0 -0.0246463
internal_weight=537.932 275.022 262.91 63.4178 220.098 120.548 99.5497 41.2031 199.492
internal_count=7672 1424 6248 572 1130 648 482 351 5676
is_linear=0
shrinkage=0.0258891


Tree=50
num_leaves=8
num_cat=0
split_feature=0 0 17 18 10 18 17
split_gain=141.822 11.6782 13.8907 11.2382 10.2379 4.76574 3.85312
threshold=0.99915078450365524 0.99488352516115952 -1.4517549691655882 0.6139462338671301 -0.00026740881431169811 0.097501657771968092 -0.36145873727595484
decision_type=2 2 2 2 2 2 2
left_child=1 2 -1 4 -3 -4 -5
right_child=-2 3 5 6 -6 -7 -8
leaf_value=-0.0041582323388840393 -0.023163143657724986 0.011376766020076232 0.0081513968321669447 0 -0.0039069209695773259 0.01764287837504723 -0.016120126711005125
leaf_weight=33.336466340348125 146.41402373276651 70.261601164937019 109.8557761348784 16.944669727236032 42.945683564990759 91.499396778643131 25.374530255794525
leaf_count=200 4583 689 641 167 508 557 328
internal_value=-0.00152699 0.00654783 0.0101896 0.000722508 0.00522889 0.0127951 -0.0100701
internal_weight=536.632 390.218 234.692 155.526 113.207 201.355 42.3192
internal_count=7673 3090 1398 1692 1197 1198 495
is_linear=0
shrinkage=0.0258891


Tree=51
num_leaves=8
num_cat=0
split_feature=5 11 5 7 11 11 5
split_gain=171.196 17.9895 10.5546 9.24665 5.28397 3.51587 0.700555
threshold=41.128670015854887 0.44832983158782597 26.374004178441172 0.028459224477267089 1.2752204100162181 0.30678194277791615 25.188180300417681
decision_type=2 2 2 2 2 2 2
left_child=1 5 3 -3 -4 -1 -7
right_child=-2 2 4 -5 -6 6 -8
leaf_value=-0.014408565689843618 -0.024336648462599399 0.018397519445437691 -0.0014141293570871642 0.0074882635060542256 0.011843882079070075 0.0036702763663170601 -0.0038096374504390709
leaf_weight=16.347585774958134 139.38633833639324 139.77281410619617 57.791279735043645 117.45746520161629 25.996898274868727 15.462489869445564 14.590476077049969
leaf_count=202 4786 775 659 630 243 128 222
internal_value=4.745e-06 0.00894511 0.0110419 0.0136695 0.00234986 -0.00539987 0
internal_weight=526.805 387.419 341.018 257.23 83.7882 46.4006 30.053
internal_count=7645 2859 2307 1405 902 552 350
is_linear=0
shrinkage=0.0258891


Tree=52
num_leaves=7
num_cat=0
split_feature=1 11 16 3 3 3
split_gain=129.785 22.4407 12.467 12.1174 11.0449 4.88809
threshold=0.99864562603590101 0.44014329279067149 1.5728751801813476 42.201871110274787 28.952936995062448 37.541945515341162
decision_type=2 2 2 2 2 2
left_child=1 4 3 -3 -1 -2
right_child=5 2 -4 -5 -6 -7
leaf_value=0.0075497904606455649 0 0.012352241954396886 -0.0067112983322891355 -0.00033554404574430056 -0.018315417164534858 -0.024061475614229898
leaf_weight=12.351956523954867 7.4513544440269461 268.15286878682673 28.099427796900272 53.809937506914139 32.379706375300884 127.82489057071507
leaf_count=86 86 1571 182 760 585 4382
internal_value=-0.00109655 0.00632698 0.00860605 0.0101069 -0.0102205 -0.0228816
internal_weight=530.07 394.794 350.062 321.963 44.7317 135.276
internal_count=7652 3184 2513 2331 671 4468
is_linear=0
shrinkage=0.0258891


Tree=53
num_leaves=6
num_cat=0
split_feature=8 3 3 1 3
split_gain=323.242 89.8881 22.2886 9.8233 1.61402
threshold=0.20058274972011378 30.276051391485236 38.188853291337125 0.99232150087547588 21.816332323488783
decision_type=2 2 2 2 2
left_child=2 -2 3 4 -1
right_child=1 -3 -4 -5 -6
leaf_value=0.005697038228018452 0.01761876791626598 -0.027079883258621196 0.034598838905152099 0.026842054276836409 0.013765397158719831
leaf_weight=48.079116091132164 32.570443719625473 214.23384310305119 57.137932799756527 45.211582712829113 127.97906550765038
leaf_count=236 213 5930 324 214 641
internal_value=0.00048499 -0.0209224 0.0196301 0.0153257 0.0118857
internal_weight=525.212 246.804 278.408 221.27 176.058
internal_count=7558 6143 1415 1091 877
is_linear=0
shrinkage=0.0258891


Tree=54
num_leaves=5
num_cat=0
split_feature=1 1 16 15
split_gain=126.692 15.6509 11.8606 7.68633
threshold=0.99968866424062786 0.962418168330335 1.6104787513953072 1.0149947188198098
decision_type=2 2 2 2
left_child=1 -1 3 -3
right_child=-2 2 -4 -5
leaf_value=0.027403498150887624 -0.023253431486107087 0.010469792270614602 -0.011389592739478791 0.0024318142238082489
leaf_weight=23.817123044282198 115.42280481010675 198.60996941663325 21.862941095605493 162.88450745120645
leaf_count=128 4181 1692 155 1459
internal_value=0.000391349 0.00727214 0.00578817 0.00699743
internal_weight=522.597 407.175 383.357 361.494
internal_count=7615 3434 3306 3151
is_linear=0
shrinkage=0.0258891


Tree=55
num_leaves=10
num_cat=0
split_feature=3 10 3 3 3 9 18 2 10
split_gain=120.145 17.0549 9.50841 10.6904 7.35971 5.28603 5.77009 4.96521 3.905
threshold=44.931566628164283 -0.001740635502481269 35.08057515803165 25.725696192554924 48.108304441142458 22.321899683127054 -0.40889895308966134 1.0121711172834822 -0.00030183746399708994
decision_type=2 2 2 2 2 2 2 2 2
left_child=1 5 3 -3 8 -1 -7 -4 -2
right_child=4 2 7 -5 -6 6 -8 -9 -10
leaf_value=0.02446762112548783 0.00089179076369218084 -0.0035567125588434599 -0.0089560504239231797 0.012352083214276563 -0.023335955740973701 0.0029863684536362818 0.01469957042034826 0.0039806775172170359 -0.015383262080983199
leaf_weight=29.365492321550846 15.0743859782815 37.562381021678448 55.98893210478127 77.243383843451738 114.4411784093827 57.358165247365832 91.221355384215713 23.608554519712925 13.662348465993999
leaf_count=158 215 199 689 530 4311 330 522 275 318
internal_value=-0.000151577 0.00751699 0.00191787 0.00679819 -0.0202435 0.0133124 0.0105559 -0.00458031 -0.00586055
internal_weight=515.526 372.348 194.403 114.806 143.178 177.945 148.58 79.5975 28.7367
internal_count=7547 2703 1693 729 4844 1010 852 964 533
is_linear=0
shrinkage=0.0258891


Tree=56
num_leaves=6
num_cat=0
split_feature=8 3 3 3 2
split_gain=260.82 86.8648 24.8642 5.52953 3.36132
threshold=0.20058274972011378 29.941824603014727 38.633158177305098 19.505813342718408 0.96721410398781338
decision_type=2 2 2 2 2
left_child=2 -2 3 -1 -5
right_child=1 -3 -4 4 -6
leaf_value=0.00047898934673760421 0.019295243431402598 -0.026891883821311215 0.031059470320742244 0.0058998459293985043 0.01530062293831305
leaf_weight=35.020549237728119 29.009017400443554 205.60953368619084 57.548663787543774 55.569555900990963 148.32508902996778
leaf_count=175 191 6004 321 272 725
internal_value=-0.000507148 -0.0208952 0.0155098 0.0113825 0.0130232
internal_weight=531.082 234.619 296.464 238.915 203.895
internal_count=7688 6195 1493 1172 997
is_linear=0
shrinkage=0.0258891


Tree=57
num_leaves=9
num_cat=0
split_feature=8 5 9 8 9 15 15 15
split_gain=251.916 12.0056 11.198 9.22792 9.20191 7.05038 4.32508 4.52056
threshold=0.20462228834801818 22.931648922825936 38.367376945315691 0.32872315433166421 38.738385819887917 0.9684242592830693 1.0781435610711585 0.94828401551637731
decision_type=2 2 2 2 2 2 2 2
left_child=1 6 -3 4 -2 -6 7 -1
right_child=3 2 -4 -5 5 -7 -8 -9
leaf_value=0.016030524334044838 -0.021169924979108284 0.034836016699176242 0.010176637510451208 -0.025112270260605436 0.0079470051115020247 -0.011514433848111979 0.020165971238796786 0.0061059263342758026
leaf_weight=57.865298971533775 42.733393164351583 39.350109647959471 29.296023771166801 141.12474481388927 17.538517598062754 28.118888644501567 44.894066415727139 126.3135893791914
leaf_count=271 501 229 182 5193 157 303 211 600
internal_value=-0.000225521 0.0153658 0.025451 -0.0206013 -0.0125645 -0.00310219 0.011983 0.00958121
internal_weight=527.235 297.719 68.6461 229.516 88.3908 45.6574 229.073 184.179
internal_count=7647 1493 411 6154 961 460 1082 871
is_linear=0
shrinkage=0.0258891


Tree=58
num_leaves=9
num_cat=0
split_feature=8 7 16 15 8 9 16 17
split_gain=248.837 24.4924 16.9875 11.6796 10.2658 8.33377 3.62921 2.6012
threshold=0.20058274972011378 0.027085033557310553 1.2086622073524069 0.95453011395438381 0.27587921033530594 39.537650933378458 1.3321113273932152 0.016941601382012794
decision_type=2 2 2 2 2 2 2 2
left_child=1 2 7 -3 5 -2 -5 -1
right_child=4 3 -4 6 -6 -7 -8 -9
leaf_value=0.031523246476034987 -0.018615530940727525 0.014782707435317651 0.0047562289457667014 0.0046603101892353591 -0.024080866493490609 0 -0.0062342387725421739 0.01852636720308375
leaf_weight=70.165846019983292 33.018672555685043 62.348826728761196 36.878857977688313 45.659155055880547 169.83111098781228 30.26937473192811 34.314491152763367 52.99534334987402
leaf_count=340 334 304 184 227 5689 251 188 257
internal_value=-0.000447425 0.0149299 0.021959 0.00655076 -0.02054 -0.00997213 0 0.0266211
internal_weight=535.482 302.363 160.04 142.322 233.119 63.288 79.9736 123.161
internal_count=7774 1500 781 719 6274 585 415 597
is_linear=0
shrinkage=0.0258891


Tree=59
num_leaves=9
num_cat=0
split_feature=5 17 14 14 5 11 5 5
split_gain=128.866 15.234 9.99845 8.82235 7.19852 3.40177 0.738873 0.36651
threshold=41.128670015854887 -1.03456462091352 43.443363123934766 30.414804665834286 15.295701277684275 2.7534409757944327 17.326103965287462 42.738076612921176
decision_type=2 2 2 2 2 2 2 2
left_child=1 2 -1 -3 -5 7 -4 -2
right_child=5 3 6 4 -6 -7 -8 -9
leaf_value=0.0087095138037753886 -0.0014585578100793244 0.02546093283043065 -0.0030966866448873787 0.013581389008383652 0.0045439960997686966 0 -0.013102626308194271 -0.024684351139087905
leaf_weight=30.760533330962062 4.7385477665811768 24.48534824885428 25.638988882303238 115.90473980084062 167.92933956161141 5.1847329623997203 26.19427197240293 108.65100545436144
leaf_count=200 120 167 141 572 1516 183 220 4461
internal_value=0.000152411 0.00741912 -0.00199078 0.0100774 0.00844829 -0.0231992 -0.00923175 -0.0241295
internal_weight=509.488 390.913 82.5938 308.319 283.834 118.574 51.8333 113.39
internal_count=7580 2816 561 2255 2088 4764 361 4581
is_linear=0
shrinkage=0.0258891


Tree=60
num_leaves=10
num_cat=0
split_feature=1 17 11 16 11 16 17 17 16
split_gain=103.984 15.5591 10.9791 8.94141 3.98383 4.17511 1.99017 1.65154 0.576375
threshold=0.99968866424062786 -0.86092634753809061 0.44014329279067149 1.0105024466059158 0.56177695103103442 1.410650624793262 0.098317577697393591 -1.3355288895102275 0.5881655284809455
decision_type=2 2 2 2 2 2 2 2 2
left_child=1 4 6 -4 7 -6 -3 -1 -2
right_child=8 2 3 -5 5 -7 -8 -9 -10
leaf_value=-0.016254087887323663 -0.0046621818533376016 -0.010929208898879196 0.016502183728076669 0.0061373540356625721 0.0050733304116795681 -0.0058709053053433739 0.00011529601122762387 -0.00035302873101383532 -0.023589811899624637
leaf_weight=13.128002636134626 8.0627008080482465 15.963820587843658 116.79725143685937 149.54017421230674 62.821241958066821 33.068234533071518 10.499194907024501 15.1588810198009 96.457260770723224
leaf_count=197 296 280 946 1062 434 206 160 211 3931
internal_value=0.000141798 0.00602829 0.00928958 0.0109241 -0.00133807 0.00081491 -0.00527094 -0.00970491 -0.0226416
internal_weight=521.497 416.977 292.8 266.337 124.176 95.8895 26.463 28.2869 104.52
internal_count=7723 3496 2448 2008 1048 640 440 408 4227
is_linear=0
shrinkage=0.0258891


Tree=61
num_leaves=8
num_cat=0
split_feature=3 1 16 14 15 14 1
split_gain=100.718 9.58188 9.01999 10.2373 7.23198 1.09042 0.285966
threshold=47.586269295303389 0.99885054215347102 1.248866112922268 44.865782715238083 0.97080700485676497 57.546075102484529 0.99630823211078035
decision_type=2 2 2 2 2 2 2
left_child=1 2 3 -1 -4 -3 -2
right_child=6 5 4 -5 -6 -7 -8
leaf_value=0.00019814536482133839 -0.0079659164805229877 -0.013537658760619907 0.0072203428668248708 0.01196913127486585 -0.0056563658766809874 0 -0.02503539220061585
leaf_weight=78.148110928013921 10.704600803554056 15.034643966704609 50.077056216076016 183.31806320138276 65.252365382388234 11.919043455272911 90.368130035698414
leaf_count=587 280 315 292 1303 425 247 4017
internal_value=-0.000867281 0.0048498 0.00599631 0.00864149 0 -0.00904274 -0.0238194
internal_weight=504.822 403.749 376.796 261.466 115.329 26.9537 101.073
internal_count=7466 3169 2607 1890 717 562 4297
is_linear=0
shrinkage=0.0258891


Tree=62
num_leaves=9
num_cat=0
split_feature=5 1 7 1 1 5 1 7
split_gain=115.231 17.3348 7.56214 8.31652 4.03977 3.41752 3.25208 1.11078
threshold=40.432721898963528 0.99929582801491923 0.032881659619632499 0.9826026153559474 0.99105791207977811 20.872159752881849 0.98907799579023192 0.006968399662823724
decision_type=2 2 2 2 2 2 2 2
left_child=1 2 4 -4 -1 -3 -2 -8
right_child=6 5 3 -5 -6 -7 7 -9
leaf_value=0.015623859406479361 -0.0025784822278211573 0 0.0072040178051135783 -0.0053014877999477241 0.0072519425244418076 -0.019585032350651583 0 -0.024935295859476906
leaf_weight=90.68837733566761 10.094051238149403 8.5341018084436673 104.04990794509649 48.423639385029674 133.84024723805487 16.482284678146243 4.2999188043177119 100.74441850557923
leaf_count=473 218 104 555 383 898 412 170 4487
internal_value=-0.000107055 0.00636227 0.00783526 0.00293464 0.0109217 -0.0132606 -0.0228227 -0.0242852
internal_weight=517.157 402.019 377.002 152.474 224.529 25.0164 115.138 105.044
internal_count=7700 2825 2309 938 1371 516 4875 4657
is_linear=0
shrinkage=0.0258891


Tree=63
num_leaves=7
num_cat=0
split_feature=5 17 3 3 3 3
split_gain=109.54 13.3803 10.1553 5.74413 4.89551 3.8413
threshold=40.432721898963528 -1.03456462091352 46.224118208877364 31.393229875293375 48.108304441142458 33.245070921050228
decision_type=2 2 2 2 2 2
left_child=1 3 5 -1 -4 -3
right_child=-2 2 4 -5 -6 -7
leaf_value=0.0015478876745555472 -0.023165702142210587 0.012685554032677281 0.0053622558487587497 -0.011420061732439549 -0.015159943667566619 0.0057317201937340965
leaf_weight=54.994234807789326 111.3373802062124 151.97240855917335 8.5825435183942336 32.520823277533054 16.004379145801067 139.30733630247414
leaf_count=301 4776 760 104 274 393 992
internal_value=-0.000564929 0.00563944 0.00814943 -0.00291369 -0.00646363 0.00956319
internal_weight=514.719 403.382 315.867 87.5151 24.5869 291.28
internal_count=7600 2824 2249 575 497 1752
is_linear=0
shrinkage=0.0258891


Tree=64
num_leaves=7
num_cat=0
split_feature=0 3 3 17 3 9
split_gain=121.803 24.5959 23.3756 10.5796 4.75002 4.31783
threshold=0.99848175536659778 29.941824603014727 47.586269295303389 -1.365760351865249 30.276051391485236 20.062217592580406
decision_type=2 2 2 2 2 2
left_child=2 -2 3 -1 -5 -4
right_child=1 -3 5 4 -6 -7
leaf_value=-0.0014615965977693172 0.010583500677212873 -0.024754509515064565 0 0.015402081211245014 0.0077809763097346479 -0.021369518232481816
leaf_weight=44.693552024662495 11.983187451958655 120.20959639549255 6.44770912639797 126.82178272306919 178.88082546181977 18.227007394656539
leaf_count=282 88 4775 134 590 1166 569
internal_value=0 -0.0211284 0.00761222 0.00942252 0.0111548 -0.015358
internal_weight=507.264 132.193 375.071 350.396 305.703 24.6747
internal_count=7604 4863 2741 2038 1756 703
is_linear=0
shrinkage=0.0258891


Tree=65
num_leaves=10
num_cat=0
split_feature=8 8 1 9 13 8 8 6 9
split_gain=216.957 9.4926 9.3389 6.24985 5.98348 5.90715 4.9105 1.68717 0.448502
threshold=0.20058274972011378 0.255583734712516 0.98566930420804344 42.247199039411747 -0.78656609248549325 1.0000000180025095e-35 0.112641268987325 0.0062472055107353113 70.293978104810279
decision_type=2 2 2 2 2 2 2 2 2
left_child=2 3 5 -2 -4 -1 -7 -6 -3
right_child=1 8 4 -5 7 6 -8 -9 -10
leaf_value=0.001638690669876635 -0.015450007792714736 -0.022787760690223615 0.0087162772266526113 0.0014104921293997166 0.026438685986220678 0.019084580684191364 0.0043698255271358774 0.014417554405508451 -0.0039879657939506088
leaf_weight=54.775437355041504 26.462090749293566 156.23438679985702 41.515899360179901 21.587454695254564 76.060991935431957 49.727197907865047 36.434501379728317 41.033724762499332 7.4360168017446986
leaf_count=259 246 5584 195 162 362 241 192 212 238
internal_value=0.000749938 -0.01913 0.0149755 -0.00721908 0.0195739 0.0093166 0.0135709 0.0228699 -0.0222488
internal_weight=511.268 211.72 299.548 48.0495 158.611 140.937 86.1617 117.095 163.67
internal_count=7691 6230 1461 408 769 692 433 574 5822
is_linear=0
shrinkage=0.0258891


Tree=66
num_leaves=9
num_cat=0
split_feature=8 1 1 15 15 15 15 6
split_gain=173.634 18.5531 13.6981 23.3622 8.56524 6.7141 3.00319 0.867004
threshold=0.20058274972011378 0.99141400751071485 0.98772499039680739 1.0346180378174268 0.96984653564447776 0.97249090108128777 1.0103147550255962 0.0098524080160462737
decision_type=2 2 2 2 2 2 2 2
left_child=2 5 6 4 -4 -2 7 -1
right_child=1 -3 3 -5 -6 -7 -8 -9
leaf_value=0.010689503969711559 0.0036021778279761597 -0.023218174634870976 0.017431278540709163 0.030805807756255389 0.00011139673773545438 -0.013072411911150371 0.00040114618305191522 0.0030481089228254006
leaf_weight=70.694256633520126 26.207723734900355 158.07604732550681 36.42409298568964 55.82692463696003 48.97274137288332 29.638739978894591 57.257129602134228 35.386219024658203
leaf_count=337 307 5629 172 265 236 368 285 177
internal_value=-0.000773512 -0.0186428 0.0116707 0.0177131 0.00820255 -0.00462057 0.00604871 0.00863636
internal_weight=518.484 213.923 304.561 141.224 85.3968 55.8465 163.338 106.08
internal_count=7776 6304 1472 673 408 675 799 514
is_linear=0
shrinkage=0.0258891


Tree=67
num_leaves=9
num_cat=0
split_feature=5 5 11 17 9 10 15 11
split_gain=97.644 10.7719 5.37317 4.8586 9.96304 6.07071 4.04078 3.22402
threshold=41.128670015854887 26.374004178441172 2.7534409757944327 -0.86092634753809061 35.574219290001636 -0.0017799471785966412 0.93443682507907833 1.2752204100162181
decision_type=2 2 2 2 2 2 2 2
left_child=1 3 -2 4 -1 -5 -3 -8
right_child=2 6 -4 5 -6 -7 7 -9
leaf_value=-0.0084801879074403834 -0.023518112504890765 0.0093091443012494196 0 0.014460259402052979 0.0092537371837439764 0.004690278959957812 -0.0071215824828985566 0.0032416881929843229
leaf_weight=29.493768181651831 94.113075505942106 17.418337214738131 4.8617861326783887 132.15181801468134 57.543512754142284 89.916848976165056 57.679850935935974 22.442476976662874
leaf_count=171 4470 169 209 677 308 548 817 216
internal_value=0.000583488 0.00629553 -0.0221509 0.00866549 0.00270442 0.0107673 -0.0007966 -0.00367932
internal_weight=505.621 406.647 98.9749 309.106 87.0373 222.069 97.5407 80.1223
internal_count=7585 2906 4679 1704 479 1225 1202 1033
is_linear=0
shrinkage=0.0258891


Tree=68
num_leaves=9
num_cat=0
split_feature=1 4 11 13 11 15 4 15
split_gain=77.7762 21.994 8.36135 6.24613 4.55903 3.78828 3.18261 2.39982
threshold=0.99968866424062786 -11.741971254539591 0.5967786920268453 -0.9159756150367534 0.94332591178691183 1.0088285464907003 -84.639161052909387 1.0324192027950834
decision_type=2 2 2 2 2 2 2 2
left_child=1 2 5 -4 7 -1 -2 -3
right_child=6 4 3 -5 -6 -7 -8 -9
leaf_value=0.0049369890213977249 -0.005301457559488105 -0.021693272384313973 0 0.010444913042237783 0 -0.0063505080232413207 -0.024261321725164077 0
leaf_weight=37.275787759572268 14.468936214223502 20.745838746428493 43.307099020108581 257.77883398719132 22.831842774525285 37.656587909907103 73.14231807552278 7.6031341608613721
leaf_count=332 338 540 258 1492 300 381 3809 243
internal_value=9.87237e-05 0.00475951 0.00700304 0.00892595 -0.0105837 -0.000182903 -0.0217845 -0.017274
internal_weight=514.81 427.199 376.018 301.086 51.1808 74.9324 87.6113 28.349
internal_count=7693 3546 2463 1750 1083 713 4147 783
is_linear=0
shrinkage=0.0258891


Tree=69
num_leaves=9
num_cat=0
split_feature=5 1 16 15 3 3 9 1
split_gain=104.133 8.26241 9.4098 9.48094 6.19698 4.3807 2.71495 0.0167474
threshold=40.432721898963528 0.9991706425613669 1.255000419430522 0.95358425354967979 32.542652440317852 45.884319585906319 31.439068628964197 0.98907799579023192
decision_type=2 2 2 2 2 2 2 2
left_child=1 2 6 -4 -2 -3 -1 -6
right_child=4 5 3 -5 7 -7 -8 -9
leaf_value=0.0063214051234203698 0.00095259022779197724 0 0.011188882799997312 -0.0043874999448341471 -0.0052014815359564068 -0.018789465549057964 0.012859424240587454 -0.02442589173539295
leaf_weight=115.1423889324069 3.6366660371422759 15.885556027293207 38.609896961599588 69.88573868945241 7.0643440205603829 9.5923409480601531 159.2395139131695 90.896785870194435
leaf_count=740 44 204 197 414 187 322 945 4649
internal_value=0.000836366 0.00676818 0.00777468 0.00085093 -0.0222919 -0.00628061 0.0103317 -0.0235933
internal_weight=509.953 408.355 382.878 108.496 101.598 25.4779 274.382 97.9611
internal_count=7702 2822 2296 611 4880 526 1685 4836
is_linear=0
shrinkage=0.0258891


Tree=70
num_leaves=9
num_cat=0
split_feature=5 11 11 11 17 7 11 0
split_gain=101.175 9.18771 6.25912 5.37692 4.0007 9.34557 2.9107 0.813604
threshold=40.432721898963528 0.54592126275949604 0.342037545124798 0.45840704897500101 -1.3954324727807565 0.054657934806124832 2.2346926651286378 1.0053191346887187
decision_type=2 2 2 2 2 2 2 2
left_child=1 2 -1 -4 -3 -6 -2 -8
right_child=6 4 3 -5 5 -7 7 -9
leaf_value=-0.014057436889336195 -0.024199203700900215 0 0.010673516752758041 -0.0054022148636272424 0.0071124054426698604 0.022332418461407145 0.0014693604897831997 -0.0098784391559293069
leaf_weight=19.11384248547256 90.264093514531851 37.978109428659081 26.226283375173807 22.685336541384459 260.48698315396905 33.454365523532033 3.7343647219240657 3.7042517177760601
leaf_count=251 4526 225 284 212 1643 178 125 216
internal_value=0.000431416 0.00630332 -0.00181756 0.00242933 0.00809907 0.00911522 -0.0228518 -0.000260408
internal_weight=497.648 399.945 68.0255 48.9116 331.919 293.941 97.7027 7.43862
internal_count=7660 2793 747 496 2046 1821 4867 341
is_linear=0
shrinkage=0.0258891


Tree=71
num_leaves=11
num_cat=0
split_feature=5 5 9 12 13 9 14 9 5 5
split_gain=94.2313 7.97925 4.78432 6.09759 5.36563 1.92699 2.9518 2.51731 0.26706 1.98002
threshold=43.156099434172077 26.374004178441172 43.593895911089568 0.37940952255126054 0.1294095225512602 30.711631613669933 51.635096398051132 39.68108677043417 49.350307126063306 47.528956599914963
decision_type=2 2 2 2 2 2 2 2 2 2
left_child=1 2 3 -1 -4 6 -3 -7 9 -2
right_child=8 5 4 -5 -6 7 -8 -9 -10 -11
leaf_value=0.013079998473278112 -0.015960902980129942 -0.012472433042220976 0.0076546598593766205 0.0027334471585049795 -0.0042730175854146842 0.0090413033212473504 2.3598505715108529e-05 -0.00053692404517844154 -0.024938155259329707 0
leaf_weight=149.665531584993 8.8027280252426845 17.076132128015161 56.278753962367773 68.309161130338907 38.533702995628119 22.845906492322683 19.4153424333781 45.219902094453573 75.120805900543928 4.8161125611513844
leaf_count=776 318 273 308 404 214 276 285 529 4163 159
internal_value=0.000593035 0.00584756 0.0079096 0.010084 0.00236631 0 -0.0049911 0.00220147 -0.023269 -0.00942181
internal_weight=506.084 417.344 312.787 217.975 94.8125 104.557 36.4915 68.0658 88.7396 13.6188
internal_count=7705 3065 1702 1180 522 1363 558 805 4640 477
is_linear=0
shrinkage=0.0258891


Tree=72
num_leaves=8
num_cat=0
split_feature=3 17 3 16 1 18 1
split_gain=76.895 15.5564 8.3134 7.94675 5.93812 1.37025 0.289547
threshold=47.723081024005971 -1.3355288895102275 30.668783065242717 0.95372396671850657 0.99968866424062786 0.097501657771968092 0.99270594304192861
decision_type=2 2 2 2 2 2 2
left_child=1 5 3 -3 -4 -1 -2
right_child=6 2 4 -5 -6 -7 -8
leaf_value=-0.0024135191731530451 -0.00057134297190160235 0.021110365319153335 0.0043043580682777015 0.0064572167100536348 -0.010230038646667066 -0.01387468840605012 -0.02329293190844299
leaf_weight=28.038933550938964 4.4719410073012105 41.699843838810921 195.36702840402722 98.585262581706047 17.690300136804581 21.880723781883717 79.352043726481497
leaf_count=218 131 211 1684 461 444 169 4235
internal_value=-0.000248809 0.00437367 0.00636054 0.0113283 0.00282041 -0.00858313 -0.0226268
internal_weight=487.086 403.262 353.342 140.285 213.057 49.9197 83.824
internal_count=7553 3187 2800 672 2128 387 4366
is_linear=0
shrinkage=0.0258891


Tree=73
num_leaves=8
num_cat=0
split_feature=0 3 3 9 0 2 9
split_gain=81.0091 20.178 19.9298 7.95518 5.68393 4.41024 0.59752
threshold=0.99919817838452207 29.941824603014727 47.927869426167398 45.752834328779549 0.99730426348778989 0.95776593894337669 22.666549684894072
decision_type=2 2 2 2 2 2 2
left_child=2 -2 3 4 -1 -5 -4
right_child=1 -3 6 5 -6 -7 -8
leaf_value=0.010085240199118493 0.0091311769108351447 -0.025397536991680767 -0.0019188522767669448 0.0079863572086021489 0 -0.0032812008279961926 -0.020507892735437724
leaf_weight=227.06039182655513 10.046481087803839 89.313760168850422 7.7479807967320111 31.580560587346554 42.393870981410146 75.218576839193702 16.889031266793609
leaf_count=1206 76 4468 220 175 418 463 681
internal_value=-0.000587338 -0.0213767 0.00452832 0.0061145 0.00847158 0 -0.0168324
internal_weight=500.251 99.3602 400.89 376.253 269.454 106.799 24.637
internal_count=7707 4544 3163 2262 1624 638 901
is_linear=0
shrinkage=0.0258891


Tree=74
num_leaves=8
num_cat=0
split_feature=0 16 15 14 14 14 14
split_gain=81.4578 6.69182 11.5049 8.11648 16.7053 5.2368 1.11055
threshold=0.99919817838452207 1.255000419430522 0.95358425354967979 79.274301734802251 58.191454648030287 56.007405207781652 23.342637198792598
decision_type=2 2 2 2 2 2 2
left_child=1 3 -3 4 -1 -4 -2
right_child=6 2 5 -5 -6 -7 -8
leaf_value=0.0037848119075530487 0 0.010873541129246727 -0.012032296432373439 -0.0060224197269768669 0.018799655411795242 0.00015491209657472667 -0.022243156755402893
leaf_weight=183.5405232720077 3.5948121882975093 38.155483187176287 43.136840673163533 24.530366871505976 73.195999107323587 35.644661532714963 92.048629637807608
leaf_count=1528 144 212 305 215 624 263 4345
internal_value=-0.000343485 0.00473898 -0.000111577 0.00689767 0.00833348 -0.00609484 -0.0216531
internal_weight=493.847 398.204 116.937 281.267 256.737 78.7815 95.6434
internal_count=7636 3147 780 2367 2152 568 4489
is_linear=0
shrinkage=0.0258891


Tree=75
num_leaves=9
num_cat=0
split_feature=0 3 16 7 5 0 5 7
split_gain=87.7908 20.3076 9.41818 8.83748 7.56525 4.67162 2.86657 1.84476
threshold=0.99841674909238609 29.941824603014727 1.2724752128026953 0.012644649668173835 31.129682689871029 0.99137854209808784 23.189831362758593 0.047929992665927429
decision_type=2 2 2 2 2 2 2 2
left_child=2 -2 3 -1 -5 7 -3 -4
right_child=1 6 5 4 -6 -7 -8 -9
leaf_value=0.018069404432482124 0.0081385649865849986 0 -0.00035014450990062854 0.0071275542225190114 -0.0062286033387472829 -0.0081835240079417039 -0.025582231146736925 0.0068095336151618932
leaf_weight=47.252719847485423 11.46304842084646 4.8236092366278163 40.387759203091264 190.37405027076602 28.486422155052423 38.933765005320311 96.202717452310026 35.230237107723951
leaf_count=304 84 55 210 1085 612 309 4789 186
internal_value=-0.000820972 -0.0208061 0.00503973 0.00771552 0.00515563 -0.000824488 -0.0245978 0.00250178
internal_weight=493.154 112.489 380.665 266.113 218.86 114.552 101.026 75.618
internal_count=7634 4928 2706 2001 1697 705 4844 396
is_linear=0
shrinkage=0.0258891


Tree=76
num_leaves=7
num_cat=0
split_feature=3 1 11 7 7 7
split_gain=74.5566 17.1953 10.0723 6.17196 1.14584 0.548056
threshold=47.927869426167398 0.962418168330335 0.34595248558349245 0.02743524932861912 0.033194162120152117 0.006968399662823724
decision_type=2 2 2 2 2 2
left_child=1 -1 4 -4 -3 -2
right_child=5 2 3 -5 -6 -7
leaf_value=0.023919297018883508 0 -0.00095271207609596675 0.0066010320267077512 0 -0.019147460729108931 -0.024034852932623516
leaf_weight=26.15827845223248 2.9655739180743685 9.8426065221428889 210.81302457861602 168.66793657839298 11.994856909848748 73.055746123194695
leaf_count=134 158 205 1624 1223 168 4158
internal_value=-6.82651e-05 0.00407181 0.00257075 0.00366686 -0.0134786 -0.0234719
internal_weight=503.498 427.477 401.318 379.481 21.8375 76.0213
internal_count=7670 3354 3220 2847 373 4316
is_linear=0
shrinkage=0.0258891


Tree=77
num_leaves=6
num_cat=0
split_feature=1 16 18 18 1
split_gain=57.6131 7.76821 4.31334 5.68281 5.6373
threshold=0.99851378370925958 1.6104787513953072 -0.40889895308966134 -0.24078706959185556 0.97701737369518293
decision_type=2 2 2 2 2
left_child=1 2 4 -4 -1
right_child=-2 -3 3 -5 -6
leaf_value=0.0088741140410428989 -0.021127708761368328 -0.010352920469264853 0.016106754259311552 0.0030636919386343763 -0.0036389254323139493
leaf_weight=28.258832292631269 89.398823755793273 30.628037972375751 26.528376550413668 213.98592086881399 110.0499104866758
leaf_count=158 4522 191 204 1656 1013
internal_value=-0.0024802 0.00155864 0.00267984 0.00478926 -0.000691427
internal_weight=498.85 409.451 378.823 240.514 138.309
internal_count=7744 3222 3031 1860 1171
is_linear=0
shrinkage=0.0258891


Tree=78
num_leaves=8
num_cat=0
split_feature=3 11 3 3 7 2 9
split_gain=69.2603 9.92194 7.06038 5.68795 3.79187 0.467649 0.226571
threshold=47.586269295303389 0.342037545124798 17.545567002996311 29.941824603014727 0.0077080149289973131 0.95033728493477831 12.867654503547497
decision_type=2 2 2 2 2 2 2
left_child=1 -1 -3 -4 -2 -6 -7
right_child=4 2 3 -5 5 6 -8
leaf_value=-0.010722348073626363 0 -0.0063782998010992655 0.010900671080183524 0.0036930523688521971 0 0 -0.024542774367009437
leaf_weight=23.674419935792685 4.5448154425248495 26.109332874417305 134.10050287097692 229.52797528542578 3.0026412187144151 3.0597492111846796 66.748096377588809
leaf_count=392 214 126 630 2099 154 122 3942
internal_value=0.000116687 0.00443434 0.00551061 0.00651027 -0.0219908 -0.0233911 -0.0239682
internal_weight=490.768 413.412 389.738 363.628 77.3553 72.8105 69.8078
internal_count=7679 3247 2855 2729 4432 4218 4064
is_linear=0
shrinkage=0.0258891


Tree=79
num_leaves=7
num_cat=0
split_feature=5 18 18 18 0 13
split_gain=72.0247 10.0635 8.18698 7.55339 6.00871 1.79784
threshold=40.432721898963528 1.2480528224597716 0.80226950927393037 -0.40889895308966134 0.99304318718490492 1.0000000180025095e-35
decision_type=2 2 2 2 2 2
left_child=1 2 3 -1 -2 -4
right_child=4 -3 5 -5 -6 -7
leaf_value=0 0.00025463433343326435 0.019669498609295379 0 0.007603786390411117 -0.02356585162763003 -0.011442424016334858
leaf_weight=146.09815602935851 3.8077115230262271 24.513478578999639 26.316550381481647 190.45917306095362 81.458276469260454 24.524170678108931
leaf_count=1023 65 190 202 1291 4806 178
internal_value=-0.000537134 0.00387916 0.00268316 0.00422927 -0.0220178 -0.00652153
internal_weight=497.178 411.912 387.398 336.557 85.266 50.8407
internal_count=7755 2884 2694 2314 4871 380
is_linear=0
shrinkage=0.0258891


Tree=80
num_leaves=7
num_cat=0
split_feature=8 3 3 8 8 3
split_gain=169.358 75.037 22.6207 8.9889 9.38319 3.82984
threshold=0.20462228834801818 30.276051391485236 40.870726685916004 0.061326544925118416 -0.089692949336332137 25.222015844525469
decision_type=2 2 2 2 2 2
left_child=2 -2 3 4 -1 -5
right_child=1 -3 -4 5 -6 -7
leaf_value=0.013193231909191432 0.013414764994506528 -0.026812699430304957 0.029052176191173982 0.0049835726221019771 -0.00033327612173788531 0.017428957523457175
leaf_weight=47.832904428243637 36.328596279025078 150.01684470847249 47.127242915332317 36.226653434336185 92.877979382872581 87.840031668543816
leaf_count=212 231 6088 261 169 416 434
internal_value=0.000645921 -0.0186862 0.0123749 0.00907001 0.00406571 0.0142624
internal_weight=498.25 186.345 311.905 264.778 140.711 124.067
internal_count=7811 6319 1492 1231 628 603
is_linear=0
shrinkage=0.0258891


Tree=81
num_leaves=11
num_cat=0
split_feature=8 8 9 15 15 7 8 7 14 8
split_gain=127.039 12.6881 12.6804 13.6236 12.5979 8.3949 8.35277 6.45253 1.16941 0.987269
threshold=0.20462228834801818 0.031177121112976245 33.24393612915005 0.97406046297537685 0.94939396802517872 0.031534264496501992 0.32872315433166421 0.0268662327380172 52.375639469464296 0.255583734712516
decision_type=2 2 2 2 2 2 2 2 2 2
left_child=1 7 -3 -4 5 -2 -7 8 -1 -6
right_child=4 2 3 -5 9 6 -8 -9 -10 -11
leaf_value=0.0021458561096532559 -0.018992932999479982 0.021451823585084722 0.015946226498072858 -0.0016111695306930786 -0.012703338887721792 0.016254716987717611 -0.012531004669749669 -0.0042058879585032023 0.01049435567064878 -0.024232028683947957
leaf_weight=39.723358988761902 13.762778339907525 74.965191021561623 52.682675935328007 55.729657359421253 31.60989323630929 15.495129819959404 8.0799702173098904 54.105615690350533 39.419560141861439 109.26464887987822
leaf_count=171 486 360 255 282 290 127 388 250 170 4895
internal_value=-0.00109614 0.00864207 0.0130801 0.00664428 -0.0185548 -0.00352324 0.00448337 0.00212031 0.00698118 -0.0221403
internal_weight=494.838 316.626 183.378 108.412 178.212 37.3379 23.5751 133.249 79.1429 140.875
internal_count=7674 1488 897 537 6186 1001 515 591 341 5185
is_linear=0
shrinkage=0.0258891


Tree=82
num_leaves=9
num_cat=0
split_feature=3 17 15 17 3 3 11 3
split_gain=54.0267 7.9236 14.0088 8.10383 6.99405 4.28695 3.94942 0.449325
threshold=47.586269295303389 -1.020840455614179 0.95453011395438381 0.0083079382404659969 25.222015844525469 27.319488232742589 1.500843975489049 50.035453297857096
decision_type=2 2 2 2 2 2 2 2
left_child=1 2 -1 4 -3 -5 -4 -2
right_child=7 3 6 5 -6 -7 -8 -9
leaf_value=0.0088453275158625663 -0.0067327001392437791 0 -0.016264742063157145 0.0082594575089689707 0.010897604965531042 -0.0028107800802365866 -0.00074422875174462368 -0.023186621722973925
leaf_weight=35.346502125263214 11.177575828507541 45.843770004808903 36.48463087528944 29.020166210830212 151.80522823240608 96.065249344334006 24.470857527107 58.135611744597554
leaf_count=236 409 206 354 135 1265 921 132 3934
internal_value=-0.000428444 0.00300887 -0.00319578 0.00500193 0.00824316 0 -0.0109254 -0.0213799
internal_weight=488.35 419.036 96.302 322.734 197.649 125.085 60.9555 69.3132
internal_count=7592 3249 722 2527 1471 1056 486 4343
is_linear=0
shrinkage=0.0258891


Tree=83
num_leaves=7
num_cat=0
split_feature=5 7 1 16 10 16
split_gain=72.7959 12.5136 7.21287 6.45914 2.41134 1.39704
threshold=41.128670015854887 0.0090410223596354023 0.997577820720568 1.5917492266156823 -0.0027911104434499841 1.69620147345547
decision_type=2 2 2 2 2 2
left_child=1 -1 3 -3 -4 -2
right_child=5 2 4 -5 -6 -7
leaf_value=0.022785061694512245 -0.023221020049325476 0.0057670880944318105 0 -0.0056238422130023193 -0.011471964700056583 0
leaf_weight=23.435133030638099 72.88579470384866 333.25255239754915 10.098201155662535 31.809105761349201 24.423888331279159 3.432492669671773
leaf_count=192 4653 1924 165 172 464 137
internal_value=0.000439803 0.00474633 0.00348406 0.00463343 -0.00710288 -0.0224393
internal_weight=499.337 423.019 399.584 365.062 34.5221 76.3183
internal_count=7707 2917 2725 2096 629 4790
is_linear=0
shrinkage=0.0258891


Tree=84
num_leaves=9
num_cat=0
split_feature=1 16 11 15 15 15 11 1
split_gain=51.0437 9.1389 11.6331 6.52673 6.26954 4.79533 3.18351 0.388999
threshold=0.99905681595913565 1.255000419430522 0.54183199964629325 0.99260907453488734 0.92919953706670022 0.96384625067795782 2.0154829903264102 1.0021489584464194
decision_type=2 2 2 2 2 2 2 2
left_child=1 2 5 -4 -3 -1 -6 -2
right_child=7 4 3 -5 6 -7 -8 -9
leaf_value=0.0043556877145783492 -0.011094412283856622 0.0068782147109075157 0.0025045138459048066 0.011918527905140686 -0.0091553346815319795 -0.010005577924038387 0.00013715583001509983 -0.023686393790290961
leaf_weight=19.21207869797945 24.023804967291653 28.031971520744264 102.66321128327399 130.50845841411501 69.048663511872292 38.226135309785604 24.235131502151489 48.374881009571254
leaf_count=263 1017 164 692 909 513 634 134 3375
internal_value=-0.000611428 0.00284427 0.00537965 0.00800918 -0.00286515 -0.00447931 -0.00632503 -0.0204598
internal_weight=484.324 411.926 290.61 233.172 121.316 57.4382 93.2838 72.3987
internal_count=7701 3309 2498 1601 811 897 647 4392
is_linear=0
shrinkage=0.0258891


Tree=85
num_leaves=7
num_cat=0
split_feature=8 1 1 17 2 2
split_gain=120.868 23.023 14.2583 8.82427 6.66032 1.75273
threshold=0.20058274972011378 0.99473099000387644 0.98907799579023192 -1.140182850050844 0.95156299869397831 0.97231619904097399
decision_type=2 2 2 2 2 2
left_child=1 3 5 -1 -5 -2
right_child=2 -3 -4 4 -6 -7
leaf_value=-0.002763934839948618 0.0012118089961719951 0.024375477410479247 -0.021511884876534056 0.018893489906824861 0.0057306664463931426 -0.0078683736556285216
leaf_weight=54.025753818452358 19.655835956335068 57.079817607998848 131.73868638649583 35.598476655781269 167.53677129000425 21.612235316075385
leaf_count=282 234 271 5771 161 755 240
internal_value=0 0.00949355 -0.0173365 0.0058781 0.00839323 -0.00265883
internal_weight=487.248 314.241 173.007 257.161 203.135 41.2681
internal_count=7714 1469 6245 1198 916 474
is_linear=0
shrinkage=0.0258891


Tree=86
num_leaves=8
num_cat=0
split_feature=4 7 17 11 4 11 16
split_gain=34.1668 8.48484 7.10913 7.51145 5.48932 1.30629 1.12101
threshold=12.413324148467902 0.0082158326898855143 0.10564953964028471 0.43205878298245498 -108.46119345268582 2.4856464024421112 0.61889312595377699
decision_type=2 2 2 2 2 2 2
left_child=1 -1 3 -3 -4 6 -2
right_child=5 2 4 -5 -6 -7 -8
leaf_value=0.019961503082224035 -0.00085287356720154797 -0.0078697914873874196 0.0027814928421488619 0.0055974608225777128 -0.008393210376764243 0 -0.020821612844868217
leaf_weight=17.896851371973753 7.003086792305111 26.766094198450446 45.477885591797531 276.23524850420654 62.356176201254129 5.0830729054287067 45.703229955397546
leaf_count=255 344 473 349 2055 1113 228 2831
internal_value=0.000432265 0.00305994 0.00213565 0.00422605 -0.00331395 -0.0178424 -0.0190822
internal_weight=486.522 428.732 410.835 303.001 107.834 57.7894 52.7063
internal_count=7648 4245 3990 2528 1462 3403 3175
is_linear=0
shrinkage=0.0258891


Tree=87
num_leaves=7
num_cat=0
split_feature=5 1 18 9 18 3
split_gain=58.4851 13.5623 7.02505 8.22119 6.32623 1.02761
threshold=48.941717317055712 1.000219516736373 -0.72566501885767765 28.960198567930085 -0.080942135926281883 38.633158177305098
decision_type=2 2 2 2 2 2
left_child=1 2 3 -1 -4 -3
right_child=-2 5 4 -5 -6 -7
leaf_value=0.0099453274238487793 -0.024805341083717139 0 0.011877605747261792 -0.0059618607490531973 0.0032709541174569521 -0.019095565685977284
leaf_weight=27.381318899802864 55.953363232314587 5.3332260362803963 93.872634941712022 77.083495855331421 204.02376270294189 16.262571890838444
leaf_count=216 4218 80 634 520 1382 696
internal_value=-0.000270203 0.00295515 0.00413853 -0.00128604 0.00618259 -0.0158722
internal_weight=479.91 423.957 402.361 104.465 297.896 21.5958
internal_count=7746 3528 2752 736 2016 776
is_linear=0
shrinkage=0.0258891


Tree=88
num_leaves=10
num_cat=0
split_feature=5 3 12 3 5 5 5 13 3
split_gain=55.2535 8.11541 8.99016 6.42182 11.6132 5.49969 4.79004 2.96234 1.52017
threshold=43.537074577977251 29.941824603014727 -0.60355339059327362 25.222015844525469 18.222269240125943 10.937274182900543 26.374004178441172 -0.9159756150367534 36.951788847640529
decision_type=2 2 2 2 2 2 2 2 2
left_child=1 3 6 5 -5 -1 -3 -4 -2
right_child=8 2 7 4 -6 -7 -8 -9 -10
leaf_value=0.0095132240305340742 0 0.011465025012596464 -0.0099227226796639711 0.0019409120593589554 0.02390136834154569 -0.0023502702081599938 -0.00039463472093139048 -0.00095362618921786572 -0.023203436780079335
leaf_weight=42.986681595444679 4.8086764179170123 55.823133418336511 34.119570304639637 37.412654630839825 35.645146377384663 52.608506239950657 26.439792888239026 129.14624884817749 60.249191358685493
leaf_count=190 104 298 300 164 193 262 350 1287 4542
internal_value=-7.14059e-05 0.00334867 0.000151511 0.00769757 0.0135496 0.00261274 0.00720657 -0.00317831 -0.0220093
internal_weight=479.24 414.182 245.529 168.653 73.0578 95.5952 82.2629 163.266 65.0579
internal_count=7690 3044 2235 809 357 452 648 1587 4646
is_linear=0
shrinkage=0.0258891


Tree=89
num_leaves=10
num_cat=0
split_feature=3 11 3 12 1 15 9 1 15
split_gain=47.2957 9.93693 9.26103 6.31577 5.97117 5.84098 5.47647 1.89273 1.5534
threshold=48.108304441142458 0.79794026248380245 36.951788847640529 -0.60355339059327362 0.97137183682385431 0.95137628862300772 27.826733060909877 0.99346136695704912 1.0720248846370062
decision_type=2 2 2 2 2 2 2 2 2
left_child=1 2 5 6 -5 -1 -3 -2 -4
right_child=7 3 8 4 -6 -7 -8 -9 -10
leaf_value=0.011381863829905199 0 0.019407639874363412 -0.014109407319141643 0.013200127231634969 0 -0.0018828369439203864 0.0055477183041732978 -0.022703074041789933 -0.00041436106063318519
leaf_weight=29.443273132666945 4.3683717455714932 34.369788174517453 37.578657719306648 25.581232432276011 144.7437633657828 64.603020373731852 76.246631960384548 56.117985288612545 14.617101993411778
leaf_count=183 141 200 713 123 942 505 464 4181 282
internal_value=-0.000255547 0.0027158 -0.00253531 0.00560213 0.00210614 0.00194858 0.0104796 -0.0214216 -0.011221
internal_weight=487.67 427.183 146.242 280.941 170.325 94.0463 110.616 60.4864 52.1958
internal_count=7734 3412 1683 1729 1065 688 664 4322 995
is_linear=0
shrinkage=0.0258891


Tree=90
num_leaves=9
num_cat=0
split_feature=1 17 4 15 15 4 15 15
split_gain=37.6514 9.14202 10.2484 13.6164 8.13137 5.62574 3.2637 1.00279
threshold=0.9995898048240156 -1.3954324727807565 -146.59090059376686 0.9684242592830693 1.0346180378174268 -149.22965541122505 0.95746297908904876 1.3154795799623253
decision_type=2 2 2 2 2 2 2 2
left_child=1 6 3 -3 -4 -2 -1 -7
right_child=5 2 4 -5 -6 7 -8 -9
leaf_value=0 0 0.020591701123827216 -0.0022457514101990122 0.0020017609935242143 0.0074193726486900318 -0.021982426493936544 -0.013026880344796979 0
leaf_weight=17.861800268292427 5.5986466752365223 50.923707084730268 154.5926237469539 65.714816063642502 88.531541905365884 52.472978756763041 26.841953630559146 2.3011855287477365
leaf_count=131 96 247 1466 364 905 3929 289 169
internal_value=0 0.00292154 0.00437724 0.0106724 0.00112393 -0.0187164 -0.00757657 -0.0212526
internal_weight=464.839 404.466 359.763 116.639 243.124 60.3728 44.7038 54.7742
internal_count=7596 3402 2982 611 2371 4194 420 4098
is_linear=0
shrinkage=0.0258891


Tree=91
num_leaves=6
num_cat=0
split_feature=5 17 1 7 0
split_gain=50.8761 8.6762 13.1796 8.94783 1.33425
threshold=49.350307126063306 -1.4517549691655882 0.97456961116919949 0.023189486039494264 0.99592759567220246
decision_type=2 2 2 2 2
left_child=1 -1 -3 -4 -2
right_child=4 2 3 -5 -6
leaf_value=-0.0066974530950425701 0 0.017757550096480203 0.0070339150827968006 -0.0013611499055411651 -0.024452984676732403
leaf_weight=44.80444008205086 2.052911194972693 45.924309961497784 165.44770980533212 158.18144928012043 48.41332074534148
leaf_count=332 72 220 1526 1343 4044
internal_value=0.000371095 0.00348422 0.00486203 0.0028116 -0.0236078
internal_weight=464.824 414.358 369.553 323.629 50.4662
internal_count=7537 3421 3089 2869 4116
is_linear=0
shrinkage=0.0258891


Tree=92
num_leaves=13
num_cat=0
split_feature=11 18 18 18 11 18 17 18 9 18 11 17
split_gain=12.4224 4.46965 7.38624 9.1847 6.93568 6.02145 5.54161 3.47857 2.00897 1.42533 0.498394 1.59766
threshold=0.54592126275949604 0.65946700987749585 0.27928117061049923 -0.080942135926281883 1.1252270234125514 1.2315544964560947 1.0000000180025095e-35 1.0439125716244104 27.974159892276599 1.3158081607235061 0.31215089406549079 -0.062507298928713387
decision_type=2 2 2 2 2 2 2 2 2 2 2 2
left_child=7 2 3 -2 -4 8 -7 10 -3 -9 -1 -12
right_child=1 5 4 -5 -6 6 -8 9 -10 -11 11 -13
leaf_value=-0.016673278192998429 0.0042754046811325488 -0.01265437270353546 0.021409852457784134 -0.0080754877669493418 0.0020183772398017241 0.01709578073550631 -0.0043687408436297471 0.012041728028971065 -0.0020981060677663244 -0.0014772298558975354 -0.0019789544854154225 -0.012382638393875761
leaf_weight=18.458939265459776 188.76375789474696 23.668419133871794 27.240471897646785 47.987468844279647 32.161777507513762 15.639382829889657 9.2930706199258548 5.2099613985046727 51.435963197611272 5.3880892777815461 36.25312286708504 26.294511096552014
leaf_count=595 2288 394 396 624 351 205 285 169 675 205 798 784
internal_value=0.000116978 0.00219757 0.00384645 0.00154796 0.0119852 -0.0022378 0.00770374 -0.00828604 -0.00620631 0.00241635 -0.0102344 -0.00725039
internal_weight=487.795 396.19 296.153 236.751 59.4022 100.037 24.9325 91.6046 75.1044 10.5981 81.0066 62.5476
internal_count=7769 5218 3659 2912 747 1559 490 2551 1069 374 2177 1582
is_linear=0
shrinkage=0.0258891


Tree=93
num_leaves=10
