tree
version=v4
num_class=1
num_tree_per_iteration=1
label_index=0
max_feature_idx=18
objective=binary sigmoid:1
feature_names=ma_10_ratio ma_30_ratio ma_200_ratio rsi_14 macd_hist stoch_k atr_14_pct bb_width bb_position adx_14 return_1 volume_ratio hour_sin hour_cos rsi_14_1d ma_50_1d_ratio vol_ratio_7_30 return_skew_20 funding_rate_zscore
feature_infos=[0.9282785459340519:1.0532712898913146] [0.87875853586900654:1.0844139724007646] [0.7795100955013029:1.1856964932129814] [3.3524097260552992:98.295538757966085] [-813.21435290308398:685.55567133504405] [0:100] [0.0012677903833889944:0.038271628713109629] [0.0029093838210345856:0.22734246689125856] [-0.45748141882759219:1.4629881476153488] [7.061020277189626:98.937580500733787] [-0.045467330160103847:0.043012005358925576] [0.077393029546948669:8.7551525217756545] [-1:1] [-1:1] [15.194615971692215:90.923160103372496] [0.79347929821036078:1.4331232090152759] [0.32273547794692892:2.4414265391868195] [-3.2354497637095099:3.6942382303447672] [-13.784237675151498:13.179176523500747]
tree_sizes=1087 1318 1426 1215 1215 1410 1626 1419 1322 1210 1215 1215 1118 1319 1426 1325 1322 1210 1100 1301 1111 1318 1441 1323 1109 1111 1220 1090 1214 1221 1114 1421 1224 1005 1322 1224 693 798 1103 1439 798 1325 1112 1115 1008 1107 1017 1412 800 1007 1086 1114 1429 1118 1082 1543 1115 1301 1323 1087 1049 1332 1012 1013 1010 1221 899 1325 900 691 1330 1016 1100 1092 778 1223 1327 1537 1012

Tree=0
num_leaves=9
num_cat=0
split_feature=6 14 14 17 17 14 17 1
split_gain=66.4978 35.421 35.2429 28.8186 14.0871 11.9101 6.52514 7.48758
threshold=0.0084552143045779644 80.379420163515348 55.368106479266224 0.42311644296572226 -1.0683639302025263 65.251884606708202 0.89981976221816884 0.98686860462016868
decision_type=2 2 2 2 2 2 2 2
left_child=1 2 3 -1 -2 -4 7 -6
right_child=4 -3 5 -5 6 -7 -8 -9
leaf_value=-0.49028198905523995 -0.50472068207431831 -0.47737048013648165 -0.51852148830774847 -0.50829912895309026 -0.51259057506789452 -0.50591062687370492 -0.51029739228673543 -0.52607578250083642
leaf_weight=223.14907577633858 61.712099820375443 51.622288823127747 109.81468713283539 118.26197075843811 60.773512750864029 156.97868737578392 58.192398309707642 155.80545353889465
leaf_count=951 263 220 468 504 259 669 248 664
internal_value=-0.506346 -0.500857 -0.502972 -0.496593 -0.517173 -0.511031 -0.520072 -0.522508
internal_weight=996.31 659.827 608.204 341.411 336.483 266.793 274.771 216.579
internal_count=4246 2812 2592 1455 1434 1137 1171 923
is_linear=0
shrinkage=1


Tree=1
num_leaves=11
num_cat=0
split_feature=7 2 7 3 4 18 7 4 17 3
split_gain=45.1714 31.5834 23.025 20.5041 17.9984 14.267 13.5892 11.378 5.88355 3.58277
threshold=0.018880706395334113 0.98989728497206952 0.05456145177801159 45.036980827480654 -17.598675468149391 -0.50522411048975435 0.037271614058527303 26.170083530518827 -0.16249015574821604 32.884366844248447
decision_type=2 2 2 2 2 2 2 2 2 2
left_child=4 2 6 9 8 -5 -2 -6 -1 -3
right_child=1 3 -4 5 7 -7 -8 -9 -10 -11
leaf_value=0.0099387390376879658 0.0037436901709858375 0.0081157969236292076 -0.0098074612349144108 -0.023967221450117815 0.024974623050966639 -0.0087417336778338843 0.020737264784377738 0.0076035126485900746 -0.0030217372757353946 -0.0022696644230151566
leaf_weight=48.674099624156952 135.85999850928783 47.198360621929169 73.5702273696661 78.026338368654251 82.979970470070839 235.07553322613239 64.465675592422485 70.22486387193203 77.258180901408195 68.248565778136253
leaf_count=207 579 201 314 333 353 1003 275 299 329 291
internal_value=0.0003338 -0.00368262 0.004166 -0.00876669 0.0105126 -0.0127376 0.00948687 0.0173735 0.00181102 0.00176907
internal_weight=981.582 702.445 273.896 428.549 279.137 313.102 200.326 153.205 125.932 115.447
internal_count=4184 2996 1168 1828 1188 1336 854 652 536 492
is_linear=0
shrinkage=0.0299311


Tree=2
num_leaves=12
num_cat=0
split_feature=6 11 2 1 14 6 17 6 11 2 1
split_gain=55.1953 33.4571 25.6385 20.5536 20.3705 14.0943 14.8125 12.4166 11.8668 13.5885 10.5493
threshold=0.0087543457011044351 0.63865018914217198 0.997034752850112 1.0080195751254009 55.177691937940011 0.012434626192471326 -0.29439479704599086 0.0099105497385289839 0.29508318566434827 1.0157846441659333 1.0130920740563549
decision_type=2 2 2 2 2 2 2 2 2 2 2
left_child=1 8 5 4 -3 6 -2 -4 -1 -10 -5
right_child=2 3 7 10 -6 -7 -8 -9 9 -11 -12
leaf_value=-0.016504020397715143 0.013688522464703411 0.021243678518791591 -0.0075302192812492534 -0.0112875600944455 0.0053691092811093541 -0.014396831249250957 -0.007867979536417935 -0.027006291973036462 0.0062422749527684986 -0.0084883824733688589 0.0065597510600761246
leaf_weight=49.303016752004623 60.301579311490059 163.05793046951294 54.131239518523216 47.854610592126846 143.12762811779976 56.366928353905678 49.837873756885529 86.560172513127327 121.37718853354454 101.14067371189594 71.884039089083672
leaf_count=210 257 692 232 204 609 241 213 371 516 431 307
internal_value=0 0.00465324 -0.0105395 0.00989356 0.0139901 -0.00233245 0.00368831 -0.0198997 -0.00345624 -0.000329913 -0.000377068
internal_weight=1004.94 697.745 307.198 425.924 306.186 166.506 110.139 140.691 271.821 222.518 119.739
internal_count=4283 2969 1314 1812 1301 711 470 603 1157 947 511
is_linear=0
shrinkage=0.0299311


Tree=3
num_leaves=10
num_cat=0
split_feature=6 11 1 9 3 14 1 18 18
split_gain=60.6124 36.1005 30.9836 21.9552 15.2248 10.2421 9.56726 5.7454 4.4877
threshold=0.0089537250682589255 0.37412453086969527 1.0076773135773813 35.277311902875475 34.762784812416264 57.697813794040762 1.0103159225397962 0.55139672721541655 0.09871426100882201
decision_type=2 2 2 2 2 2 2 2 2
left_child=1 8 3 -3 -2 6 -6 -4 -1
right_child=4 2 7 -5 5 -7 -8 -9 -10
leaf_value=-0.0042161342844424902 0.001741233736132572 0.0062577156105060663 0.00068031298013276258 0.020064325104270114 -0.015155722992491434 -0.023673064066552951 0.00054763115189940628 -0.010759179164541121 -0.018071887134908437
leaf_weight=50.862118765711784 58.519555643200874 269.4857192337513 106.07492054998875 178.34554345905781 91.996953949332237 80.335583999752998 49.310106918215752 56.936176046729088 48.248775243759155
leaf_count=217 250 1143 453 756 394 346 212 243 206
internal_value=0.000373874 0.00505566 0.00780666 0.0118769 -0.0113423 -0.0149211 -0.00951835 -0.00319658 -0.011448
internal_weight=990.115 709.953 610.842 447.831 280.162 221.643 141.307 163.011 99.1109
internal_count=4220 3018 2595 1899 1202 952 606 696 423
is_linear=0
shrinkage=0.0299311


Tree=4
num_leaves=10
num_cat=0
split_feature=7 3 16 7 14 3 14 7 13
split_gain=46.6073 33.979 32.2642 16.0153 12.214 11.1809 10.6717 9.35552 4.13265
threshold=0.020743338164762651 39.896404618342764 0.67128149707736406 0.060776487337596677 60.418037096316567 45.207244454123085 58.677090451298064 0.046166692549950303 0.60355339059327384
decision_type=2 2 2 2 2 2 2 2 2
left_child=2 6 -1 4 -3 -4 7 -2 -7
right_child=1 3 5 -5 -6 8 -8 -9 -10
leaf_value=-0.0087253826155910211 0.016551438171452749 -0.0020009937779302423 0.0043387223311844624 -0.022322831409476458 -0.013159949534530124 0.02126842883576387 -0.0048084247388363501 0.00049677137465856472 0.0099938078243323476
leaf_weight=66.917531996965408 86.486547455191612 249.8291652649641 84.158295914530754 65.53630043566227 141.86181417107582 132.50107368826866 53.519437745213509 58.111171886324883 59.190432354807854
leaf_count=284 366 1068 356 283 609 561 228 248 251
internal_value=0.000536365 -0.00410742 0.00948108 -0.00861266 -0.00615802 0.0140332 0.0061225 0.0103858 0.0180588
internal_weight=998.112 655.344 342.767 457.227 391.691 275.85 198.117 144.598 191.692
internal_count=4254 2802 1452 1960 1677 1168 842 614 812
is_linear=0
shrinkage=0.0299311


Tree=5
num_leaves=12
num_cat=0
split_feature=7 16 2 16 17 17 17 11 5 2 11
split_gain=46.6844 37.8538 37.3313 17.7469 17.5474 16.6973 12.1143 9.69494 8.76593 8.96947 2.95858
threshold=0.020586262307202081 0.9119878706403014 1.0239750454166991 0.77067397669886206 1.2414371946755802 -0.79755108084817283 -0.42055674788154312 0.65664217793871138 55.44860250846002 1.0124258907326984 0.96821021833125143
decision_type=2 2 2 2 2 2 2 2 2 2 2
left_child=1 8 3 -2 7 -5 -3 -4 9 -1 -8
right_child=2 6 4 5 -6 -7 10 -9 -10 -11 -12
leaf_value=0.0032681359755677968 -0.010721049821450584 0.033531938580142306 -0.026985402757966577 0.013390154042538146 0 -0.00041533765356621232 0.0069519562514367157 -0.011100301202456735 0.0075931840113400081 -0.014231849463844213 0.019078120759308759
leaf_weight=47.119461998343468 91.55355304479599 47.967923447489738 78.220856443047523 112.15677899122238 54.558123350143433 239.88842545449734 46.618249446153641 84.044140070676804 80.675253674387932 50.853413417935371 53.79664058983326
leaf_count=199 391 202 338 476 235 1025 197 362 341 216 227
internal_value=0.000442158 0.00969086 -0.00410408 0.00081567 -0.0142403 0.00393793 0.0207789 -0.0191365 0.000207138 -0.00559275 0.013949
internal_weight=987.453 327.031 660.422 443.599 216.823 352.045 148.383 162.265 178.648 97.9729 100.415
internal_count=4209 1382 2827 1892 935 1501 626 700 756 415 424
is_linear=0
shrinkage=0.0299311


Tree=6
num_leaves=14
num_cat=0
split_feature=1 14 15 3 18 17 1 18 14 14 18 17 10
split_gain=23.789 15.5918 26.4652 30.709 12.2301 17.373 11.0532 9.99274 7.08754 5.23315 4.06792 2.15254 2.01679
threshold=1.0064276233583735 55.177691937940011 1.002956708410097 39.896404618342764 -0.094035853643430492 1.0056649949786618 1.0000435459517791 -0.41989935886433416 75.794539639606583 60.153575951450442 0.22668575478007974 0.76281664378554903 0.0021196105446406048
decision_type=2 2 2 2 2 2 2 2 2 2 2 2 2
left_child=1 2 3 -1 9 12 8 -4 -3 11 -8 -2 -6
right_child=4 6 7 -5 5 -7 10 -9 -10 -11 -12 -13 -14
leaf_value=0.012806639026303853 0.0078996456655967603 -0.0027993931520129424 0.027044715867785674 -0.0085675045683318313 -0.02178859058855236 0.0024586329021432434 0 0.01001268853242775 -0.016568869518487163 -0.0084594727548372717 0.011937631961818185 -0.00042185070640351216 -0.011472071142875653
leaf_weight=105.29939639568329 50.409589186310768 140.07891070842743 55.810644701123238 135.72484634816647 73.424732282757759 49.236707225441933 53.023832589387894 94.112897112965584 46.45627361536026 45.335282564163208 46.854694619774818 45.855397313833237 53.756396487355232
leaf_count=445 216 596 237 576 317 212 226 398 198 196 199 197 231
internal_value=-6.51091e-05 0.00307367 0.00696752 0.000667845 -0.00682774 -0.0120511 -0.00214458 0.0167774 -0.00650491 -4.35595e-05 0.00567147 0.00368252 -0.0178657
internal_weight=995.38 677.361 390.948 241.024 318.018 176.418 286.414 149.924 186.535 141.6 99.8785 96.265 127.181
internal_count=4244 2875 1656 1021 1369 760 1219 635 794 609 425 413 548
is_linear=0
shrinkage=0.0299311


Tree=7
num_leaves=12
num_cat=0
split_feature=6 1 17 9 9 17 7 10 6 17 17
split_gain=49.6772 26.23 14.9399 13.4113 10.0933 10.0702 7.70836 6.71584 6.63414 6.28591 5.19322
threshold=0.0079531797757643446 1.0062587403445356 -0.88205195878447706 40.474177385518736 49.69182544629642 0.96413286519947272 0.027038030420790189 -0.00072956632584908465 0.010268706077564381 0.094113112013845743 -0.79755108084817283
decision_type=2 2 2 2 2 2 2 2 2 2 2
left_child=1 3 8 10 9 6 -4 -5 -2 -3 -1
right_child=2 4 5 7 -6 -7 -8 -9 -10 -11 -12
leaf_value=0.014546949321649776 0.010006760079827617 -0.0083166594888606331 -0.0023601549890883817 0.0091488117267866584 -0.015642060283408043 0 -0.01609350647774084 0.026005119708410025 -0.0052947683971468762 0.0052899233816383123 0.0042160139716154081
leaf_weight=57.177982971072197 48.846159622073174 45.833960950374603 51.592305853962898 48.182669967412949 46.991046383976936 64.623345628380775 210.01443217694759 58.14525343477726 47.157744437456131 82.394085019826889 252.25558546185493
leaf_count=241 207 196 221 203 202 279 907 245 201 353 1066
internal_value=-2.02773e-05 0.00554561 -0.00787405 0.0096498 -0.00401922 -0.0109324 -0.0135326 0.0189032 0.0022146 0.000147671 0.00628947
internal_weight=1013.21 590.981 422.234 415.761 175.219 326.23 261.607 106.328 96.0039 128.228 309.434
internal_count=4321 2506 1815 1755 751 1407 1128 448 408 549 1307
is_linear=0
shrinkage=0.0299311


Tree=8
num_leaves=11
num_cat=0
split_feature=11 7 2 16 7 16 4 13 12 11
split_gain=29.5592 26.6848 24.5711 20.16 13.175 8.0296 8.02619 6.49153 5.52459 5.056
threshold=0.40147072970777303 0.020431208447164721 1.0239750454166991 0.94759804100190226 0.05456145177801159 0.6963306456215822 -15.47229575354636 0.60355339059327384 -0.70710678118654735 1.2684324686047772
decision_type=2 2 2 2 2 2 2 2 2 2
left_child=5 3 4 6 -3 -1 -2 -7 -4 -5
right_child=1 2 8 9 -6 7 -8 -9 -10 -11
leaf_value=-0.019917623951452246 -0.0046782519279327545 0.0060630896706191277 -0.018688140219965874 0.023787710469388608 -0.0076929064149861663 0.0015827855979327148 0.0086671557451966572 -0.012025011017985896 -0.0065385943466213028 0.0099617173904499104
leaf_weight=61.133167877793312 73.229018598794937 279.44544470310211 54.186970949172974 75.284884542226791 77.060566738247871 51.050180196762085 82.586882874369621 66.663896888494492 127.65825256705284 54.175458580255508
leaf_count=263 310 1187 235 316 331 219 347 287 553 227
internal_value=-1.22915e-05 0.00235689 -0.00151897 0.00974473 0.00298284 -0.011015 0.00221758 -0.00592649 -0.0104594 0.0184309
internal_weight=1002.47 823.627 538.351 285.276 356.506 178.847 155.816 117.714 181.845 129.46
internal_count=4275 3506 2306 1200 1518 769 657 506 788 543
is_linear=0
shrinkage=0.0299311


Tree=9
num_leaves=10
num_cat=0
split_feature=16 1 9 15 15 1 15 4 15
split_gain=30.1197 22.3509 17.2699 23.5879 12.9762 12.7654 9.67985 5.76186 4.26493
threshold=0.689593545604822 1.0073636714073004 35.598013383245018 1.0107659076171569 0.99538588521855276 0.97653408223693894 1.002956708410097 -14.605721384264426 1.1782988958181748
decision_type=2 2 2 2 2 2 2 2 2
left_child=6 2 3 -2 -3 -4 -1 -8 -6
right_child=1 4 5 -5 8 -7 7 -9 -10
leaf_value=-0.022626932869541261 -0.010473928237341298 0.0049415046423391326 -0.0022266259771402766 0.0069395404270516364 -0.012587381950139004 0.014467794348008994 -0.013124083748045995 0.0008175449792235934 -0.0024166936421844837
leaf_weight=52.429154947400093 105.45846499502659 80.979947596788406 46.463304474949837 196.65226106345654 118.65654964745045 213.1371917873621 48.616715118288994 47.933887034654617 66.643634825944901
leaf_count=224 446 348 198 833 513 901 209 205 291
internal_value=5.08838e-05 0.00231729 0.00572284 0.000736772 -0.00474365 0.0113676 -0.0122311 -0.00599262 -0.00914594
internal_weight=976.971 827.991 561.711 302.111 266.28 259.6 148.98 96.5506 185.3
internal_count=4168 3530 2378 1279 1152 1099 638 414 804
is_linear=0
shrinkage=0.0299311


Tree=10
num_leaves=10
num_cat=0
split_feature=6 16 1 9 14 14 17 0 9
split_gain=44.9759 28.2544 21.4434 26.4224 12.5225 10.8517 17.081 8.9126 5.02046
threshold=0.0097207225449333894 0.67604614585710276 1.0068872492209036 36.08552769998041 68.763209664380824 60.418037096316567 -0.41076149604312934 1.0015567852227085 29.263837652896637
decision_type=2 2 2 2 2 2 2 2 2
left_child=1 8 3 -3 -4 6 -2 -8 -1
right_child=5 2 4 -5 -6 -7 7 -9 -10
leaf_value=-0.0024160259324166526 0.0030389298295482917 0.0031328344239760671 -0.0068299091355947935 0.018228232448634175 0.010745116474310468 -0.023028182374107118 -0.025589053163527588 -0.0055972085195717166 -0.015658291311191834
leaf_weight=52.309126898646355 69.933624014258385 267.99036787450314 150.1335346698761 175.6122175604105 45.288791447877884 61.549405425786972 45.305303186178207 45.204075381159782 66.259125903248787
leaf_count=224 299 1130 646 736 196 271 196 196 284
internal_value=-0.000388709 0.0030547 0.00557815 0.00922226 -0.00254663 -0.0122133 -0.00768601 -0.0162117 -0.0101824
internal_weight=979.586 757.593 639.025 443.603 195.422 221.992 160.443 90.5094 118.568
internal_count=4178 3216 2708 1866 842 962 691 392 508
is_linear=0
shrinkage=0.0299311


Tree=11
num_leaves=10
num_cat=0
split_feature=6 16 16 14 18 14 9 16 11
split_gain=50.1453 31.7707 21.3124 17.799 15.8791 19.8116 15.6949 13.9635 5.91975
threshold=0.0085628486066552222 1.3897565071689639 0.59362599171415675 73.275869998451967 -0.40850362590767425 55.616512366037419 47.246474910860748 1.1089540226302692 0.76131539903953416
decision_type=2 2 2 2 2 2 2 2 2
left_child=1 2 -1 -4 5 7 8 -2 -6
right_child=4 -3 3 -5 6 -7 -8 -9 -10
leaf_value=-0.013047604069264288 0.016576441358303433 0.026381905073890981 0.0024769559282272775 0.018186635966765789 -0.028392123765132986 -0.017220885933554808 -0.0024308160088326899 -0.0055202843121658603 -0.0129562650311513
leaf_weight=65.696433007717133 50.48856920003891 54.580305710434914 475.3485022187233 74.855315625667572 63.493142351508141 48.847846940159798 61.852607905864716 46.418422475457191 56.991772681474686
leaf_count=282 217 230 2011 317 277 213 268 199 247
internal_value=5.18593e-05 0.00477231 0.00274321 0.00471705 -0.00947793 -0.00183583 -0.0153502 0.00576572 -0.0216113
internal_weight=998.573 670.481 615.9 550.204 328.092 145.755 182.338 96.907 120.485
internal_count=4261 2840 2610 2328 1421 629 792 416 524
is_linear=0
shrinkage=0.0299311


Tree=12
num_leaves=9
num_cat=0
split_feature=7 17 17 1 18 7 11 17
split_gain=30.0663 21.8647 19.6429 14.147 10.8115 9.32125 8.84645 4.6263
threshold=0.019970325866995965 -1.5685925544130408 -0.40111627391776589 0.98964628841872371 -1.3404824505993804 0.052471444159461075 1.0139589893950747 0.50522410182973465
decision_type=2 2 2 2 2 2 2 2
left_child=2 -2 -1 5 -5 -3 7 -4
right_child=1 3 6 4 -6 -7 -8 -9
leaf_value=0.018995120292801621 0.01493496110298965 0.0076619511126869971 0.0013422878450921232 0.0048747629352664038 -0.0097707345767838374 -0.0079809298964100325 0.010091017773415607 -0.0097772642172320821
leaf_weight=87.543383568525314 47.417740568518639 98.119567230343819 100.25295805931091 46.598865762352943 424.10014729201794 49.004016801714897 81.148954495787621 46.163416549563408
leaf_count=366 200 414 422 200 1836 211 340 196
internal_value=-0.000520369 -0.00415488 0.00703802 -0.00570481 -0.00824431 0.00221579 0.00220245 -0.00202619
internal_weight=980.349 665.24 315.109 617.823 470.699 147.124 227.565 146.416
internal_count=4185 2861 1324 2661 2036 625 958 618
is_linear=0
shrinkage=0.0299311


Tree=13
num_leaves=11
num_cat=0
split_feature=1 16 2 14 14 2 14 14 12 8
split_gain=22.445 28.6064 23.4268 17.9759 16.157 13.3617 11.7212 10.0536 9.66612 6.52292
threshold=1.0064276233583735 0.9268880806354749 0.99177148382327007 60.038307068645302 72.315540640294941 0.95078072514908196 41.207875211837923 60.418037096316567 0.37940952255126054 0.44818450365427165
decision_type=2 2 2 2 2 2 2 2 2 2
left_child=1 3 -2 6 7 -3 -1 -4 -7 -5
right_child=2 5 4 9 -6 8 -8 -9 -10 -11
leaf_value=-0.0070984043806152598 0.01108383520570861 -0.0042963499839290802 -0.0084850525381428166 -0.01958086688130686 0.0031108112308090184 0.0086068454891307395 0.0077512207678627045 -0.023775616855441498 0.020990150243087341 -0.0035276507990392989
leaf_weight=69.340081512928009 59.157120943069458 46.952122807502747 131.80242928862572 54.986396625638008 64.700971320271492 220.80909450352192 136.95761047303677 62.609456539154053 86.088417813181877 48.354520410299301
leaf_count=295 255 201 571 235 284 931 579 274 361 206
internal_value=0.00100873 0.00416677 -0.00546688 -0.00239357 -0.0094084 0.00997806 0.00259651 -0.013722 0.0122721 -0.0125319
internal_weight=981.758 663.488 318.27 309.639 259.113 353.85 206.298 194.412 306.898 103.341
internal_count=4192 2808 1384 1315 1129 1493 874 845 1292 441
is_linear=0
shrinkage=0.0299311


Tree=14
num_leaves=12
num_cat=0
split_feature=7 3 11 1 4 7 4 7 12 8 4
split_gain=31.9058 16.0208 13.9305 11.6221 13.747 13.1349 11.4233 12.43 9.19104 6.72635 12.0483
threshold=0.020586262307202081 39.896404618342764 0.42578057367922001 1.0015151404582503 25.350760433291779 0.013847960440938287 107.8314918221476 0.058077748061191099 1.0000000180025095e-35 0.1246699611813674 -104.34797499851368
decision_type=2 2 2 2 2 2 2 2 2 2 2
left_child=2 9 -1 5 -5 -4 8 -8 -3 -2 -11
right_child=1 6 3 4 -6 -7 7 -9 -10 10 -12
leaf_value=-0.0055611513385645846 0.0099194232705483061 -0.015337268747761083 -0.0027522327684992281 0.026023728356707292 0.0053023367007782934 0.013839559782985818 0.0068772317811149394 -0.011876923475485959 -0.0047473223457197471 -0.012786828019884249 0.0064241727414752073
leaf_weight=56.5277269333601 81.264694452285767 148.27169965207577 90.112557902932167 69.49738085269928 57.092965558171272 75.239470943808556 91.186141565442085 46.268819838762283 170.46697914600372 46.719109952449799 71.251572027802467
leaf_count=241 342 643 377 291 239 314 394 204 740 200 301
internal_value=0.000243962 -0.0036137 0.00757009 0.0102335 0.0171028 0.00467584 -0.00672141 0.000279428 -0.00982195 0.00334672 -0.00099887
internal_weight=1003.9 655.429 348.47 291.942 126.59 165.352 456.194 137.455 318.739 199.235 117.971
internal_count=4286 2824 1462 1221 530 691 1981 598 1383 843 501
is_linear=0
shrinkage=0.0299311


Tree=15
num_leaves=11
num_cat=0
split_feature=7 3 16 14 7 3 17 14 14 14
split_gain=32.1946 28.4988 24.068 12.7479 19.2125 11.2787 11.676 9.5066 29.7775 20.7572
threshold=0.021441977917721688 39.709966995144974 0.66763932592321429 58.175775395498661 0.052471444159461075 40.525237889920199 -0.40111627391776589 60.418037096316567 72.315540640294941 54.301844152402857
decision_type=2 2 2 2 2 2 2 2 2 2
left_child=2 3 -1 4 -2 -4 -7 9 -9 -3
right_child=1 7 5 -5 -6 6 -8 8 -10 -11
leaf_value=-0.0082945605742921723 0.018760540236707122 -0.0089058394370055138 -0.0012040564017112279 -0.0061840269493038773 -0.0034766643561945938 0.025786559341530058 0.0096742680753419026 -0.029114805951104564 -0.0022285002409823309 0.010482429271001955
leaf_weight=67.783695548772812 88.431252539157867 228.54776079952717 49.679980918765068 55.841491267085075 52.68427512049675 57.868875071406364 178.59189490973949 66.313581436872482 87.399100959300995 60.290099710226059
leaf_count=290 369 987 207 238 225 240 748 292 385 262
internal_value=8.63667e-05 -0.00388869 0.00733977 0.00545975 0.0102995 0.0111756 0.0138953 -0.00812279 -0.0142081 -0.00471753
internal_weight=993.432 639.508 353.924 196.957 141.116 286.141 236.461 442.551 153.713 288.838
internal_count=4243 2758 1485 832 594 1195 988 1926 677 1249
is_linear=0
shrinkage=0.0299311


Tree=16
num_leaves=11
num_cat=0
split_feature=14 18 15 14 18 14 3 17 15 8
split_gain=27.7581 28.1888 30.9441 27.4977 24.0387 18.7462 13.4375 11.0427 5.43515 5.01968
threshold=60.038307068645302 1.315435233898278 0.93647780246672629 72.315540640294941 -0.29599658304517779 38.681207997623439 62.090743415940089 0.88666212116522525 1.3005279982754774 0.4719455119978595
decision_type=2 2 2 2 2 2 2 2 2 2
left_child=1 2 5 6 -5 -1 9 -4 -6 -2
right_child=3 -3 7 4 8 -7 -8 -9 -10 -11
leaf_value=0.00089120345318777542 -0.014340767864645549 -0.018487897458975909 0.010413141124298924 -0.014651951437975765 0.0032640283539223038 -0.023131706611347037 -0.027226381417916334 -0.0011101631720851716 0.017220925106434946 -0.0018918974403295125
leaf_weight=67.418660283088684 74.58857324719429 47.734552294015884 396.65063835680485 53.85470287501812 69.87542699277401 46.558070883154869 57.433211535215378 85.54405651986599 45.77785524725914 57.968918800354004
leaf_count=287 317 206 1677 233 299 198 253 369 200 249
internal_value=-0.000550589 0.00313486 0.00496298 -0.00722066 0.00138394 -0.00884528 -0.0150036 0.00830882 0.0092116 -0.00921361
internal_weight=1003.4 643.906 596.171 359.499 169.508 113.977 189.991 482.195 115.653 132.557
internal_count=4288 2737 2531 1551 732 485 819 2046 499 566
is_linear=0
shrinkage=0.0299311


Tree=17
num_leaves=10
num_cat=0
split_feature=2 15 14 9 14 14 1 14 17
split_gain=23.4822 25.5505 32.6489 25.0007 16.3046 14.6107 15.7172 11.9614 10.9736
threshold=1.01464095999518 0.93647780246672629 58.1337478191709 37.917046195903367 45.953633975745035 80.379420163515348 0.99655714377434224 69.77661983502226 1.4395301866276382
decision_type=2 2 2 2 2 2 2 2 2
left_child=1 3 4 -1 -3 6 -2 -4 -8
right_child=5 2 7 -5 -6 -7 8 -9 -10
leaf_value=-0.023619011722184328 0.0090879666266540163 0.0061791750130138438 -0.01127391742903597 0.0042959799121005627 0.019884639998347397 0.0077033266124957641 -0.011603727565763998 0.0072867396997456377 0.0032470590718589997
leaf_weight=46.836431130766869 46.69417804479599 159.29625655710697 79.99691715836525 66.290558412671089 172.6631150841713 75.992342472076416 253.48626914620399 46.900838747620583 49.605109229683876
leaf_count=200 199 673 341 282 727 328 1098 199 216
internal_value=0.00137629 0.00535402 0.0085216 -0.00716629 0.0134618 -0.00389588 -0.00652686 -0.00417078 -0.00906852
internal_weight=997.762 571.984 458.857 113.127 331.959 425.778 349.786 126.898 303.091
internal_count=4263 2422 1940 482 1400 1841 1513 540 1314
is_linear=0
shrinkage=0.0299311


Tree=18
num_leaves=9
num_cat=0
split_feature=6 16 16 18 14 17 18 14
split_gain=42.8143 36.3446 16.5847 14.5639 14.0491 8.78041 6.3108 11.5531
threshold=0.0087938316675306733 1.4096306188838177 0.84971988469643855 0.64003181174489931 73.275869998451967 -0.88205195878447706 -0.77491024223358984 48.718495763239687
decision_type=2 2 2 2 2 2 2 2
left_child=1 2 3 -1 -4 -2 -7 -8
right_child=5 -3 4 -5 -6 6 7 -9
leaf_value=0 -0.00069245565932829782 0.026013753551421732 0.0026929210310443876 -0.014873236766313646 0.019366898518837154 -0.0048017273849066512 -0.025882706046807029 -0.0087728187205073603
leaf_weight=196.37886765599251 71.952989682555199 55.700889378786087 303.20655137300491 81.330755591392517 53.378490775823593 69.383515760302544 68.874786168336868 92.085885345935822
leaf_count=837 307 233 1279 348 224 302 301 409
internal_value=-0.000914722 0.00316777 0.00105194 -0.00435774 0.005351 -0.0103006 -0.0131442 -0.0164682
internal_weight=992.293 689.996 634.295 277.71 356.585 302.297 230.344 160.961
internal_count=4240 2921 2688 1185 1503 1319 1012 710
is_linear=0
shrinkage=0.0299311


Tree=19
num_leaves=11
num_cat=0
split_feature=6 16 2 16 14 14 2 7 6 3
split_gain=39.7637 27.012 18.6738 17.9696 17.8251 12.9983 9.0809 6.6202 3.46544 2.45718
threshold=0.008036274129638624 1.3897565071689639 0.9966082504567616 0.5660129263878978 46.523839106211049 55.177691937940011 0.96508564314326561 0.039773251090992535 0.011783106812675822 68.964085775425119
decision_type=2 2 2 2 2 2 2 2 2 2
left_child=1 3 4 -1 8 -5 -6 -4 -2 -9
right_child=2 -3 7 5 6 -7 -8 9 -10 -11
leaf_value=-0.014111414557908916 -0.0041408044105255525 0.026244458241944393 -0.021034851211431727 0.0094324356222756332 -0.0011040810944075515 0 0.0162723867626271 -0.01296384921537759 -0.015797143680479589 -0.0023911619066603954
leaf_weight=47.557232111692429 66.526229530572891 47.946151003241539 79.622058153152466 258.16885378956795 46.978296428918839 254.02257540822029 52.7707150131464 51.503250256180763 45.747641906142235 46.092981949448586
leaf_count=205 285 199 348 1084 200 1080 226 228 200 206
internal_value=0.000170914 0.00498031 -0.00724892 0.00303354 -0.00107489 0.00472465 0.00790104 -0.0143875 -0.00931678 -0.00839988
internal_weight=996.936 607.695 389.241 559.749 212.023 512.191 99.749 177.218 112.274 97.5962
internal_count=4261 2568 1693 2369 911 2164 426 782 485 434
is_linear=0
shrinkage=0.0299311


Tree=20
num_leaves=9
num_cat=0
split_feature=6 11 6 18 1 11 7 7
split_gain=44.7386 16.6119 14.1857 13.1297 13.5565 9.69645 9.09449 8.1426
threshold=0.00943536323394744 0.48854736796321441 0.013971443511387099 1.315435233898278 1.0064276233583735 0.69645729913808552 0.042636027488145906 0.04486259766591829
decision_type=2 2 2 2 2 2 2 2
left_child=3 -2 7 4 5 -1 -6 -3
right_child=1 2 -4 -5 6 -7 -8 -9
leaf_value=0.0039416044333913519 -0.021406780149295038 -0.0062454413984592413 -0.018242878101601342 -0.0098787159687446259 -0.0041563141491320343 0.012609663560134408 0.01056198938735247 0.0087925689778460669
leaf_weight=228.27126079797745 74.58454042673111 64.321133762598038 45.456289038062096 46.621317788958549 150.52185988426208 268.99472689628601 48.10598149895668 60.567648515105247
leaf_count=964 330 280 201 201 652 1119 211 264
internal_value=0.00133285 -0.00967749 -0.00420995 0.00501908 0.00608173 0.00871771 -0.00038209 0.000825336
internal_weight=987.445 244.93 170.345 742.515 695.894 497.266 198.628 124.889
internal_count=4222 1075 745 3147 2946 2083 863 544
is_linear=0
shrinkage=0.0299311


Tree=21
num_leaves=11
num_cat=0
split_feature=14 14 7 9 7 15 15 14 8 15
split_gain=26.7851 24.2925 20.5448 20.7677 14.4986 14.4731 14.0518 10.1056 8.82196 6.68635
threshold=60.038307068645302 65.251884606708202 0.053930553662395929 35.90550288136636 0.023224292120355764 0.9445998436607751 0.97648406204103877 72.315540640294941 0.19570892301892656 1.0969323588335056
decision_type=2 2 2 2 2 2 2 2 2 2
left_child=2 -2 3 5 9 -1 -4 -6 -5 -3
right_child=1 4 6 8 7 -7 -8 -9 -10 -11
leaf_value=-0.015143338245147964 -0.023617637276189013 0.010938410047066043 -0.020887420358453999 0.023532885096583488 -0.019664576041968324 0.0028785990628762332 0.00073499328670444868 -0.003411156533597554 0.0085567564635306362 -0.0020758822212438317
leaf_weight=46.12407785654068 65.685839876532555 60.198188334703445 47.20329287648201 48.087562382221222 56.781188741326332 241.54906062781811 54.02950993180275 99.514439791440964 189.29496769607067 74.785161852836609
leaf_count=197 288 253 207 198 251 1023 235 439 802 315
internal_value=-0.000776091 -0.00732567 0.00291762 0.00533738 -0.00343636 0 -0.00922131 -0.00965147 0.0118582 0.00356562
internal_weight=983.253 356.965 626.288 525.056 291.279 287.673 101.233 156.296 237.383 134.983
internal_count=4208 1546 2662 2220 1258 1220 442 690 1000 568
is_linear=0
shrinkage=0.0299311


Tree=22
num_leaves=12
num_cat=0
split_feature=6 16 14 17 14 14 14 6 12 17 7
split_gain=39.4847 20.132 15.3261 24.7932 24.6818 11.9303 19.7048 8.22729 5.04479 8.48233 4.72229
threshold=0.0079531797757643446 0.80012208111991157 54.885453080959444 0.037804867792403891 73.275869998451967 58.677090451298064 50.696499316809287 0.0099105497385289839 1.0000000180025095e-35 -0.22564120091445708 0.048796961505700558
decision_type=2 2 2 2 2 2 2 2 2 2 2
left_child=1 8 3 -3 -4 6 7 -2 -1 -10 -7
right_child=5 2 4 -5 -6 10 -8 -9 9 -11 -12
leaf_value=-0.0097639290349455562 -0.0021739413366810268 0.026230726857574334 -0.0038901921805513722 0.0037147279246795158 0.019462268722331481 -0.019652783504733151 0.0090282411021545671 -0.014796269443008589 -0.0087896247001591991 0.0059378639389603347 -0.006106790879915041
leaf_weight=62.194965228438377 97.385737955570221 88.779964670538902 138.89939324557781 93.31475031375885 54.800687476992607 81.450268983840942 73.769925311207771 100.92995588481426 54.767367973923683 90.397756889462471 45.40409617125988
leaf_count=264 417 365 590 391 228 362 316 444 233 389 204
internal_value=-0.00030418 0.00462282 0.00876032 0.014994 0.00266739 -0.00757207 -0.00384352 -0.00881901 -0.00273911 0.000137426 -0.0151812
internal_weight=982.095 583.155 375.795 182.095 193.7 398.94 272.086 198.316 207.36 145.165 126.854
internal_count=4203 2460 1574 756 818 1743 1177 861 886 622 566
is_linear=0
shrinkage=0.0299311


Tree=23
num_leaves=11
num_cat=0
split_feature=6 14 14 3 11 9 7 9 13 4
split_gain=40.446 17.7861 31.0469 12.9966 10.8131 9.26644 8.57845 4.80441 4.53402 5.67194
threshold=0.0091157252125269265 54.507975309836795 72.315540640294941 37.359108055471857 0.37061859739569464 25.306037905205095 0.030045303959353533 30.035794448634025 -0.12940952255126037 10.241260510010081
decision_type=2 2 2 2 2 2 2 2 2 2
left_child=1 4 5 -2 -1 -3 -6 -4 -5 -10
right_child=3 2 7 8 6 -7 -8 -9 9 -11
leaf_value=-0.0042515891293041603 0.00040027692976450836 0.0023265384062633337 0.0044169358718144742 -0.0060463951766039151 0.013982942500114625 -0.010244586737765527 0.0029551843862317987 0.018200805234464056 -0.026236024561820802 -0.011390400258462113
leaf_weight=46.193879961967468 79.212150484323502 68.74791444838047 49.026979565620422 63.034203559160233 221.56710265576839 176.13105839490891 100.4103516638279 60.323614180088043 44.102485507726669 83.867369398474693
leaf_count=198 341 292 207 281 921 759 423 256 197 374
internal_value=0.000383064 0.00410798 -0.000602225 -0.00942768 0.00870514 -0.00659931 0.0106705 0.0124519 -0.013631 -0.0170081
internal_weight=992.617 722.401 354.23 270.216 368.171 244.879 321.977 109.351 191.004 127.97
internal_count=4249 3056 1514 1193 1542 1051 1344 463 852 571
is_linear=0
shrinkage=0.0299311


Tree=24
num_leaves=9
num_cat=0
split_feature=6 16 14 3 14 15 15 15
split_gain=46.8334 20.9963 24.2103 13.6282 13.1547 12.0459 9.23045 9.87773
threshold=0.008425565017925114 1.4496374601432647 80.379420163515348 40.12008517634014 55.368106479266224 1.0149360986559735 1.152497125335221 1.0373560562001438
decision_type=2 2 2 2 2 2 2 2
left_child=1 2 4 5 -1 -2 7 -5
right_child=3 -3 -4 6 -6 -7 -8 -9
leaf_value=0.0041450901646322199 -0.011184200299723479 0.022434627326229681 0.021433347862757281 -0.012354363917406429 -0.005032420208849306 0.008937359988624537 -0.0051501179779348556 -0.029904443451205149
leaf_weight=323.29811154305935 51.236687451601028 47.605173140764236 50.952285930514336 99.776453420519829 243.72862735390663 51.557650223374367 76.997288048267365 49.979453146457672
leaf_count=1353 220 197 213 442 1046 222 348 222
internal_value=-0.000976485 0.00355847 0.00199985 -0.0102004 0.0001434 -0.000817354 -0.014284 -0.0186723
internal_weight=995.132 665.584 617.979 329.548 567.027 102.794 226.753 149.756
internal_count=4263 2809 2612 1454 2399 442 1012 664
is_linear=0
shrinkage=0.0299311


Tree=25
num_leaves=9
num_cat=0
split_feature=15 1 9 9 15 14 18 15
split_gain=16.6757 13.6102 14.3769 13.4108 17.9709 13.9891 11.2859 3.37944
threshold=0.89528776721170267 1.0054151078774294 50.224530207693483 31.880362243488488 1.009805944900529 48.172963483875293 -0.15835682400429385 1.0670531275109141
decision_type=2 2 2 2 2 2 2 2
left_child=-1 3 6 4 -2 -5 -3 -4
right_child=1 2 7 5 -6 -7 -8 -9
leaf_value=-0.017821330252122573 -0.012438662635343899 0.00685244746193774 -0.019893030277948073 0.014462126562021079 0.0035105837292627963 0.0017368576665297178 -0.0060799522230902871 -0.0066898464718608639
leaf_weight=45.586508259177208 91.873003676533699 104.10809808969498 49.862854287028313 137.15879943966866 190.63727867603302 190.61009439826012 138.6263732612133 43.682942628860474
leaf_count=200 390 453 219 575 806 805 608 196
internal_value=-0.000446926 0.000386796 -0.00439832 0.00307816 -0.00161019 0.0071999 -0.000399503 -0.0142689
internal_weight=992.146 946.559 336.28 610.279 282.51 327.769 242.734 93.5458
internal_count=4252 4052 1476 2576 1196 1380 1061 415
is_linear=0
shrinkage=0.0299311


Tree=26
num_leaves=10
num_cat=0
split_feature=7 16 2 1 14 7 7 14 7
split_gain=25.2932 27.2626 20.6753 14.5441 14.1534 11.2711 9.92051 7.59401 9.21701
threshold=0.020586262307202081 0.67604614585710276 0.98989728497206952 0.98824206976626583 80.379420163515348 0.056654024433048782 0.033768645671310223 43.234501835024439 0.013418365660351926
decision_type=2 2 2 2 2 2 2 2 2
left_child=1 -1 5 -4 -5 6 -2 -3 -9
right_child=2 7 3 4 -6 -7 -8 8 -10
leaf_value=-0.0086797294097948115 0.0013340137564101901 0.022437651151183752 0.0080814156619198087 -0.01102289771875466 0.0065676945626145676 -0.0058333078799928375 0.015182019367998727 0.0019235113857710784 0.015077266757370776
leaf_weight=64.497189775109291 100.3705952167511 58.791511312127113 51.506997749209404 288.50037787854671 44.322139903903008 64.427864909172058 94.600134134292603 90.889486908912659 116.49037703871727
leaf_count=276 424 243 218 1277 195 283 401 376 484
internal_value=0.00161592 0.00833952 -0.00180282 -0.00623311 -0.00856838 0.00464203 0.00827872 0.0126054 0.00951849
internal_weight=974.397 330.669 643.728 384.33 332.823 259.399 194.971 266.171 207.38
internal_count=4177 1379 2798 1690 1472 1108 825 1103 860
is_linear=0
shrinkage=0.0299311


Tree=27
num_leaves=9
num_cat=0
split_feature=15 3 11 17 15 11 18 11
split_gain=23.6235 21.9842 13.877 10.1409 10.8328 7.96125 4.03231 1.43891
threshold=0.93768796505158025 42.096395191206589 0.40147072970777303 -0.854091927184225 0.9577543035685353 0.69192828226319947 -0.45067622359203502 0.31417091499564753
decision_type=2 2 2 2 2 2 2 2
left_child=1 -1 6 5 -5 -4 -2 -8
right_child=2 -3 3 4 -6 -7 7 -9
leaf_value=0.0021147848023001163 0 -0.022944040763685735 0.00036207129704060115 0.01569967132053441 0.00061131595198154662 0.016401497865909328 -0.013796908278851333 -0.0048964027562098614
leaf_weight=51.802335813641548 55.804681777954102 69.783050790429115 46.373336866497993 45.251173332333565 540.14064532518387 86.489317581057549 48.731772914528847 49.955343469977379
leaf_count=220 243 304 196 192 2313 360 215 218
internal_value=0.0001044 -0.0121328 0.0018636 0.00364166 0.00187008 0.0111027 -0.0061588 -0.00974891
internal_weight=994.332 121.585 872.746 718.254 585.392 132.863 154.492 98.6871
internal_count=4261 524 3737 3061 2505 556 676 433
is_linear=0
shrinkage=0.0299311


Tree=28
num_leaves=10
num_cat=0
split_feature=18 2 1 18 11 9 5 8 2
split_gain=13.0886 14.9207 16.932 16.5385 13.8491 12.3295 11.3357 10.9092 21.124
threshold=1.0044137636604862 1.01464095999518 1.0112481098947654 -0.31289706941611362 0.61711629110858313 33.011535428298622 66.296471675134413 0.36465938909004542 1.0235120447657198
decision_type=2 2 2 2 2 2 2 2 2
left_child=1 2 6 5 -5 -3 -1 -2 -9
right_child=7 3 -4 4 -6 -7 -8 8 -10
leaf_value=0.0053176701534719002 0.0038923905155726249 -0.00018121386315332827 0.020341160223965316 -0.00832999296858228 0.0072854442435270591 -0.021090285062404308 -0.0056051712196188716 -0.02591570736361035 -0.00060326058790805524
leaf_weight=337.83035624027252 47.034479573369026 45.355697721242905 53.318515494465828 80.434388875961304 130.23107160627842 65.525033682584763 109.78437635302544 55.343270629644394 66.828114002943039
leaf_count=1422 199 196 232 353 555 289 467 241 296
internal_value=-0.000209751 0.001322 0.00457327 -0.00364608 0.00116115 -0.0129356 0.00256003 -0.00777577 -0.0125068
internal_weight=991.685 822.479 500.933 321.546 210.665 110.881 447.615 169.206 122.171
internal_count=4250 3514 2121 1393 908 485 1889 736 537
is_linear=0
shrinkage=0.0299311


Tree=29
num_leaves=10
num_cat=0
split_feature=6 17 11 17 14 4 5 17 17
split_gain=41.3745 17.4791 12.1734 11.59 8.44204 5.43898 6.73943 6.6167 4.49862
threshold=0.0082681942279628131 -0.86519210053601492 0.40147072970777303 -0.94859879557837512 72.315540640294941 84.545720534051625 80.928969214876005 -0.38036053946994092 -0.049621328142570476
decision_type=2 2 2 2 2 2 2 2 2
left_child=2 -2 8 -4 -5 7 -7 -3 -1
right_child=1 5 3 4 -6 6 -8 -9 -10
leaf_value=-0.011196351175077706 0.003324504615683795 -0.0046838400165290393 0.017553919694585238 0.0025783572897562332 0.013755788811146141 0.0025959288816767346 -0.01270344786801004 -0.018570021966578025 0.00061839442027344102
leaf_weight=47.936725601553917 85.94346296787262 50.265478894114494 72.199049085378647 381.80714482069016 73.719328075647354 44.190396055579185 51.34333598613739 130.8751246035099 58.129506781697273
leaf_count=206 368 221 298 1608 307 198 231 585 254
internal_value=-7.19002e-05 -0.00814433 0.00450761 0.00638936 0.00449669 -0.0118153 -0.00538714 -0.01496 -0.00452615
internal_weight=996.41 362.618 633.792 527.726 455.526 276.674 95.5337 181.141 106.066
internal_count=4276 1603 2673 2213 1915 1235 429 806 460
is_linear=0
shrinkage=0.0299311


Tree=30
num_leaves=9
num_cat=0
split_feature=6 2 9 6 14 6 14 12
split_gain=28.7224 22.3744 32.3322 25.914 37.0879 15.7176 11.694 0.942084
threshold=0.014842422774207708 0.98989728497206952 37.544160505592437 0.0091381915381243597 71.950156766976335 0.0075326557164133385 47.67384901202891 -0.37940952255126059
decision_type=2 2 2 2 2 2 2 2
left_child=1 2 6 4 -3 -4 -1 -5
right_child=-2 3 5 7 -6 -7 -8 -9
leaf_value=-0.0069693238269099324 -0.021511896317319073 -0.0031586221058362198 0.028676516555762116 -0.0098453196863513524 0.016439838532303221 0.008504861477116165 0.0094897806512930869 -0.019023006852728636
leaf_weight=107.62121222913265 49.272223919630051 404.72645691037178 67.817657634615898 44.107178032398224 108.02413067221642 84.837384521961212 57.659365966916084 56.430835068225861
leaf_count=458 224 1731 279 200 454 362 243 258
internal_value=0.00034252 0.0015672 0.00800684 -0.00173386 0.000949896 0.0178726 -0.00100773 -0.0155171
internal_weight=980.496 931.224 317.936 613.289 512.751 152.655 165.281 100.538
internal_count=4209 3985 1342 2643 2185 641 701 458
is_linear=0
shrinkage=0.0299311


Tree=31
num_leaves=12
num_cat=0
split_feature=6 11 14 14 1 6 1 17 11 18 14
split_gain=28.5504 12.1987 14.3849 16.8487 10.5217 10.6851 9.35769 4.23202 5.88013 4.93027 1.82645
threshold=0.0087543457011044351 0.37061859739569464 54.507975309836795 72.315540640294941 0.98653439434676315 0.012004660194182599 0.99643673177357539 0.17216384116589936 0.65664217793871138 -0.453817220159561 53.606993096650122
decision_type=2 2 2 2 2 2 2 2 2 2 2
left_child=1 10 6 -4 5 -2 -3 9 -9 -6 -1
right_child=4 2 3 -5 7 -7 -8 8 -10 -11 -12
leaf_value=-0.012049661253804978 0.0095204861780543264 0.016183632500415341 -0.0057752664338085995 0.0095388254166355567 -0.0080360640084894755 -0.010381440514815364 0.0044930429868886394 -0.014623433210051853 0 -0.022881867546033451 -0.0024585496690382228
leaf_weight=46.901204898953438 46.264037176966667 94.881509706377983 202.18349197506905 91.945079639554024 45.247929215431213 46.941058799624443 205.73898543417454 49.589571803808212 50.762669458985329 60.823094010353088 45.187897309660912
leaf_count=202 197 388 867 382 201 206 862 229 229 277 199
internal_value=-0.0011814 0.0021478 0.00375551 -0.00085853 -0.00888469 -0.000186642 0.00835131 -0.0126329 -0.00746639 -0.0170502 -0.00779406
internal_weight=986.467 686.838 594.749 294.129 299.628 93.2051 300.62 206.423 100.352 106.071 92.0891
internal_count=4239 2900 2499 1249 1339 403 1250 936 458 478 401
is_linear=0
shrinkage=0.0299311


Tree=32
num_leaves=10
num_cat=0
split_feature=6 11 1 9 6 14 14 17 18
split_gain=37.3225 15.0042 13.567 19.8702 8.40925 6.08396 4.92154 2.89506 2.14874
threshold=0.010157807320257351 0.36706778647371258 1.0065639827034569 35.742203291122934 0.014842422774207708 60.153575951450442 57.896209777205648 -0.41076149604312934 -0.24840508229437125
decision_type=2 2 2 2 2 2 2 2 2
left_child=1 8 3 -3 6 -4 7 -2 -1
right_child=4 2 5 -5 -6 -7 -8 -9 -10
leaf_value=-0.0018933518141752081 0.00097901445852061997 0.0018523327355809435 0.0016632065494892336 0.014470502325676765 -0.023558775243397414 -0.0086244247750865369 -0.01623388937318938 -0.0087701968508265143 -0.011270813618789139
leaf_weight=47.292832568287849 46.533462703227997 296.81735640764236 126.38094033300877 185.09672589600086 46.749146163463593 81.083491399884224 47.131628036499023 50.389095708727837 64.482501208782196
leaf_count=206 200 1243 547 764 215 358 218 226 284
internal_value=-0.000457273 0.00234942 0.0040303 0.00679445 -0.012321 -0.00224724 -0.00824151 -0.00384062 -0.0076569
internal_weight=991.957 801.154 689.379 481.914 190.803 207.464 144.054 96.9226 111.775
internal_count=4261 3402 2912 2007 859 905 644 426 490
is_linear=0
shrinkage=0.0299311


Tree=33
num_leaves=8
num_cat=0
split_feature=6 1 13 4 9 2 3
split_gain=22.7066 12.0955 14.1994 12.0759 7.07892 7.57681 5.3939
threshold=0.014546929761186161 0.98795011960165602 -0.9159756150367534 -95.333244738985044 36.21598223533055 0.97340344267899692 52.398542282534208
decision_type=2 2 2 2 2 2 2
left_child=1 4 6 -4 -1 -6 -3
right_child=-2 2 3 -5 5 -7 -8
leaf_value=-0.0010613221086617549 -0.020571897760111587 0.015821383672770396 -0.015027372839745078 -0.0014703567526228403 0.0040441481621600961 0.021147527636859165 0.0019069252051481073
leaf_weight=46.545736193656921 47.529378786683083 50.070656463503838 64.699327290058136 613.09685541689396 56.295042455196381 47.407137125730515 60.481476902961731
leaf_count=196 220 210 281 2642 237 197 259
internal_value=-0.000733787 0.000272209 -0.00118186 -0.00284238 0.00803371 0.0123593 0.00861975
internal_weight=986.126 938.596 788.348 677.796 150.248 103.702 110.552
internal_count=4242 4022 3392 2923 630 434 469
is_linear=0
shrinkage=0.0299311


Tree=34
num_leaves=11
num_cat=0
split_feature=7 2 16 7 15 2 8 2 9 16
split_gain=15.4686 16.9984 16.4518 12.1101 11.8569 10.5738 11.2953 9.7887 8.74811 6.23537
threshold=0.019786470871012971 0.98989728497206952 0.70306450611887084 0.053930553662395929 1.0413006648654863 1.0307687309059768 0.34612720768427013 1.0057864473516653 38.570727955922159 0.95908497725283237
decision_type=2 2 2 2 2 2 2 2 2 2
left_child=2 3 -1 8 9 6 -4 -6 -2 -3
right_child=1 4 5 -5 7 -7 -8 -9 -10 -11
leaf_value=-0.0052755208491135873 0.0014062198191048217 -0.0047417563756895851 -0.0043963086343904332 -0.0065740621558800227 0.010694642311302042 0.019948825117847426 0.01162618878508607 -0.0044832851316496834 0.014113749766230416 -0.018295761447810317
leaf_weight=77.714575618505478 107.99499675631523 63.117788136005402 58.227462187409401 69.020359069108963 44.194502487778664 71.659931927919388 104.3538457006216 208.87540246546268 97.138234257698059 79.031268835067749
leaf_count=332 462 276 239 306 191 296 431 939 404 346
internal_value=0.000812452 -0.00171798 0.00632024 0.00392949 -0.00571255 0.0103068 0.00571504 -0.00166123 0.00763535 -0.012612
internal_weight=981.328 669.373 311.956 274.154 395.219 234.241 162.581 253.07 205.133 142.149
internal_count=4222 2924 1298 1172 1752 966 670 1130 866 622
is_linear=0
shrinkage=0.0299311


Tree=35
num_leaves=10
num_cat=0
split_feature=11 6 16 11 16 16 16 13 16
split_gain=21.3155 15.9344 14.4774 7.43676 6.64335 6.23869 3.42418 3.02416 1.07197
threshold=0.39505154754348831 0.0086374416779919621 1.3897565071689639 0.71261692703824175 1.1406431819469425 0.90490997479962842 0.98451133981238426 0.25881904510252057 0.89751606556406649
decision_type=2 2 2 2 2 2 2 2 2
left_child=7 2 5 6 -5 -2 -3 -1 -9
right_child=1 3 -4 4 -6 -7 -8 8 -10
leaf_value=-0.0034781027810090021 -0.0010216589545115982 -0.004163515553751624 0.018068118062481292 0.0062359358284304611 -0.0062975100009626146 0.0055655738051824085 -0.016931898126116361 -0.015856139745933816 -0.0073992014277388515
leaf_weight=55.605076789855957 230.06012144684792 44.32958322763443 59.6733188778162 66.793520078063011 82.182162150740623 272.16178211569786 49.659420177340508 70.570933029055595 44.322813093662262
leaf_count=244 970 202 246 297 365 1137 225 314 197
internal_value=-0.000554531 0.00145409 0.00424957 -0.00487119 -0.00046851 0.00249386 -0.011403 -0.010138 -0.0130051
internal_weight=975.359 804.86 561.895 242.965 148.976 502.222 93.989 170.499 114.894
internal_count=4197 3442 2353 1089 662 2107 427 755 511
is_linear=0
shrinkage=0.0299311


Tree=36
num_leaves=5
num_cat=0
split_feature=6 17 18 9
split_gain=17.9492 14.3254 12.9849 11.3189
threshold=0.014842422774207708 -1.7586577217576347 -1.8229934066356073 61.925705251013106
decision_type=2 2 2 2
left_child=1 -1 -3 -4
right_child=-2 2 3 -5
leaf_value=0.017356190783206358 -0.016788486065803729 0.015976964603415286 0.00092146193909620037 -0.011474088696930018
leaf_weight=47.708785697817802 48.157689347863197 45.775983273983002 782.36612069606781 70.383086621761322
leaf_count=199 226 194 3347 311
internal_value=0.000676708 0.00162517 0.000726033 -8.57933e-05
internal_weight=994.392 946.234 898.525 852.749
internal_count=4277 4051 3852 3658
is_linear=0
shrinkage=0.0299311


Tree=37
num_leaves=6
num_cat=0
split_feature=6 11 6 9 6
split_gain=19.5255 16.4948 9.1445 9.97707 9.2672
threshold=0.014842422774207708 0.25687567294000474 0.0050326847646847339 35.90550288136636 0.0034009111875142246
decision_type=2 2 2 2 2
left_child=1 -1 4 -4 -3
right_child=-2 2 3 -5 -6
leaf_value=-0.015748560107545044 -0.018421309782323099 -0.0019426388140052076 -0.0032098819020134873 0.0038764107744278177 0.012167497953109896
leaf_weight=47.898152947425842 47.13681934773922 55.217847168445587 347.22725085914135 359.91538305580616 130.95012041926384
leaf_count=214 223 230 1494 1546 546
internal_value=1.45508e-05 0.00100051 0.00195977 0.000354338 0.00783912
internal_weight=988.346 941.209 893.311 707.143 186.168
internal_count=4253 4030 3816 3040 776
is_linear=0
shrinkage=0.0299311


Tree=38
num_leaves=9
num_cat=0
split_feature=8 7 14 18 14 9 7 15
split_gain=14.9184 16.0485 23.6516 24.3055 19.1706 7.88886 12.1945 5.62669
threshold=0.026615929588682207 0.019208292769740676 60.418037096316567 1.0044137636604862 72.315540640294941 26.541079003120576 0.01357668725527676 1.0536144533538854
decision_type=2 2 2 2 2 2 2 2
left_child=-1 5 3 -3 -4 6 -2 -7
right_child=1 2 4 -5 -6 7 -8 -9
leaf_value=0.013094635460633197 -0.0082586314676434975 0.004062282637932099 -0.020883907511549674 -0.01511921402860452 -0.0022080856177271631 0.015630843660625702 0.0099911500505189006 0.0033808065106607338
leaf_weight=77.285582989454269 70.936909973621368 355.98130282759666 98.693703979253769 69.086898013949394 105.60703770816326 78.641647383570671 58.228699311614037 73.006253391504288
leaf_count=320 296 1537 449 305 470 324 242 304
internal_value=0.000597275 -0.000451897 -0.00313625 0.000827213 -0.0114723 0.00543954 0 0.0100315
internal_weight=987.468 910.182 629.369 425.068 204.301 280.814 129.166 151.648
internal_count=4247 3927 2761 1842 919 1166 538 628
is_linear=0
shrinkage=0.0299311


Tree=39
num_leaves=12
num_cat=0
split_feature=7 15 2 17 15 15 17 15 17 7 3
split_gain=20.6711 21.6372 18.0171 15.301 15.2377 11.7127 10.3036 9.08953 14.0803 9.08775 8.78072
threshold=0.020287113282217776 1.1651490591757769 1.0039798384508682 -0.21810396241466573 1.0969323588335056 1.2185006928940154 0.42311644296572226 0.97648406204103877 -0.54277583599587809 0.046166692549950303 45.207244454123085
decision_type=2 2 2 2 2 2 2 2 2 2 2
left_child=1 4 7 10 6 -5 -1 9 -9 -2 -4
right_child=2 -3 3 5 -6 -7 -8 8 -10 -11 -12
leaf_value=0.010347443598106947 0.0019956505760009725 0.025260701209771842 -0.0070284911400479815 -0.0065847331516694588 -0.011637502073706951 0.010462283990893422 -0.0032070192882418147 0.015597384647789118 -0.00067004645990948559 -0.013155969919400986 -0.026889338525646872
leaf_weight=177.09896723926067 102.83153727650642 47.288544282317162 45.340444087982178 174.72633834183216 46.92386469244957 42.83435745537281 64.792146027088165 85.872988879680634 96.982262149453163 50.414718508720398 47.044697463512421
leaf_count=732 436 196 198 783 197 196 271 361 418 227 214
internal_value=0.000714431 0.00674046 -0.00238247 -0.00759233 0.00347811 -0.00303616 0.00659412 0.00234491 0.00687416 -0.00287757 -0.0177581
internal_weight=982.151 336.104 646.047 309.946 288.815 217.561 241.891 336.102 182.855 153.246 92.3851
internal_count=4229 1396 2833 1391 1200 979 1003 1442 779 663 412
is_linear=0
shrinkage=0.0299311


Tree=40
num_leaves=6
num_cat=0
split_feature=9 15 9 15 17
split_gain=12.3587 11.1081 18.0572 9.11087 9.42164
threshold=65.359741319004499 0.93485114067450648 38.089793692067936 0.95633800958568338 1.2705730742456842
decision_type=2 2 2 2 2
left_child=1 2 -1 -3 -5
right_child=-2 3 -4 4 -6
leaf_value=-0.022197313562484257 -0.013215661858903839 0.011349569823772889 0.0021020606058806601 -0.00071621657412919871 0.010969984183411973
leaf_weight=48.024899050593376 64.861879020929337 72.273391500115395 56.059398338198662 690.56257976591587 66.071683183312416
leaf_count=210 289 306 241 2968 288
internal_value=-0.000743797 0.000112088 -0.00899005 0.00130723 0.000285342
internal_weight=997.854 932.992 104.084 828.908 756.634
internal_count=4302 4013 451 3562 3256
is_linear=0
shrinkage=0.0299311


Tree=41
num_leaves=11
num_cat=0
split_feature=11 7 4 1 7 7 4 4 4 11
split_gain=18.7584 14.9724 9.55716 9.13775 14.3208 6.92108 18.1479 6.33684 5.38344 4.52955
threshold=0.40147072970777303 0.019627469366045123 -44.106493345580112 1.0015151404582503 0.013847960440938287 0.05593168118522094 130.89709528538916 23.350980945710024 22.223490518214096 0.93664450112878306
decision_type=2 2 2 2 2 2 2 2 2 2
left_child=2 3 -1 4 -2 6 -3 -5 -4 -7
right_child=1 5 8 7 -6 9 -8 -9 -10 -11
leaf_value=-0.018831833490839733 -0.005274966923358832 -0.0020149621594844672 0.0033715453160525141 0.019701300075069934 0.01254258911504696 -0.0016366231715041893 0.015003291398663118 0.0048616670948550744 -0.0090332671730762992 -0.015062308129180369
leaf_weight=58.01918163895607 89.518050715327263 370.92235808074474 49.886833846569061 67.963782131671906 69.558414578437805 55.398424476385117 64.318160966038704 53.627370998263359 70.199818059802055 45.357167527079582
leaf_count=260 370 1594 221 280 285 253 281 222 314 205
internal_value=-0.000109357 0.00178291 -0.00889345 0.00737654 0.00237403 -0.00110276 0.000476569 0.0135553 -0.00365278 -0.00812256
internal_weight=994.77 816.664 178.106 280.668 159.076 535.996 435.241 121.591 120.087 100.756
internal_count=4285 3490 795 1157 655 2333 1875 502 535 458
is_linear=0
shrinkage=0.0299311


Tree=42
num_leaves=9
num_cat=0
split_feature=15 7 18 4 2 4 4 7
split_gain=23.5746 21.0232 18.851 17.3548 16.8303 15.8023 11.9208 8.32565
threshold=0.93647780246672629 0.020287113282217776 -1.3148138484384162 -17.598675468149391 1.0139758651091213 -19.464764433847119 24.413840820850826 0.013726287475782835
decision_type=2 2 2 2 2 2 2 2
left_child=3 5 -3 -1 -4 7 -7 -2
right_child=1 2 4 -5 -6 6 -8 -9
leaf_value=0.00078885993436654544 -0.0076520911294806829 0.012848462919001305 0.0014871867517711078 -0.021936669622130114 -0.0093314082452716062 0.021370990396418977 0.0049875016100478196 0.0069349457548912898
leaf_weight=48.006767988204956 61.528476193547249 68.595746666193008 263.49983403086662 68.813164830207825 242.48039227724075 92.228843614459038 81.539238288998604 76.689116552472115
leaf_count=206 258 295 1126 304 1101 379 337 319
internal_value=5.39286e-05 0.00175675 -0.00159696 -0.0124573 -0.0036505 0.00800684 0.0139752 0.000209381
internal_weight=1003.38 886.562 574.576 116.82 505.98 311.986 173.768 138.218
internal_count=4325 3815 2522 510 2227 1293 716 577
is_linear=0
shrinkage=0.0299311


Tree=43
num_leaves=9
num_cat=0
split_feature=6 16 9 17 16 7 7 1
split_gain=18.2426 13.0786 14.2593 9.78087 13.8518 7.25797 4.97461 2.03403
threshold=0.0090615099406730158 0.64488197047567353 61.925705251013106 -0.88205195878447706 1.0157523657072454 0.042317514639761029 0.048796961505700558 1.0013003302794614
decision_type=2 2 2 2 2 2 2 2
left_child=1 7 5 -2 -5 -3 -6 -1
right_child=3 2 -4 4 6 -7 -8 -9
leaf_value=-0.0022951748801913474 0.0028078234666123985 0.0043847406449546277 -0.011310194670310076 -0.00052454025840958181 -0.024758463468178685 0.01611824370851558 -0.0099193051348813351 -0.012336842968670188
leaf_weight=45.803187564015388 66.581162467598915 518.66038566827774 45.969957754015923 82.471180602908134 48.26374676823616 53.754885017871857 57.604903131723404 45.068847149610519
leaf_count=196 290 2172 200 383 220 231 268 198
internal_value=0.000158407 0.00265805 0.00425099 -0.00664981 -0.0101495 0.0055825 -0.0172414 -0.00773548
internal_weight=964.178 709.257 618.385 254.921 188.34 572.415 105.869 90.872
internal_count=4158 2997 2603 1161 871 2403 488 394
is_linear=0
shrinkage=0.0299311


Tree=44
num_leaves=8
num_cat=0
split_feature=6 15 15 14 17 5 14
split_gain=22.9532 19.8391 24.9502 15.1056 13.7193 4.97978 6.68662
threshold=0.0089537250682589255 0.93647780246672629 0.95971433195090472 72.315540640294941 -0.88205195878447706 50.096155082276759 43.234501835024439
decision_type=2 2 2 2 2 2 2
left_child=1 -1 -3 -4 -2 -6 -7
right_child=4 2 3 -5 5 6 -8
leaf_value=-0.012117519940617617 0.0046816860982901234 0.02341811112593447 0.00043671409401953846 0.012719557754358327 -0.017466392123082885 0.0022499357897925072 -0.011441376747143763
leaf_weight=66.875818178057671 63.116850852966309 57.099968686699867 479.59607267379761 110.45645691454411 72.124617904424667 42.502960175275803 92.999460890889168
leaf_count=283 273 236 2036 461 329 197 438
internal_value=0.00024649 0.00309035 0.00473552 0.0028164 -0.00711498 -0.0108557 -0.00694826
internal_weight=984.772 714.028 647.152 590.053 270.744 207.627 135.502
internal_count=4253 3016 2733 2497 1237 964 635
is_linear=0
shrinkage=0.0299311


Tree=45
num_leaves=9
num_cat=0
split_feature=6 1 2 9 4 6 0 9
split_gain=12.58 19.7328 18.7449 8.10818 6.99278 6.81365 6.56815 2.58584
threshold=0.0096186423774491537 0.98938959351057443 0.997034752850112 60.932580031671527 -91.940362012385137 0.012866115995633406 1.0029187487066598 44.733102188923802
decision_type=2 2 2 2 2 2 2 2
left_child=1 7 5 4 -3 -2 -4 -1
right_child=2 3 6 -5 -6 -7 -8 -9
leaf_value=0.0077162416060084574 0.0058830731616090108 -0.0087857294246791312 -0.025625841872707771 -0.012102916050792977 0.0017430577828365535 -0.008359561752843846 -0.0074660166678998082 0.019286284425170261
leaf_weight=51.137181460857391 81.517993107438087 60.813211888074875 43.297848805785179 46.517131239175797 555.9864708930254 45.059185549616814 42.995313048362732 48.812363639473915
leaf_count=210 355 261 206 208 2359 207 207 200
internal_value=-0.000168739 0.00159582 -0.00660226 -0.000239679 0.000635133 0.000532743 -0.0172315 0.0138864
internal_weight=976.137 763.266 212.87 663.317 616.8 126.577 86.2932 99.9495
internal_count=4213 3238 975 2828 2620 562 413 410
is_linear=0
shrinkage=0.0299311


Tree=46
num_leaves=8
num_cat=0
split_feature=11 6 4 12 6 17 2
split_gain=19.9392 18.8182 11.9421 12.1168 12.0708 10.5432 4.57877
threshold=0.25687567294000474 0.008487879961820894 19.114189733310109 1.0000000180025095e-35 0.006035042207753776 -0.86519210053601492 0.9718604237432179
decision_type=2 2 2 2 2 2 2
left_child=-1 2 3 -2 -4 -3 -7
right_child=1 5 4 -5 -6 6 -8
leaf_value=-0.018826027026205897 0.00099718772501453546 0.0033243921244173651 -0.0090767368393215291 0.011749673460820604 0.0040469362725333389 -0.001985080943615253 -0.01192007223015787
leaf_weight=49.252439558506012 189.27896775305271 79.754525527358055 110.42445290088654 199.61486479640007 138.16837526857853 68.469658389687538 154.94985368847847
leaf_count=224 787 343 465 836 591 307 723
internal_value=-0.000563562 0.000391129 0.00333924 0.00662059 -0.00168159 -0.00569232 -0.00904761
internal_weight=989.913 940.661 637.487 388.894 248.593 303.174 223.42
internal_count=4276 4052 2679 1623 1056 1373 1030
is_linear=0
shrinkage=0.0299311


Tree=47
num_leaves=12
num_cat=0
split_feature=6 16 1 9 1 15 2 9 1 9 10
split_gain=20.4045 18.1537 17.0479 16.418 10.6216 8.84999 12.3067 11.847 10.6374 11.0692 4.72391
threshold=0.0078448592125539476 0.58067274572528538 1.0076773135773813 31.591916528126053 1.0112481098947654 1.0116552590520986 1.0213288102364813 36.702905468229609 1.0101208248116098 44.478072397094188 -0.00014014981016330361
decision_type=2 2 2 2 2 2 2 2 2 2 2
left_child=1 -1 3 -3 -4 8 10 -8 9 -2 -7
right_child=5 2 4 -5 -6 6 7 -9 -10 -11 -12
leaf_value=-0.013427218555248659 -0.021382712939386657 0.002316398075252581 -0.015378858659641583 0.014583888306603099 0.0020520425074709134 -0.00058622434959692518 -0.020217105533714856 0 0.0011166934772053191 -0.0028546146529201399 0.010902065862830958
leaf_weight=49.579398155212402 81.28091199696064 216.74365496635437 46.888630613684654 188.81532922387123 80.861537083983421 53.829574048519135 43.473205476999283 65.409683465957642 49.482913196086884 51.595549717545509 63.185930475592613
leaf_count=216 362 901 203 776 353 233 205 312 226 224 275
internal_value=-0.000105309 0.00345376 0.00511638 0.00813833 -0.00422262 -0.00525485 -0.00112343 -0.00841286 -0.0101513 -0.0145373 0.00542417
internal_weight=991.146 582.889 533.309 405.559 127.75 408.258 225.898 108.883 182.359 132.876 117.016
internal_count=4286 2449 2233 1677 556 1837 1025 517 812 586 508
is_linear=0
shrinkage=0.0299311


Tree=48
num_leaves=6
num_cat=0
split_feature=15 6 2 6 15
split_gain=11.438 12.9098 10.2652 23.2364 11.4202
threshold=1.320715923117237 0.013772794572391363 1.01464095999518 0.0094758463115953619 0.93931743326689754
decision_type=2 2 2 2 2
left_child=1 2 4 -4 -1
right_child=-2 -3 3 -5 -6
leaf_value=-0.005648012243795914 0.013505443285241855 -0.015135167450118366 -0.00041014045953588696 -0.023093450422158959 0.0053658415014257435
leaf_weight=102.11326494812965 54.027459919452667 49.171135768294334 309.02026005089283 45.478021502494812 410.90316565334797
leaf_count=440 245 235 1332 221 1729
internal_value=0.000312083 -0.000454817 0.000368934 -0.00349835 0.00310326
internal_weight=970.713 916.686 867.515 354.498 513.016
internal_count=4202 3957 3722 1553 2169
is_linear=0
shrinkage=0.0299311


Tree=49
num_leaves=8
num_cat=0
split_feature=18 1 4 9 1 11 4
split_gain=10.6329 11.4322 9.82469 7.96965 16.1369 8.14486 6.78241
threshold=1.315435233898278 1.0045736165772794 142.68545698032821 31.880362243488488 1.0000435459517791 0.37061859739569464 30.536644002304431
decision_type=2 2 2 2 2 2 2
left_child=1 3 6 4 -1 -5 -3
right_child=-2 2 -4 5 -6 -7 -8
leaf_value=-0.0052424249874860824 -0.0099724656425110286 -0.00053759478665225621 0.0060073149553089523 -0.003920266803521151 0.010332364232576607 0.0092421739626541068 -0.010867247286939134
leaf_weight=168.6692166030407 75.389871880412102 117.96282865107059 78.747927233576775 45.216421186923981 89.963472723960876 274.06920783221722 122.20426253974438
leaf_count=717 344 527 353 198 379 1151 541
internal_value=0.000648008 0.00159128 -0.00289249 0.00411949 8.85021e-05 0.00727246 -0.00595786
internal_weight=972.223 896.833 318.915 577.918 258.633 319.286 240.167
internal_count=4210 3866 1421 2445 1096 1349 1068
is_linear=0
shrinkage=0.0299311


Tree=50
num_leaves=9
num_cat=0
split_feature=7 1 11 2 9 15 7 11
split_gain=14.6618 16.0134 12.9814 6.46983 16.8224 10.1322 3.26259 1.60253
threshold=0.011117825083283104 1.000275507547878 0.40147072970777303 0.98989728497206952 35.742203291122934 0.98039310250150458 0.035329604054819864 0.30986333773234803
decision_type=2 2 2 2 2 2 2 2
left_child=1 -1 6 4 -4 -5 7 -2
right_child=2 -3 3 5 -6 -7 -8 -9
leaf_value=-0.0014037391611253277 -0.018010840961510594 0.022084558579613545 -0.0046833643645505657 -0.010996902202993944 0.010557233073999335 0 -0.0035406364033014276 -0.0077003699673927903
leaf_weight=47.771972551941872 44.134299650788307 49.666915819048882 112.17208398878574 90.668842539191246 144.49234449863434 376.60391688346863 64.31822706758976 46.894940450787544
leaf_count=198 197 205 479 390 611 1644 298 206
internal_value=-0.000448302 0.0104267 -0.00170518 0 0.00379067 -0.00210852 -0.00950799 -0.013258
internal_weight=976.724 97.4389 879.285 723.937 256.664 467.273 155.347 91.0292
internal_count=4228 403 3825 3124 1090 2034 701 403
is_linear=0
shrinkage=0.0299311


Tree=51
num_leaves=9
num_cat=0
split_feature=14 16 17 2 14 14 9 13
split_gain=17.5514 26.0517 22.9168 16.4395 31.6729 14.3658 17.0563 10.4321
threshold=54.507975309836795 0.6963306456215822 1.0502780021361089 1.0235120447657198 45.953633975745035 73.275869998451967 25.306037905205095 -0.12940952255126037
decision_type=2 2 2 2 2 2 2 2
left_child=1 -1 5 4 -3 6 -2 -7
right_child=2 3 -4 -5 -6 7 -8 -9
leaf_value=-0.012251837859226627 0.00011149940399893931 0.0021100419301150158 0.011274799093188455 -0.0055536651098971107 0.020819860161626531 0.0093557210043793762 -0.016499226199623671 -0.007327500657331008
leaf_weight=80.086053848266602 73.466485589742661 231.87665523588657 64.699909418821335 83.978259786963463 127.04614515602589 61.043735384941101 185.55857160687447 70.37281334400177
leaf_count=348 314 995 289 367 530 261 814 313
internal_value=-0.000527923 0.00317289 -0.00484346 0.00606547 0.00888162 -0.00762813 -0.0116995 0.000211915
internal_weight=978.129 522.987 455.142 442.901 358.923 390.442 259.025 131.417
internal_count=4231 2240 1991 1892 1525 1702 1128 574
is_linear=0
shrinkage=0.0299311


Tree=52
num_leaves=12
num_cat=0
split_feature=6 1 1 15 5 5 0 8 1 17 7
split_gain=10.5204 10.6116 11.1942 7.94238 11.9978 9.03133 7.13353 7.88335 5.16788 4.67406 4.55636
threshold=0.0079012195266576022 1.0075426055055601 1.0116294413138986 1.0901638815335382 42.597569333688448 30.413721180234642 1.0008830188893181 0.10588447199934301 0.99915006648229598 0.54825489161168239 0.041083140197745081
decision_type=2 2 2 2 2 2 2 2 2 2 2
left_child=1 3 -3 5 -5 -1 7 -2 -8 -10 -9
right_child=6 2 -4 4 -6 -7 8 10 9 -11 -12
leaf_value=0.014490762174090793 0.0018411734521631084 -0.015265971185476443 0.001818449963409771 -0.012595599041166597 0.0068105339520364971 0.0035353556100463463 0.009065339900943983 -0.015786041155640831 -0.0071169756921416888 0.003556585530754591 -0.0048763072459964574
leaf_weight=101.90118744969368 54.223466545343399 53.2828229367733 84.19867505133152 51.327533066272736 58.754790917038918 230.78367249667645 45.113523527979851 84.394021302461624 81.401464745402336 60.453205540776253 77.987217456102371
leaf_count=418 231 233 370 216 244 960 199 377 379 280 354
internal_value=-0.000115852 0.00243087 -0.00468445 0.00471807 -0.00201604 0.0070367 -0.00384795 -0.00753034 0.000284296 -0.00236657 -0.0108333
internal_weight=983.822 580.249 137.481 442.767 110.082 332.685 403.573 216.605 186.968 141.855 162.381
internal_count=4261 2441 603 1838 460 1378 1820 962 858 659 731
is_linear=0
shrinkage=0.0299311


Tree=53
num_leaves=9
num_cat=0
split_feature=14 14 6 18 6 6 14 16
split_gain=21.0598 24.7414 19.2358 15.0341 13.6441 9.25472 8.71328 7.83673
threshold=60.153575951450442 63.592389142835444 0.012866115995633406 1.0607754361627941 0.0086374416779919621 0.0071206533398210188 72.315540640294941 0.67128149707736406
decision_type=2 2 2 2 2 2 2 2
left_child=2 -2 3 7 6 -5 -3 -1
right_child=1 4 -4 5 -6 -7 -8 -9
leaf_value=-0.0021532183264998577 -0.024764051175571476 -0.004159423802066943 -0.014383730702492541 0.002899641032355784 -0.013275043205414637 -0.015509758701711686 0.0077888140390439528 0.0086585878131899777
leaf_weight=64.492717146873474 51.199753373861313 110.93296533823013 47.748325154185295 46.379089877009392 73.683444142341614 44.604497641324997 102.37349742650986 413.26140077412128
leaf_count=279 233 480 221 198 353 202 424 1743
internal_value=7.67729e-05 -0.00587596 0.00339863 0.00498197 -0.00227955 -0.00590966 0.00144835 0.00713297
internal_weight=954.676 338.19 616.486 568.738 286.99 90.9836 213.306 477.754
internal_count=4133 1490 2643 2422 1257 400 904 2022
is_linear=0
shrinkage=0.0299311


Tree=54
num_leaves=9
num_cat=0
split_feature=16 7 14 14 14 16 18 18
split_gain=15.6072 18.5039 15.4874 20.9233 16.3839 11.2158 7.69844 4.45565
threshold=0.5660129263878978 0.019786470871012971 60.418037096316567 72.315540640294941 49.709495105099826 0.85709439390107944 0.37150400369180164 0.43381345674295507
decision_type=2 2 2 2 2 2 2 2
left_child=-1 5 4 -4 -3 7 -7 -2
right_child=1 2 3 -5 -6 6 -8 -9
leaf_value=-0.015140620409894046 0.0049969708894375226 -0.0024483279199102662 -0.019144209960305848 0 0.010092549829553651 0.0062438477691664938 0.019622167674865007 -0.006845399900412082
leaf_weight=53.652715921401978 67.356059819459915 282.45967483520508 89.161259993910789 113.69833922386169 136.03000839054585 103.28633813560009 73.960904374718666 46.794070273637772
leaf_count=238 281 1235 412 513 586 422 302 197
internal_value=0.000262431 0.00122665 -0.00165328 -0.00842955 0.00157868 0.00744689 0.0121251 0
internal_weight=966.399 912.747 621.349 202.86 418.49 291.397 177.247 114.15
internal_count=4186 3948 2746 925 1821 1202 724 478
is_linear=0
shrinkage=0.0299311


Tree=55
num_leaves=13
num_cat=0
split_feature=6 16 1 18 18 18 14 18 1 16 1 14
split_gain=22.0415 23.7755 13.2305 14.1169 8.34764 7.96867 15.1952 10.9022 7.44799 7.22797 6.60009 3.32433
threshold=0.008487879961820894 0.84971988469643855 1.0065639827034569 0.515388441703861 0.64003181174489931 -0.40850362590767425 55.616512366037419 -1.0735386735009282 1.0130920740563549 0.98721758714446484 1.004201396871246 60.153575951450442
decision_type=2 2 2 2 2 2 2 2 2 2 2 2
left_child=1 4 3 -3 10 6 7 -2 9 -7 -1 -4
right_child=5 2 11 -5 -6 8 -8 -9 -10 -11 -12 -13
leaf_value=0.0032712555687068063 -0.0047456240588796168 0.0060198494319985635 0.0033875179062038546 0.021033414371600209 -0.012678075510542158 -0.02563779545391023 -0.014994900717324925 0.014867204269870515 -0.0013353606162795181 -0.008814574532620717 -0.0085183385254902801 -0.0066116887990063872
leaf_weight=123.71906562149525 45.536180749535561 175.60932482779026 69.453356876969337 89.191774100065231 71.6226457208395 42.188233643770218 48.074722081422806 50.035886883735657 53.563761815428734 72.454290986061096 62.145147651433945 48.533726766705513
leaf_count=520 200 718 298 365 309 196 225 222 263 328 272 217
internal_value=-0.000301771 0.00284226 0.00758793 0.0112893 -0.0040982 -0.00683559 -0.00138373 0.00528519 -0.0112535 -0.015541 -0.000547468 -0.000504177
internal_weight=952.128 640.275 382.788 264.801 257.487 311.853 143.647 95.5721 168.206 114.643 185.864 117.987
internal_count=4133 2699 1598 1083 1101 1434 647 422 787 524 792 515
is_linear=0
shrinkage=0.0299311


Tree=56
num_leaves=9
num_cat=0
split_feature=16 7 8 17 4 7 4 4
split_gain=11.9948 14.0574 16.3521 14.0963 8.9457 7.91099 7.78152 6.40409
threshold=0.6963306456215822 0.020287113282217776 0.026615929588682207 -0.41076149604312934 -28.545116502926444 0.038269482679522716 21.205647027101012 33.682665770154927
decision_type=2 2 2 2 2 2 2 2
left_child=4 3 -3 -2 -1 -4 -5 -6
right_child=1 2 5 6 7 -7 -8 -9
leaf_value=-0.017405065807726463 0.017980896366748083 0.014166513680671355 -0.0066002649122728213 0.0062274668734247154 0.0057781494775507774 0.00070807426052399436 -0.0069966480109132315 -0.009013300469292853
leaf_weight=56.039290755987167 72.214974299073219 51.660440593957901 279.53164121508598 133.43289719521999 44.730990394949913 237.85411392152309 53.401911467313766 55.674626842141151
leaf_count=250 293 216 1224 547 195 1077 220 248
internal_value=-0.000343352 0.00106444 -0.00152469 0.00684311 -0.00792259 -0.0031899 0.0022577 -0.0021371
internal_weight=984.541 828.096 569.046 259.05 156.445 517.386 186.835 100.406
internal_count=4270 3577 2517 1060 693 2301 767 443
is_linear=0
shrinkage=0.0299311


Tree=57
num_leaves=11
num_cat=0
split_feature=14 17 14 18 14 18 7 2 18 18
split_gain=11.576 20.5282 27.353 25.0105 16.924 14.8692 23.0525 14.4956 12.101 10.6404
threshold=55.177691937940011 1.0502780021361089 73.275869998451967 -0.24078706959185556 49.709495105099826 -0.43822348050020182 0.027526495444967308 0.99784859690604777 -0.6475040235027677 -1.2649765296457331
decision_type=2 2 2 2 2 2 2 2 2 2
left_child=4 2 8 -4 5 9 -7 -6 -2 -1
right_child=1 -3 3 -5 7 6 -8 -9 -10 -11
leaf_value=-0.0015021867048735456 0.00037110945081138058 0.012641330899581636 -0.013263060222892921 0.013704771990966024 0.02095195757224648 0.004911279943254728 -0.012983248035663903 0.00024692251979736602 -0.015813260983011872 0.01363685346924415
leaf_weight=68.502966374158859 48.136844009160995 56.972319290041924 44.541486516594887 88.048200756311417 72.95893020927906 117.46245500445366 135.42412956058979 56.198868155479431 188.63371081650257 91.78683976829052
leaf_count=292 212 257 197 385 304 495 606 237 831 393
internal_value=0 -0.00367238 -0.00631557 0.00436658 0.00290768 0 -0.00457317 0.0122919 -0.0124146 0.00702815
internal_weight=968.667 426.333 369.36 132.59 542.334 413.176 252.887 129.158 236.771 160.29
internal_count=4209 1882 1625 582 2327 1786 1101 541 1043 685
is_linear=0
shrinkage=0.0299311


Tree=58
num_leaves=11
num_cat=0
split_feature=7 16 4 4 8 16 16 6 6 8
split_gain=14.8465 23.1559 12.7602 8.33282 7.92138 11.752 12.4577 11.8427 2.63411 3.67189
threshold=0.020586262307202081 0.9268880806354749 -28.545116502926444 15.978746443292275 0.026615929588682207 1.0275141792244009 0.76108608555213009 0.0070235898527040716 0.006035042207753776 0.59135646885549409
decision_type=2 2 2 2 2 2 2 2 2 2
left_child=1 2 -1 -4 -2 6 -6 -7 9 -3
right_child=4 8 3 -5 5 7 -8 -9 -10 -11
leaf_value=-0.010265542011097695 0.008778791013193718 0.0036086563607537971 0.012973512072330327 -0.0024741640565860384 -0.0070791780841827955 0.0050832077433781968 0.0049124893225509164 -0.011027303155432861 0.020730662405795665 0.016379673248266096
leaf_weight=81.891108185052872 49.66939902305603 48.596136540174484 57.795345813035965 59.636601999402046 122.09683011472225 46.415559679269791 205.44568848609924 216.79493686556816 49.326921135187149 48.2984569221735
leaf_count=347 207 197 239 250 554 198 914 980 201 198
internal_value=0.000309691 0.00532291 -0.00118444 0.0049454 -0.00235427 -0.00336349 0.000336631 -0.00805711 0.0143154 0.0104504
internal_weight=985.967 345.545 199.323 117.432 640.422 590.753 327.543 263.21 146.222 96.8946
internal_count=4285 1432 836 489 2853 2646 1468 1178 596 395
is_linear=0
shrinkage=0.0299311


Tree=59
num_leaves=9
num_cat=0
split_feature=11 9 14 14 14 15 15 11
split_gain=8.81352 9.16087 10.2528 33.814 12.7094 7.77306 16.3102 7.00727
threshold=0.25687567294000474 26.541079003120576 60.038307068645302 72.315540640294941 56.211044923163392 1.0469393002339979 1.0948794880354156 0.99527506563647294
decision_type=2 2 2 2 2 2 2 2
left_child=-1 5 4 -4 -3 7 -7 -2
right_child=1 2 3 -5 -6 6 -8 -9
leaf_value=-0.0130934148524473 -0.015023840546434441 0.0028918522059728936 -0.013733251510909997 0.0093669652917116337 0.019585678060751007 0.012602260806480027 -0.007790580587525511 0
leaf_weight=45.850732982158661 81.086387723684311 378.204121530056 121.27234475314617 102.76065213978291 45.64142794907093 56.832428842782974 86.194366216659546 47.717218786478043
leaf_count=213 353 1614 548 455 199 240 376 200
internal_value=-0.000512531 0.000103554 0.0020705 -0.00301096 0.00482949 -0.00445708 0.000152039 -0.00974742
internal_weight=965.56 919.709 647.879 224.033 423.846 271.83 143.027 128.804
internal_count=4198 3985 2816 1003 1813 1169 616 553
is_linear=0
shrinkage=0.0299311


Tree=60
num_leaves=9
num_cat=0
split_feature=16 7 3 2 15 15 16 18
split_gain=21.1927 17.8096 17.3986 14.294 12.8413 11.6878 7.0544 3.7699
threshold=0.68473372245111264 0.015979538059040062 49.246462252827662 0.98989728497206952 1.0670531275109141 1.0446491260866788 1.0587216164376325 -0.20797069885777009
decision_type=2 2 2 2 2 2 2 2
left_child=4 2 -2 6 7 -5 -3 -1
right_child=1 3 -4 5 -6 -7 -8 -9
leaf_value=-0.0092915130086814856 0 0.010069206148202512 0.019007471261305347 -0.010219670642636493 0.0011344919754973761 0 0 -0.023646819784065597
leaf_weight=44.398110568523407 77.949857026338577 126.22338359057903 92.159256905317307 158.92368553578854 48.099331960082054 258.09703697264194 123.63028582930565 47.290919110178947
leaf_count=194 319 542 376 702 215 1166 529 212
internal_value=-5.72876e-05 0.00171887 0.010322 -0.000449745 -0.0108054 -0.00387852 0.0051396 -0.0173069
internal_weight=976.772 836.984 170.109 666.874 139.788 417.021 249.854 91.689
internal_count=4255 3634 695 2939 621 1868 1071 406
is_linear=0
shrinkage=0.0299311


Tree=61
num_leaves=11
num_cat=0
split_feature=14 14 14 14 18 17 12 7 18 14
split_gain=10.4033 18.7878 11.1532 13.4715 11.0725 11.8852 8.41214 8.0771 6.75189 1.97948
threshold=59.982600203116107 65.251884606708202 68.434657971523663 72.315540640294941 0.70107624445845562 0.25838201004796424 -0.70710678118654735 0.027526495444967308 0.27928117061049923 47.67384901202891
decision_type=2 2 2 2 2 2 2 2 2 2
left_child=4 -2 -3 -4 6 7 9 -6 -8 -1
right_child=1 2 3 -5 5 -7 8 -9 -10 -11
leaf_value=-0.0058660421264760043 -0.018403338908923518 0.012651239414952237 -0.014412538664674762 0.0010677670714017505 0.010333235158846592 -0.015040204910316129 0.004974822112643904 -0.0067400452323538489 0.017519287835131774 0.0016821378283591966
leaf_weight=64.319816559553146 67.019076094031334 43.901126742362976 69.36358854174614 162.31503246724606 48.055621594190598 59.408261701464653 297.87491564452648 46.576794430613518 46.606729045510292 49.016280010342598
leaf_count=278 305 192 312 712 202 267 1272 210 198 205
internal_value=-0.000178341 -0.00437188 -0.000761127 -0.00350429 0.00212531 -0.00468638 0.00449224 0.00164067 0.00683485 -0.00235815
internal_weight=954.457 342.599 275.58 231.679 611.858 154.041 457.818 94.6324 344.482 113.336
internal_count=4153 1521 1216 1024 2632 679 1953 412 1470 483
is_linear=0
shrinkage=0.0299311


Tree=62
num_leaves=8
num_cat=0
split_feature=6 16 18 14 13 14 1
split_gain=12.0291 9.04377 14.3034 10.7908 9.59819 8.07247 6.39784
threshold=0.013772794572391363 0.80012208111991157 0.64003181174489931 39.1977992577335 1.0000000180025095e-35 72.315540640294941 0.99765272833139929
decision_type=2 2 2 2 2 2 2
left_child=1 2 4 6 -1 -5 -3
right_child=-2 3 -4 5 -6 -7 -8
leaf_value=0.0060101239965980966 -0.012977422778332328 0.019904257426783444 -0.01486145589741153 -0.00053379542138277611 -0.0071196800167895513 0.0083636489464248582 0.0032111973185738633
leaf_weight=117.42968128621578 57.920057624578476 47.261724755167961 72.504410788416862 451.00571501255035 83.742242887616158 111.39661125838757 45.624108910560608
leaf_count=505 280 199 323 1938 368 478 200
internal_value=3.15847e-05 0.000896838 -0.00361055 0.00283013 0.000380556 0.00119344 0.012225
internal_weight=986.885 928.964 273.676 655.288 201.172 562.402 92.8858
internal_count=4291 4011 1196 2815 873 2416 399
is_linear=0
shrinkage=0.0299311


Tree=63
num_leaves=8
num_cat=0
split_feature=6 2 16 18 18 14 14
split_gain=10.6183 20.6843 16.5772 14.0761 14.0155 11.7269 29.1438
threshold=0.0091381915381243597 0.99483098559629146 1.4401044856440091 -0.019247916339169713 -0.43822348050020182 29.224070819305314 38.681207997623439
decision_type=2 2 2 2 2 2 2
left_child=2 4 5 -3 -2 -1 -7
right_child=1 3 -4 -5 -6 6 -8
leaf_value=-0.013400465617072923 0.010252270907872424 -0.027750710227234889 0.018190428622579895 -0.0050134818288437568 -0.008560324594486456 0.023019744957998009 -0.00032396603388587265
leaf_weight=49.001618385314941 79.352411210536957 45.815881460905075 49.146301597356796 60.485543251037598 60.484443172812462 50.396850600838661 578.29501178860664
leaf_count=207 348 223 205 298 276 212 2463
internal_value=-0.000107917 -0.00548942 0.00168073 -0.0153675 0.00189423 0.000397685 0.0015535
internal_weight=972.978 246.138 726.84 106.301 139.837 677.693 628.692
internal_count=4232 1145 3087 521 624 2882 2675
is_linear=0
shrinkage=0.0299311


Tree=64
num_leaves=8
num_cat=0
split_feature=6 14 14 7 6 7 14
split_gain=12.0214 12.256 24.0385 10.9144 10.3822 6.17157 5.85667
threshold=0.013971443511387099 60.418037096316567 65.251884606708202 0.04021876712105605 0.0086374416779919621 0.030373983360174248 40.053249154536623
decision_type=2 2 2 2 2 2 2
left_child=1 3 -3 5 -4 -1 -5
right_child=-2 2 4 6 -6 -7 -8
leaf_value=0.0032431165947073093 -0.012763145543628887 -0.021170057784662407 0.0035217166701473372 0.00095120814039304749 -0.010898915574447927 -0.0048196442916179751 0.014431638513707342
leaf_weight=348.83136901259422 57.291473299264908 55.477952003479004 199.29696179926395 46.67030031979084 55.779164224863052 108.65245266258717 106.08371943235397
leaf_count=1465 281 255 848 210 267 470 463
internal_value=0.000301963 0.00116912 -0.00361028 0.00365448 0.000200021 0.00125133 0.0105645
internal_weight=978.083 920.792 310.554 610.238 255.076 457.484 152.754
internal_count=4259 3978 1370 2608 1115 1935 673
is_linear=0
shrinkage=0.0299311


Tree=65
num_leaves=10
num_cat=0
split_feature=16 7 3 12 14 18 0 18 18
split_gain=11.343 9.227 16.7112 13.0032 13.5774 11.6408 9.70889 7.67699 5.91714
threshold=0.6963306456215822 0.018678132231948721 53.675096665677685 0.25881904510252091 60.271778605291821 -0.1179670563382981 1.0076547723704028 0.50888435146853206 -0.6074445174859805
decision_type=2 2 2 2 2 2 2 2 2
left_child=7 2 5 6 -5 -2 -3 8 -1
right_child=1 3 -4 4 -6 -7 -8 -9 -10
leaf_value=-0.010859020027034358 -0.012302136322420391 -0.007098570681870784 0.016086210866402259 0.0093642217451590654 -0.0060890584034553521 0.00604528081284694 0.00421947237867051 -0.018198036161941739 0.0027188250670173806
leaf_weight=49.528834596276283 47.872117444872856 300.24144704639912 86.202784433960915 157.16191908717155 71.202363133430481 80.208886057138443 82.799377232789993 46.564322471618652 58.932751163840294
leaf_count=217 196 1322 353 677 329 328 379 212 263
internal_value=-0.000694082 0.000671481 0.00601469 -0.00116235 0.00440411 -0.000645129 -0.00456506 -0.00809365 -0.00327285
internal_weight=980.715 825.689 214.284 611.405 228.364 128.081 383.041 155.026 108.462
internal_count=4276 3584 877 2707 1006 524 1701 692 480
is_linear=0
shrinkage=0.0299311


Tree=66
num_leaves=7
num_cat=0
split_feature=11 17 0 14 8 11
split_gain=11.898 12.0276 12.2846 11.2911 9.07912 2.78938
threshold=0.28653358306256982 -1.0339339696331089 0.99486588408117249 31.041477477237482 0.1477973228490895 0.90800300645613607
decision_type=2 2 2 2 2 2
left_child=-1 5 4 -4 -3 -2
right_child=1 2 3 -5 -6 -7
leaf_value=-0.010654038196490813 0.0056682663434397271 -0.00074983206876592847 -0.01133129541797823 0.0035641469882877648 -0.017139439908045982 0.015752708912472546
leaf_weight=68.026243284344673 70.404861778020859 80.338690534234047 46.931182026863098 605.01189111173153 51.632079049944878 57.804078236222267
leaf_count=318 298 339 207 2634 237 240
internal_value=0.00120075 0.00213575 0.000694887 0.00241952 -0.00752173 0.010591
internal_weight=980.149 912.123 783.914 651.943 131.971 128.209
internal_count=4273 3955 3417 2841 576 538
is_linear=0
shrinkage=0.0299311


Tree=67
num_leaves=11
num_cat=0
split_feature=3 14 14 2 5 18 4 18 14 14
split_gain=8.28702 6.7692 14.421 38.3147 10.2153 10.0411 7.16013 6.76223 5.67421 6.83452
threshold=36.921808446127692 45.88434621116496 54.507975309836795 1.0235120447657198 50.856732420677986 0.11196864423681481 24.413840820850826 -0.74652796128837962 58.175775395498661 47.121418750884679
decision_type=2 2 2 2 2 2 2 2 2 2
left_child=8 5 3 -3 -4 7 -7 -2 9 -1
right_child=1 2 4 -5 -6 6 -8 -9 -10 -11
leaf_value=0.0019555708472008661 -0.0073654775463721399 0.017482621648766402 -0.010176996371780099 -0.014222600287809179 0.00011562460252094877 -0.003719005943548613 -0.020179918102922963 0.00600597821084904 -0.002919588339703879 0.015810624632708603
leaf_weight=83.469338744878769 65.941598102450371 106.12280099093914 128.89521838724613 47.581217974424362 238.54734419286251 49.671040698885918 57.841575890779495 65.536915019154549 55.850605651736259 57.505696162581444
leaf_count=351 285 444 564 209 1074 214 260 287 240 239
internal_value=-0.000697209 -0.00214301 -0.000164759 0.00742482 -0.00344112 -0.00629944 -0.0130241 -0.000478792 0.00470418 0.00793768
internal_weight=956.963 760.138 521.147 153.704 367.443 238.991 107.513 131.479 196.826 140.975
internal_count=4167 3337 2291 653 1638 1046 474 572 830 590
is_linear=0
shrinkage=0.0299311


Tree=68
num_leaves=7
num_cat=0
split_feature=2 15 16 15 18 18
split_gain=11.3185 23.9065 19.1588 14.4083 12.8434 7.02287
threshold=1.0686622432448509 1.1492021905865066 0.692572021114228 1.0969323588335056 -0.22192192150481069 -0.20797069885777009
decision_type=2 2 2 2 2 2
left_child=1 2 5 -4 -3 -1
right_child=-2 4 3 -5 -6 -7
leaf_value=-0.0029934550542424026 -0.010613362329681259 0.0039878445753194639 0.0029470753564569568 -0.011596532126736808 0.022620906166230848 -0.018761415694074399
leaf_weight=52.724194094538689 72.78030651807785 78.868709400296211 580.12537710368633 66.059102311730385 63.753459721803665 60.784164667129517
leaf_count=231 344 354 2477 288 277 277
internal_value=0.000557999 0.0015104 -0.000571022 0.00138767 0.0126904 -0.0118488
internal_weight=975.095 902.315 759.693 646.184 142.622 113.508
internal_count=4248 3904 3273 2765 631 508
is_linear=0
shrinkage=0.0299311


Tree=69
num_leaves=5
num_cat=0
split_feature=7 14 14 14
split_gain=9.87607 14.1405 25.5076 17.1961
threshold=0.010644797373950509 29.224070819305314 39.1977992577335 41.207875211837923
decision_type=2 2 2 2
left_child=-1 -2 -3 -4
right_child=1 2 3 -5
leaf_value=0.0087458707175448458 -0.014428800824480966 0.014936248352121947 -0.019129653041216409 -0.0011116771167686158
leaf_weight=86.007991567254066 71.04148556292057 82.884417057037354 49.853637501597404 692.61166375875473
leaf_count=355 317 362 217 3032
internal_value=-0.000789002 -0.00175211 -0.000597728 -0.00240184
internal_weight=982.399 896.391 825.35 742.465
internal_count=4283 3928 3611 3249
is_linear=0
shrinkage=0.0299311


Tree=70
num_leaves=11
num_cat=0
split_feature=11 6 11 2 2 17 15 17 15 15
split_gain=11.4712 10.6959 8.07009 7.01142 6.19818 5.011 11.9916 7.06764 7.72536 4.86441
threshold=0.59565507084518299 0.008425565017925114 0.29969408142601728 1.0194789429510818 1.0162296299774258 -0.86519210053601492 1.0127904347901142 -0.59709617196066778 0.95878519319671818 1.0075775099863993
decision_type=2 2 2 2 2 2 2 2 2 2
left_child=1 2 -1 9 -4 6 -2 -7 -9 -3
right_child=5 3 4 -5 -6 7 -8 8 -10 -11
leaf_value=-0.010068177064484179 -0.00014495476109784426 -0.011379528941736593 0.008761664049492246 -0.019975841489062573 -0.0020666209294015938 -0.0080799553568276748 0.018677006318888766 0.011680983422213945 0.0014524527357649361 0.0019534013811352657
leaf_weight=46.480497717857361 55.651400178670883 45.146439015865326 98.024936556816101 42.094246849417686 82.446306928992271 50.660895466804504 57.572811588644981 82.214151069521904 367.04574985802174 44.044192612171173
leaf_count=212 232 208 412 214 363 217 239 357 1582 197
internal_value=0.00105565 -0.00314579 0.000673186 -0.00990487 0.00367283 0.00356193 0.00928887 0.00217796 0.00342751 -0.00454204
internal_weight=971.382 358.237 226.952 131.285 180.471 613.145 113.224 499.921 449.26 89.1906
internal_count=4233 1606 987 619 775 2627 471 2156 1939 405
is_linear=0
shrinkage=0.0299311


Tree=71
num_leaves=8
num_cat=0
split_feature=6 2 1 15 15 7 6
split_gain=13.0276 19.9604 17.1947 11.0978 21.8554 9.73755 8.80052
threshold=0.0097726269204468225 0.99784859690604777 0.98383822797404996 0.93647780246672629 0.95971433195090472 0.049410112219148268 0.012546266646516818
decision_type=2 2 2 2 2 2 2
left_child=2 6 -1 -4 -5 -3 -2
right_child=1 5 3 4 -6 -7 -8
leaf_value=0.016779274251517807 0.0064940161544254438 -0.030389624723577369 -0.012100112016536995 0.018123859459340481 -0.0010918989595641261 -0.0075722992159226454 -0.0090751225252710017
leaf_weight=53.231138214468956 70.625610917806625 38.353419467806816 66.484412014484406 56.476529702544212 592.35947969555855 39.107760116457939 57.210676893591881
leaf_count=218 308 197 288 235 2543 198 267
internal_value=-0.00114611 -0.00782343 0.000610655 -0.000585331 0.000574936 -0.0196498 -0.00026412
internal_weight=973.849 205.297 768.552 715.32 648.836 77.4612 127.836
internal_count=4254 970 3284 3066 2778 395 575
is_linear=0
shrinkage=0.0299311


Tree=72
num_leaves=9
num_cat=0
split_feature=6 1 7 7 7 17 13 1
split_gain=9.3001 13.6999 7.08064 16.7035 13.0553 12.6483 10.0262 7.90917
threshold=0.011586348726612817 1.0003950441338354 0.037271614058527303 0.028256444302806206 0.053930553662395929 0.07595666511652395 -0.5 1.0140366552158981
decision_type=2 2 2 2 2 2 2 2
left_child=2 -2 3 5 7 -1 -5 -4
right_child=1 -3 4 6 -6 -7 -8 -9
leaf_value=0.0056403941587472792 -0.018212730860209209 0.0029176353880811397 0.016042811236873143 0.00045706883863071786 -0.0054122640744808511 -0.0037514714490051474 -0.015163064252372679 0.00028920650683367927
leaf_weight=277.01873379945755 61.238187938928604 44.288317397236824 84.210160225629807 50.801391020417213 65.493672505021095 233.70905555784702 103.52107347548008 48.919379130005836
leaf_count=1163 284 225 367 220 299 994 459 222
internal_value=-0.000827215 -0.00914985 0.000169673 -0.00127657 0.00513573 0.00128476 -0.00987407 0.0105544
internal_weight=969.2 105.527 863.673 665.05 198.623 510.728 154.322 133.13
internal_count=4233 509 3724 2836 888 2157 679 589
is_linear=0
shrinkage=0.0299311


Tree=73
num_leaves=9
num_cat=0
split_feature=16 13 7 8 7 7 7 14
split_gain=12.5981 8.66706 7.90713 16.8836 7.34268 11.3794 9.3303 5.02073
threshold=0.6963306456215822 0.1294095225512602 0.015979538059040062 0.59135646885549409 0.037271614058527303 0.053930553662395929 0.031497781526107313 54.971475699521044
decision_type=2 2 2 2 2 2 2 2
left_child=1 7 3 -2 6 -6 -4 -1
right_child=2 -3 4 -5 5 -7 -8 -9
leaf_value=-0.0081012444282934793 0 -0.018422061432768949 0.00029915720037863229 0.01938619030592207 0.010085965464780499 -0.002123184063025441 -0.010726292039339284 0.0046220956610405033
leaf_weight=60.261663660407066 95.266828089952469 43.840666264295578 304.50538830459118 65.792405769228935 142.74362348020077 122.69275461137295 85.395071342587471 46.018461093306541
leaf_count=266 389 203 1304 267 633 571 378 207
internal_value=0.000506082 -0.0073728 0.00200404 0.00792333 0.000486707 0.00434957 -0.00207215 -0.00232231
internal_weight=966.517 150.121 816.396 161.059 655.337 265.436 389.9 106.28
internal_count=4218 676 3542 656 2886 1204 1682 473
is_linear=0
shrinkage=0.0299311


Tree=74
num_leaves=6
num_cat=0
split_feature=6 11 18 3 18
split_gain=12.7014 10.0284 9.40604 6.11154 4.85969
threshold=0.010629817850528816 0.28137231893827103 -0.45067622359203502 27.841202847014255 -0.89828494273871018
decision_type=2 2 2 2 2
left_child=1 -1 -2 -3 -5
right_child=2 3 -4 4 -6
leaf_value=-0.01160644149717084 -0.00047300799457123549 0.011375958196780452 -0.015818850508318678 0.00654131230378546 0
leaf_weight=50.62228362262249 75.408787116408348 55.519710794091225 74.937137916684151 119.84409637749195 588.55706679821014
leaf_count=235 348 229 370 507 2527
internal_value=-0.000444713 0.00100202 -0.00841059 0.00190039 0.00109031
internal_weight=964.889 814.543 150.346 763.921 708.401
internal_count=4216 3498 718 3263 3034
is_linear=0
shrinkage=0.0299311


Tree=75
num_leaves=10
num_cat=0
split_feature=6 15 17 14 16 18 14 17 18
split_gain=13.7728 12.1203 18.2306 12.169 11.8438 9.99105 12.9633 9.7243 7.77956
threshold=0.0070446899779385173 1.0116552590520986 -0.86519210053601492 44.480585073350099 1.3005269546686125 -0.71879035006347225 44.336317025706244 0.92514144244923358 -0.453817220159561
decision_type=2 2 2 2 2 2 2 2 2
left_child=4 3 -3 8 5 -1 -7 -4 -2
right_child=1 2 7 -5 -6 6 -8 -9 -10
leaf_value=-0.0076732119952352077 0.0057629916425861157 0.015886987655379114 -0.0057615308912141224 -0.017475439464251591 0.01738340941032462 0.016422800590476901 0.0015208960528574516 0.0095108674342592944 -0.0084773736818785535
leaf_weight=68.841763839125633 55.404555678367615 58.066353321075439 184.470787525177 79.322182297706604 53.758891597390175 65.631679639220238 264.99611143767834 44.077119097113609 80.462491288781166
leaf_count=290 244 250 854 349 221 275 1122 203 370
internal_value=0.000514052 -0.00286129 0.00107855 -0.00821844 0.0043152 0.00241684 0.00463706 -0.00263686 -0.00244861
internal_weight=955.032 501.803 286.614 215.189 453.228 399.47 330.628 228.548 135.867
internal_count=4178 2270 1307 963 1908 1687 1397 1057 614
is_linear=0
shrinkage=0.0299311


Tree=76
num_leaves=11
num_cat=0
split_feature=6 2 15 2 17 7 7 2 2 7
split_gain=11.4929 12.3677 9.19443 14.5566 9.00657 7.45803 7.89783 5.6114 4.30131 2.69085
threshold=0.0068761016337848995 1.0105960737244726 1.0183296717381227 0.99571698516648899 -1.5685925544130408 0.020586262307202081 0.038269482679522716 1.0366591775387473 0.9816665139086389 0.015033738496353618
decision_type=2 2 2 2 2 2 2 2 2 2
left_child=1 2 8 -4 -2 -6 -7 9 -1 -3
right_child=4 7 3 -5 5 6 -8 -9 -10 -11
leaf_value=0.0080418582756254242 0.0091030204302588753 -0.01110013651859388 -0.0095895953215550077 0.012248101804567382 0.0068330390576131885 -0.0098140693185974365 -0.0015838215139312966 0.0041961334477632261 0.021716832979053705 -0.0014713480613240859
leaf_weight=57.378098264336586 46.773564860224724 49.014328137040138 48.264063537120819 57.627160683274269 45.073447227478027 205.31325668096542 233.74063473939896 83.974620804190636 48.961032912135124 73.040539011359215
leaf_count=239 196 202 201 241 188 925 1084 359 201 315
internal_value=-7.90379e-05 0.00359075 0.00865565 0.00201598 -0.00302974 -0.00429147 -0.00552392 -0.0015064 0.014854 -0.00568047
internal_weight=949.161 418.26 212.23 105.891 530.901 484.127 439.054 206.029 106.339 122.055
internal_count=4151 1758 882 442 2393 2197 2009 876 440 517
is_linear=0
shrinkage=0.0299311


Tree=77
num_leaves=13
num_cat=0
split_feature=2 14 14 9 2 7 2 8 7 14 12 11
split_gain=11.1322 12.6327 29.1396 19.3929 12.1428 11.949 14.4633 10.5891 8.05063 16.3598 7.62985 5.86891
threshold=1.0105960737244726 55.368106479266224 45.953633975745035 32.849570502646742 0.99177148382327007 0.020586262307202081 1.0290867922462463 0.3683146084841612 0.039236294101660289 54.198722214897657 0.25881904510252091 0.65177940661783806
decision_type=2 2 2 2 2 2 2 2 2 2 2 2
left_child=1 2 3 -1 -3 6 -2 -4 10 -10 -7 -8
right_child=5 4 7 -5 -6 8 11 -9 9 -11 -12 -13
leaf_value=-0.010691455089589274 -0.008919399141600377 -0.015465250370108961 0.0065227510620265959 0.0059471665219839147 0.0021524545018023339 -0.017873916138500198 0.00013818534626392796 0.023591989589170321 -0.01658089693900798 0.0065996622762579844 -0.0032199912944195245 0.014889562630679169
leaf_weight=102.7144460529089 61.317781060934067 56.87945830821991 68.558901846408844 154.93832591176033 80.577386558055878 89.458218440413475 45.898784354329109 77.792773187160492 40.574455961585045 74.123505368828773 59.066267624497414 62.009188205003738
leaf_count=447 256 245 285 669 345 415 197 325 190 363 272 254
internal_value=-0.000154166 0.00266946 0.00536856 -0.000593536 -0.0050138 -0.00375673 0.00229826 0.0159623 -0.00775507 -0.00145518 -0.012348 0.00898949
internal_weight=973.909 541.461 404.004 257.653 137.457 432.448 169.226 146.352 263.222 114.698 148.524 107.908
internal_count=4263 2316 1726 1116 590 1947 707 610 1240 553 687 451
is_linear=0
shrinkage=0.0299311


Tree=78
num_leaves=8
num_cat=0
split_feature=11 6 16 15 15 8 15
split_gain=11.0353 8.59316 7.61946 7.18129 11.3893 5.01402 3.63191
threshold=0.29969408142601728 0.008425565017925114 1.4096306188838177 1.1450852383516743 1.0386313938815728 0.63458151397995588 1.1046270062719852
decision_type=2 2 2 2 2 2 2
left_child=-1 2 6 4 -3 -5 -2
right_child=1 3 -4 5 -6 -7 -8
leaf_value=-0.012036956554640051 0.001974798657918257 -0.0030381347174305759 0.012353298530078962 0.0087626981822446891 -0.019482786416738437 -0.0050458985042374227 -0.0036423323368436409
leaf_weight=77.356515228748322 416.18146122992039 140.5206024646759 53.049308136105537 48.184027507901192 53.737113669514656 40.660148561000824 133.35393011569977
leaf_count=366 1745 645 219 230 246 198 571
internal_value=-0.00130602 -0.000313934 0.00166978 -0.00462902 -0.00786748 0.00212824 0.000549516
internal_weight=963.043 885.687 602.585 283.102 194.258 88.8442 549.535
internal_count=4220 3854 2535 1319 891 428 2316
is_linear=0
shrinkage=0.0299311


end of trees

feature_importances:
rsi_14_1d=103
bb_width=68
atr_14_pct=60
ma_50_1d_ratio=51
return_skew_20=51
funding_rate_zscore=51
vol_ratio_7_30=48
ma_30_ratio=42
ma_200_ratio=42
volume_ratio=39
adx_14=34
macd_hist=27
rsi_14=20
bb_position=15
hour_sin=9
hour_cos=9
stoch_k=7
ma_10_ratio=5
return_1=3

parameters:
[boosting: gbdt]
[objective: binary]
[metric: binary_logloss]
[tree_learner: serial]
[device_type: cpu]
[data_sample_strategy: bagging]
[data: ]
[valid: ]
[num_iterations: 2000]
[learning_rate: 0.0299311]
[num_leaves: 23]
[num_threads: 1]
[seed: 42]
[deterministic: 1]
[force_col_wise: 0]
[force_row_wise: 0]
[histogram_pool_size: -1]
[max_depth: 4]
[min_data_in_leaf: 196]
[min_sum_hessian_in_leaf: 0.001]
[bagging_fraction: 0.530472]
[pos_bagging_fraction: 1]
[neg_bagging_fraction: 1]
[bagging_freq: 1]
[bagging_seed: 400]
[bagging_by_query: 0]
[feature_fraction: 0.500554]
[feature_fraction_bynode: 1]
[feature_fraction_seed: 30056]
[extra_trees: 0]
[extra_seed: 12879]
[early_stopping_round: 0]
[early_stopping_min_delta: 0]
[first_metric_only: 0]
[max_delta_step: 0]
[lambda_l1: 1.02111]
[lambda_l2: 1.63009]
[linear_lambda: 0]
[min_gain_to_split: 0]
[drop_rate: 0.1]
[max_drop: 50]
[skip_drop: 0.5]
[xgboost_dart_mode: 0]
[uniform_drop: 0]
[drop_seed: 17869]
[top_rate: 0.2]
[other_rate: 0.1]
[min_data_per_group: 100]
[max_cat_threshold: 32]
[cat_l2: 10]
[cat_smooth: 10]
[max_cat_to_onehot: 4]
[top_k: 20]
[monotone_constraints: ]
[monotone_constraints_method: basic]
[monotone_penalty: 0]
[feature_contri: ]
[forcedsplits_filename: ]
[refit_decay_rate: 0.9]
[cegb_tradeoff: 1]
[cegb_penalty_split: 0]
[cegb_penalty_feature_lazy: ]
[cegb_penalty_feature_coupled: ]
[path_smooth: 0]
[interaction_constraints: ]
[verbosity: -1]
[saved_feature_importance_type: 0]
[use_quantized_grad: 0]
[num_grad_quant_bins: 4]
[quant_train_renew_leaf: 0]
[stochastic_rounding: 1]
[linear_tree: 0]
[max_bin: 255]
[max_bin_by_feature: ]
[min_data_in_bin: 3]
[bin_construct_sample_cnt: 200000]
[data_random_seed: 175]
[is_enable_sparse: 1]
[enable_bundle: 1]
[use_missing: 1]
[zero_as_missing: 0]
[feature_pre_filter: 1]
[pre_partition: 0]
[two_round: 0]
[header: 0]
[label_column: ]
[weight_column: ]
[group_column: ]
[ignore_column: ]
[categorical_feature: ]
[forcedbins_filename: ]
[precise_float_parser: 0]
[parser_config_file: ]
[objective_seed: 16083]
[num_class: 1]
[is_unbalance: 0]
[scale_pos_weight: 1]
[sigmoid: 1]
[boost_from_average: 1]
[reg_sqrt: 0]
[alpha: 0.9]
[fair_c: 1]
[poisson_max_delta_step: 0.7]
[tweedie_variance_power: 1.5]
[lambdarank_truncation_level: 30]
[lambdarank_norm: 1]
[label_gain: ]
[lambdarank_position_bias_regularization: 0]
[eval_at: ]
[multi_error_top_k: 1]
[auc_mu_weights: ]
[num_machines: 1]
[local_listen_port: 12400]
[time_out: 120]
[machine_list_filename: ]
[machines: ]
[gpu_platform_id: -1]
[gpu_device_id: -1]
[gpu_use_dp: 0]
[num_gpu: 1]

end of parameters

pandas_categorical:[]
