tree
version=v4
num_class=1
num_tree_per_iteration=1
label_index=0
max_feature_idx=51
objective=huber
feature_names=is_gap_filled ma_10 rsi_14 volume_ma_20 atr_14 ma_10_ratio ma_30_ratio ma_200_ratio macd_hist bb_width bb_position atr_14_pct adx_14 stoch_k obv return_1 return_10 high_low_ratio body_ratio volume_change volume_ratio vol_ratio_7_30 return_skew_20 return_kurt_20 upper_shadow_ratio lower_shadow_ratio volume_skew_20 price_volume_corr_20 hour_sin hour_cos dow_sin dow_cos rsi_14_4h atr_14_4h adx_14_4h bb_position_4h rsi_14_1d ma_50_1d_ratio atr_14_1d adx_14_1d bb_position_1d atr_ratio_1h_1d funding_rate funding_rate_ma_8 funding_rate_zscore funding_rate_change funding_rate_streak oi_ma_ratio oi_change_1h oi_change_24h oi_zscore oi_price_divergence
feature_infos=none [50884.869999999995:107256.86000000002] [3.3524097260552992:98.295538757966085] [497.20884999999998:26525.634849999995] [81.421428571429715:1987.3500000000001] [0.9282785459340519:1.0532712898913146] [0.87875853586900654:1.0844139724007646] [0.7795100955013029:1.1856964932129814] [-813.21435290308398:685.55567133504405] [0.0029093838210345856:0.22734246689125856] [-0.45748141882759219:1.4629881476153488] [0.0012677903833889944:0.038271628713109629] [7.061020277189626:98.937580500733787] [0:100] [-1468622.382999999:126023.93400000044] [-0.045467330160103847:0.043012005358925576] [-0.12790510839028968:0.09812979928132548] [0.00057346221987382982:0.096603378238780235] [-1:1] [-0.87260017020514424:16.157766532315126] [0.077393029546948669:8.7551525217756545] [0.32273547794692892:2.4414265391868195] [-3.2354497637095099:3.6942382303447672] [-1.5975797675124381:15.326307694541953] [0:3.0955924647684725] [0:3.5144260333394288] [-0.76955338144213048:4.2990698901189131] [-0.94711780657482825:0.91457301168946636] [-1:1] [-1:1] [-0.97492791218182362:0.97492791218182362] [-0.90096886790241903:1] [4.3857980059365218:98.172245526924058] [311.25000000000102:3088.0642857142843] [6.2972659887618097:89.710755151999521] [-0.44816395145751337:1.4176059697490382] [15.194615971692215:90.923160103372496] [0.79347929821036078:1.4331232090152759] [1646.8642857142845:4886.864285714285] [8.0788666729203147:80.838528433180073] [-0.25516690339249382:1.2615666076982552] [0.047747102460029868:0.85254424735224399] [-0.00015398000000000001:0.0011278799999999999] [-9.0698749999999989e-05:0.00071339250000000004] [-13.784237675151498:13.179176523500747] [-0.00063907000000000005:0.00077364999999999997] [-9:119] [0.85667234030639827:1.0884480782308048] [-0.074945222861083516:0.059558124381775768] [-0.19162407536423809:0.10398951052180938] [-5.0781845814005679:4.4442193559342362] [-0.0096272897662109305:0.030123069168466632]
tree_sizes=953 891 883 888 786 701 981 880 980 881 1000 717 898 781 807 983 985 714 977 770 987 912 695 908 713 892 983 983 965 940 960 878 986 968 1002 895 797 964 978 901 808 852 961 786 964 781 995 979 969 1000 868 965 947 939 912 995 899 975 954 974 978 959 967 972 1003 982 962 987 1002 969 995 974 998 949 943 985 952 995 982 976 1002 956 1001 981 983 963 989

Tree=0
num_leaves=9
num_cat=0
split_feature=7 41 1 39 36 39 39 39
split_gain=0.0527509 0.0303805 0.0175407 0.0244344 0.0171843 0.0169966 0.0147966 0.0103857
threshold=0.92975884155927813 0.25616240343446739 59496.765000000007 22.509846663031947 76.384163029862222 32.550738535477905 58.164018989398429 70.101213648016767
decision_type=2 2 2 2 2 2 2 2
left_child=1 -1 3 -2 5 -4 -5 -6
right_child=2 -3 4 6 7 -7 -8 -9
leaf_value=0.0016329285612341892 0.0013021097247273004 0.0026213766083103838 0.0015758774127951421 0.001965706125285213 0.0017710507982119737 0.0014296666965431695 0.0015918606253548149 0.0014049046586874572
leaf_weight=103 153 105 2440 397 588 2275 306 116
leaf_count=103 153 105 2440 397 588 2275 306 116
internal_value=0.0015771 0.00216631 0.00155677 0.00171345 0.00153076 0.00150389 0.00181274 0.00170105
internal_weight=6483 208 6275 856 5419 4715 703 704
internal_count=6483 208 6275 856 5419 4715 703 704
is_linear=0
shrinkage=1


Tree=1
num_leaves=8
num_cat=0
split_feature=7 34 1 14 39 39 4
split_gain=0.0494935 0.0239652 0.025459 0.0137642 0.0115161 0.0201908 0.00573894
threshold=0.92440666161737395 28.687222120340063 57747.150000000009 -1236790.6505 66.940445553571081 61.172143957643733 478.01428571428607
decision_type=2 2 2 2 2 2 2
left_child=-1 4 6 -4 5 -2 -3
right_child=1 2 3 -5 -6 -7 -8
leaf_value=0.00066707549400943161 7.4754547253728671e-05 5.9443955741339748e-05 0.00011109885594050845 -0.00010907151921306952 -0.00017873811802592948 0.00048187909208268907 0.00056051376454936198
leaf_weight=155 1571 100 423 3729 178 207 100
leaf_count=155 1571 100 423 3729 178 207 100
internal_value=1.95183e-06 -1.3415e-05 -6.36475e-05 -8.50048e-05 9.48954e-05 0.000126139 0.000344751
internal_weight=6463 6308 4352 4152 1956 1778 200
internal_count=6463 6308 4352 4152 1956 1778 200
is_linear=0
shrinkage=0.0377323


Tree=2
num_leaves=8
num_cat=0
split_feature=47 34 7 43 40 35 36
split_gain=0.0398992 0.0275342 0.0497787 0.0307393 0.0195042 0.0166417 0.0104645
threshold=0.93741462551852472 51.944237935048925 0.93169816838208841 0.00013207031250000005 0.051042936963718651 0.70568652889892236 81.472316084446604
decision_type=2 2 2 2 2 2 2
left_child=-1 2 -2 5 -4 -3 -5
right_child=1 3 4 6 -6 -7 -8
leaf_value=0.00074479274229537326 0.00085550041996213411 -0.00034838088795962312 0.00044104164157252664 0.00040861902752626635 0 -3.0252938210943595e-05 -3.105028943087473e-05
leaf_weight=101 102 745 147 152 4762 413 104
leaf_count=101 102 745 147 152 4762 413 104
internal_value=3.13925e-06 -7.57161e-06 3.2823e-05 -0.000155406 1.42146e-05 -0.000240825 0.000204339
internal_weight=6526 6425 5011 1414 4909 1158 256
internal_count=6526 6425 5011 1414 4909 1158 256
is_linear=0
shrinkage=0.0377323


Tree=3
num_leaves=8
num_cat=0
split_feature=7 34 1 36 43 39 16
split_gain=0.0477368 0.0200117 0.0249122 0.0145251 0.0132595 0.0119681 0.00648459
threshold=0.92440666161737395 21.731356940072317 58357.590000000004 58.677090451298064 2.0689062500000002e-05 66.940445553571081 0.01808219103618636
decision_type=2 2 2 2 2 2 2
left_child=-1 5 4 -4 -3 6 -2
right_child=1 2 3 -5 -6 -7 -8
leaf_value=0.00066079722592360434 0.00024138654512376501 -6.6729261480913586e-05 -0.00012179640016525992 6.2027711208661297e-06 0.0003710296789323243 -0.00016741389649601088 -2.92486229415857e-05
leaf_weight=151 715 112 3003 2012 296 129 101
leaf_count=151 715 112 3003 2012 296 129 101
internal_value=0 -1.61226e-05 -4.49944e-05 -6.91118e-05 0.00023454 0.000142349 0.000199668
internal_weight=6519 6368 5423 5015 408 945 816
internal_count=6519 6368 5423 5015 408 945 816
is_linear=0
shrinkage=0.0377323


Tree=4
num_leaves=7
num_cat=0
split_feature=11 6 38 34 43 7
split_gain=0.0411226 0.0280237 0.0248689 0.0177904 0.0259494 0.0194622
threshold=0.016253376596058047 1.0019059444268639 4633.0928571428585 48.88998201481531 0.00012794781250000003 0.95659997612543857
decision_type=2 2 2 2 2 2
left_child=2 -2 3 5 -5 -1
right_child=1 -3 -4 4 -6 -7
leaf_value=0.00032413514168929368 0.00084770832821670129 0 -0.00060703118564734088 -0.00018504363550574373 0.00020895077970299611 9.3314019483409689e-06
leaf_weight=303 134 97 99 1338 274 4297
leaf_count=303 134 97 99 1338 274 4297
internal_value=1.42967e-06 0.000495873 -1.56687e-05 -5.08043e-06 -0.000113833 3.15842e-05
internal_weight=6542 231 6311 6212 1612 4600
internal_count=6542 231 6311 6212 1612 4600
is_linear=0
shrinkage=0.0377323


Tree=5
num_leaves=6
num_cat=0
split_feature=47 38 4 6 34
split_gain=0.0342714 0.0235249 0.0211266 0.0452752 0.0215863
threshold=0.93741462551852472 4633.0928571428585 872.46071428571292 1.0082019904193398 21.292114470270658
decision_type=2 2 2 2 2
left_child=-1 2 4 -4 -2
right_child=1 -3 3 -5 -6
leaf_value=0.00068611447524021376 0.00014880881158740733 -0.00058630551897585932 0.00043886949578212997 -0.00020170113624975758 -5.7605533174791415e-05
leaf_weight=101 836 99 421 233 4816
leaf_count=101 836 99 421 233 4816
internal_value=0 -1.14772e-05 -1.30913e-06 0.000200429 -2.58679e-05
internal_weight=6506 6405 6306 654 5652
internal_count=6506 6405 6306 654 5652
is_linear=0
shrinkage=0.0377323


Tree=6
num_leaves=9
num_cat=0
split_feature=11 1 34 39 10 43 11 8
split_gain=0.0423617 0.0213662 0.02884 0.0197442 0.0169897 0.0149516 0.0201605 0.00611
threshold=0.016533237639073894 58725.17500000001 20.316309972450746 29.418410213320318 0.44818450365427165 1.9164687500000002e-05 0.010388841105370259 95.241417342913493
decision_type=2 2 2 2 2 2 2 2
left_child=1 5 7 -4 -2 -1 -7 -3
right_child=4 2 3 -5 -6 6 -8 -9
leaf_value=-0.00012233186877547264 0.00091692880278783828 0.00026078717073723935 1.7106531993708094e-05 -0.00013252342762593974 0.00011549859754798836 0.00014080812925626687 0.00073515372256048031 -6.4261763849970911e-06
leaf_weight=155 97 501 2072 2928 98 464 113 98
leaf_count=155 97 501 2072 2928 98 464 113 98
internal_value=3.40652e-06 -1.24626e-05 -3.85227e-05 -6.9181e-05 0.000550729 0.000177513 0.000269749 0.000205922
internal_weight=6526 6331 5599 5000 195 732 577 599
internal_count=6526 6331 5599 5000 195 732 577 599
is_linear=0
shrinkage=0.0377323


Tree=7
num_leaves=8
num_cat=0
split_feature=7 1 34 39 39 39 8
split_gain=0.0409809 0.018644 0.0245181 0.0225889 0.0187161 0.015474 0.00565483
threshold=0.92174044905972508 59394.955000000009 20.488559571223306 32.550738535477905 28.218062425138164 58.164018989398429 97.561701952109203
decision_type=2 2 2 2 2 2 2
left_child=-1 4 6 -4 -2 -6 -3
right_child=1 2 3 -5 5 -7 -8
leaf_value=0.00063952649026109297 -0.00017123221223298978 0.00024286291806214339 9.2743327610005794e-06 -0.00014955084028398362 0.0004068043141669239 2.6141807583548404e-05 -1.6431686146852432e-05
leaf_weight=139 184 486 2493 2459 373 325 97
leaf_count=139 184 486 2493 2459 373 325 97
internal_value=0 -1.33572e-05 -3.99929e-05 -6.82487e-05 0.000146062 0.000239425 0.000188253
internal_weight=6556 6417 5535 4952 882 698 583
internal_count=6556 6417 5535 4952 882 698 583
is_linear=0
shrinkage=0.0377323


Tree=8
num_leaves=9
num_cat=0
split_feature=11 7 1 34 39 39 51 31
split_gain=0.0392067 0.0236908 0.0163334 0.0212862 0.0208208 0.0195168 0.0127235 0.00528034
threshold=0.016253376596058047 0.95078072514908196 59496.765000000007 20.488559571223306 32.550738535477905 22.509846663031947 -0.00034753053704679427 -0.22252093395631442
decision_type=2 2 2 2 2 2 2 2
left_child=2 -2 5 7 -5 -1 -7 -4
right_child=1 -3 3 4 -6 6 -8 -9
leaf_value=-0.00022339406416437165 0.00093858167107851813 0.00010374633577924265 1.7061624132602884e-05 3.9902456026213016e-06 -0.00015035948551874611 0.00052588922762962617 0.00011848548172098072 0.00028291867333716999
leaf_weight=167 97 139 254 2471 2349 158 611 303
leaf_count=167 97 139 254 2471 2349 158 611 303
internal_value=0 0.000477397 -1.70627e-05 -4.33238e-05 -6.98509e-05 0.000126528 0.00021141 0.00017394
internal_weight=6549 236 6313 5377 4820 936 769 557
internal_count=6549 236 6313 5377 4820 936 769 557
is_linear=0
shrinkage=0.0377323


Tree=9
num_leaves=8
num_cat=0
split_feature=47 34 7 43 1 14 2
split_gain=0.0278316 0.020821 0.0375409 0.024618 0.0163329 0.0155249 0.00906325
threshold=0.93741462551852472 51.944237935048925 0.93401308684745699 0.00012794781250000003 62034.390000000007 -1249646.5534999999 52.741847199248866
decision_type=2 2 2 2 2 2 2
left_child=-1 2 -2 5 -4 -3 -5
right_child=1 3 4 6 -6 -7 -8
leaf_value=0.00062417829663037692 0.00072188535182624892 0.00014523865653916974 0.00012462324261679276 0.00040087868972276351 -3.0035381309075921e-05 -0.00026750514761351377 0
leaf_weight=100 108 126 1329 130 3525 1012 142
leaf_count=100 108 126 1329 130 3525 1012 142
internal_value=1.44738e-06 -7.35389e-06 2.78897e-05 -0.000136085 1.094e-05 -0.000215832 0.000172568
internal_weight=6472 6372 4962 1410 4854 1138 272
internal_count=6472 6372 4962 1410 4854 1138 272
is_linear=0
shrinkage=0.0377323


Tree=10
num_leaves=9
num_cat=0
split_feature=47 34 43 1 37 36 14 43
split_gain=0.0278543 0.0190524 0.021757 0.0164553 0.0162409 0.0156281 0.014419 0.011388
threshold=0.93741462551852472 51.944237935048925 0.00012794781250000003 62034.390000000007 1.3044720092423525 58.1337478191709 -1225229.6769999999 1.9164687500000002e-05
decision_type=2 2 2 2 2 2 2 2
left_child=-1 3 6 7 -4 -5 -3 -2
right_child=1 2 4 5 -6 -7 -8 -9
leaf_value=0.00061121494659806144 -4.2126789269921022e-05 0.00014125332742100585 0.00054452212736596931 -9.6703958949765541e-05 -4.330556556740162e-05 6.0098794203840544e-05 -0.00026200553352401262 0.00019166021381680635
leaf_weight=102 352 121 99 1936 150 1653 1004 1059
leaf_count=102 352 121 99 1936 150 1653 1004 1059
internal_value=-3.32858e-06 -1.42975e-05 -0.000139291 1.87252e-05 0.000164585 -2.2616e-05 -0.000212591 0.000128589
internal_weight=6476 6374 1374 5000 249 3589 1125 1411
internal_count=6476 6374 1374 5000 249 3589 1125 1411
is_linear=0
shrinkage=0.0377323


Tree=11
num_leaves=6
num_cat=0
split_feature=47 38 33 34 14
split_gain=0.0285324 0.0215509 0.0167569 0.0256846 0.0109278
threshold=0.93741462551852472 4633.0928571428585 1459.732142857142 54.691228026745385 -1325503.8649999995
decision_type=2 2 2 2 2
left_child=-1 2 4 -4 -2
right_child=1 -3 3 -5 -6
leaf_value=0.00061173125652419144 0.0001683652476619832 -0.00055749542326430249 0.00021272484088616679 -0.00017052834715763972 -5.129992456450184e-05
leaf_weight=105 334 101 997 312 4668
leaf_count=105 334 101 997 312 4668
internal_value=-1.46153e-06 -1.26309e-05 -2.77212e-06 0.000116195 -3.52629e-05
internal_weight=6517 6412 6311 1309 5002
internal_count=6517 6412 6311 1309 5002
is_linear=0
shrinkage=0.0377323


Tree=12
num_leaves=8
num_cat=0
split_feature=11 2 38 34 43 33 1
split_gain=0.0280254 0.0260159 0.0181992 0.015676 0.0208712 0.0181638 0.0104308
threshold=0.014842422774207708 56.771511958134667 4633.0928571428585 47.130561730729035 0.00013812093750000001 1459.732142857142 64135.670000000006
decision_type=2 2 2 2 2 2 2
left_child=2 6 3 5 -5 -1 -2
right_child=1 -3 -4 4 -6 -7 -8
leaf_value=-2.4699029407963765e-06 0.00084294095061616925 -8.5215055682500674e-05 -0.00052434140200779153 -0.00015700420882893603 0.00020270778260944486 0.00019938356961327004 0.0002044707460352344
leaf_weight=3533 119 109 98 1519 255 757 103
leaf_count=3533 119 109 98 1519 255 757 103
internal_value=1.53517e-06 0.000340226 -1.56126e-05 -6.21042e-06 -0.00010144 3.16154e-05 0.000578786
internal_weight=6493 331 6162 6064 1774 4290 222
internal_count=6493 331 6162 6064 1774 4290 222
is_linear=0
shrinkage=0.0377323


Tree=13
num_leaves=7
num_cat=0
split_feature=11 38 6 33 37 7
split_gain=0.0311284 0.0205083 0.0170273 0.0122252 0.02069 0.011499
threshold=0.016253376596058047 4633.0928571428585 0.99982575143839336 1459.732142857142 0.93485114067450648 1.081269635249654
decision_type=2 2 2 2 2 2
left_child=1 3 -2 5 -5 -1
right_child=2 -3 -4 4 -6 -7
leaf_value=-4.6975937178709796e-05 0.0007443682269467855 -0.00055080555155547547 0 0.00058461518665117338 4.0275415943576582e-05 0.00027535982758746376
leaf_weight=4868 119 101 98 114 1075 157
leaf_count=4868 119 101 98 114 1075 157
internal_value=-2.27687e-06 -1.85945e-05 0.000439955 -8.78837e-06 9.8496e-05 -3.55229e-05
internal_weight=6532 6315 217 6214 1189 5025
internal_count=6532 6315 217 6214 1189 5025
is_linear=0
shrinkage=0.0377323


Tree=14
num_leaves=7
num_cat=0
split_feature=11 7 38 36 50 40
split_gain=0.0246756 0.022388 0.017049 0.0117918 0.0235434 0.0132216
threshold=0.016253376596058047 0.96274972054186125 4633.0928571428585 54.565607979603506 -1.0042516933327144 0.61747353024392904
decision_type=2 2 2 2 2 2
left_child=2 -2 3 4 -1 -5
right_child=1 -3 -4 5 -6 -7
leaf_value=-0.0002635696644848317 0.00081850543246758483 6.5423542382872183e-06 -0.00049335380609652935 0.00028593519484335826 -1.6025892211774448e-06 2.1643083750330499e-05
leaf_weight=608 98 129 102 313 2743 2551
leaf_count=608 98 129 102 313 2743 2551
internal_value=1.69887e-06 0.000388327 -1.11819e-05 -2.12073e-06 -5.11931e-05 5.2949e-05
internal_weight=6544 227 6317 6215 3351 2864
internal_count=6544 227 6317 6215 3351 2864
is_linear=0
shrinkage=0.0377323


Tree=15
num_leaves=9
num_cat=0
split_feature=3 34 1 9 27 1 14 38
split_gain=0.0243072 0.0186137 0.0183318 0.0220199 0.0213973 0.0156601 0.0121364 0.0153537
threshold=6999.995100000001 26.757928754927299 57747.150000000009 0.067166456231847582 -0.23714353966016591 66788.835000000006 -1366796.3369999991 2068.6178571428586
decision_type=2 2 2 2 2 2 2 2
left_child=1 -1 -2 4 -4 -5 -3 -8
right_child=2 6 3 5 -6 -7 7 -9
leaf_value=7.5246481504033887e-05 0.00047799953869086487 0.00031092036234889135 -3.2896154447379417e-05 3.5749117367587301e-05 0.00036194788519686367 -0.00042434305781621182 -0.00029346144562957053 -6.1627741182500843e-05
leaf_weight=1449 204 100 290 224 458 166 497 3173
leaf_count=1449 204 100 290 224 458 166 497 3173
internal_value=0 -3.72665e-05 0.000142733 7.64183e-05 0.000200032 -0.000143396 -8.22999e-05 -9.49146e-05
internal_weight=6561 5219 1342 1138 748 390 3770 3670
internal_count=6561 5219 1342 1138 748 390 3770 3670
is_linear=0
shrinkage=0.0377323


Tree=16
num_leaves=9
num_cat=0
split_feature=47 34 7 43 37 36 35 26
split_gain=0.0219873 0.0183705 0.0256942 0.0220301 0.0236371 0.0179794 0.016038 0.0149981
threshold=0.93741462551852472 51.230274999154609 0.95659997612543857 0.00013207031250000005 1.3005279982754774 58.1337478191709 0.56344612278352701 0.92128631136134953
decision_type=2 2 2 2 2 2 2 2
left_child=-1 2 7 6 -5 -4 -3 -2
right_child=1 3 5 4 -6 -7 -8 -9
leaf_value=0.00053010933518487786 -9.457963854809635e-06 -0.00033917687473548338 -6.2273943734943916e-05 0.00062704155960273216 -6.9672528881568633e-05 9.0398334499383647e-05 -5.6896471944936756e-05 0.00047634384569609399
leaf_weight=108 97 590 2706 103 168 1847 692 267
leaf_count=108 97 590 2706 103 168 1847 692 267
internal_value=-5.50162e-07 -1.05154e-05 2.40805e-05 -0.000124327 0.000171558 0 -0.000192184 0.000328753
internal_weight=6578 6470 4917 1553 271 4553 1282 364
internal_count=6578 6470 4917 1553 271 4553 1282 364
is_linear=0
shrinkage=0.0377323


Tree=17
num_leaves=6
num_cat=0
split_feature=47 38 34 7 36
split_gain=0.0209543 0.01851 0.0135546 0.0298256 0.0210971
threshold=0.93741462551852472 4633.0928571428585 51.944237935048925 0.93401308684745699 40.457753201132476
decision_type=2 2 2 2 2
left_child=-1 2 3 -2 -4
right_child=1 -3 4 -5 -6
leaf_value=0.00054296681895220247 0.00062923206741501072 -0.00051025851773649883 -0.00044004515851934296 1.1400224956648288e-05 -3.456916569586797e-05
leaf_weight=98 114 103 228 4809 1162
leaf_count=98 114 103 228 4809 1162
internal_value=-9.8246e-07 -1.04093e-05 -1.12178e-06 2.71786e-05 -0.00010614
internal_weight=6514 6416 6313 4923 1390
internal_count=6514 6416 6313 4923 1390
is_linear=0
shrinkage=0.0377323


Tree=18
num_leaves=9
num_cat=0
split_feature=3 1 9 27 34 27 39 31
split_gain=0.0181829 0.0186342 0.0181838 0.0238284 0.0150089 0.0125512 0.0117429 0.015277
threshold=7030.0429250000007 57747.150000000009 0.071800007901510518 -0.15054275668148723 26.757928754927299 -0.47867247365792115 33.870083283633001 -0.22252093395631442
decision_type=2 2 2 2 2 2 2 2
left_child=4 -2 3 -3 -1 -4 -6 -8
right_child=1 2 5 -5 6 -7 7 -9
leaf_value=6.6594853180408666e-05 0.00046526431280811384 -3.0357454441715745e-05 9.5571541845593605e-05 0.00036850670379558404 -1.3444890565804714e-05 -0.00036255993812033986 0 -0.00024555637579089267
leaf_weight=1448 197 408 114 390 2153 202 642 980
leaf_count=1448 197 408 114 390 2153 202 642 980
internal_value=-1.68146e-06 0.000122808 5.59105e-05 0.000156352 -3.42301e-05 -0.000176269 -7.46898e-05 -0.000151795
internal_weight=6534 1311 1114 798 5223 316 3775 1622
internal_count=6534 1311 1114 798 5223 316 3775 1622
is_linear=0
shrinkage=0.0377323


Tree=19
num_leaves=7
num_cat=0
split_feature=7 34 38 39 36 1
split_gain=0.0175291 0.0152161 0.0146275 0.0108513 0.0273368 0.0127369
threshold=0.93401308684745699 55.285140452009443 4633.0928571428585 19.293128379898956 54.565607979603506 59394.955000000009
decision_type=2 2 2 2 2 2
left_child=1 -1 3 4 -2 -5
right_child=2 -3 -4 5 -6 -7
leaf_value=0.00058907502995583381 -0.00029841382197666417 0 -0.0004630371110487188 0.0001587520493430854 0.00033828489459507348 -9.202448762036191e-06
leaf_weight=131 457 135 100 732 112 4873
leaf_count=131 457 135 100 732 112 4873
internal_value=0 0.000300467 -1.17393e-05 -3.27836e-06 -0.000160978 1.15544e-05
internal_weight=6540 266 6274 6174 569 5605
internal_count=6540 266 6274 6174 569 5605
is_linear=0
shrinkage=0.0377323


Tree=20
num_leaves=9
num_cat=0
split_feature=1 39 34 39 43 14 39 1
split_gain=0.0191231 0.018361 0.0168463 0.0172574 0.0159222 0.0147486 0.014096 0.00937282
threshold=59496.765000000007 22.509846663031947 20.316309972450746 32.550738535477905 0.00014149296875000004 -457133.93549999991 58.164018989398429 57144.67500000001
decision_type=2 2 2 2 2 2 2 2
left_child=1 -1 -2 5 -5 -4 -3 -8
right_child=2 6 3 4 -6 -7 7 -9
leaf_value=-0.00018450880074799401 0.00016871901535127896 0.00036267081318157464 7.8313110705249201e-05 -0.00017799351132914175 2.9867934662470152e-05 -0.00012475055660893843 0.000166233783302625 -0.00026461091727742457
leaf_weight=166 559 487 1814 1804 667 694 240 97
leaf_count=166 559 487 1814 1804 667 694 240 97
internal_value=1.36102e-06 0.000154988 -2.49088e-05 -4.80221e-05 -0.000119176 1.94211e-05 0.000231647 2.19797e-05
internal_weight=6528 990 5538 4979 2471 2508 824 337
internal_count=6528 990 5538 4979 2471 2508 824 337
is_linear=0
shrinkage=0.0377323


Tree=21
num_leaves=8
num_cat=0
split_feature=11 34 40 43 37 14 14
split_gain=0.0182423 0.00982518 0.0204885 0.0155664 0.0167831 0.0128403 0.0120086
threshold=0.018220136314220314 51.230274999154609 0.051042936963718651 0.00012794781250000003 1.3005279982754774 -152433.53999999954 -1225229.6769999999
decision_type=2 2 2 2 2 2 2
left_child=1 2 -1 6 -5 -4 -3
right_child=-2 3 5 4 -6 -7 -8
leaf_value=0.00041239133340838073 0.00050451624307576925 0.00016415607470466484 2.2561438085055726e-05 0.00051380882701870887 -6.0996870038087206e-05 -0.00019400736013515721 -0.00019195867524151558
leaf_weight=180 100 132 4298 113 153 427 1129
leaf_count=180 100 132 4298 113 153 427 1129
internal_value=3.15938e-08 -6.83349e-06 1.80529e-05 -9.11356e-05 0.000158876 1.53675e-06 -0.000149271
internal_weight=6532 6432 4905 1527 266 4725 1261
internal_count=6532 6432 4905 1527 266 4725 1261
is_linear=0
shrinkage=0.0377323


Tree=22
num_leaves=6
num_cat=0
split_feature=41 38 43 37 38
split_gain=0.0167172 0.0119634 0.0107567 0.0188957 0.00758849
threshold=0.44556644641653426 4633.0928571428585 1.9164687500000002e-05 0.94084967431759392 2515.542857142857
decision_type=2 2 2 2 2
left_child=1 2 4 -4 -1
right_child=-2 -3 3 -5 -6
leaf_value=-0.00022113419919248716 0.00046667825903363161 -0.0004187202397096642 0.00023718329386382349 -6.3298082714412861e-08 0
leaf_weight=482 108 97 522 4926 374
leaf_count=482 108 97 522 4926 374
internal_value=2.35503e-06 -4.49113e-06 8.73043e-07 2.14692e-05 -0.00012226
internal_weight=6509 6401 6304 5448 856
internal_count=6509 6401 6304 5448 856
is_linear=0
shrinkage=0.0377323


Tree=23
num_leaves=8
num_cat=0
split_feature=47 34 7 14 43 40 22
split_gain=0.0172493 0.0125451 0.0190199 0.0151505 0.0179619 0.0149118 0.0145842
threshold=0.93741462551852472 47.130561730729035 0.95659997612543857 -1304338.6160000011 0.00013207031250000005 0.86629020414840796 -0.29439479704599086
decision_type=2 2 2 2 2 2 2
left_child=-1 2 6 -3 -5 -4 -2
right_child=1 3 5 4 -6 -7 -8
leaf_value=0.00049310293822970935 3.4375315277953418e-05 0.00030424772382860307 -2.3128313353648469e-05 -0.00017988576267835942 0.00011876129067819658 0.00019325537788653061 0.00061269996510814777
leaf_weight=98 167 119 3696 1457 328 515 133
leaf_count=98 167 119 3696 1457 328 515 133
internal_value=-3.70375e-07 -9.02103e-06 2.40905e-05 -9.09722e-05 -0.000121216 1.77391e-06 0.000314112
internal_weight=6513 6415 4511 1904 1785 4211 300
internal_count=6513 6415 4511 1904 1785 4211 300
is_linear=0
shrinkage=0.0377323


Tree=24
num_leaves=6
num_cat=0
split_feature=11 38 11 34 47
split_gain=0.0179312 0.0130853 0.00981735 0.0133797 0.0127921
threshold=0.016533237639073894 4633.0928571428585 0.008425565017925114 25.218613179628917 1.0472470724120326
decision_type=2 2 2 2 2
left_child=1 2 3 -1 -4
right_child=-2 -3 4 -5 -6
leaf_value=7.8580324588956417e-05 0.00035768613224748989 -0.00044418565805259743 9.0660509049706416e-05 -7.5835780426961928e-05 -0.00030931509617435917
leaf_weight=1028 193 97 1898 3188 114
leaf_count=1028 193 97 1898 3188 114
internal_value=0 -1.07217e-05 -2.83175e-06 -3.65825e-05 6.4538e-05
internal_weight=6518 6325 6228 4216 2012
internal_count=6518 6325 6228 4216 2012
is_linear=0
shrinkage=0.0377323


Tree=25
num_leaves=8
num_cat=0
split_feature=49 34 7 32 45 14 14
split_gain=0.021689 0.0135124 0.0264158 0.0132904 0.00964361 0.0072622 0.0043633
threshold=-0.06877497458719338 51.944237935048925 0.93401308684745699 59.059137297068169 7.0770000000000015e-05 -711991.27700000082 -656966.306500001
decision_type=2 2 2 2 2 2 2
left_child=-1 2 -2 5 -4 -3 -5
right_child=1 3 4 6 -6 -7 -8
leaf_value=0.00043173742842995825 0.00058019674525662068 -0.00034822634117866717 2.4386639048502893e-05 9.98861198533924e-05 -0.00014453890931624268 -7.2685193434956312e-05 -8.7029843765385154e-05
leaf_weight=162 116 374 4299 341 538 332 369
leaf_count=162 116 374 4299 341 538 332 369
internal_value=8.56624e-07 -9.10498e-06 1.91312e-05 -0.000112565 4.18671e-06 -0.000228402 0
internal_weight=6531 6369 4953 1416 4837 706 710
internal_count=6531 6369 4953 1416 4837 706 710
is_linear=0
shrinkage=0.0377323


Tree=26
num_leaves=9
num_cat=0
split_feature=36 36 9 7 32 46 31 39
split_gain=0.0137745 0.0216261 0.0152312 0.0121248 0.0123547 0.011782 0.00924875 0.00394603
threshold=29.224070819305314 39.1977992577335 0.052471444159461075 0.93909902155966785 65.307714891466375 2.5000000000000004 -0.22252093395631442 44.013513482162196
decision_type=2 2 2 2 2 2 2 2
left_child=2 5 -1 -3 -5 7 -7 -2
right_child=1 3 -4 4 -6 6 -8 -9
leaf_value=4.6661729170201337e-05 -0.00020642385747638768 0.00037633875034402757 0.00055339554019716677 -4.6823551362470873e-05 7.7594246509500668e-05 0.00020841437723601109 -0.00024820480646604452 -0.00056697137466811738
leaf_weight=393 186 119 122 3677 1629 112 134 149
leaf_count=393 186 119 122 3677 1629 112 134 149
internal_value=-5.26228e-06 -2.23284e-05 0.000180447 0 -7.35355e-06 -0.000240963 -1.30948e-05 -0.000387828
internal_weight=6521 6006 515 5425 5306 581 246 335
internal_count=6521 6006 515 5425 5306 581 246 335
is_linear=0
shrinkage=0.0377323


Tree=27
num_leaves=9
num_cat=0
split_feature=6 14 46 4 11 36 38 9
split_gain=0.0160163 0.00982344 0.0355949 0.0152185 0.0148853 0.013105 0.0119007 0.00646282
threshold=0.96173540927121282 -152433.53999999954 59.500000000000007 765.13214285714287 0.014842422774207708 52.472495949958109 2023.7178571428569 0.078714047946896307
decision_type=2 2 2 2 2 2 2 2
left_child=-1 4 3 -3 6 -4 -2 -6
right_child=1 2 5 -5 7 -7 -8 -9
leaf_value=0.00046648855357186151 -0.00014084412891150983 0.00046727020236336938 -9.3564863177119043e-05 -0.00011712795781619606 0.00055577657620576476 -0.000646492651510401 1.7918354187117091e-05 3.7901623716984671e-05
leaf_weight=103 776 127 143 98 98 177 4896 101
leaf_count=103 776 127 143 98 98 177 4896 101
internal_value=8.1296e-07 -5.67708e-06 -0.000159377 0.000183506 7.4677e-06 -0.000421252 -2.63597e-06 0.000327842
internal_weight=6519 6416 545 225 5871 320 5672 199
internal_count=6519 6416 545 225 5871 320 5672 199
is_linear=0
shrinkage=0.0377323


Tree=28
num_leaves=9
num_cat=0
split_feature=3 14 47 4 34 36 36 38
split_gain=0.0121404 0.0178119 0.0140622 0.0136456 0.0130261 0.0134817 0.0156472 0.0100789
threshold=6999.995100000001 -643984.50800000143 1.0248333761839579 814.14999999999998 26.757928754927299 39.1977992577335 31.041477477237482 4182.3821428571437
decision_type=2 2 2 2 2 2 2 2
left_child=4 3 -3 -2 -1 6 -6 -7
right_child=1 2 -4 -5 5 7 -8 -9
leaf_value=7.0437340291265669e-05 9.039598264241033e-05 3.4847409699195455e-05 -0.00044371517040511029 0.00046861732552958593 0 -1.0892415896107716e-06 -0.00043140050908779495 -0.00019268256171116644
leaf_weight=1417 430 560 100 249 242 2747 284 470
leaf_count=1417 430 560 100 249 242 2747 284 470
internal_value=4.62476e-07 0.000102657 -2.79768e-05 0.000239394 -2.47675e-05 -6.2612e-05 -0.000241535 -3.12126e-05
internal_weight=6499 1339 660 679 5160 3743 526 3217
internal_count=6499 1339 660 679 5160 3743 526 3217
is_linear=0
shrinkage=0.0377323


Tree=29
num_leaves=9
num_cat=0
split_feature=3 7 32 6 34 37 38 32
split_gain=0.0118726 0.0120069 0.0151451 0.020366 0.010366 0.00958933 0.0116498 0.00921428
threshold=6282.0456250000007 0.92440666161737395 47.074477682156036 1.0109695565983654 18.847439191716834 0.94084967431759392 2407.0357142857133 40.1523970434558
decision_type=2 2 2 2 2 2 2 2
left_child=4 -2 7 -4 -1 6 -6 -3
right_child=1 2 3 -5 5 -7 -8 -9
leaf_value=0.0001219384818331728 0.00042038670381524959 0 0.0003578047515078685 0 -0.00011053143015527531 -7.2455918429002592e-05 0.00025192658125580339 -0.00029960549296235154
leaf_weight=544 144 538 398 551 185 3696 303 188
leaf_count=544 144 538 398 551 185 3696 303 188
internal_value=1.14132e-06 8.40103e-05 5.08828e-05 0.000152422 -2.93295e-05 -5.06236e-05 0.000100823 -7.26256e-05
internal_weight=6547 1819 1675 949 4728 4184 488 726
internal_count=6547 1819 1675 949 4728 4184 488 726
is_linear=0
shrinkage=0.0377323


Tree=30
num_leaves=9
num_cat=0
split_feature=11 32 34 10 1 45 33 36
split_gain=0.0143771 0.0121871 0.0178465 0.0115803 0.0108648 0.0110067 0.0101088 0.0089591
threshold=0.016533237639073894 58.097226939404145 50.108148523209231 0.45633232238281246 57144.67500000001 7.0770000000000015e-05 1459.732142857142 29.224070819305314
decision_type=2 2 2 2 2 2 2 2
left_child=1 2 6 -2 -3 -6 -1 -4
right_child=3 4 7 -5 5 -7 -8 -9
leaf_value=-4.6395335516811083e-05 0.00058190091198737971 0.00039478395313950515 6.3076900354432303e-05 0 6.280915257504853e-05 -0.00019057315884448157 0.0001277474172471247 -0.00027027805250760361
leaf_weight=2459 106 128 101 98 2079 267 579 665
leaf_count=2459 106 128 101 98 2079 267 579 665
internal_value=0 -1.11002e-05 -5.4371e-05 0.000310068 5.27135e-05 3.10497e-05 -1.09686e-05 -0.000217541
internal_weight=6482 6278 3804 204 2474 2346 3038 766
internal_count=6482 6278 3804 204 2474 2346 3038 766
is_linear=0
shrinkage=0.0377323


Tree=31
num_leaves=8
num_cat=0
split_feature=38 1 39 39 34 36 31
split_gain=0.0110472 0.00891288 0.0143393 0.0136957 0.0134544 0.0149154 0.00413378
threshold=4633.0928571428585 59394.955000000009 28.218062425138164 58.164018989398429 18.729843783639236 54.565607979603506 -0.22252093395631442
decision_type=2 2 2 2 2 2 2
left_child=1 2 -1 -4 6 -6 -3
right_child=-2 4 3 -5 5 -7 -8
leaf_value=-0.00016188864413919547 -0.00038231623586428828 1.3036832830628958e-05 0.00032981802093055092 0 -9.2217567483275881e-05 3.6835445824391031e-05 0.00029017382711186149
leaf_weight=189 104 188 436 344 2587 2423 254
leaf_count=189 104 188 436 344 2587 2423 254
internal_value=6.36316e-07 7.93532e-06 0.000113903 0.000189438 -9.68143e-06 -2.84669e-05 0.000187721
internal_weight=6525 6421 969 780 5452 5010 442
internal_count=6525 6421 969 780 5452 5010 442
is_linear=0
shrinkage=0.0377323


Tree=32
num_leaves=9
num_cat=0
split_feature=11 32 34 14 45 11 34 40
split_gain=0.012514 0.00957535 0.0126373 0.0209423 0.00919943 0.0100168 0.00885083 0.00659426
threshold=0.018220136314220314 58.097226939404145 50.108148523209231 -152433.53999999954 7.0770000000000015e-05 0.0078170571093461299 67.727382405601375 0.79862985744186366
decision_type=2 2 2 2 2 2 2 2
left_child=1 2 3 -1 5 -3 -4 -6
right_child=-2 4 6 -5 7 -7 -8 -9
leaf_value=1.263631895525532e-05 0.00040651622008506378 8.8076420125709837e-06 -0.00025244225807608228 -0.00034149647585291507 -0.00032344163905079811 0.00018275451897748393 2.7686635923312438e-05 0
leaf_weight=2930 102 1437 620 256 149 773 161 149
leaf_count=2930 102 1437 620 256 149 773 161 149
internal_value=-4.59473e-06 -1.21613e-05 -4.94501e-05 -1.37947e-05 4.41386e-05 7.27358e-05 -0.000186135 -0.000145061
internal_weight=6577 6475 3967 3186 2508 2210 781 298
internal_count=6577 6475 3967 3186 2508 2210 781 298
is_linear=0
shrinkage=0.0377323


Tree=33
num_leaves=9
num_cat=0
split_feature=47 39 14 43 1 39 39 22
split_gain=0.0129986 0.00811057 0.0193462 0.0211248 0.0120659 0.0152786 0.0106804 0.00472865
threshold=0.93741462551852472 19.293128379898956 -477364.84700000094 2.8625312500000006e-05 59496.765000000007 23.695519941644267 58.164018989398429 0.10353136238232258
decision_type=2 2 2 2 2 2 2 2
left_child=-1 2 3 -2 6 -6 -3 -4
right_child=1 4 7 -5 5 -7 -8 -9
leaf_value=0.00041242885228214222 -0.00032314240085050091 0.00025846389294877038 -0.00015264938967543535 0.00022516645393936817 0.00019150775124148289 -2.9676003369939559e-05 -1.2716793753802465e-06 -0.0006579377363743076
leaf_weight=110 161 498 98 259 490 4505 320 97
leaf_count=110 161 498 98 259 490 4505 320 97
internal_value=7.3152e-06 0 -0.000129875 0 1.41209e-05 -6.60435e-06 0.000148756 -0.00044008
internal_weight=6538 6428 615 420 5813 4995 818 195
internal_count=6538 6428 615 420 5813 4995 818 195
is_linear=0
shrinkage=0.0377323


Tree=34
num_leaves=9
num_cat=0
split_feature=47 32 34 7 14 45 3 29
split_gain=0.0107841 0.00934394 0.0142389 0.0195512 0.00914175 0.00890206 0.0101303 0.00509413
threshold=0.93741462551852472 58.097226939404145 51.944237935048925 0.95659997612543857 -408714.14749999921 7.0770000000000015e-05 5815.8416250000009 -0.60355339059327384
decision_type=2 2 2 2 2 2 2 2
left_child=-1 2 3 -2 -4 6 -3 -7
right_child=1 5 4 -5 -6 7 -8 -9
leaf_value=0.00038979758395292128 0.00025566897040132675 2.3925885741228479e-05 -0.00025831592484123279 -3.978366450654464e-05 7.2625318145006477e-05 7.9405934434991877e-06 0.00020785678269491612 -0.00027177059972324639
leaf_weight=100 357 1598 584 2853 112 109 640 171
leaf_count=100 357 1598 584 2853 112 109 640 171
internal_value=2.06173e-06 -2.97946e-06 -4.04947e-05 -4.77301e-06 -0.000195396 5.2542e-05 7.95848e-05 -0.000139269
internal_weight=6524 6424 3906 3210 696 2518 2238 280
internal_count=6524 6424 3906 3210 696 2518 2238 280
is_linear=0
shrinkage=0.0377323


Tree=35
num_leaves=8
num_cat=0
split_feature=38 1 9 22 34 4 31
split_gain=0.0135499 0.0120838 0.0168178 0.0127379 0.0123534 0.0120313 0.00497831
threshold=4633.0928571428585 58357.590000000004 0.05456145177801159 -0.56394916488464719 20.488559571223306 944.73571428571415 -0.22252093395631442
decision_type=2 2 2 2 2 2 2
left_child=1 2 3 -1 6 -6 -3
right_child=-2 4 -4 -5 5 -7 -8
leaf_value=0.00030891122199220168 -0.00044167909510701747 1.4751035328360643e-06 0.00048719551214208297 -7.6029631080720884e-05 -5.4455704053888208e-05 0.00014022720940427396 0.00024394715773789287
leaf_weight=174 98 281 165 368 4604 485 331
leaf_count=174 98 281 165 368 4604 485 331
internal_value=-2.76486e-06 2.95744e-06 0.000150844 3.54653e-05 -1.4224e-05 -3.45612e-05 0.000143736
internal_weight=6506 6408 707 542 5701 5089 612
internal_count=6506 6408 707 542 5701 5089 612
is_linear=0
shrinkage=0.0377323


Tree=36
num_leaves=7
num_cat=0
split_feature=49 9 4 27 32 45
split_gain=0.0120414 0.0110822 0.0124419 0.0110557 0.0100073 0.00633405
threshold=-0.06877497458719338 0.082618119602362414 841.70357142857063 -0.4182217072511038 58.420252839505295 -1.0000000180025095e-35
decision_type=2 2 2 2 2 2
left_child=-1 2 4 -4 -2 -3
right_child=1 5 3 -5 -6 -7
leaf_value=0.00031368453255247011 -6.4061532521850803e-05 0 -0.00014408280500830212 0.00023247708123912318 3.9547622849687936e-05 -0.00043439659472594111
leaf_weight=162 3348 103 117 522 2119 137
leaf_count=162 3348 103 117 522 2119 137
internal_value=-4.96291e-06 -1.41971e-05 -3.17806e-06 0.000152929 -2.26742e-05 -0.000265638
internal_weight=6508 6346 6106 639 5467 240
internal_count=6508 6346 6106 639 5467 240
is_linear=0
shrinkage=0.0377323


Tree=37
num_leaves=9
num_cat=0
split_feature=1 39 39 34 39 36 43 1
split_gain=0.0109171 0.0134092 0.0133519 0.0123387 0.014649 0.014356 0.0121429 0.0076178
threshold=59394.955000000009 28.218062425138164 58.164018989398429 18.729843783639236 32.550738535477905 58.677090451298064 0.00014149296875000004 57144.67500000001
decision_type=2 2 2 2 2 2 2 2
left_child=1 -1 -3 -2 5 -5 -6 -4
right_child=3 2 7 4 6 -7 -8 -9
leaf_value=-0.00014361571099150803 0.00016917300013303646 0.00033211453860705734 0.00012814889927574788 -3.4438921741512839e-05 -0.00015336376047337283 0.0001542570057604769 2.2934947474185715e-05 -0.00026079710460768569
leaf_weight=194 439 429 246 1747 1848 833 707 99
leaf_count=194 439 429 246 1747 1848 833 707 99
internal_value=0 0.000117304 0.00019146 -1.99162e-05 -3.74155e-05 2.39127e-05 -0.00010196 0
internal_weight=6542 968 774 5574 5135 2580 2555 345
internal_count=6542 968 774 5574 5135 2580 2555 345
is_linear=0
shrinkage=0.0377323


Tree=38
num_leaves=9
num_cat=0
split_feature=36 36 34 1 38 9 46 34
split_gain=0.0110587 0.0163348 0.016761 0.0147256 0.00998355 0.00903135 0.00850601 0.00454524
threshold=29.224070819305314 39.1977992577335 47.723707018832734 61386.060000000012 4633.0928571428585 0.082618119602362414 2.5000000000000004 25.218613179628917
decision_type=2 2 2 2 2 2 2 2
left_child=3 2 6 -1 5 -3 -2 -5
right_child=1 4 -4 7 -6 -7 -8 -9
leaf_value=0.00034703123066755182 -0.00019632286196189113 2.4266178955662701e-05 -0.00048838261857353873 9.5904441101345563e-05 -0.00036346504320148134 -0.00021837123815416241 0.00014965583516838009 -0.00022692286793462717
leaf_weight=290 239 5095 199 107 101 224 158 112
leaf_count=290 239 5095 199 107 101 224 158 112
internal_value=0 -1.49758e-05 -0.000202598 0.000168029 4.4451e-06 1.27515e-05 -4.17159e-05 -3.88764e-05
internal_weight=6525 6016 596 509 5420 5319 397 219
internal_count=6525 6016 596 509 5420 5319 397 219
is_linear=0
shrinkage=0.0377323


Tree=39
num_leaves=8
num_cat=0
split_feature=11 32 51 3 34 14 43
split_gain=0.00950545 0.00914247 0.0103513 0.0126314 0.00995492 0.0157686 0.00633417
threshold=0.01766507653489827 58.097226939404145 0.0023487015550372925 7074.5604999999996 50.108148523209231 -546012.96700000053 9.997921875000002e-05
decision_type=2 2 2 2 2 2 2
left_child=1 4 3 -3 5 -1 -6
right_child=-2 2 -4 -5 6 -7 -8
leaf_value=5.0746830801305625e-05 0.00031658066905451406 2.596834411066372e-05 -0.00031178565946147471 0.0002685258265105187 -0.00021457550884123575 -0.00012551086675481498 3.8087199788030164e-05
leaf_weight=1994 132 2007 101 381 647 1120 126
leaf_count=1994 132 2007 101 381 647 1120 126
internal_value=0 -5.8447e-06 4.9369e-05 6.75627e-05 -4.29314e-05 -1.05072e-05 -0.000164713
internal_weight=6508 6376 2489 2388 3887 3114 773
internal_count=6508 6376 2489 2388 3887 3114 773
is_linear=0
shrinkage=0.0377323


Tree=40
num_leaves=7
num_cat=0
split_feature=11 9 1 3 32 34
split_gain=0.0126754 0.00931469 0.0130465 0.0118615 0.0146219 0.00914807
threshold=0.018220136314220314 0.082618119602362414 64597.37000000001 7030.0429250000007 45.061711454484637 28.687222120340063
decision_type=2 2 2 2 2 2
left_child=1 3 -3 5 -5 -1
right_child=-2 2 -4 4 -6 -7
leaf_value=4.9951123900411805e-05 0.00042295449895733293 1.7257844792694482e-05 -0.00049039006118463998 -2.4978872754067055e-05 0.00024972641567705877 -5.525080991700306e-05
leaf_weight=1714 99 106 132 458 568 3513
leaf_count=1714 99 106 132 458 568 3513
internal_value=1.57758e-07 -5.31073e-06 -0.000236916 2.46149e-06 0.000120638 -1.94661e-05
internal_weight=6590 6491 238 6253 1026 5227
internal_count=6590 6491 238 6253 1026 5227
is_linear=0
shrinkage=0.0377323


Tree=41
num_leaves=8
num_cat=0
split_feature=7 4 38 33 1 1 39
split_gain=0.0112705 0.0158508 0.00760455 0.0180374 0.00937438 0.0208197 0.0176141
threshold=0.92975884155927813 888.70357142857142 4438.3249999999998 1505.3357142857146 74023.060000000012 94435.465000000011 19.293128379898956
decision_type=2 2 2 2 2 2 2
left_child=1 -1 4 -4 6 -6 -2
right_child=2 -3 3 -5 5 -7 -8
leaf_value=-4.114717078297683e-06 -0.00023729529034980759 0.00059439300821919521 0.00017057738729519821 -0.00042533092856040437 0.0002969312932670657 -1.5069360940436099e-05 0
leaf_weight=101 494 107 97 188 453 815 4284
leaf_count=101 494 107 97 188 453 815 4284
internal_value=0 0.000272778 -8.93495e-06 -0.000199106 0 9.12248e-05 -2.41502e-05
internal_weight=6539 208 6331 285 6046 1268 4778
internal_count=6539 208 6331 285 6046 1268 4778
is_linear=0
shrinkage=0.0377323


Tree=42
num_leaves=9
num_cat=0
split_feature=1 6 4 7 32 31 12 40
split_gain=0.0102525 0.0106006 0.0103193 0.0159115 0.0127308 0.00978693 0.0115506 0.0114635
threshold=62034.390000000007 1.0381234119814173 898.24285714285736 0.96193836914448183 59.290731268513014 0.81174490092936691 37.056617898933219 0.46796687793507402
decision_type=2 2 2 2 2 2 2 2
left_child=5 2 4 -4 -2 6 -1 -8
right_child=1 -3 3 -5 -6 -7 7 -9
leaf_value=0.00014501079827981798 -9.6801315793291294e-05 -0.00040723733316314845 0.00047822248569890096 0 3.5235770162016054e-05 0.00032879203275382705 -0.00014961452625143385 0.00017954909289308749
leaf_weight=779 2432 104 140 411 1720 203 568 190
leaf_count=779 2432 104 140 411 1720 203 568 190
internal_value=0 -2.87482e-05 -1.88775e-05 0.000131617 -4.04901e-05 7.81176e-05 4.04762e-05 -5.81434e-05
internal_weight=6547 4807 4703 551 4152 1740 1537 758
internal_count=6547 4807 4703 551 4152 1740 1537 758
is_linear=0
shrinkage=0.0377323


Tree=43
num_leaves=7
num_cat=0
split_feature=11 10 38 33 14 39
split_gain=0.0094727 0.011007 0.00740327 0.00670184 0.0134698 0.0102909
threshold=0.016253376596058047 0.48991249059277547 4633.0928571428585 1459.732142857142 -516237.72600000101 14.542234028252677
decision_type=2 2 2 2 2 2
left_child=2 -2 3 5 -5 -1
right_child=1 -3 -4 4 -6 -7
leaf_value=-0.00034805317617601054 0.00048883176365756037 0 -0.00032626812388482341 0.00017133510846477617 -9.6916572701228378e-05 -5.3574727902768694e-06
leaf_weight=129 122 99 98 822 359 4850
leaf_count=129 122 99 98 822 359 4850
internal_value=5.80522e-06 0.000248375 -1.72046e-06 2.39692e-06 8.40961e-05 -1.56438e-05
internal_weight=6479 221 6258 6160 1181 4979
internal_count=6479 221 6258 6160 1181 4979
is_linear=0
shrinkage=0.0377323


Tree=44
num_leaves=9
num_cat=0
split_feature=7 4 39 36 33 1 46 39
split_gain=0.00914819 0.0134908 0.00787136 0.0173831 0.0136697 0.0121486 0.0100723 0.00929873
threshold=0.93401308684745699 923.57499999999925 19.293128379898956 54.565607979603506 964.68571428571511 97034.675000000003 95.500000000000014 28.965859656401186
decision_type=2 2 2 2 2 2 2 2
left_child=1 -1 3 4 -2 6 -4 -7
right_child=2 -3 5 -5 -6 7 -8 -9
leaf_value=0 -2.3440784969657182e-05 0.00056220572153297809 1.2368512511587451e-05 0.00024369071713945982 -0.0004692613436343702 1.9707668049399223e-05 0.00030599657422200903 -0.00027857792823160574
leaf_weight=154 238 100 5022 115 220 188 175 356
leaf_count=154 238 100 5022 115 220 188 175 356
internal_value=4.24227e-07 0.000222977 -7.49372e-06 -0.000141159 -0.000252709 4.6962e-06 2.35973e-05 -0.000163294
internal_weight=6568 254 6314 573 458 5741 5197 544
internal_count=6568 254 6314 573 458 5741 5197 544
is_linear=0
shrinkage=0.0377323


Tree=45
num_leaves=7
num_cat=0
split_feature=49 9 34 7 14 1
split_gain=0.00891084 0.0101605 0.0100212 0.0165412 0.0120838 0.00718021
threshold=-0.06877497458719338 0.082618119602362414 47.130561730729035 0.95659997612543857 -1308388.7760000012 66315.985000000015
decision_type=2 2 2 2 2 2
left_child=-1 2 3 -2 -4 -3
right_child=1 5 4 -5 -6 -7
leaf_value=0.00029111424733812907 0.00033605379026824082 0 0.00030710548993958338 1.4838528077353133e-05 -9.6279788628064251e-05 -0.00045965826621128261
leaf_weight=146 246 120 105 4054 1757 117
leaf_count=146 246 120 105 4054 1757 117
internal_value=0 -6.13497e-06 2.12676e-06 3.48405e-05 -6.97951e-05 -0.00024842
internal_weight=6545 6399 6162 4300 1862 237
internal_count=6545 6399 6162 4300 1862 237
is_linear=0
shrinkage=0.0377323


Tree=46
num_leaves=9
num_cat=0
split_feature=36 36 1 42 14 46 14 31
split_gain=0.00899879 0.01813 0.0112006 0.00951249 0.00762608 0.0296493 0.0173453 0.00549332
threshold=29.224070819305314 39.1977992577335 61386.060000000012 8.6410000000000021e-05 -152433.53999999954 59.500000000000007 -230783.16949999979 -0.22252093395631442
decision_type=2 2 2 2 2 2 2 2
left_child=2 3 -1 7 6 -6 -3 -2
right_child=1 4 -4 -5 5 -7 -8 -9
leaf_value=0.00030206616328114048 -0.00011068307361087399 1.5614846767689569e-07 -3.0773129508728033e-05 2.8268686113712734e-05 0.00019452509012822251 -0.00035480906069262994 0.00028388377053048373 -0.00043174346723354054
leaf_weight=296 213 4544 216 127 221 338 332 245
leaf_count=296 213 4544 216 127 221 338 332 245
internal_value=-1.78165e-06 -1.57181e-05 0.000148732 -0.000215416 4.57115e-06 -0.000125665 2.08989e-05 -0.000297557
internal_weight=6532 6020 512 585 5435 559 4876 458
internal_count=6532 6020 512 585 5435 559 4876 458
is_linear=0
shrinkage=0.0377323


Tree=47
num_leaves=9
num_cat=0
split_feature=7 4 9 1 3 7 30 34
split_gain=0.00931857 0.0187056 0.00966098 0.0137377 0.0126153 0.0166027 0.008289 0.00808377
threshold=0.95659997612543857 917.24999999999875 0.073839894593505498 65381.250000000007 7030.0429250000007 1.0062657748911052 -1.0000000180025095e-35 52.108771946990878
decision_type=2 2 2 2 2 2 2 2
left_child=1 7 4 -4 6 -6 -2 -1
right_child=2 -3 3 -5 5 -7 -8 -9
leaf_value=0.0001599922689522856 2.8372882383391522e-05 0.00045960082498596686 7.1876013273330312e-05 -0.00042211362519947374 -9.2821466317840283e-05 0.00028718394729073884 -6.8750639107757904e-05 -0.00014238967832561436
leaf_weight=258 2278 184 104 188 222 451 2618 240
leaf_count=258 2278 184 104 188 222 451 2618 240
internal_value=2.07635e-06 0.000134845 -1.22442e-05 -0.000223535 0 0.000151904 -2.21921e-05 8.038e-07
internal_weight=6543 682 5861 292 5569 673 4896 498
internal_count=6543 682 5861 292 5569 673 4896 498
is_linear=0
shrinkage=0.0377323


Tree=48
num_leaves=9
num_cat=0
split_feature=10 11 33 33 9 38 35 37
split_gain=0.00706386 0.0194077 0.0134696 0.013465 0.0129043 0.00907062 0.00894177 0.00934567
threshold=0.56747785303025589 0.013772794572391363 1986.7357142857143 1737.4571428571417 0.067166456231847582 2023.7178571428569 0.91029720525811209 0.9234483815294684
decision_type=2 2 2 2 2 2 2 2
left_child=1 4 6 -3 5 -1 7 -2
right_child=2 3 -4 -5 -6 -7 -8 -9
leaf_value=-0.00012248041996843474 0.00018943916396162779 0 -0.00032072458473970494 0.00055655391031175522 -0.00037675108932718089 5.5675498303586041e-05 9.1123964063676209e-05 -8.4808602804188596e-05
leaf_weight=467 181 108 229 165 116 2555 761 1940
leaf_count=467 181 108 229 165 116 2555 761 1940
internal_value=0 3.75637e-05 -4.1046e-05 0.000342921 8.77143e-06 2.5895e-05 -1.64039e-05 -5.81717e-05
internal_weight=6522 3411 3111 273 3138 3022 2882 2121
internal_count=6522 3411 3111 273 3138 3022 2882 2121
is_linear=0
shrinkage=0.0377323


Tree=49
num_leaves=9
num_cat=0
split_feature=37 38 30 36 44 44 36 46
split_gain=0.00804907 0.0170829 0.0139117 0.0101187 0.0118062 0.0149708 0.0105398 0.0148762
threshold=0.94764089374316507 2515.542857142857 0.6078576107927941 58.1337478191709 -0.40850362590767425 -0.70446103293094342 63.592389142835444 62.500000000000007
decision_type=2 2 2 2 2 2 2 2
left_child=1 -1 -3 4 5 -2 -5 -8
right_child=3 2 -4 6 -6 -7 7 -9
leaf_value=-5.6220262655872421e-05 -7.3449752338011721e-05 0.00037031156889182429 -1.8744664962574843e-05 0.00017455719184322391 -4.7729808136452193e-06 -0.00040235845188797735 2.9666698358782363e-05 -0.00028286218469317611
leaf_weight=479 841 377 152 580 1799 292 1772 245
leaf_count=479 841 377 152 580 1799 292 1772 245
internal_value=-1.09663e-06 9.57962e-05 0.000245993 -1.99884e-05 -6.8771e-05 -0.000164382 3.25052e-05 -5.06982e-06
internal_weight=6537 1008 529 5529 2932 1133 2597 2017
internal_count=6537 1008 529 5529 2932 1133 2597 2017
is_linear=0
shrinkage=0.0377323


Tree=50
num_leaves=8
num_cat=0
split_feature=47 34 40 14 14 37 22
split_gain=0.00719549 0.00719738 0.0114302 0.0240811 0.00890224 0.0121234 0.00385576
threshold=0.94209525128558502 47.130561730729035 0.86629020414840796 -152433.53999999954 -1225229.6769999999 1.1368247856603502 0.96413286519947272
decision_type=2 2 2 2 2 2 2
left_child=-1 2 3 -2 -3 -6 -4
right_child=1 4 6 -5 5 -7 -8
leaf_value=0.00027262331701564219 2.5478994126328633e-05 0.00016992806536949537 0.00024343780052492843 -0.00032149953701783726 -0.00015558015395541317 6.9575204110261106e-05 0
leaf_weight=135 3636 182 397 308 1289 415 118
leaf_count=135 3636 182 397 308 1289 415 118
internal_value=0 -4.81443e-06 2.01717e-05 0 -6.74313e-05 -9.67965e-05 0.000187255
internal_weight=6480 6345 4459 3944 1886 1704 515
internal_count=6480 6345 4459 3944 1886 1704 515
is_linear=0
shrinkage=0.0377323


Tree=51
num_leaves=9
num_cat=0
split_feature=37 38 33 36 39 44 44 1
split_gain=0.00718647 0.013309 0.0123634 0.0103613 0.0184172 0.0148564 0.0164095 0.012121
threshold=0.94871672818665864 2850.3428571428581 960.92142857142778 58.677090451298064 29.458234598655597 -0.40850362590767425 -0.70446103293094342 96890.785000000003
decision_type=2 2 2 2 2 2 2 2
left_child=1 2 -1 5 -5 6 -2 -6
right_child=3 -3 -4 4 7 -7 -8 -9
leaf_value=0.00014454736133393087 -7.8041177358275954e-05 0.00029169952206228579 -0.00017042675247225318 0.00020295855614233999 7.1632447366220423e-06 0 -0.00042427407624653896 -0.00031869826417417685
leaf_weight=390 857 328 324 713 1640 1823 284 176
leaf_count=390 857 328 324 713 1640 1823 284 176
internal_value=1.34837e-06 9.30716e-05 0 -1.484e-05 3.96359e-05 -6.35852e-05 -0.000170358 -2.08555e-05
internal_weight=6535 1042 714 5493 2529 2964 1141 1816
internal_count=6535 1042 714 5493 2529 2964 1141 1816
is_linear=0
shrinkage=0.0377323


Tree=52
num_leaves=9
num_cat=0
split_feature=36 36 37 42 1 1 39 14
split_gain=0.00749539 0.016474 0.00928681 0.00800279 0.00764559 0.014547 0.0115623 0.00634569
threshold=29.224070819305314 39.1977992577335 0.9234483815294684 8.6410000000000021e-05 97034.675000000003 74023.060000000012 28.938580119899065 -982808.55150000111
decision_type=2 2 2 2 2 2 2 2
left_child=2 3 -1 7 5 -3 -6 -2
right_child=1 4 -4 -5 6 -7 -8 -9
leaf_value=0.00029574476812309195 0 -1.9678548361657294e-07 0 2.5212912537259985e-05 7.5062295245853028e-05 0.00018278080888185051 -0.0002551461041309745 -0.00035428147884781596
leaf_weight=265 101 4141 255 117 217 712 359 350
leaf_count=265 101 4141 255 117 217 712 359 350
internal_value=5.38394e-07 -1.03463e-05 0.000138777 -0.000204047 8.71104e-06 2.52918e-05 -0.000119171 -0.000278326
internal_weight=6517 5997 520 568 5429 4853 576 451
internal_count=6517 5997 520 568 5429 4853 576 451
is_linear=0
shrinkage=0.0377323


Tree=53
num_leaves=9
num_cat=0
split_feature=7 4 36 36 9 3 7 37
split_gain=0.00695602 0.0193348 0.0077189 0.0144884 0.00768562 0.0136349 0.0117649 0.013376
threshold=0.96193836914448183 898.24285714285736 29.224070819305314 39.1977992577335 0.042636027488145906 6160.5522750000009 0.9966082504567616 1.0127904347901142
decision_type=2 2 2 2 2 2 2 2
left_child=1 2 -1 -4 5 -2 7 -6
right_child=4 -3 3 -5 6 -7 -8 -9
leaf_value=0.00023723826286007666 -1.8226773161636308e-05 0.0004139303459586728 -0.00044972676059033541 2.183876620696841e-05 0 0.00017537840364602967 -1.5119826542959427e-05 -0.00050934929934672013
leaf_weight=145 3909 210 114 372 163 593 821 183
leaf_count=145 3909 210 114 372 163 593 821 183
internal_value=0 0.000101074 0 -7.55722e-05 -1.51601e-05 5.8112e-06 -0.00010176 -0.000287428
internal_weight=6510 841 631 486 5669 4502 1167 346
internal_count=6510 841 631 486 5669 4502 1167 346
is_linear=0
shrinkage=0.0377323


Tree=54
num_leaves=8
num_cat=0
split_feature=49 45 39 47 39 3 42
split_gain=0.00673799 0.00775035 0.00679383 0.00893695 0.00853579 0.0048974 0.00335808
threshold=-0.06877497458719338 5.6435000000000004e-05 33.870083283633001 1.0012093461839815 19.293128379898956 8707.606600000001 0.00039043500000000001
decision_type=2 2 2 2 2 2 2
left_child=-1 2 4 -4 -2 6 -3
right_child=1 5 3 -5 -6 -7 -8
leaf_value=0.000242500097734104 -7.4097228576988614e-05 -0.00010922747753184305 -0.0001020225427834568 3.2932446364718796e-05 8.5801033858967714e-05 -0.00037006120739007455 7.9430281344066551e-05
leaf_weight=156 563 629 1370 1322 2184 105 128
leaf_count=156 563 629 1370 1322 2184 105 128
internal_value=-5.55954e-07 -7.6718e-06 7.8441e-06 -3.32639e-05 5.05718e-05 -0.00011327 -6.84087e-05
internal_weight=6457 6301 5439 2692 2747 862 757
internal_count=6457 6301 5439 2692 2747 862 757
is_linear=0
shrinkage=0.0377323


Tree=55
num_leaves=9
num_cat=0
split_feature=7 11 26 34 8 46 11 46
split_gain=0.00700565 0.0112073 0.0104238 0.0130883 0.00742596 0.0112776 0.0118969 0.0112532
threshold=0.95659997612543857 0.014173393885286883 1.03217768635119 50.108148523209231 -60.786672412655712 3.5000000000000004 0.013772794572391363 62.500000000000007
decision_type=2 2 2 2 2 2 2 2
left_child=1 2 -1 -4 7 -6 -7 -2
right_child=4 -3 3 -5 5 6 -8 -9
leaf_value=-0.00027211556443449726 0.0001182887671212361 0.00038578103937861481 0.00034347932246023077 -7.8962076388933272e-05 -0.00014452330439859544 1.1520759171234205e-05 -0.00037767557319521759 -0.00011654120747848969
leaf_weight=122 1169 168 197 180 1057 3109 115 360
leaf_count=122 1169 168 197 180 1057 3109 115 360
internal_value=1.15241e-06 0.000117796 1.36249e-05 0.000124281 -1.10977e-05 -3.75569e-05 -3.7513e-07 5.85726e-05
internal_weight=6477 667 499 377 5810 4281 3224 1529
internal_count=6477 667 499 377 5810 4281 3224 1529
is_linear=0
shrinkage=0.0377323


Tree=56
num_leaves=8
num_cat=0
split_feature=41 9 1 4 1 32 26
split_gain=0.00731483 0.00633525 0.0162957 0.00972096 0.0111707 0.00875618 0.00351272
threshold=0.44556644641653426 0.073839894593505498 66788.835000000006 944.73571428571415 94230.60500000001 65.307714891466375 1.2882807399764855
decision_type=2 2 2 2 2 2 2
left_child=1 3 6 5 -5 -1 -3
right_child=-2 2 -4 4 -6 -7 -8
leaf_value=-3.5511546545660562e-05 0.00031281391847671195 -0.00010933216928134574 -0.00048235477267336572 0.00036957014247440939 -1.9449640502398769e-05 6.8437983992094845e-05 0.00018349021560831356
leaf_weight=4201 105 97 137 216 145 1574 115
leaf_count=4201 105 97 137 216 145 1574 115
internal_value=9.60603e-07 -3.09345e-06 -0.000159883 4.75062e-06 0.000195073 -6.01051e-06 1.80455e-05
internal_weight=6590 6485 349 6136 361 5775 212
internal_count=6590 6485 349 6136 361 5775 212
is_linear=0
shrinkage=0.0377323


Tree=57
num_leaves=9
num_cat=0
split_feature=10 4 33 33 38 38 46 9
split_gain=0.00569741 0.013265 0.0123929 0.0110595 0.00762283 0.00848576 0.00757872 0.0112065
threshold=0.56747785303025589 937.80714285714373 1712.8357142857142 1986.7357142857143 2023.7178571428569 4438.3249999999998 2.5000000000000004 0.03025157384712103
decision_type=2 2 2 2 2 2 2 2
left_child=1 4 -3 6 -1 -6 -2 -8
right_child=3 2 -4 -5 5 -7 7 -9
leaf_value=-0.00013090252133343805 -0.00012392531468323424 0 0.00043492705249530649 -0.00028310935813943291 5.1918428581923084e-05 -0.00028450920122150139 -4.9911976842906366e-05 0.00012118761923596085
leaf_weight=457 675 136 214 238 2458 106 1265 927
leaf_count=457 675 136 214 238 2458 106 1265 927
internal_value=7.5369e-07 3.57173e-05 0.000256026 -3.50414e-05 7.90458e-06 3.53001e-05 -1.20272e-05 1.94015e-05
internal_weight=6476 3371 350 3105 3021 2564 2867 2192
internal_count=6476 3371 350 3105 3021 2564 2867 2192
is_linear=0
shrinkage=0.0377323


Tree=58
num_leaves=9
num_cat=0
split_feature=38 10 33 4 9 33 46 6
split_gain=0.00717899 0.00742009 0.0210673 0.0170043 0.0102646 0.00893091 0.00824559 0.00657623
threshold=4633.0928571428585 0.55916261097050801 1650.9321428571438 835.29285714285663 0.066439020395254608 1986.7357142857143 2.5000000000000004 1.0130920740563549
decision_type=2 2 2 2 2 2 2 2
left_child=1 2 4 -4 -1 6 -3 -7
right_child=-2 5 3 -5 -6 7 -8 -9
leaf_value=3.0162112905649247e-05 -0.00030528309055281839 -0.00012560079919814938 0 0.00047783426069387578 -0.00029277250245268244 0 2.4097932385623265e-05 -0.00043629188464345338
leaf_weight=2744 102 676 169 273 145 103 2205 128
leaf_count=2744 102 676 169 273 145 103 2205 128
internal_value=5.24978e-06 1.12484e-05 5.11295e-05 0.000294154 1.1547e-05 -2.92832e-05 -8.72305e-06 -0.000255749
internal_weight=6545 6443 3331 442 2889 3112 2881 231
internal_count=6545 6443 3331 442 2889 3112 2881 231
is_linear=0
shrinkage=0.0377323


Tree=59
num_leaves=9
num_cat=0
split_feature=45 41 14 34 44 9 49 45
split_gain=0.00645464 0.00736657 0.00659925 0.00682605 0.00669166 0.0049674 0.00604873 0.00353684
threshold=5.5320000000000012e-05 0.4125275768015248 -1315553.0554999991 51.230274999154609 -0.1179670563382981 0.04084773852229031 -0.026058239802323021 6.2315000000000002e-05
decision_type=2 2 2 2 2 2 2 2
left_child=1 2 4 -4 -1 7 -7 -2
right_child=5 -3 3 -5 -6 6 -8 -9
leaf_value=-3.0421155756685448e-05 -0.00022677095013134876 0.0003264337973450113 2.050308842918841e-05 -8.1931625277912237e-05 0.00028457439082364076 0 -0.00033853034124999996 1.0308860736717846e-05
leaf_weight=103 100 106 3974 1201 235 97 204 496
leaf_count=103 100 106 3974 1201 235 97 204 496
internal_value=0 1.45676e-05 7.30297e-06 -1.98125e-06 0.000168923 -9.43759e-05 -0.000221916 -1.84814e-05
internal_weight=6516 5619 5513 5175 338 897 301 596
internal_count=6516 5619 5513 5175 338 897 301 596
is_linear=0
shrinkage=0.0377323


Tree=60
num_leaves=9
num_cat=0
split_feature=32 38 33 32 47 45 11 35
split_gain=0.0055306 0.00721157 0.00865172 0.0107608 0.0076965 0.00692765 0.00833365 0.00935894
threshold=65.307714891466375 4568.7214285714299 1459.732142857142 36.13659556526931 0.98071464440932765 7.0770000000000015e-05 0.0078170571093461299 1.0554576204843256
decision_type=2 2 2 2 2 2 2 2
left_child=1 2 4 -4 -1 6 -2 -8
right_child=5 -3 3 -5 -6 -7 7 -9
leaf_value=-0.00017339611862427168 1.7295532037018902e-05 -0.00033975179530853946 0.00027969139027256252 0 -1.2318544753853779e-05 -0.00010093927707613133 0.00029121156488933961 -3.2256256978413888e-05
leaf_weight=512 947 97 294 671 3143 280 451 128
leaf_count=512 947 97 294 671 3143 280 451 128
internal_value=3.20488e-06 -1.7196e-05 -8.90804e-06 8.95498e-05 -3.67557e-05 6.01902e-05 9.41956e-05 0.000208174
internal_weight=6523 4717 4620 965 3655 1806 1526 579
internal_count=6523 4717 4620 965 3655 1806 1526 579
is_linear=0
shrinkage=0.0377323


Tree=61
num_leaves=9
num_cat=0
split_feature=37 38 30 36 39 1 46 33
split_gain=0.00580665 0.0122748 0.0132544 0.00862981 0.0159193 0.0111627 0.0109138 0.0104197
threshold=0.94674800251336155 2470.417857142857 0.6078576107927941 58.677090451298064 29.458234598655597 67366.565000000017 101.50000000000001 894.21785714285636
decision_type=2 2 2 2 2 2 2 2
left_child=1 -1 -3 6 7 -6 -2 -5
right_child=3 2 -4 4 5 -7 -8 -9
leaf_value=-5.9969945543538948e-05 -3.8021396176244657e-05 0.00030813461630647596 -7.5127520882410501e-05 0 8.6288733203711461e-05 -0.00010268538610846564 -0.0003299991929341986 0.00029974169298354253
leaf_weight=422 2776 429 147 266 732 1075 205 438
leaf_count=422 2776 429 147 266 732 1075 205 438
internal_value=0 8.26443e-05 0.00019871 -1.62185e-05 3.36113e-05 -2.24127e-05 -6.04426e-05 0.000186796
internal_weight=6490 998 576 5492 2511 1807 2981 704
internal_count=6490 998 576 5492 2511 1807 2981 704
is_linear=0
shrinkage=0.0377323


Tree=62
num_leaves=9
num_cat=0
split_feature=38 10 4 22 11 43 32 13
split_gain=0.00628364 0.0063477 0.0207955 0.00782271 0.00718272 0.014942 0.0106733 0.00130668
threshold=4633.0928571428585 0.56747785303025589 1075.5357142857149 -1.6744682946625524 0.012546266646516818 0.00021838562500000003 79.458399001743871 40.691124628139072
decision_type=2 2 2 2 2 2 2 2
left_child=1 2 3 -1 6 -6 -3 -4
right_child=-2 4 7 -5 5 -7 -8 -9
leaf_value=-0.00017074124739823655 -0.00029161582256852692 -4.3382658338752327e-05 0.00057543953571968526 3.6994525182762938e-05 0 -0.00058282354858351076 0.00017017789303018719 0.00018971374100578212
leaf_weight=276 102 2465 99 2879 152 100 379 98
leaf_count=276 102 2465 99 2879 152 100 379 98
internal_value=0 5.55901e-06 4.24124e-05 1.66514e-05 -3.21729e-05 -0.000226621 -1.25186e-05 0.000419165
internal_weight=6550 6448 3352 3155 3096 252 2844 197
internal_count=6550 6448 3352 3155 3096 252 2844 197
is_linear=0
shrinkage=0.0377323


Tree=63
num_leaves=9
num_cat=0
split_feature=36 36 34 9 46 9 11 46
split_gain=0.0063487 0.0129696 0.0120117 0.00707029 0.00605778 0.00539859 0.010473 0.00761247
threshold=29.224070819305314 39.1977992577335 47.723707018832734 0.05190017845752129 2.5000000000000004 0.073839894593505498 0.008425565017925114 41.500000000000007
decision_type=2 2 2 2 2 2 2 2
left_child=3 2 4 -1 -2 6 -3 -7
right_child=1 5 -4 -5 -6 7 -8 -9
leaf_value=3.2641980722629261e-05 -0.00016638941249752685 -1.3505624173009551e-05 -0.00042335382766614153 0.00039344960951290557 0.00012820854043305444 0 0.00010520256109320635 -0.00037420669812320896
leaf_weight=384 242 3652 195 117 148 203 1452 121
leaf_count=384 242 3652 195 117 148 203 1452 121
internal_value=9.99655e-07 -8.71663e-06 -0.000177929 0.000130818 -3.73679e-05 8.30776e-06 1.89607e-05 -0.000138434
internal_weight=6514 6013 585 501 390 5428 5104 324
internal_count=6514 6013 585 501 390 5428 5104 324
is_linear=0
shrinkage=0.0377323


Tree=64
num_leaves=9
num_cat=0
split_feature=1 34 43 14 30 31 12 36
split_gain=0.00626399 0.0082398 0.00855018 0.0106491 0.0100642 0.00680687 0.00961259 0.0126336
threshold=62124.309999999998 20.099166905233748 9.6314375000000019e-05 -152433.53999999954 0.6078576107927941 0.81174490092936691 37.917046195903367 40.888085526949702
decision_type=2 2 2 2 2 2 2 2
left_child=5 -2 4 -4 -3 6 -1 -8
right_child=1 2 3 -5 -6 -7 7 -9
leaf_value=0.00011797096385473482 0.00011960154980851819 -3.8837201056047578e-05 5.5903786526682003e-05 -0.0001432100656945476 -0.00022557121651847029 0.00026445874141376574 -0.00022453292470735824 7.1945787391075236e-05
leaf_weight=819 469 1501 1631 494 638 204 380 395
leaf_count=819 469 1501 1631 494 638 204 380 395
internal_value=-2.84506e-06 -2.65917e-05 -4.42678e-05 6.4162e-06 -9.77421e-05 5.59129e-05 2.48829e-05 -6.48523e-05
internal_weight=6531 4733 4264 2125 2139 1798 1594 775
internal_count=6531 4733 4264 2125 2139 1798 1594 775
is_linear=0
shrinkage=0.0377323


Tree=65
num_leaves=9
num_cat=0
split_feature=37 38 30 36 42 7 51 40
split_gain=0.00749827 0.0123724 0.00958925 0.00824802 0.00705705 0.00790461 0.00723915 0.00677682
threshold=0.94764089374316507 2515.542857142857 0.6078576107927941 31.041477477237482 4.9430000000000006e-05 0.95659997612543857 0.0026359922786534794 0.46353855386872073
decision_type=2 2 2 2 2 2 2 2
left_child=1 3 -3 -1 7 -6 -7 -2
right_child=4 2 -4 -5 5 6 -8 -9
leaf_value=0.00010883187956837219 -0.0001639336506172874 0.00032073828585055117 0 -0.00019097304099344081 0.0002466820161547748 2.4932993755534588e-06 -0.00031415264628350441 7.4710473820909479e-06
leaf_weight=249 780 389 141 251 185 3941 104 444
leaf_count=249 780 389 141 251 185 3941 104 444
internal_value=3.64758e-07 9.46759e-05 0.000223229 -2.83252e-05 -1.62265e-05 5.37355e-06 -4.05209e-06 -9.63105e-05
internal_weight=6484 1030 530 500 5454 4230 4045 1224
internal_count=6484 1030 530 500 5454 4230 4045 1224
is_linear=0
shrinkage=0.0377323


Tree=66
num_leaves=9
num_cat=0
split_feature=14 42 8 46 22 23 46 14
split_gain=0.00584341 0.00529406 0.00528853 0.0114697 0.0119319 0.00848159 0.0060928 0.0116096
threshold=-1325503.8649999995 2.9230000000000003e-05 -60.786672412655712 62.500000000000007 -0.93291618788069097 1.4666133598340803 26.500000000000004 -107408.68249999966
decision_type=2 2 2 2 2 2 2 2
left_child=1 -1 3 5 -5 -2 -4 -8
right_child=2 -3 6 4 -6 -7 7 -9
leaf_value=-5.8735015767169723e-06 0.00018319396924856333 0.00026061247558450848 -6.4662333345712374e-05 -0.00041641693027149169 0 0 9.1721739173593737e-05 -0.0001738533906640541
leaf_weight=116 746 220 3090 134 282 582 1049 291
leaf_count=116 746 220 3090 134 282 582 1049 291
internal_value=-2.71772e-06 0.000148885 -1.20758e-05 4.18502e-05 -0.000123875 9.88666e-05 -3.48257e-05 2.89634e-05
internal_weight=6510 336 6174 1744 416 1328 4430 1340
internal_count=6510 336 6174 1744 416 1328 4430 1340
is_linear=0
shrinkage=0.0377323


Tree=67
num_leaves=9
num_cat=0
split_feature=1 1 1 30 37 47 50 23
split_gain=0.00610451 0.00756086 0.0246767 0.0150765 0.0135526 0.0118216 0.0104051 0.00674144
threshold=61963.560000000005 74023.060000000012 94435.465000000011 -0.60785761079279388 1.2950627514258211 1.004462883366007 0.12389591408991961 5.0747657204167433
decision_type=2 2 2 2 2 2 2 2
left_child=7 3 4 -2 -3 -5 -4 -1
right_child=1 2 6 5 -6 -7 -8 -9
leaf_value=9.0062204131803535e-05 6.4631831932028921e-05 0.00040676829277157489 3.6584515905996431e-05 -0.00018532763878585445 -1.4948673610354294e-05 -1.0218575911712733e-05 -0.00021242441427258963 -0.00013607450842651801
leaf_weight=1528 1012 332 579 1269 117 1119 371 192
leaf_count=1528 1012 332 579 1269 117 1119 371 192
internal_value=0 -2.19723e-05 4.9389e-05 -5.3316e-05 0.000282124 -0.000106118 -5.3698e-05 6.08597e-05
internal_weight=6519 4799 1399 3400 449 2388 950 1720
internal_count=6519 4799 1399 3400 449 2388 950 1720
is_linear=0
shrinkage=0.0377323


Tree=68
num_leaves=9
num_cat=0
split_feature=1 34 39 40 50 44 46 34
split_gain=0.00563585 0.00776573 0.00714915 0.0120909 0.00861051 0.00580439 0.00732921 0.0119309
threshold=61963.560000000005 20.316309972450746 32.550738535477905 0.27463184180189509 -0.067289344813453625 -1.6348490080504881 4.5000000000000009 27.438541968394272
decision_type=2 2 2 2 2 2 2 2
left_child=5 -2 4 -4 -3 -1 -7 -8
right_child=1 2 3 -5 -6 6 7 -9
leaf_value=0.00032208764040081829 0.00011977268282169313 0.00010832905617168151 0.00025855416774307738 -0.00011397537868585065 -4.421084128068544e-05 -2.9484319989877211e-05 -1.4916626560632116e-05 0.0002777391883426647
leaf_weight=119 494 808 122 1901 1471 883 338 372
leaf_count=119 494 808 122 1901 1471 883 338 372
internal_value=1.20881e-06 -1.87084e-05 -3.61923e-05 -8.80898e-05 6.94433e-06 6.09089e-05 3.70204e-05 0.000129117
internal_weight=6508 4796 4302 2023 2279 1712 1593 710
internal_count=6508 4796 4302 2023 2279 1712 1593 710
is_linear=0
shrinkage=0.0377323


Tree=69
num_leaves=9
num_cat=0
split_feature=10 11 9 38 11 37 35 37
split_gain=0.00592859 0.011999 0.00882972 0.00789975 0.00757567 0.0167586 0.00940476 0.0123529
threshold=0.48117162034132283 0.013772794572391363 0.067166456231847582 2023.7178571428569 0.013208469926218821 1.1623636948653571 0.91029720525811209 1.1492021905865066
decision_type=2 2 2 2 2 2 2 2
left_child=1 2 3 -1 6 -6 -2 -8
right_child=4 -3 -4 -5 5 -7 7 -9
leaf_value=-0.0001150607726242288 -4.9253835211796443e-05 0.0002959713019009287 -0.00031066501995585978 6.2631718691100099e-05 2.4889189276437688e-05 -0.00053911925020064667 0 0.00033900589030259296
leaf_weight=406 2626 243 109 2151 130 128 521 219
leaf_count=406 2626 243 109 2151 130 128 521 219
internal_value=0 4.09947e-05 1.51472e-05 3.1762e-05 -3.12968e-05 -0.000229832 -1.40291e-05 0.000101815
internal_weight=6533 2909 2666 2557 3624 258 3366 740
internal_count=6533 2909 2666 2557 3624 258 3366 740
is_linear=0
shrinkage=0.0377323


Tree=70
num_leaves=9
num_cat=0
split_feature=3 22 6 33 33 34 39 50
split_gain=0.00540736 0.00799891 0.00940961 0.0209435 0.0112005 0.0048035 0.00696465 0.0100705
threshold=6282.0456250000007 -1.6744682946625524 1.0030105998433239 1754.2035714285719 1766.9999999999993 18.847439191716834 33.870083283633001 0.014787782353166226
decision_type=2 2 2 2 2 2 2 2
left_child=5 -2 4 -4 -3 -1 7 -7
right_child=1 2 3 -5 -6 6 -8 -9
leaf_value=7.9083498111773076e-05 -0.0002285490527805534 6.7545003448995624e-05 0.0001030431297117506 -0.00031969320196595401 0.00039693749027416495 0.00010720173882514773 -9.2435244948803203e-05 -5.3568604896027567e-05
leaf_weight=543 120 586 624 226 234 873 1845 1502
leaf_count=543 120 586 624 226 234 873 1845 1502
internal_value=-5.94813e-07 5.42219e-05 7.86686e-05 -1.66746e-06 0.000170043 -2.2612e-05 -3.73027e-05 2.71668e-06
internal_weight=6553 1790 1670 850 820 4763 4220 2375
internal_count=6553 1790 1670 850 820 4763 4220 2375
is_linear=0
shrinkage=0.0377323


Tree=71
num_leaves=9
num_cat=0
split_feature=36 39 46 40 45 14 46 7
split_gain=0.00485431 0.0137932 0.0114069 0.0110569 0.0162176 0.0100162 0.0213602 0.0113882
threshold=58.1337478191709 29.458234598655597 101.50000000000001 0.93647924707828489 -2.9804999999999993e-05 -152433.53999999954 70.500000000000014 1.01464095999518
decision_type=2 2 2 2 2 2 2 2
left_child=2 -2 5 -3 -5 6 -1 -7
right_child=1 3 -4 4 -6 7 -8 -9
leaf_value=-1.1935530817852366e-05 0.00018374358981807821 3.5341172608945148e-05 -0.00030034998897690113 0.00019490254377152328 -0.00033138207428543633 -0.00053424118258342849 0.00042119845952190362 0
leaf_weight=3282 712 1496 203 97 303 106 169 150
leaf_count=3282 712 1496 203 97 303 106 169 150
internal_value=9.36382e-07 4.17738e-05 -2.45878e-05 -8.05665e-06 -0.000186854 -7.60879e-06 7.42851e-06 -0.000235824
internal_weight=6518 2608 3910 1896 400 3707 3451 256
internal_count=6518 2608 3910 1896 400 3707 3451 256
is_linear=0
shrinkage=0.0377323


Tree=72
num_leaves=9
num_cat=0
split_feature=8 38 33 22 33 14 14 1
split_gain=0.00598833 0.00853488 0.0126188 0.00957837 0.0058763 0.00524786 0.0108072 0.0134071
threshold=-44.106493345580112 4182.3821428571437 1584.3428571428587 -0.74676924297579383 1067.9428571428573 -42346.432999999539 -230783.16949999979 69535.505000000019
decision_type=2 2 2 2 2 2 2 2
left_child=1 2 4 -3 -1 6 -2 -8
right_child=5 3 -4 -5 -6 -7 7 -9
leaf_value=9.3656071639233322e-05 -3.6303044536374786e-05 -0.00035430549562268701 0.00032941433542027672 1.8330936896635548e-05 -5.7227839832168008e-05 -0.00024069224412787206 0.0002948093366824007 -0.0001576562494123991
leaf_weight=1072 3771 140 269 228 501 157 317 110
leaf_count=1072 3771 140 269 228 501 157 317 110
internal_value=4.28099e-07 5.19902e-05 8.71766e-05 -0.000105712 4.13257e-05 -2.42004e-05 -1.44563e-05 0.000162464
internal_weight=6565 2210 1842 368 1573 4355 4198 427
internal_count=6565 2210 1842 368 1573 4355 4198 427
is_linear=0
shrinkage=0.0377323


Tree=73
num_leaves=9
num_cat=0
split_feature=10 11 33 33 9 35 37 37
split_gain=0.0046056 0.0104159 0.00812327 0.00676038 0.00659632 0.00629446 0.00744183 0.00614335
threshold=0.56747785303025589 0.013772794572391363 1986.7357142857143 1754.2035714285719 0.067166456231847582 0.91029720525811209 1.1288873356291602 0.92991592247231269
decision_type=2 2 2 2 2 2 2 2
left_child=1 4 5 -3 -1 7 -7 -2
right_child=2 3 -4 -5 -6 6 -8 -9
leaf_value=2.190057787990355e-05 0.00013308234305832426 0 -0.00025604001855243641 0.00042930387650678037 -0.0002774333428986788 0 0.00023621198074698369 -7.2244168020462623e-05
leaf_weight=3031 212 116 218 148 106 489 269 1912
leaf_count=3031 212 116 218 148 106 489 269 1912
internal_value=0 3.09931e-05 -3.25699e-05 0.000259312 9.57189e-06 -1.32646e-05 7.66788e-05 -4.85429e-05
internal_weight=6501 3401 3100 264 3137 2882 758 2124
internal_count=6501 3401 3100 264 3137 2882 758 2124
is_linear=0
shrinkage=0.0377323


Tree=74
num_leaves=9
num_cat=0
split_feature=36 36 34 37 7 23 32 46
split_gain=0.00488794 0.00988 0.012027 0.00560619 0.00465213 0.0103913 0.00582479 0.0045838
threshold=29.224070819305314 39.1977992577335 47.723707018832734 0.9234483815294684 0.95739172926009986 0.22940652882980553 65.307714891466375 2.5000000000000004
decision_type=2 2 2 2 2 2 2 2
left_child=3 2 7 -1 5 -3 -6 -2
right_child=1 4 -4 -5 6 -7 -8 -9
leaf_value=0.00023416278437525398 -0.00013350555269816216 0.00041154538160787581 -0.00039630290440547864 0 -2.9925236605124879e-05 0 5.7083753054670619e-05 0.00012034839299484377
leaf_weight=268 241 128 196 255 3351 293 1623 159
leaf_count=268 241 128 196 255 3351 293 1623 159
internal_value=2.34737e-06 -6.25827e-06 -0.000152575 0.0001136 8.68229e-06 0.00012909 -1.79038e-07 -1.57965e-05
internal_weight=6514 5991 596 523 5395 421 4974 400
internal_count=6514 5991 596 523 5395 421 4974 400
is_linear=0
shrinkage=0.0377323


Tree=75
num_leaves=9
num_cat=0
split_feature=16 3 9 3 35 50 43 21
split_gain=0.00476973 0.00782544 0.00529969 0.00619455 0.00443124 0.00725143 0.00660405 0.005357
threshold=-0.0041124136148663051 9792.3522500000017 0.066439020395254608 8113.2847500000016 0.86270357971412326 -0.23854106467245959 7.6813437500000012e-05 0.69862025679304229
decision_type=2 2 2 2 2 2 2 2
left_child=1 2 3 -1 7 6 -6 -2
right_child=4 -3 -4 -5 5 -7 -8 -9
leaf_value=2.5567389107600925e-05 3.9730800532802517e-05 0.00032372158013339338 -0.00018368954401296796 0.00033408670712999718 0 -5.3308295664934329e-06 0.00036269058739557081 -6.8458522448139087e-05
leaf_weight=1765 788 142 145 104 105 743 166 2567
leaf_count=1765 788 142 145 104 105 743 166 2567
internal_value=2.50379e-06 4.93086e-05 2.64968e-05 4.64732e-05 -1.9061e-05 4.70204e-05 0.00021483 -4.1042e-05
internal_weight=6525 2156 2014 1869 4369 1014 271 3355
internal_count=6525 2156 2014 1869 4369 1014 271 3355
is_linear=0
shrinkage=0.0377323


Tree=76
num_leaves=9
num_cat=0
split_feature=10 11 11 10 32 11 40 38
split_gain=0.005113 0.0110704 0.00641195 0.00865261 0.00830907 0.0075413 0.00692542 0.00576196
threshold=0.56747785303025589 0.013772794572391363 0.013208469926218821 0.75319594060534623 78.780393309293757 0.0087149610715955388 0.051042936963718651 2023.7178571428569
decision_type=2 2 2 2 2 2 2 2
left_child=1 7 4 -4 6 -6 -2 -1
right_child=2 -3 3 -5 5 -7 -8 -9
leaf_value=-0.00010417928900287918 0.0002099095858060323 0.00027210008765795961 0 -0.00048275062265479404 0 0.00036942311041540416 -6.2102408142273785e-05 3.4751496362650614e-05
leaf_weight=492 131 256 97 103 260 134 2355 2689
leaf_count=492 131 256 97 103 260 134 2355 2689
internal_value=0 3.25848e-05 -3.43223e-05 -0.000243248 -1.74134e-05 0.000139351 -4.49997e-05 1.11295e-05
internal_weight=6517 3437 3080 200 2880 394 2486 3181
internal_count=6517 3437 3080 200 2880 394 2486 3181
is_linear=0
shrinkage=0.0377323


Tree=77
num_leaves=9
num_cat=0
split_feature=1 34 32 32 31 40 12 14
split_gain=0.00542809 0.00867307 0.00731231 0.0113657 0.00651941 0.0097858 0.00916904 0.00599325
threshold=62034.390000000007 19.299337793840426 51.834978134001069 36.545623904751672 0.81174490092936691 0.82674359689274468 37.056617898933219 -452513.10899999959
decision_type=2 2 2 2 2 2 2 2
left_child=4 -2 3 -3 5 6 -1 -4
right_child=1 2 7 -5 -6 -7 -8 -9
leaf_value=9.3697989062744351e-05 0.00013328153957095697 3.7901938240747902e-06 4.2350253352682738e-05 -0.00017333522749083102 0.00025621766297806073 0.00035278436191793391 -9.7503747130052437e-05 -8.6775753624780333e-05
leaf_weight=685 432 815 1663 1132 205 117 739 736
leaf_count=685 432 815 1663 1132 205 117 739 736
internal_value=-2.41161e-06 -2.41939e-05 -4.14161e-05 -9.57735e-05 5.33331e-05 2.18584e-05 -8.11889e-07 0
internal_weight=6524 4778 4346 1947 1746 1541 1424 2399
internal_count=6524 4778 4346 1947 1746 1541 1424 2399
is_linear=0
shrinkage=0.0377323


Tree=78
num_leaves=9
num_cat=0
split_feature=7 23 44 11 32 34 14 14
split_gain=0.0044227 0.00854344 0.0102268 0.00791317 0.00634364 0.00721816 0.00830786 0.00685777
threshold=0.95659997612543857 0.22940652882980553 -1.2649765296457331 0.013588826581837967 65.307714891466375 28.687222120340063 -439820.59749999933 -1236790.6505
decision_type=2 2 2 2 2 2 2 2
left_child=1 -1 -3 -4 5 6 -2 -7
right_child=4 2 3 -5 -6 7 -8 -9
leaf_value=0.00030989197495221582 7.8868607242985663e-05 0.00027101678055535777 -0.00024344387962794018 0.00012050918229840457 5.1004586559334986e-05 9.6740157703113574e-05 -0.00013660225637002923 -9.540281122184166e-05
leaf_weight=189 1171 147 225 108 1781 264 310 2303
leaf_count=189 1171 147 225 108 1781 264 310 2303
internal_value=2.63868e-06 9.51847e-05 0 -0.000105275 -6.8429e-06 -3.39589e-05 2.91799e-05 -7.3e-05
internal_weight=6498 669 480 333 5829 4048 1481 2567
internal_count=6498 669 480 333 5829 4048 1481 2567
is_linear=0
shrinkage=0.0377323


Tree=79
num_leaves=9
num_cat=0
split_feature=11 10 34 36 46 36 14 37
split_gain=0.00443909 0.00635969 0.00488556 0.0070195 0.0136603 0.00839651 0.00682699 0.00845572
threshold=0.016533237639073894 0.4274615959654815 47.130561730729035 58.1337478191709 101.50000000000001 72.315540640294941 -1304338.6160000011 1.1368247856603502
decision_type=2 2 2 2 2 2 2 2
left_child=2 -2 3 4 -1 -5 -4 -8
right_child=1 -3 6 5 -6 -7 7 -9
leaf_value=3.479592511889325e-06 0.00039122268388612594 0 0.00021193979935853208 0.00015490977915191882 -0.0003418158274004655 -7.989208071248654e-06 -0.00011975843963393427 7.132959815011785e-05
leaf_weight=2611 100 103 116 953 171 714 1384 385
leaf_count=2611 100 103 116 953 171 714 1384 385
internal_value=3.30771e-06 0.000176938 -1.21961e-06 1.92539e-05 -1.54289e-05 8.11413e-05 -5.30907e-05 -7.43601e-05
internal_weight=6537 203 6334 4449 2782 1667 1885 1769
internal_count=6537 203 6334 4449 2782 1667 1885 1769
is_linear=0
shrinkage=0.0377323


Tree=80
num_leaves=9
num_cat=0
split_feature=37 38 30 36 43 36 44 43
split_gain=0.0044173 0.0117051 0.0114534 0.00699957 0.00668837 0.00610071 0.0115491 0.00893656
threshold=0.93931743326689754 2470.417857142857 0.6078576107927941 31.041477477237482 5.7020000000000013e-05 55.368106479266224 -0.40850362590767425 0.00014149296875000004
decision_type=2 2 2 2 2 2 2 2
left_child=1 3 4 -1 -3 6 7 -2
right_child=5 2 -4 -5 -6 -7 -8 -9
leaf_value=6.3234440702113486e-05 -0.00019296915830410827 0.00045579072789619771 -7.3662482943685694e-05 -0.0002393938565104029 3.7518909993043317e-05 2.1804007067927993e-05 2.4758200478925081e-06 0.00011883198220849485
leaf_weight=215 962 218 111 182 123 2964 1701 123
leaf_count=215 962 218 111 182 123 2964 1701 123
internal_value=-1.41139e-06 7.77013e-05 0.000212341 -5.88318e-05 0.000325044 -1.42707e-05 -5.50559e-05 -0.000151369
internal_weight=6599 849 452 397 341 5750 2786 1085
internal_count=6599 849 452 397 341 5750 2786 1085
is_linear=0
shrinkage=0.0377323


Tree=81
num_leaves=9
num_cat=0
split_feature=36 36 34 37 30 14 37 46
split_gain=0.00448555 0.0067432 0.0111142 0.0051471 0.00429954 0.0089378 0.00547521 0.0032871
threshold=29.224070819305314 39.1977992577335 47.723707018832734 0.9234483815294684 -1.0000000180025095e-35 -546012.96700000053 0.93931743326689754 2.5000000000000004
decision_type=2 2 2 2 2 2 2 2
left_child=3 2 7 -1 6 -6 -3 -2
right_child=1 4 -4 -5 5 -7 -8 -9
leaf_value=0.00022646906676940937 -0.00010003595114577549 0.00029298251343641817 -0.00035744684852315016 0 3.02509117492719e-05 -9.6079481598329656e-05 2.6629565664217248e-05 0.00011773192982139184
leaf_weight=258 244 124 201 254 1753 1393 2147 160
leaf_count=258 244 124 201 254 1753 1393 2147 160
internal_value=0 -8.52757e-06 -0.000128264 0.000107695 3.62332e-06 -2.35621e-05 4.42351e-05 0
internal_weight=6534 6022 605 512 5417 3146 2271 404
internal_count=6534 6022 605 512 5417 3146 2271 404
is_linear=0
shrinkage=0.0377323


Tree=82
num_leaves=9
num_cat=0
split_feature=37 44 12 42 9 1 41 33
split_gain=0.00416631 0.00822635 0.00720443 0.00561668 0.00621824 0.0116076 0.00820156 0.0054842
threshold=0.94764089374316507 -1.5880585277339172 37.917046195903367 4.9430000000000006e-05 0.073839894593505498 66788.835000000006 0.23064532141066033 972.13214285714241
decision_type=2 2 2 2 2 2 2 2
left_child=1 -1 -3 -2 6 -6 -5 -4
right_child=3 2 7 4 5 -7 -8 -9
leaf_value=0.00037004244159580593 -8.5694822670305654e-05 0.0001480630723749222 3.6421575986844485e-05 -9.9150621668574916e-06 7.4225618666576507e-05 -0.00038900893944208883 0.00011790023455314352 -0.00019531400970242756
leaf_weight=116 1246 393 263 3047 113 155 907 248
leaf_count=116 1246 393 263 3047 113 155 907 248
internal_value=-9.57224e-07 6.78656e-05 2.1352e-05 -1.50326e-05 4.2435e-06 -0.000169086 1.77246e-05 -6.30578e-05
internal_weight=6488 1020 904 5468 4222 268 3954 511
internal_count=6488 1020 904 5468 4222 268 3954 511
is_linear=0
shrinkage=0.0377323


Tree=83
num_leaves=9
num_cat=0
split_feature=1 42 6 7 31 12 40 3
split_gain=0.00494543 0.00622924 0.00836142 0.00663171 0.00590489 0.00791133 0.00892871 0.00709358
threshold=61623.095000000008 4.7425000000000008e-05 1.0350291329595764 0.96193836914448183 0.81174490092936691 38.089793692067936 0.46796687793507402 3393.0154750000006
decision_type=2 2 2 2 2 2 2 2
left_child=4 -2 3 -3 5 7 -7 -1
right_child=1 2 -4 -5 -6 6 -8 -9
leaf_value=-7.2217211555781495e-05 -0.00010666331590080183 0.00020258480508330602 -0.00030794788838201794 -2.1441172457186662e-07 0.00025507817296931064 -0.00014648664421911976 0.00015418298975253519 0.00018072673995329872
leaf_weight=173 947 240 120 3607 194 519 174 572
leaf_count=173 947 240 120 3607 194 519 174 572
internal_value=0 -1.97396e-05 0 1.07337e-05 5.60286e-05 2.43696e-05 -6.12137e-05 0.000112966
internal_weight=6546 4914 3967 3847 1632 1438 693 745
internal_count=6546 4914 3967 3847 1632 1438 693 745
is_linear=0
shrinkage=0.0377323


Tree=84
num_leaves=9
num_cat=0
split_feature=13 11 32 3 14 8 46 11
split_gain=0.00500353 0.00822502 0.00482982 0.00616404 0.00437718 0.00418806 0.0039738 0.00690026
threshold=44.155969230393666 0.013772794572391363 57.945564871131928 6491.5495250000013 -1315553.0554999991 -223.69722697840976 10.500000000000002 0.01269461948306406
decision_type=2 2 2 2 2 2 2 2
left_child=1 2 5 -4 -2 -1 -6 -8
right_child=4 -3 3 -5 6 -7 7 -9
leaf_value=-0.00024541468914667837 0.00013125011370446736 0.00027892397889108878 4.3741633141013034e-05 0.00038713755321419826 -8.3988259510747767e-05 0 1.9096024344898606e-05 -0.00019775779781580605
leaf_weight=104 212 192 624 98 1606 1569 1877 233
leaf_count=104 212 192 624 98 1606 1569 1877 233
internal_value=-3.30334e-07 3.93443e-05 1.72408e-05 0.00010005 -2.81732e-05 -1.45155e-05 -3.91041e-05 -1.73806e-06
internal_weight=6515 2587 2395 722 3928 1673 3716 2110
internal_count=6515 2587 2395 722 3928 1673 3716 2110
is_linear=0
shrinkage=0.0377323


Tree=85
num_leaves=9
num_cat=0
split_feature=41 45 47 31 33 46 37 38
split_gain=0.00434578 0.0104925 0.00820742 0.00775216 0.0122519 0.010065 0.0041752 0.00827928
threshold=0.23064532141066033 4.3775e-05 1.0033039454715162 -0.22252093395631442 1783.5178571428589 63.500000000000007 0.93647780246672629 2470.417857142857
decision_type=2 2 2 2 2 2 2 2
left_child=6 3 -3 5 -5 -2 7 -1
right_child=1 2 -4 4 -6 -7 -8 -9
leaf_value=-5.2026169491216438e-05 7.5011302738219981e-05 0 -0.00040201283666999645 9.8943832565528514e-05 0.00052572453467640285 -0.00033716654631651087 -3.2475872769544302e-05 0.00023034652656537825
leaf_weight=267 387 229 105 665 129 106 4331 267
leaf_count=267 387 229 105 665 129 106 4331 267
internal_value=-2.4581e-07 5.21645e-05 -0.000127257 0.000103998 0.000177227 -4.37936e-07 -1.90956e-05 7.67415e-05
internal_weight=6486 1621 334 1287 794 493 4865 534
internal_count=6486 1621 334 1287 794 493 4865 534
is_linear=0
shrinkage=0.0377323


Tree=86
num_leaves=9
num_cat=0
split_feature=5 11 11 37 3 42 30 38
split_gain=0.00440766 0.0108457 0.00591279 0.0123953 0.00724463 0.00608429 0.00584346 0.00421504
threshold=0.99864270226420737 0.013588826581837967 0.013410932071910743 1.2416225623159092 5868.3357000000005 8.7815000000000012e-05 -1.0000000180025095e-35 2068.6178571428586
decision_type=2 2 2 2 2 2 2 2
left_child=1 7 4 -4 6 -6 -2 -1
right_child=2 -3 3 -5 5 -7 -8 -9
leaf_value=-9.4375818646824731e-05 8.4549529853754977e-06 0.00029469125870094779 0 -0.000516363517223727 -3.011714637529609e-05 0.00014784592253609165 -9.7634253688466211e-05 4.2023596359253017e-05
leaf_weight=371 1496 227 173 102 371 670 1287 1854
leaf_count=371 1496 227 173 102 371 670 1287 1854
internal_value=4.00642e-06 4.4846e-05 -1.87891e-05 -0.000188264 -4.8055e-06 7.80007e-05 -3.82076e-05 1.62341e-05
internal_weight=6551 2452 4099 275 3824 1041 2783 2225
internal_count=6551 2452 4099 275 3824 1041 2783 2225
is_linear=0
shrinkage=0.0377323


end of trees

feature_importances:
adx_14_4h=50
ma_10=45
rsi_14_1d=42
adx_14_1d=39
obv=37
atr_14_1d=36
atr_14_pct=35
ma_200_ratio=32
ma_50_1d_ratio=27
atr_14_4h=24
funding_rate_streak=23
bb_width=22
rsi_14_4h=21
funding_rate_ma_8=21
oi_ma_ratio=17
volume_ma_20=16
atr_14=15
bb_position_1d=13
bb_position=12
dow_cos=11
funding_rate_change=11
ma_30_ratio=9
dow_sin=9
funding_rate_zscore=9
return_skew_20=8
funding_rate=8
bb_position_4h=7
macd_hist=6
atr_ratio_1h_1d=6
adx_14=5
oi_change_24h=5
oi_zscore=5
return_kurt_20=4
price_volume_corr_20=4
volume_skew_20=3
oi_price_divergence=3
rsi_14=2
stoch_k=2
return_10=2
ma_10_ratio=1
vol_ratio_7_30=1
hour_cos=1

parameters:
[boosting: gbdt]
[objective: huber]
[metric: l1]
[tree_learner: serial]
[device_type: cpu]
[data_sample_strategy: bagging]
[data: ]
[valid: ]
[num_iterations: 2000]
[learning_rate: 0.0377323]
[num_leaves: 9]
[num_threads: 12]
[seed: 42]
[deterministic: 1]
[force_col_wise: 0]
[force_row_wise: 0]
[histogram_pool_size: -1]
[max_depth: 4]
[min_data_in_leaf: 97]
[min_sum_hessian_in_leaf: 0.001]
[bagging_fraction: 0.814082]
[pos_bagging_fraction: 1]
[neg_bagging_fraction: 1]
[bagging_freq: 1]
[bagging_seed: 400]
[bagging_by_query: 0]
[feature_fraction: 0.799684]
[feature_fraction_bynode: 1]
[feature_fraction_seed: 30056]
[extra_trees: 0]
[extra_seed: 12879]
[early_stopping_round: 0]
[early_stopping_min_delta: 0]
[first_metric_only: 0]
[max_delta_step: 0]
[lambda_l1: 0.178059]
[lambda_l2: 0.856664]
[linear_lambda: 0]
[min_gain_to_split: 0]
[drop_rate: 0.1]
[max_drop: 50]
[skip_drop: 0.5]
[xgboost_dart_mode: 0]
[uniform_drop: 0]
[drop_seed: 17869]
[top_rate: 0.2]
[other_rate: 0.1]
[min_data_per_group: 100]
[max_cat_threshold: 32]
[cat_l2: 10]
[cat_smooth: 10]
[max_cat_to_onehot: 4]
[top_k: 20]
[monotone_constraints: ]
[monotone_constraints_method: basic]
[monotone_penalty: 0]
[feature_contri: ]
[forcedsplits_filename: ]
[refit_decay_rate: 0.9]
[cegb_tradeoff: 1]
[cegb_penalty_split: 0]
[cegb_penalty_feature_lazy: ]
[cegb_penalty_feature_coupled: ]
[path_smooth: 0]
[interaction_constraints: ]
[verbosity: -1]
[saved_feature_importance_type: 0]
[use_quantized_grad: 0]
[num_grad_quant_bins: 4]
[quant_train_renew_leaf: 0]
[stochastic_rounding: 1]
[linear_tree: 0]
[max_bin: 255]
[max_bin_by_feature: ]
[min_data_in_bin: 3]
[bin_construct_sample_cnt: 200000]
[data_random_seed: 175]
[is_enable_sparse: 1]
[enable_bundle: 1]
[use_missing: 1]
[zero_as_missing: 0]
[feature_pre_filter: 1]
[pre_partition: 0]
[two_round: 0]
[header: 0]
[label_column: ]
[weight_column: ]
[group_column: ]
[ignore_column: ]
[categorical_feature: ]
[forcedbins_filename: ]
[precise_float_parser: 0]
[parser_config_file: ]
[objective_seed: 16083]
[num_class: 1]
[is_unbalance: 0]
[scale_pos_weight: 1]
[sigmoid: 1]
[boost_from_average: 1]
[reg_sqrt: 0]
[alpha: 0.9]
[fair_c: 1]
[poisson_max_delta_step: 0.7]
[tweedie_variance_power: 1.5]
[lambdarank_truncation_level: 30]
[lambdarank_norm: 1]
[label_gain: ]
[lambdarank_position_bias_regularization: 0]
[eval_at: ]
[multi_error_top_k: 1]
[auc_mu_weights: ]
[num_machines: 1]
[local_listen_port: 12400]
[time_out: 120]
[machine_list_filename: ]
[machines: ]
[gpu_platform_id: -1]
[gpu_device_id: -1]
[gpu_use_dp: 0]
[num_gpu: 1]

end of parameters

pandas_categorical:[]
