tree
version=v4
num_class=1
num_tree_per_iteration=1
label_index=0
max_feature_idx=51
objective=huber
feature_names=is_gap_filled ma_10 rsi_14 volume_ma_20 atr_14 ma_10_ratio ma_30_ratio ma_200_ratio macd_hist bb_width bb_position atr_14_pct adx_14 stoch_k obv return_1 return_10 high_low_ratio body_ratio volume_change volume_ratio vol_ratio_7_30 return_skew_20 return_kurt_20 upper_shadow_ratio lower_shadow_ratio volume_skew_20 price_volume_corr_20 hour_sin hour_cos dow_sin dow_cos rsi_14_4h atr_14_4h adx_14_4h bb_position_4h rsi_14_1d ma_50_1d_ratio atr_14_1d adx_14_1d bb_position_1d atr_ratio_1h_1d funding_rate funding_rate_ma_8 funding_rate_zscore funding_rate_change funding_rate_streak oi_ma_ratio oi_change_1h oi_change_24h oi_zscore oi_price_divergence
feature_infos=none [50884.869999999995:73248.949999999997] [6.0970098666867898:95.662573752192699] [497.20884999999998:26525.634849999995] [81.421428571429715:1987.3500000000001] [0.9282785459340519:1.0452738082036517] [0.87875853586900654:1.0844139724007646] [0.7795100955013029:1.1840039091403571] [-730.92552467281405:582.1340633793493] [0.0029093838210345856:0.22734246689125856] [-0.45748141882759219:1.416880105789476] [0.0012677903833889944:0.038271628713109629] [7.061020277189626:93.404517357955683] [1.0173219686556834:100] [-1128034.5410000014:126023.93400000044] [-0.045467330160103847:0.043012005358925576] [-0.12790510839028968:0.09812979928132548] [0.00057346221987382982:0.096603378238780235] [-0.98331062670301705:1] [-0.87260017020514424:16.157766532315126] [0.077393029546948669:8.4173325384454891] [0.32273547794692892:2.4414265391868195] [-3.2354497637095099:3.2124795053639184] [-1.5975797675124381:12.22013905252145] [0:2.6999129197374874] [0:2.2786129171115679] [-0.76955338144213048:4.2990698901189131] [-0.90290784794525303:0.91080983694364626] [-1:1] [-1:1] [-0.97492791218182362:0.97492791218182362] [-0.90096886790241903:1] [4.3857980059365218:98.172245526924058] [311.25000000000102:2748.1214285714295] [6.2972659887618097:88.983871853490797] [-0.44816395145751337:1.4176059697490382] [15.194615971692215:90.923160103372496] [0.79347929821036078:1.4331232090152759] [1646.8642857142845:4659.4357142857143] [10.589970411785472:72.832333434733201] [-0.25516690339249382:1.2615666076982552] [0.047747102460029868:0.85254424735224399] [-0.00015398000000000001:0.0011278799999999999] [-9.0698749999999989e-05:0.00071339250000000004] [-7.5061976990020511:13.179176523500747] [-0.00063907000000000005:0.00043457000000000006] [-9:105] [0.85667234030639827:1.0884480782308048] [-0.074945222861083516:0.042819616487013157] [-0.19162407536423809:0.10398951052180938] [-5.0781845814005679:4.3279288996448866] [-0.0096272897662109305:0.030123069168466632]
tree_sizes=869 964 981 876 906 951 895 961 945 953 970 869 933 856 959 948 899 968 962 870 882 898 785 796 945 718 988 883 908 887 946 976 978 900 987 966 905 794 954 871

Tree=0
num_leaves=8
num_cat=0
split_feature=7 1 39 39 22 39 3
split_gain=0.0523554 0.0248946 0.0149477 0.0238565 0.020209 0.0119732 0.00736183
threshold=0.92391206560988848 59340.765000000007 18.964850370193414 24.230794125329812 0.14815332897682429 58.164018989398429 5724.4741250000006
decision_type=2 2 2 2 2 2 2
left_child=-1 5 4 -4 -3 -2 -7
right_child=1 2 3 -5 -6 6 -8
leaf_value=0.0016710506981322711 0.001430978272164788 0.00092149419174698279 0.001205638778193893 0.00087731096116526615 0.00030216527404976722 0.00088956246341900867 0.0012509515934588649
leaf_weight=143 180 219 362 2143 139 184 123
leaf_count=143 180 219 362 2143 139 184 123
internal_value=0.000964347 0.000935995 0.000891791 0.000927505 0.0006613 0.00118176 0.00101292
internal_weight=3493 3350 2863 2505 358 487 307
internal_count=3493 3350 2863 2505 358 487 307
is_linear=0
shrinkage=1


Tree=1
num_leaves=9
num_cat=0
split_feature=1 9 1 14 34 14 1 39
split_gain=0.0568961 0.0507347 0.021886 0.0243806 0.0301019 0.0269915 0.00564597 0.00132359
threshold=57684.095000000008 0.054241629944068101 69662.845000000016 -232892.19549999977 50.330246909210224 -152154.24649999972 56342.325000000004 25.107494752170258
decision_type=2 2 2 2 2 2 2 2
left_child=1 6 3 4 -2 -5 -1 -4
right_child=2 -3 7 5 -6 -7 -8 -9
leaf_value=0 7.6704693548627142e-06 0.0010960433027952419 -0.00049152609513953747 0.00048716645998815518 -0.00032511331639818074 -5.9397412027637885e-06 0.00033071490569116754 -0.00021411556283743331
leaf_weight=150 1661 119 108 269 490 319 104 276
leaf_count=150 1661 119 108 269 490 319 104 276
internal_value=6.90886e-06 0.000448443 -4.37841e-05 -3.85166e-06 -6.5115e-05 0.000208619 0.000116013 -0.000310515
internal_weight=3496 373 3123 2739 2151 588 254 384
internal_count=3496 373 3123 2739 2151 588 254 384
is_linear=0
shrinkage=0.0377323


Tree=2
num_leaves=9
num_cat=0
split_feature=1 3 14 30 22 38 1 21
split_gain=0.0470533 0.0278841 0.0194432 0.0228507 0.0221667 0.0140158 0.00941192 0.00228672
threshold=59340.765000000007 7874.8892000000005 -813008.54400000174 -1.0000000180025095e-35 -0.22282931987157706 2518.2821428571424 68363.650000000009 0.89453659055762758
decision_type=2 2 2 2 2 2 2 2
left_child=1 5 -2 6 -5 7 -4 -1
right_child=2 -3 3 4 -6 -7 -8 -9
leaf_value=8.2783461062948003e-05 -0.00048046418066584074 0.00072501022567319161 0.00014920835306636018 2.2163282948077197e-05 -0.00025288156245996916 0.00041506657115315327 -9.5443315006365204e-05 -0.00012997720214279142
leaf_weight=98 151 170 901 694 909 149 262 160
leaf_count=98 151 170 901 694 909 149 262 160
internal_value=0 0.000311613 -6.10622e-05 -3.55965e-05 -0.000129667 0.000121309 8.8291e-05 -2.31998e-05
internal_weight=3494 577 2917 2766 1603 407 1163 258
internal_count=3494 577 2917 2766 1603 407 1163 258
is_linear=0
shrinkage=0.0377323


Tree=3
num_leaves=8
num_cat=0
split_feature=41 1 34 51 30 50 1
split_gain=0.0504761 0.0271902 0.0202754 0.0164462 0.0159353 0.0147027 0.00597506
threshold=0.40766995904887188 59340.765000000007 20.270792828192441 -0.00027029335687260667 -0.60785761079279388 -1.0561080154700244 67664.655000000013
decision_type=2 2 2 2 2 2 2
left_child=1 3 6 -1 -4 -5 -3
right_child=-2 2 4 5 -6 -7 -8
leaf_value=0.00055966635944514401 0.00082612902365647499 0.00034378305895525004 3.5704718188515124e-05 -0.00029801729660218279 -0.00016510095227686292 0.00022020944863774343 0
leaf_weight=152 102 192 737 99 1848 286 97
leaf_count=152 102 192 737 99 1848 286 97
internal_value=8.01281e-07 -2.21107e-05 -6.99567e-05 0.000221171 -0.000105259 6.91732e-05 0.000222007
internal_weight=3513 3411 2874 537 2585 385 289
internal_count=3513 3411 2874 537 2585 385 289
is_linear=0
shrinkage=0.0377323


Tree=4
num_leaves=8
num_cat=0
split_feature=11 39 22 30 34 26 30
split_gain=0.0466584 0.0170176 0.0171116 0.0152772 0.0214786 0.0184892 0.0077336
threshold=0.016691707487594912 18.964850370193414 0.14815332897682429 -1.0000000180025095e-35 47.862995936010684 1.4730875335018776 1.0000000180025095e-35
decision_type=2 2 2 2 2 2 2
left_child=1 2 6 4 -3 -5 -1
right_child=-2 3 -4 5 -6 -7 -8
leaf_value=-0.000290727068368021 0.00064846675496033166 0.00018603840597079558 -0.0006034694203674954 -0.00021237115605583122 -0.0001486534727905418 3.4932504166191329e-05 0.00014744462918972045
leaf_weight=102 152 1030 138 756 349 913 114
leaf_count=102 152 1030 138 756 349 913 114
internal_value=1.85668e-06 -2.52152e-05 -0.000272685 1.39125e-06 9.64252e-05 -7.31156e-05 -2.88192e-05
internal_weight=3554 3402 354 3048 1379 1669 216
internal_count=3554 3402 354 3048 1379 1669 216
is_linear=0
shrinkage=0.0377323


Tree=5
num_leaves=9
num_cat=0
split_feature=1 40 34 11 14 51 1 26
split_gain=0.0387297 0.0232015 0.0165682 0.0158083 0.0115895 0.00806538 0.00572589 0.00351653
threshold=59340.765000000007 0.11060350991962566 20.270792828192441 0.016691707487594912 -813008.54400000174 -0.00018931382985377815 67438.955000000016 1.5857977109045132
decision_type=2 2 2 2 2 2 2 2
left_child=1 -1 6 4 -4 -3 -2 -7
right_child=2 5 3 -5 -6 7 -8 -9
leaf_value=0.00064882141721479976 0.00033541709969589115 0.00034615378156832962 -0.0004338971020557686 0.00035331502410088881 -8.4689375130495489e-05 -0.00016865598449091615 0 0.00010213154396564159
leaf_weight=176 182 130 156 103 2398 118 109 155
leaf_count=176 182 130 156 103 2398 118 109 155
internal_value=0 0.000280475 -5.68347e-05 -8.82377e-05 -0.000108787 0.000101938 0.00020629 0
internal_weight=3527 579 2948 2657 2554 403 291 273
internal_count=3527 579 2948 2657 2554 403 291 273
is_linear=0
shrinkage=0.0377323


Tree=6
num_leaves=8
num_cat=0
split_feature=11 1 30 22 14 51 50
split_gain=0.0466736 0.022732 0.0187362 0.020432 0.0189798 0.0185563 0.00966263
threshold=0.016297934639218029 59984.120000000003 -1.0000000180025095e-35 0.17662633564068708 -804823.82950000104 -0.000296595706505812 -1.1000728420537087
decision_type=2 2 2 2 2 2 2
left_child=1 5 4 -4 -3 -1 -7
right_child=-2 2 3 -5 -6 6 -8
leaf_value=0.00052388436690038915 0.00061243422147899305 -0.00044611114873075797 -4.4527806314461579e-05 -0.0003319929668081377 7.8352870604788197e-05 -0.00027768332323031906 0.00014571698838289883
leaf_weight=163 167 105 938 634 1124 97 305
leaf_count=163 167 105 938 634 1124 97 305
internal_value=0 -3.22033e-05 -7.79411e-05 -0.000164854 2.78027e-05 0.000182444 2.65026e-05
internal_weight=3533 3366 2801 1572 1229 565 402
internal_count=3533 3366 2801 1572 1229 565 402
is_linear=0
shrinkage=0.0377323


Tree=7
num_leaves=9
num_cat=0
split_feature=7 1 30 22 38 37 1 38
split_gain=0.0457806 0.0197518 0.0218563 0.020491 0.0143765 0.00947649 0.00931641 0.00669872
threshold=0.9225141834794327 59984.120000000003 -0.60785761079279388 0.15492659438669448 2518.2821428571424 0.94099696402632615 57098.090000000011 3825.4321428571434
decision_type=2 2 2 2 2 2 2 2
left_child=-1 4 7 -4 6 -6 -2 -3
right_child=1 2 3 -5 5 -7 -8 -9
leaf_value=0.00066546533713084935 0.0001508709745423584 2.3465713359411977e-05 -2.9583313645209188e-05 -0.00028003156421625762 0.00062490409205296531 4.3400507328475452e-05 -0.00028957686724809549 0.00030673219263758307
leaf_weight=140 214 658 1180 850 129 97 99 166
leaf_count=140 214 658 1180 850 129 97 99 166
internal_value=0 -2.87311e-05 -7.00003e-05 -0.000137833 0.000177108 0.000406043 0 8.8936e-05
internal_weight=3533 3393 2854 2030 539 226 313 824
internal_count=3533 3393 2854 2030 539 226 313 824
is_linear=0
shrinkage=0.0377323


Tree=8
num_leaves=9
num_cat=0
split_feature=11 7 1 51 34 39 32 1
split_gain=0.0425892 0.0319964 0.0172751 0.0156625 0.0154238 0.0117599 0.00625364 0.006026
threshold=0.016008603737644848 0.95706443272847397 59984.120000000003 -0.00035237986548743942 20.270792828192441 14.165551803486904 56.523249037481271 67664.655000000013
decision_type=2 2 2 2 2 2 2 2
left_child=2 -2 3 -1 7 -6 -5 -4
right_child=1 -3 4 6 5 -7 -8 -9
leaf_value=0.00049723400124247698 0.0010127869923759155 0 0.00031679800987193733 -4.8422985639852008e-05 -0.00051260632865180421 -8.043245419578243e-05 0.00026013387649496039 0
leaf_weight=145 100 102 183 308 100 2416 124 101
leaf_count=145 100 102 183 308 100 2416 124 101
internal_value=1.49745e-06 0.000534242 -2.85078e-05 0.000155832 -6.89298e-05 -0.000100448 2.49623e-05 0.000186167
internal_weight=3579 202 3377 577 2800 2516 432 284
internal_count=3579 202 3377 577 2800 2516 432 284
is_linear=0
shrinkage=0.0377323


Tree=9
num_leaves=9
num_cat=0
split_feature=7 1 34 38 30 14 38 1
split_gain=0.0332554 0.01993 0.0152616 0.0139065 0.0113507 0.00901713 0.00605368 0.00409622
threshold=0.91997670866867043 59984.120000000003 20.270792828192441 2518.2821428571424 -0.60785761079279388 -255754.99299999973 3566.7107142857153 67438.955000000016
decision_type=2 2 2 2 2 2 2 2
left_child=-1 3 7 5 -4 -2 -5 -3
right_child=1 2 4 6 -6 -7 -8 -9
leaf_value=0.00064045043751835876 -0.00014669422732251989 0.00031283498653112215 2.8361654390135021e-05 0.0005682090250896687 -0.00014087803100125309 0.00025763921788030737 8.7663620915742261e-05 0
leaf_weight=112 189 171 726 144 1844 131 102 101
leaf_count=112 189 171 726 144 1844 131 102 101
internal_value=1.51922e-06 -1.76633e-05 -6.01842e-05 0.000183759 -9.04626e-05 0 0.000397171 0.000200665
internal_weight=3520 3408 2842 566 2570 320 246 272
internal_count=3520 3408 2842 566 2570 320 246 272
is_linear=0
shrinkage=0.0377323


Tree=10
num_leaves=9
num_cat=0
split_feature=11 37 34 43 1 30 51 39
split_gain=0.0292563 0.0307469 0.0147464 0.0251655 0.0172867 0.0164976 0.00816881 0.00675779
threshold=0.014856453367601987 1.1327560166056896 51.268230276811018 0.00013406421875000003 62322.500000000007 -1.0000000180025095e-35 -0.00018413544966817917 66.929772857627412
decision_type=2 2 2 2 2 2 2 2
left_child=2 -2 4 6 7 -6 -4 -1
right_child=1 -3 3 -5 5 -7 -8 -9
leaf_value=0.00020591269263608612 0.00077759922138413695 -2.3524927364774464e-05 0 0.00026845983850559533 7.0369632370037658e-05 -0.00015882735140223053 -0.00036829425718579926 -4.673519290674151e-05
leaf_weight=673 135 106 112 126 761 999 459 142
leaf_count=673 135 106 112 126 761 999 459 142
internal_value=0 0.000398623 -3.13759e-05 -0.000185676 7.82948e-06 -5.59242e-05 -0.000297888 0.000153655
internal_weight=3513 241 3272 697 2575 1760 571 815
internal_count=3513 241 3272 697 2575 1760 571 815
is_linear=0
shrinkage=0.0377323


Tree=11
num_leaves=8
num_cat=0
split_feature=7 39 22 39 1 22 30
split_gain=0.0294713 0.0144401 0.0152141 0.0126462 0.0147215 0.00939049 0.00355459
threshold=0.9225141834794327 18.964850370193414 0.14815332897682429 24.230794125329812 59537.910000000011 0.58061256046670162 1.0000000180025095e-35
decision_type=2 2 2 2 2 2 2
left_child=-1 2 6 5 -5 -3 -2
right_child=1 3 -4 4 -6 -7 -8
leaf_value=0.00057114501430859587 -0.0001796726273650476 0.00036838539493745578 -0.00054503178293643711 0.0001561689883315565 -6.5440808598543669e-05 0 0.00011499272238174314
leaf_weight=124 115 223 145 521 2176 134 101
leaf_count=124 115 223 145 521 2176 134 101
internal_value=0 -1.89761e-05 -0.000244848 5.58513e-06 -2.01044e-05 0.000218018 -1.09977e-05
internal_weight=3539 3415 361 3054 2697 357 216
internal_count=3539 3415 361 3054 2697 357 216
is_linear=0
shrinkage=0.0377323


Tree=12
num_leaves=9
num_cat=0
split_feature=11 7 1 43 34 43 38 36
split_gain=0.0313817 0.0293759 0.0141997 0.0189677 0.0219775 0.0113825 0.00817395 0.00127691
threshold=0.014856453367601987 0.95706443272847397 69506.375000000015 0.00014149296875000004 50.330246909210224 0.00029625398437500009 3825.4321428571434 56.97710749575689
decision_type=2 2 2 2 2 2 2 2
left_child=2 -2 3 4 -1 -5 7 -4
right_child=1 -3 6 5 -6 -7 -8 -9
leaf_value=2.0205290344564801e-05 0.00081663567601100674 0 -0.00016600206842282109 0.00061475553675498782 -0.00024686395086624663 6.9562404553686811e-05 0 -0.00048481364736454924
leaf_weight=2014 124 122 120 103 549 189 149 142
leaf_count=2014 124 122 120 103 549 189 149 142
internal_value=0 0.000409735 -3.14735e-05 0 -3.44444e-05 0.000286051 -0.000238629 -0.00036537
internal_weight=3512 246 3266 2855 2563 292 411 262
internal_count=3512 246 3266 2855 2563 292 411 262
is_linear=0
shrinkage=0.0377323


Tree=13
num_leaves=8
num_cat=0
split_feature=11 39 22 39 26 39 22
split_gain=0.031138 0.0124314 0.0141722 0.0130519 0.00964535 0.00875521 0.00691104
threshold=0.016297934639218029 18.964850370193414 0.14815332897682429 24.230794125329812 1.0877685731433213 14.694307777248047 0.58061256046670162
decision_type=2 2 2 2 2 2 2
left_child=1 2 5 6 -5 -1 -3
right_child=-2 3 -4 4 -6 -7 -8
leaf_value=-0.00029477019276084008 0.00049222157582971338 0.0003397051785215176 -0.00054308317114651447 -0.00015678567305483552 9.6351439986730236e-06 0.0001690002497753256 0
leaf_weight=104 174 228 134 632 2019 119 117
leaf_count=104 174 228 134 632 2019 119 117
internal_value=0 -2.422e-05 -0.000234427 0 -2.7544e-05 -1.75748e-05 0.000218887
internal_weight=3527 3353 357 2996 2651 223 345
internal_count=3527 3353 357 2996 2651 223 345
is_linear=0
shrinkage=0.0377323


Tree=14
num_leaves=9
num_cat=0
split_feature=1 9 36 1 46 3 50 46
split_gain=0.029358 0.0363202 0.01578 0.0198102 0.0176013 0.0141606 0.0150553 0.00883164
threshold=57615.490000000005 0.055048670376336768 39.1977992577335 65686.544999999998 28.500000000000004 8144.7655250000007 -1.119585019775603 59.500000000000007
decision_type=2 2 2 2 2 2 2 2
left_child=1 -1 5 4 -4 6 -2 -5
right_child=2 -3 3 7 -6 -7 -8 -9
leaf_value=3.9940148447365884e-05 -0.00068205315080060102 0.00086938022276022021 7.1111256972364466e-05 0 0.00054893269233268903 0.00017959855518618026 -0.00015680545720957867 -0.00019194458452749367
leaf_weight=257 111 118 753 1039 140 102 478 537
leaf_count=257 111 118 753 1039 140 102 478 537
internal_value=3.25427e-06 0.000320199 -3.23089e-05 9.74316e-06 0.000153992 -0.000192101 -0.000268028 -6.77705e-05
internal_weight=3535 375 3160 2469 893 691 589 1576
internal_count=3535 375 3160 2469 893 691 589 1576
is_linear=0
shrinkage=0.0377323


Tree=15
num_leaves=9
num_cat=0
split_feature=1 9 1 43 10 50 46 1
split_gain=0.0257791 0.0305421 0.0123625 0.0173165 0.0206533 0.019497 0.00694225 0.00285155
threshold=57684.095000000008 0.051971298558285479 70133.550000000017 0.00014149296875000004 0.48797262650074841 -0.8403453056455088 60.500000000000007 56342.325000000004
decision_type=2 2 2 2 2 2 2 2
left_child=1 7 3 5 -5 -2 -4 -1
right_child=2 -3 6 4 -6 -7 -8 -9
leaf_value=-3.635588992160431e-05 -0.00026027483593718206 0.00079123539186569305 0 0.00049470145773915903 -9.7837311296984835e-06 0 -0.00043285197762253511 0.00019530887231233531
leaf_weight=155 514 119 111 193 225 1956 169 108
leaf_count=155 514 119 111 193 225 1956 169 108
internal_value=-1.97435e-06 0.000288435 -3.91808e-05 -1.34795e-05 0.000207644 -5.36785e-05 -0.0002795 3.36387e-05
internal_weight=3550 382 3168 2888 418 2470 280 263
internal_count=3550 382 3168 2888 418 2470 280 263
is_linear=0
shrinkage=0.0377323


Tree=16
num_leaves=8
num_cat=0
split_feature=49 34 7 43 46 35 26
split_gain=0.0250386 0.0142658 0.0250606 0.0227761 0.017638 0.00989741 0.00925135
threshold=-0.069862459917620343 52.207148120141021 0.95610480473157677 0.00013406421875000003 59.500000000000007 0.70080504425239332 1.2738816851794286
decision_type=2 2 2 2 2 2 2
left_child=-1 2 6 5 -4 -3 -2
right_child=1 3 4 -5 -6 -7 -8
leaf_value=0.00057182622963624112 5.6713713376143582e-05 -0.00039719449443268524 2.515036994254379e-05 0.00021048472833588118 -0.00023792585675249932 -2.6544814868135311e-05 0.00064766584596469279
leaf_weight=102 98 389 2060 154 434 195 114
leaf_count=102 98 389 2060 154 434 195 114
internal_value=-5.6721e-06 -2.4864e-05 1.29602e-05 -0.0001725 -1.80025e-05 -0.000285141 0.000407381
internal_weight=3546 3444 2706 738 2494 584 212
internal_count=3546 3444 2706 738 2494 584 212
is_linear=0
shrinkage=0.0377323


Tree=17
num_leaves=9
num_cat=0
split_feature=1 39 30 22 7 7 51 36
split_gain=0.0239094 0.0160901 0.0148561 0.0134222 0.016281 0.0127621 0.0108977 0.0086159
threshold=59340.765000000007 44.013513482162196 -0.60785761079279388 -0.19772187795793192 0.96297068416386011 1.010694015490315 -0.00032822663625288722 37.415131582153442
decision_type=2 2 2 2 2 2 2 2
left_child=1 -1 7 5 -5 -4 -3 -2
right_child=2 6 3 4 -6 -7 -8 -9
leaf_value=0.00054755498438921772 -0.00015420003993335567 0.00043249132134030383 -9.7786991827581777e-05 0.00019935794006941971 -0.00023952997744542884 0.00019095050097115549 -2.156194658979207e-06 0.00014169990934203156
leaf_weight=161 153 97 611 119 1016 337 338 725
leaf_count=161 153 97 611 119 1016 337 338 725
internal_value=0 0.000218171 -4.36021e-05 -9.99457e-05 -0.000187484 0 8.00101e-05 8.23918e-05
internal_weight=3557 596 2961 2083 1135 948 435 878
internal_count=3557 596 2961 2083 1135 948 435 878
is_linear=0
shrinkage=0.0377323


Tree=18
num_leaves=9
num_cat=0
split_feature=1 4 30 3 13 34 14 39
split_gain=0.0215429 0.0250424 0.0122288 0.016863 0.014742 0.0120382 0.0172014 0.0131071
threshold=57684.095000000008 514.17142857142869 -1.0000000180025095e-35 8144.7655250000007 48.448378664454637 47.862995936010684 -648075.29800000123 19.567161168049541
decision_type=2 2 2 2 2 2 2 2
left_child=1 -1 5 -4 -5 7 -7 -2
right_child=2 -3 3 4 -6 6 -8 -9
leaf_value=0 -0.0002738774251639564 0.0005930261030920364 -0.00015060457269953502 0.00052316289295417358 -2.7694058930357003e-05 -0.00056489080778178511 5.3471267478347854e-06 0.00016138800547797416
leaf_weight=201 99 177 1527 103 147 97 234 942
leaf_count=201 99 177 1527 103 147 97 234 942
internal_value=-3.98864e-07 0.00026644 -3.46264e-05 -0.000101168 0.000173488 4.66736e-05 -0.000142543 0.000113354
internal_weight=3527 378 3149 1777 250 1372 331 1041
internal_count=3527 378 3149 1777 250 1372 331 1041
is_linear=0
shrinkage=0.0377323


Tree=19
num_leaves=8
num_cat=0
split_feature=7 39 39 26 22 22 39
split_gain=0.0181051 0.00874192 0.0109897 0.0108661 0.00970522 0.00687503 0.00635697
threshold=0.91997670866867043 18.964850370193414 24.230794125329812 1.5018131016418683 0.15492659438669448 0.58061256046670162 14.542234028252677
decision_type=2 2 2 2 2 2 2
left_child=-1 4 5 -4 6 -3 -2
right_child=1 2 3 -5 -6 -7 -8
leaf_value=0.00046413236683482328 -0.00026317015448697249 0.00032991154037117706 -0.00010171346068881813 4.8147597409485371e-05 -0.00045098565696649205 0 0.00012814976343149812
leaf_weight=115 99 223 1280 1431 132 122 131
leaf_count=115 99 223 1280 1431 132 122 131
internal_value=0 -1.54778e-05 3.16122e-06 -2.01417e-05 -0.00019098 0.000205297 -1.15366e-05
internal_weight=3533 3418 3056 2711 362 345 230
internal_count=3533 3418 3056 2711 362 345 230
is_linear=0
shrinkage=0.0377323


Tree=20
num_leaves=8
num_cat=0
split_feature=11 1 14 30 51 50 4
split_gain=0.0201972 0.0122447 0.0118656 0.0130357 0.0108294 0.00587243 0.00339923
threshold=0.017924677042277248 59340.765000000007 -813008.54400000174 -0.60785761079279388 -0.00013893826085337822 -1.119585019775603 532.47500000000025
decision_type=2 2 2 2 2 2 2
left_child=1 4 -3 -4 6 -6 -1
right_child=-2 2 3 -5 5 -7 -8
leaf_value=9.9354501935608119e-05 0.00052589469241432179 -0.00035814215380815072 9.8287136262232037e-05 -8.2030740219231354e-05 -0.00022817714961853648 0.0001136258732452181 0.00052647926251397198
leaf_weight=98 100 169 789 1914 100 240 110
leaf_count=98 100 169 789 1914 100 240 110
internal_value=0 -1.58732e-05 -4.88285e-05 -2.68971e-05 0.000144407 0 0.000358639
internal_weight=3520 3420 2872 2703 548 340 208
internal_count=3520 3420 2872 2703 548 340 208
is_linear=0
shrinkage=0.0377323


Tree=21
num_leaves=8
num_cat=0
split_feature=11 37 33 40 37 34 12
split_gain=0.0217679 0.0101631 0.0168617 0.0136773 0.0123062 0.0117998 0.0104555
threshold=0.017924677042277248 0.93953559596263758 1461.4214285714286 0.55634745247035966 1.010970821268464 24.710331829507634 37.753239285394663
decision_type=2 2 2 2 2 2 2
left_child=1 2 6 5 -5 -3 -1
right_child=-2 3 -4 4 -6 -7 -8
leaf_value=0.00021314834096084463 0.0005471897353407552 5.8319308533265134e-05 0.00048817124761921764 0.00036988723868968949 -9.0367536579625618e-06 -0.00021171035894347574 -0.00012979210270464976
leaf_weight=216 99 258 135 130 1471 938 298
leaf_count=216 99 258 135 130 1471 938 298
internal_value=-4.77484e-09 -1.78064e-05 0.000113494 -5.06993e-05 1.77187e-05 -0.000147846 1.38839e-06
internal_weight=3545 3446 649 2797 1601 1196 514
internal_count=3545 3446 649 2797 1601 1196 514
is_linear=0
shrinkage=0.0377323


Tree=22
num_leaves=7
num_cat=0
split_feature=41 34 7 43 30 35
split_gain=0.0200696 0.00896224 0.0218293 0.020075 0.0117451 0.00980213
threshold=0.40766995904887188 49.9219313454049 0.93848328053969043 0.00013406421875000003 -1.0000000180025095e-35 0.70080504425239332
decision_type=2 2 2 2 2 2
left_child=1 2 -1 5 -4 -3
right_child=-2 3 4 -5 -6 -7
leaf_value=0.00055431880141775804 0.00052337184345506351 -0.00031376118733761701 9.0203555442784652e-05 0.00027022875830721651 -7.2809001939126919e-05 0
leaf_weight=105 103 444 1152 140 1384 227
leaf_count=105 103 444 1152 140 1384 227
internal_value=5.45268e-06 -8.18109e-06 2.34078e-05 -0.000119241 0 -0.000210743
internal_weight=3555 3452 2641 811 2536 671
internal_count=3555 3452 2641 811 2536 671
is_linear=0
shrinkage=0.0377323


Tree=23
num_leaves=7
num_cat=0
split_feature=49 1 43 50 43 38
split_gain=0.0189823 0.00920317 0.0140795 0.0223826 0.0177189 0.00403646
threshold=-0.069862459917620343 70133.550000000017 0.00014149296875000004 -0.93175795983460208 0.00026085250000000006 4074.8500000000008
decision_type=2 2 2 2 2 2
left_child=-1 2 3 -2 -4 -3
right_child=1 5 4 -5 -6 -7
leaf_value=0.00049429141807653335 -0.00025576879261669187 -0.00033745096621025117 0.00062924078171180898 1.4925824031207737e-05 3.3658294613390455e-05 0
leaf_weight=103 531 180 104 2196 311 97
leaf_count=103 531 180 104 2196 311 97
internal_value=-5.53679e-06 -2.26791e-05 -2.1032e-06 -3.53845e-05 0.000200057 -0.000231165
internal_weight=3522 3419 3142 2727 415 277
internal_count=3522 3419 3142 2727 415 277
is_linear=0
shrinkage=0.0377323


Tree=24
num_leaves=9
num_cat=0
split_feature=7 30 26 3 39 34 32 43
split_gain=0.0195311 0.00991317 0.015932 0.0169107 0.0102949 0.007318 0.00944325 0.00293948
threshold=0.92391206560988848 -1.0000000180025095e-35 1.0877685731433213 7928.4606250000006 31.631073962231948 27.852852962126118 57.340234813355643 0.00010002781250000002
decision_type=2 2 2 2 2 2 2 2
left_child=-1 5 4 -4 -3 7 -7 -2
right_child=1 2 3 -5 -6 6 -8 -9
leaf_value=0.00043531156246892074 0.00021413090814819183 0 -6.606528168798938e-05 0.00031146049405029032 -0.00037002521604586578 -0.00011058289082206973 0.00012837940310921392 0
leaf_weight=139 402 114 1243 193 355 555 403 102
leaf_count=139 402 114 1243 193 355 555 403 102
internal_value=0 -1.96824e-05 -7.78195e-05 -1.04941e-05 -0.000269265 5.14792e-05 -3.02733e-06 0.000168222
internal_weight=3506 3367 1905 1436 469 1462 958 504
internal_count=3506 3367 1905 1436 469 1462 958 504
is_linear=0
shrinkage=0.0377323


Tree=25
num_leaves=6
num_cat=0
split_feature=49 39 34 7 43
split_gain=0.0214752 0.011648 0.0123822 0.0235703 0.0134822
threshold=-0.069862459917620343 14.165551803486904 52.207148120141021 0.93848328053969043 0.00013406421875000003
decision_type=2 2 2 2 2
left_child=-1 -2 3 -3 -4
right_child=1 2 4 -5 -6
leaf_value=0.00051611051044369075 -0.00040959879218171899 0.00057716353523321138 -0.00022572346269441619 1.3178452430295859e-05 0.00016700109923170422
leaf_weight=113 100 111 564 2531 139
leaf_count=113 100 111 564 2531 139
internal_value=5.04398e-06 -9.89398e-06 1.4912e-07 3.95951e-05 -0.000138418
internal_weight=3558 3445 3345 2642 703
internal_count=3558 3445 3345 2642 703
is_linear=0
shrinkage=0.0377323


Tree=26
num_leaves=9
num_cat=0
split_feature=37 38 36 36 8 4 31 37
split_gain=0.0122884 0.016787 0.0146605 0.00987106 0.0123927 0.0113492 0.0097405 0.00909197
threshold=0.93953559596263758 2518.2821428571424 30.414483310211029 59.664549046297473 -61.805855803554152 779.87500000000091 -0.56174490092936669 1.158196466075835
decision_type=2 2 2 2 2 2 2 2
left_child=1 2 -1 7 -5 -6 -3 -2
right_child=3 6 -4 4 5 -7 -8 -9
leaf_value=0.00014524009644281842 -6.7609798762675871e-05 0.00061631184015594593 -0.00036846538291945911 0.00026456349194702727 2.0903446123742365e-05 -0.00040758791199116824 0.00014257506889517676 -0.00040692028435339626
leaf_weight=181 1619 117 130 276 713 97 251 133
leaf_count=181 1619 117 130 276 713 97 251 133
internal_value=-4.41329e-06 0.000137471 -4.83706e-05 -4.07573e-05 4.44245e-05 -2.25003e-05 0.000312489 -9.73872e-05
internal_weight=3517 679 311 2838 1086 810 368 1752
internal_count=3517 679 311 2838 1086 810 368 1752
is_linear=0
shrinkage=0.0377323


Tree=27
num_leaves=8
num_cat=0
split_feature=41 1 34 40 50 40 2
split_gain=0.0172043 0.00880176 0.0132728 0.0130642 0.0106648 0.00867221 0.00656631
threshold=0.40766995904887188 68007.755000000019 49.9219313454049 0.04034494957976395 -0.52075097712744867 0.5928295420691948 53.34774544056534
decision_type=2 2 2 2 2 2 2
left_child=1 2 3 -1 -3 -4 -6
right_child=-2 4 5 -5 6 -7 -8
leaf_value=0.00044379072935266605 0.00049473602995105581 -0.00039439941289414637 -0.00022604621291803749 3.9803578338078536e-05 5.8371592745219933e-05 5.3893114669684847e-05 -0.00017480038018730511
leaf_weight=127 97 168 432 1843 343 195 301
leaf_count=127 97 168 432 1843 343 195 301
internal_value=0 -1.26133e-05 1.9078e-05 6.9438e-05 -0.00012215 -0.000128328 -4.02797e-05
internal_weight=3506 3409 2597 1970 812 627 644
internal_count=3506 3409 2597 1970 812 627 644
is_linear=0
shrinkage=0.0377323


Tree=28
num_leaves=8
num_cat=0
split_feature=7 30 22 7 40 39 34
split_gain=0.0123287 0.0118997 0.00898563 0.0110572 0.00978231 0.00715225 0.00695154
threshold=0.93064485541876796 -1.0000000180025095e-35 -0.22282931987157706 1.0059600965219744 0.099859928967721889 19.567161168049541 47.862995936010684
decision_type=2 2 2 2 2 2 2
left_child=-1 5 3 -3 -4 -2 -7
right_child=1 2 4 -5 -6 6 -8
leaf_value=0.00030450418816639472 -0.00022101901409724863 -8.3780724521718934e-05 0.00014454122159955764 0.00020649713312585806 -0.00018763625487346479 0.00014480439234637143 -4.5468658741196552e-05
leaf_weight=185 98 495 121 291 979 1021 308
leaf_count=185 98 495 121 291 979 1021 308
internal_value=4.12517e-06 -1.06951e-05 -7.46217e-05 1.52579e-05 -0.00014491 6.90823e-05 9.5655e-05
internal_weight=3498 3313 1886 786 1100 1427 1329
internal_count=3498 3313 1886 786 1100 1427 1329
is_linear=0
shrinkage=0.0377323


Tree=29
num_leaves=8
num_cat=0
split_feature=11 37 33 32 47 41 44
split_gain=0.0114366 0.00829807 0.0137672 0.0116806 0.0136422 0.00875768 0.00631788
threshold=0.017603097142299146 0.94541287195532309 1461.4214285714286 59.845815891057562 0.98362248772595118 0.16862843696852434 0.47922934419725222
decision_type=2 2 2 2 2 2 2
left_child=1 2 5 4 -3 -1 -5
right_child=-2 3 -4 6 -6 -7 -8
leaf_value=0.00018934451392804501 0.00035973806037201649 -0.00032866916993596782 0.00040022209643628722 0.00013251664713282186 -4.8989898239946556e-05 -0.00011472266920949136 -5.1250624130737393e-05
leaf_weight=224 120 330 164 602 1370 334 411
leaf_count=224 120 330 164 602 1370 334 411
internal_value=0 -1.36737e-05 9.70303e-05 -4.56319e-05 -0.000107369 0 5.13505e-05
internal_weight=3555 3435 722 2713 1700 558 1013
internal_count=3555 3435 722 2713 1700 558 1013
is_linear=0
shrinkage=0.0377323


Tree=30
num_leaves=9
num_cat=0
split_feature=11 32 50 1 4 44 1 50
split_gain=0.0152063 0.00917401 0.0120078 0.0106716 0.00860439 0.0084088 0.00818931 0.00216157
threshold=0.016008603737644848 58.021938608825636 -0.945575486651968 69662.845000000016 439.09285714285824 -1.0857205347460186 62322.500000000007 1.3027232351718681
decision_type=2 2 2 2 2 2 2 2
left_child=1 2 5 4 -3 -1 -4 -5
right_child=-2 3 6 7 -6 -7 -8 -9
leaf_value=5.6465091683203659e-06 0.00032855417799284702 0 9.9618201599240008e-05 -0.00024873312344919342 0.00022506394343545187 -0.00033087398293066137 -7.5548512582156478e-05 0
leaf_weight=98 192 422 553 135 536 342 1140 97
leaf_count=98 192 422 553 135 536 342 1140 97
internal_value=1.12186e-06 -1.58554e-05 -6.4288e-05 6.52991e-05 0.000124839 -0.000240817 -1.43443e-05 -0.000151261
internal_weight=3515 3323 2133 1190 958 440 1693 232
internal_count=3515 3323 2133 1190 958 440 1693 232
is_linear=0
shrinkage=0.0377323


Tree=31
num_leaves=9
num_cat=0
split_feature=1 9 36 1 34 34 3 14
split_gain=0.0126737 0.0178539 0.0107777 0.0144403 0.0095624 0.00946206 0.0089255 0.00793777
threshold=57684.095000000008 0.051971298558285479 39.1977992577335 65686.544999999998 52.207148120141021 46.857509679930139 8812.0138750000024 -719582.01500000071
decision_type=2 2 2 2 2 2 2 2
left_child=1 -1 5 4 -4 -2 -5 -7
right_child=2 -3 3 6 -6 7 -8 -9
leaf_value=7.6121912588229103e-06 -2.9922405920201178e-05 0.00059002993589564424 0.00020979614792458604 -2.8967510431433668e-05 -4.9432615058220192e-05 -0.00057399669002179481 -0.0004064576839841183 -7.895696217071846e-05
leaf_weight=271 413 118 648 1475 240 123 100 134
leaf_count=271 413 118 648 1475 240 123 100 134
internal_value=0 0.000202426 -2.56947e-05 8.24717e-06 0.000132196 -0.000160335 -5.74065e-05 -0.000343058
internal_weight=3522 389 3133 2463 888 670 1575 257
internal_count=3522 389 3133 2463 888 670 1575 257
is_linear=0
shrinkage=0.0377323


Tree=32
num_leaves=9
num_cat=0
split_feature=11 7 32 51 37 44 3 40
split_gain=0.0124556 0.022126 0.00949077 0.0111938 0.00719095 0.00690459 0.0067903 0.00549941
threshold=0.0145808987635136 0.95706443272847397 57.340234813355643 0.00019220602277216937 0.93953559596263758 0.040346140169966425 6283.6413500000008 0.55634745247035966
decision_type=2 2 2 2 2 2 2 2
left_child=2 -2 3 4 -1 -4 -7 -5
right_child=1 -3 5 7 -6 6 -8 -9
leaf_value=0.00011085323134750642 0.00060429635145111749 -5.1903737210479329e-05 0.0001465278323988472 -0.00034445754275980639 -7.3984789585803304e-05 -0.00011272846073854265 0.0001546923750995387 0
leaf_weight=366 126 134 590 296 1321 453 180 133
leaf_count=366 126 134 590 296 1321 453 180 133
internal_value=-7.18718e-06 0.000241285 -2.86037e-05 -7.82492e-05 -2.98671e-05 5.17965e-05 -2.59788e-05 -0.000252438
internal_weight=3599 260 3339 2116 1687 1223 633 429
internal_count=3599 260 3339 2116 1687 1223 633 429
is_linear=0
shrinkage=0.0377323


Tree=33
num_leaves=8
num_cat=0
split_feature=11 1 40 37 1 30 3
split_gain=0.0143031 0.0103908 0.011931 0.016314 0.00739307 0.00288993 0.000382171
threshold=0.017603097142299146 69662.845000000016 0.55634745247035966 0.93953559596263758 67872.375000000015 0.6078576107927941 3706.2856000000006
decision_type=2 2 2 2 2 2 2
left_child=1 2 3 -1 -4 6 -3
right_child=-2 5 4 -5 -6 -7 -8
leaf_value=0.00010342057033282813 0.00041892189043804036 -0.0001030619814835445 0.00017120994472426935 -0.00012970300079370527 -1.3382519325094413e-05 -1.737614993787087e-05 -0.0003758600008912215
leaf_weight=642 115 102 839 1179 388 157 125
leaf_count=642 115 102 839 1179 388 157 125
internal_value=5.57314e-06 -6.42136e-06 1.48656e-05 -4.38167e-05 0.000107398 -0.000192501 -0.000283615
internal_weight=3547 3432 3048 1821 1227 384 227
internal_count=3547 3432 3048 1821 1227 384 227
is_linear=0
shrinkage=0.0377323


Tree=34
num_leaves=9
num_cat=0
split_feature=1 39 36 1 46 34 45 34
split_gain=0.013862 0.0135044 0.00810113 0.0124299 0.0115093 0.0101839 0.00793601 0.00781668
threshold=57615.490000000005 66.929772857627412 39.1977992577335 65686.544999999998 28.500000000000004 46.857509679930139 1.2860000000000011e-05 40.057671151522733
decision_type=2 2 2 2 2 2 2 2
left_child=1 -1 5 4 -4 -2 -7 -5
right_child=2 -3 3 7 -6 6 -8 -9
leaf_value=0.00039833385234476395 -8.4795210656232769e-07 -3.5212809982739762e-05 5.5468400610159912e-05 -0.0001259755595124587 0.00044774159407747117 -0.00050897720478687916 -2.6553410541953685e-05 3.7535869961489687e-05
leaf_weight=236 408 134 747 901 138 147 120 685
leaf_count=236 408 134 747 901 138 147 120 685
internal_value=3.73553e-06 0.000223485 -2.00279e-05 9.10458e-06 0.000124595 -0.000136491 -0.000318019 -5.11383e-05
internal_weight=3516 370 3146 2471 885 675 267 1586
internal_count=3516 370 3146 2471 885 675 267 1586
is_linear=0
shrinkage=0.0377323


Tree=35
num_leaves=9
num_cat=0
split_feature=1 34 10 43 3 4 43 34
split_gain=0.0149499 0.0100251 0.0103492 0.0181733 0.00978656 0.00951685 0.00497334 0.00639064
threshold=59340.765000000007 20.270792828192441 0.56979312924433578 0.00014149296875000004 5480.0832250000012 795.63214285714309 2.3202968750000001e-05 30.231497610289299
decision_type=2 2 2 2 2 2 2 2
left_child=4 -2 3 -3 -1 -4 -6 -8
right_child=1 2 5 -5 6 -7 7 -9
leaf_value=0 0.00017207850203816041 -6.0904907079410626e-05 -9.8329673543987348e-05 0.00027050030993071891 3.6388523975515434e-06 -0.00045134413145235904 0.00013482409955890056 0.00062168006386483616
leaf_weight=255 275 1237 1014 290 101 141 126 115
leaf_count=255 275 1237 1014 290 101 141 126 115
internal_value=-1.57908e-06 -3.82244e-05 -6.23403e-05 0 0.000168486 -0.00014754 0.000300233 0.0003963
internal_weight=3554 2957 2682 1527 597 1155 342 241
internal_count=3554 2957 2682 1527 597 1155 342 241
is_linear=0
shrinkage=0.0377323


Tree=36
num_leaves=8
num_cat=0
split_feature=49 39 39 22 23 22 39
split_gain=0.0139813 0.00770391 0.00922618 0.0079388 0.00686216 0.00645597 0.00481971
threshold=-0.069862459917620343 18.964850370193414 24.230794125329812 0.58061256046670162 6.0302873657931846 0.1138053679742651 14.694307777248047
decision_type=2 2 2 2 2 2 2
left_child=-1 5 3 -3 -4 6 -2
right_child=1 2 4 -5 -6 -7 -8
leaf_value=0.00041433598713122046 -0.00023585658176936556 0.00032344052891054577 -3.0070920599004287e-06 -1.9810841796012658e-06 -0.00026497834280110204 -0.00038857165481689498 0.00011157805683606741
leaf_weight=110 98 222 2581 130 154 138 114
leaf_count=110 98 222 2581 130 154 138 114
internal_value=-6.25407e-07 -1.59603e-05 9.28914e-07 0.000184503 -2.0292e-05 -0.000183711 -1.77675e-05
internal_weight=3547 3437 3087 352 2735 350 212
internal_count=3547 3437 3087 352 2735 350 212
is_linear=0
shrinkage=0.0377323


Tree=37
num_leaves=7
num_cat=0
split_feature=49 43 43 37 34 46
split_gain=0.0126608 0.00792815 0.0165906 0.0150256 0.0179175 0.00886375
threshold=-0.069862459917620343 0.00014149296875000004 0.00026085250000000006 1.1488510745840881 49.9219313454049 59.500000000000007
decision_type=2 2 2 2 2 2
left_child=-1 3 -3 4 -2 -4
right_child=1 2 5 -5 -6 -7
leaf_value=0.00040595727942545898 3.5362633898586635e-05 0.00050211558617844435 0.0001487345394432423 -0.00040057572460833386 -0.00018826792142943603 -0.0002029172734043337
leaf_weight=105 2086 122 246 156 666 173
leaf_count=105 2086 122 246 156 666 173
internal_value=0 -1.29685e-05 0.000116499 -3.93914e-05 -1.63584e-05 0
internal_weight=3554 3449 541 2908 2752 419
internal_count=3554 3449 541 2908 2752 419
is_linear=0
shrinkage=0.0377323


Tree=38
num_leaves=9
num_cat=0
split_feature=7 11 30 26 3 32 35 34
split_gain=0.0108046 0.0138806 0.0102286 0.0118309 0.0122869 0.010241 0.00578531 0.00640567
threshold=0.93064485541876796 0.015021098273557619 -1.0000000180025095e-35 1.0877685731433213 7928.4606250000006 58.580102387282999 0.78143191393959943 29.045925049777022
decision_type=2 2 2 2 2 2 2 2
left_child=1 -1 6 5 -5 -4 7 -2
right_child=2 -3 3 4 -6 -7 -8 -9
leaf_value=0 0.00012761544678092346 0.00058609093428859749 -0.00037208937276916556 -6.4521528440490288e-05 0.00026517137537376167 0 0.00022599173587954633 -4.9624592204021008e-05
leaf_weight=107 466 98 305 1270 180 163 240 717
leaf_count=107 466 98 305 1270 180 163 240 717
internal_value=-6.35936e-07 0.000262597 -1.88612e-05 -7.72004e-05 -1.8831e-05 -0.000243351 5.50522e-05 1.45594e-05
internal_weight=3546 205 3341 1918 1450 468 1423 1183
internal_count=3546 205 3341 1918 1450 468 1423 1183
is_linear=0
shrinkage=0.0377323


Tree=39
num_leaves=8
num_cat=0
split_feature=11 34 32 32 39 44 7
split_gain=0.00941501 0.00653124 0.00838709 0.00987928 0.00787134 0.00767142 0.00348193
threshold=0.017924677042277248 23.026202786902608 56.347567539091358 39.371457019342742 66.929772857627412 0.45266750770573022 1.033785234441343
decision_type=2 2 2 2 2 2 2
left_child=1 4 3 -3 6 -4 -1
right_child=-2 2 5 -5 -6 -7 -8
leaf_value=9.4928023072420137e-05 0.00035542734611185864 0 0.00012940717992831718 -0.00018077451725550115 -0.00012762571118624593 -6.8668558869025995e-05 0.00039067005822627013
leaf_weight=419 101 778 611 883 148 465 100
leaf_count=419 101 778 611 883 148 465 100
internal_value=0 -1.25586e-05 -4.0082e-05 -9.44291e-05 9.02288e-05 3.75819e-05 0.000165385
internal_weight=3505 3404 2737 1661 667 1076 519
internal_count=3505 3404 2737 1661 667 1076 519
is_linear=0
shrinkage=0.0377323


end of trees

feature_importances:
ma_10=39
adx_14_4h=25
adx_14_1d=25
ma_200_ratio=18
dow_sin=17
atr_14_pct=15
return_skew_20=15
funding_rate_ma_8=14
volume_ma_20=10
ma_50_1d_ratio=10
obv=9
oi_zscore=9
rsi_14_4h=8
atr_14_1d=8
oi_price_divergence=8
volume_skew_20=7
rsi_14_1d=7
bb_position_1d=7
funding_rate_streak=6
atr_14=5
oi_change_24h=5
bb_width=4
atr_ratio_1h_1d=4
funding_rate_zscore=4
bb_position_4h=3
bb_position=2
atr_14_4h=2
rsi_14=1
macd_hist=1
adx_14=1
stoch_k=1
vol_ratio_7_30=1
return_kurt_20=1
dow_cos=1
funding_rate_change=1
oi_ma_ratio=1

parameters:
[boosting: gbdt]
[objective: huber]
[metric: l1]
[tree_learner: serial]
[device_type: cpu]
[data_sample_strategy: bagging]
[data: ]
[valid: ]
[num_iterations: 2000]
[learning_rate: 0.0377323]
[num_leaves: 9]
[num_threads: 12]
[seed: 42]
[deterministic: 1]
[force_col_wise: 0]
[force_row_wise: 0]
[histogram_pool_size: -1]
[max_depth: 4]
[min_data_in_leaf: 97]
[min_sum_hessian_in_leaf: 0.001]
[bagging_fraction: 0.814082]
[pos_bagging_fraction: 1]
[neg_bagging_fraction: 1]
[bagging_freq: 1]
[bagging_seed: 400]
[bagging_by_query: 0]
[feature_fraction: 0.799684]
[feature_fraction_bynode: 1]
[feature_fraction_seed: 30056]
[extra_trees: 0]
[extra_seed: 12879]
[early_stopping_round: 0]
[early_stopping_min_delta: 0]
[first_metric_only: 0]
[max_delta_step: 0]
[lambda_l1: 0.178059]
[lambda_l2: 0.856664]
[linear_lambda: 0]
[min_gain_to_split: 0]
[drop_rate: 0.1]
[max_drop: 50]
[skip_drop: 0.5]
[xgboost_dart_mode: 0]
[uniform_drop: 0]
[drop_seed: 17869]
[top_rate: 0.2]
[other_rate: 0.1]
[min_data_per_group: 100]
[max_cat_threshold: 32]
[cat_l2: 10]
[cat_smooth: 10]
[max_cat_to_onehot: 4]
[top_k: 20]
[monotone_constraints: ]
[monotone_constraints_method: basic]
[monotone_penalty: 0]
[feature_contri: ]
[forcedsplits_filename: ]
[refit_decay_rate: 0.9]
[cegb_tradeoff: 1]
[cegb_penalty_split: 0]
[cegb_penalty_feature_lazy: ]
[cegb_penalty_feature_coupled: ]
[path_smooth: 0]
[interaction_constraints: ]
[verbosity: -1]
[saved_feature_importance_type: 0]
[use_quantized_grad: 0]
[num_grad_quant_bins: 4]
[quant_train_renew_leaf: 0]
[stochastic_rounding: 1]
[linear_tree: 0]
[max_bin: 255]
[max_bin_by_feature: ]
[min_data_in_bin: 3]
[bin_construct_sample_cnt: 200000]
[data_random_seed: 175]
[is_enable_sparse: 1]
[enable_bundle: 1]
[use_missing: 1]
[zero_as_missing: 0]
[feature_pre_filter: 1]
[pre_partition: 0]
[two_round: 0]
[header: 0]
[label_column: ]
[weight_column: ]
[group_column: ]
[ignore_column: ]
[categorical_feature: ]
[forcedbins_filename: ]
[precise_float_parser: 0]
[parser_config_file: ]
[objective_seed: 16083]
[num_class: 1]
[is_unbalance: 0]
[scale_pos_weight: 1]
[sigmoid: 1]
[boost_from_average: 1]
[reg_sqrt: 0]
[alpha: 0.9]
[fair_c: 1]
[poisson_max_delta_step: 0.7]
[tweedie_variance_power: 1.5]
[lambdarank_truncation_level: 30]
[lambdarank_norm: 1]
[label_gain: ]
[lambdarank_position_bias_regularization: 0]
[eval_at: ]
[multi_error_top_k: 1]
[auc_mu_weights: ]
[num_machines: 1]
[local_listen_port: 12400]
[time_out: 120]
[machine_list_filename: ]
[machines: ]
[gpu_platform_id: -1]
[gpu_device_id: -1]
[gpu_use_dp: 0]
[num_gpu: 1]

end of parameters

pandas_categorical:[]
