tree
version=v4
num_class=1
num_tree_per_iteration=1
label_index=0
max_feature_idx=51
objective=huber
feature_names=is_gap_filled ma_10 rsi_14 volume_ma_20 atr_14 ma_10_ratio ma_30_ratio ma_200_ratio macd_hist bb_width bb_position atr_14_pct adx_14 stoch_k obv return_1 return_10 high_low_ratio body_ratio volume_change volume_ratio vol_ratio_7_30 return_skew_20 return_kurt_20 upper_shadow_ratio lower_shadow_ratio volume_skew_20 price_volume_corr_20 hour_sin hour_cos dow_sin dow_cos rsi_14_4h atr_14_4h adx_14_4h bb_position_4h rsi_14_1d ma_50_1d_ratio atr_14_1d adx_14_1d bb_position_1d atr_ratio_1h_1d funding_rate funding_rate_ma_8 funding_rate_zscore funding_rate_change funding_rate_streak oi_ma_ratio oi_change_1h oi_change_24h oi_zscore oi_price_divergence
feature_infos=none [53629.130000000005:125151.69000000002] [1.716112919094499:98.295538757966085] [515.99185:17197.216] [130.57857142856977:2821.7000000000003] [0.94594300172539392:1.0779576195787481] [0.91893806465158656:1.0923856869432083] [0.85378029029793068:1.1856964932129814] [-953.00223272314952:885.64154068106438] [0.0023771303773671378:0.1761031955447428] [-0.48224355447518846:1.497140965354931] [0.0012163816621198861:0.025456528325083976] [4.7421618308105336:98.937580500733787] [0:100] [-1468622.382999999:-418098.82800000213] [-0.049101442053134936:0.050906205506907165] [-0.079908712735242138:0.10014682676775699] [0.00054751017201644771:0.12393644937101425] [-1:0.99988539995415326] [-0.85626996562634128:15.944241373203958] [0.08785394829572786:10.590528582247845] [0.28474336503425013:2.7839740274208058] [-3.8444836258086332:3.7759436419761463] [-1.5714107663758998:16.026781542852479] [0:3.0955924647684725] [0:5.6440031623494393] [-0.66147779595892453:4.3849797260671899] [-0.94711780657482825:0.96206757616691052] [-1:1] [-1:1] [-0.97492791218182362:0.97492791218182362] [-0.90096886790241903:1] [4.0466581900602421:95.379867829867294] [411.25714285714326:3755.221428571429] [6.0498025751178135:89.710755151999521] [-0.41138799772842671:1.4070248661958795] [16.66160463225134:86.362562711992524] [0.80568011970350761:1.3678372489724762] [1959.2428571428572:6333.9928571428582] [7.9964149190336604:82.875133932182734] [-0.38474445342410601:1.2578272182621453] [0.042406335999683929:0.78778172328033436] [-0.00029357:0.00108552] [-5.0157500000000002e-05:0.00043583499999999998] [-13.78423767680826:13.784237670674855] [-0.00051340000000000001:0.00077364999999999997] [-6:119] [0.72245514908273334:1.2050917741530394] [-0.2552888262214088:0.071739080959933199] [-0.33611776352683576:0.28822055794005119] [-10.217179753762693:4.9600947685365515] [-0.0081496278664940722:0.028438817248812025]
tree_sizes=971 993 627 972 719 989 993 962 718 721 985 975 967 612 960 887 628 970 971

Tree=0
num_leaves=9
num_cat=0
split_feature=3 6 26 8 40 44 39 7
split_gain=0.0273699 0.0261014 0.0234226 0.0157413 0.0126978 0.0108923 0.00936979 0.0126451
threshold=5749.5565750000014 1.0342631427715629 2.3836624567092994 -168.14591212535916 0.59203816544028165 1.0604046060087351 33.268686848075063 0.95381079263650603
decision_type=2 2 2 2 2 2 2 2
left_child=5 2 3 -2 -4 6 7 -1
right_child=1 -3 4 -5 -6 -7 -8 -9
leaf_value=0.0011808732822973025 0.0013859712181745489 0.00042939010394669861 0.00046364335525276332 0.0010073058796752957 0.00094460932705529117 0.00091058756818306443 0.00072817113682945847 0.00080531451904068577
leaf_weight=132 215 113 151 1076 132 951 3048 3021
leaf_count=132 215 113 151 1076 132 951 3048 3021
internal_value=0.000826189 0.000963268 0.00100606 0.0010759 0.00071133 0.000794349 0.00077543 0.00082326
internal_weight=8839 1687 1574 1291 283 7152 6201 3153
internal_count=8839 1687 1574 1291 283 7152 6201 3153
is_linear=0
shrinkage=1


Tree=1
num_leaves=9
num_cat=0
split_feature=3 6 31 44 1 39 34 7
split_gain=0.0324325 0.0314263 0.0173764 0.0119447 0.00888189 0.00838755 0.0198347 0.0156397
threshold=6210.5644250000005 1.0342631427715629 -0.22252093395631442 1.0604046060087351 64423.180000000008 33.268686848075063 23.997655991980253 0.95381079263650603
decision_type=2 2 2 2 2 2 2 2
left_child=3 2 -2 5 -4 7 -7 -1
right_child=1 -3 4 -5 -6 6 -8 -9
leaf_value=0.00039100375856511058 5.9293549370670018e-05 -0.00041419023645519623 1.3210693590416889e-05 9.334153558022958e-05 0.0004220452608872973 5.7199351169300696e-05 -0.00014753433150633028 -1.9510335722829783e-05
leaf_weight=137 561 110 127 1009 576 895 2306 3127
leaf_count=137 561 110 127 1009 576 895 2306 3127
internal_value=4.97521e-06 0.00017403 0.000230777 -2.52209e-05 0.000357839 -4.47741e-05 -8.81924e-05 -1.23889e-07
internal_weight=8848 1374 1264 7474 703 6465 3201 3264
internal_count=8848 1374 1264 7474 703 6465 3201 3264
is_linear=0
shrinkage=0.0377323


Tree=2
num_leaves=5
num_cat=0
split_feature=6 40 7 38
split_gain=0.0238899 0.0160318 0.0245336 0.0237038
threshold=0.96215674541552654 -0.16038870017169257 0.93428940133709337 4458.0071428571437
decision_type=2 2 2 2
left_child=-1 -2 -3 -4
right_child=1 2 3 -5
leaf_value=0.00054516309535277221 -0.00047377260216478957 0.00055343588639774873 1.1804066943705634e-05 -0.00017681918676809496
leaf_weight=111 104 110 7515 1079
leaf_count=111 104 110 7515 1079
internal_value=-1.80839e-06 -9.51648e-06 -3.1514e-06 -1.11117e-05
internal_weight=8919 8808 8704 8594
internal_count=8919 8808 8704 8594
is_linear=0
shrinkage=0.0377323


Tree=3
num_leaves=9
num_cat=0
split_feature=6 1 37 26 30 39 37 14
split_gain=0.0253951 0.0169674 0.0256992 0.0158959 0.0133444 0.0189778 0.0131844 0.0062247
threshold=0.96215674541552654 97032.470000000016 1.1356762491676109 2.3836624567092994 -0.60785761079279388 18.610226788696583 1.3016656756804037 -749346.87850000139
decision_type=2 2 2 2 2 2 2 2
left_child=-1 2 3 -2 7 -6 -4 -3
right_child=1 4 6 -5 5 -7 -8 -9
leaf_value=0.00057984819757012974 4.6861127291381338e-05 0.0002073236096468449 0.00041192310890920101 -0.00016244494068616341 8.3917970898236119e-05 -0.00014331597887856195 -6.6880471120942341e-06 0
leaf_weight=104 2952 245 373 621 605 2766 107 1163
leaf_count=104 2952 245 373 621 605 2766 107 1163
internal_value=-2.80672e-06 -1.04839e-05 4.53684e-05 8.57285e-06 -5.92567e-05 -0.00010053 0.00030479 3.4792e-05
internal_weight=8936 8832 4053 3573 4779 3371 480 1408
internal_count=8936 8832 4053 3573 4779 3371 480 1408
is_linear=0
shrinkage=0.0377323


Tree=4
num_leaves=6
num_cat=0
split_feature=6 6 44 38 11
split_gain=0.0192189 0.0177715 0.013578 0.0157509 0.0131204
threshold=0.96215674541552654 1.037097053268847 1.1006546478958341 3971.7321428571436 0.0082344316962338956
decision_type=2 2 2 2 2
left_child=-1 2 4 -4 -2
right_child=1 -3 3 -5 -6
leaf_value=0.00049641551399745392 -4.5682374150078819e-05 -0.00048061774649741062 0.00020306561981247914 -0.00014127016199881476 7.4285593066793684e-05
leaf_weight=108 6019 111 836 220 1624
leaf_count=108 6019 111 836 220 1624
internal_value=-9.60339e-07 -7.86778e-06 -1.01645e-06 0.000124916 -1.93069e-05
internal_weight=8918 8810 8699 1056 7643
internal_count=8918 8810 8699 1056 7643
is_linear=0
shrinkage=0.0377323


Tree=5
num_leaves=9
num_cat=0
split_feature=3 6 26 39 44 38 47 4
split_gain=0.0229327 0.0219604 0.0187569 0.0142503 0.011036 0.00950715 0.00915503 0.0090181
threshold=5795.8431500000015 1.0342631427715629 3.1585783432258534 33.997793579517726 1.0604046060087351 4259.0035714285732 0.99142533001909816 678.65714285714228
decision_type=2 2 2 2 2 2 2 2
left_child=4 2 3 -2 6 -6 -1 -8
right_child=1 -3 -4 -5 5 -7 7 -9
leaf_value=1.7916784200483619e-05 0.00033265951997480823 -0.00035443012241197236 -0.000235172919827267 7.7024309622536146e-05 0.0001331040509686587 -0.000230865516589777 -4.3281930948998887e-05 -0.00017572146016740041
leaf_weight=1999 719 115 133 696 884 103 3200 1050
leaf_count=1999 719 115 133 696 884 103 3200 1050
internal_value=1.52779e-06 0.000128545 0.000168939 0.000211787 -2.67471e-05 8.8153e-05 -4.59797e-05 -7.76116e-05
internal_weight=8899 1663 1548 1415 7236 987 6249 4250
internal_count=8899 1663 1548 1415 7236 987 6249 4250
is_linear=0
shrinkage=0.0377323


Tree=6
num_leaves=9
num_cat=0
split_feature=1 46 38 30 39 26 4 3
split_gain=0.019014 0.0231674 0.0186099 0.0180247 0.02076 0.0146592 0.0282746 0.0194026
threshold=97127.235000000001 27.500000000000004 2738.4607142857139 -0.60785761079279388 17.882214505772591 2.3836624567092994 758.23571428571415 8577.930075000002
decision_type=2 2 2 2 2 2 2 2
left_child=1 5 -2 -4 -5 7 -7 -1
right_child=2 -3 3 4 -6 6 -8 -9
leaf_value=3.3023345074767852e-05 7.8324313714490953e-05 0.00030187628020673804 2.8063008823343439e-05 6.5600061587490786e-05 -0.00020177726779742783 -1.2986399243115594e-05 -0.00070424893781014723 0.00045875304998924072
leaf_weight=2838 1118 490 1094 471 2098 523 105 165
leaf_count=2838 1118 490 1094 471 2098 523 105 165
internal_value=-1.19663e-06 5.74162e-05 -5.31244e-05 -9.50871e-05 -0.000150136 2.25132e-05 -0.000140049 5.87759e-05
internal_weight=8902 4121 4781 3663 2569 3631 628 3003
internal_count=8902 4121 4781 3663 2569 3631 628 3003
is_linear=0
shrinkage=0.0377323


Tree=7
num_leaves=9
num_cat=0
split_feature=1 46 6 38 30 39 39 37
split_gain=0.0181412 0.0211031 0.0171542 0.0159659 0.0157851 0.0200373 0.0143718 0.010804
threshold=97127.235000000001 27.500000000000004 0.96587867518322179 2738.4607142857139 -0.60785761079279388 20.85354312964008 32.577853709524497 1.3016656756804037
decision_type=2 2 2 2 2 2 2 2
left_child=1 2 -1 -2 -5 -6 -4 -3
right_child=3 7 6 4 5 -7 -8 -9
leaf_value=0.00051830046401352278 7.1909654784507937e-05 0.00038862093165442581 8.7534071771974993e-05 2.4751705349409394e-05 4.9303948329316346e-05 -0.00019881584748560125 -6.2690515991173005e-05 0
leaf_weight=97 1092 375 1759 1091 552 1983 1845 110
leaf_count=97 1092 375 1759 1091 552 1983 1845 110
internal_value=0 5.67401e-05 2.40552e-05 -5.11556e-05 -9.00785e-05 -0.00014214 8.76904e-06 0.000291846
internal_weight=8904 4186 3701 4718 3626 2535 3604 485
internal_count=8904 4186 3701 4718 3626 2535 3604 485
is_linear=0
shrinkage=0.0377323


Tree=8
num_leaves=6
num_cat=0
split_feature=7 6 1 14 38
split_gain=0.0228276 0.0201383 0.0191528 0.0271767 0.0134844
threshold=0.92679006834604039 1.0342631427715629 94518.425000000003 -766135.51550000103 3990.4678571428572
decision_type=2 2 2 2 2
left_child=-1 2 3 -2 -4
right_child=1 -3 4 -5 -6
leaf_value=0.00046715972528109563 2.9909298808918548e-05 -0.00044835627130879391 -2.5462245031623075e-06 0.00035163352117215948 -0.00014016379757110601
leaf_weight=148 2718 142 4053 446 1400
leaf_count=148 2718 142 4053 446 1400
internal_value=3.42934e-06 -3.68422e-06 2.90779e-06 7.74656e-05 -3.91264e-05
internal_weight=8907 8759 8617 3164 5453
internal_count=8907 8759 8617 3164 5453
is_linear=0
shrinkage=0.0377323


Tree=9
num_leaves=6
num_cat=0
split_feature=40 7 1 46 38
split_gain=0.0154322 0.0367007 0.0152715 0.0203043 0.0127566
threshold=-0.16038870017169257 0.93428940133709337 94518.425000000003 27.500000000000004 3990.4678571428572
decision_type=2 2 2 2 2
left_child=-1 -2 3 -3 -4
right_child=1 2 4 -5 -6
leaf_value=-0.00043130762634265262 0.00058896685310939033 2.3377044215111542e-05 -9.6102235159940903e-06 0.00033958587092130366 -0.00014398206941757083
leaf_weight=117 149 2818 4050 331 1397
leaf_count=117 149 2818 4050 331 1397
internal_value=-1.96989e-06 3.04773e-06 -6.38454e-06 5.88309e-05 -4.53232e-05
internal_weight=8862 8745 8596 3149 5447
internal_count=8862 8745 8596 3149 5447
is_linear=0
shrinkage=0.0377323


Tree=10
num_leaves=9
num_cat=0
split_feature=1 4 14 14 1 1 46 14
split_gain=0.015599 0.0298818 0.0293512 0.0222365 0.0252364 0.0219106 0.0206254 0.018505
threshold=84008.785000000018 592.09285714285693 -876535.2635000007 -788369.23200000112 94518.425000000003 76090.35000000002 5.5000000000000009 -849378.96650000068
decision_type=2 2 2 2 2 2 2 2
left_child=1 -1 5 6 -5 -3 -2 -8
right_child=3 2 -4 4 -6 -7 7 -9
leaf_value=8.5196939571865327e-06 -6.7304940954271983e-05 0.0001574159727866094 -9.4986703775127898e-05 0.00025781858472076924 -1.3685903844595426e-05 0.0007797424344007126 -0.00016503568650046282 -0.00080419456513630488
leaf_weight=1577 1110 183 137 539 4772 211 217 121
leaf_count=1577 1110 183 137 539 4772 211 217 121
internal_value=5.20918e-06 9.54083e-05 0.000340394 -2.19368e-05 1.26407e-05 0.000508676 -0.00015333 -0.000415129
internal_weight=8867 2108 531 6759 5311 394 1448 338
internal_count=8867 2108 531 6759 5311 394 1448 338
is_linear=0
shrinkage=0.0377323


Tree=11
num_leaves=9
num_cat=0
split_feature=3 8 39 7 44 37 34 39
split_gain=0.0211827 0.0290563 0.0166837 0.0171335 0.010398 0.0102256 0.00793867 0.0111745
threshold=5698.5586750000011 288.59788675076561 33.997793579517726 0.95381079263650603 1.0604046060087351 0.87313159748042057 19.291015634364758 33.268686848075063
decision_type=2 2 2 2 2 2 2 2
left_child=4 2 3 -2 6 -4 -1 -8
right_child=1 -3 5 -5 -6 -7 7 -9
leaf_value=5.2696735634435269e-05 0.00074458596280642668 -0.00034378626604884735 0.00038830661997180094 0.0002058996044334633 8.4314497850197773e-05 -2.103200527070197e-05 -1.2898355071449467e-05 -0.00012570547191484714
leaf_weight=891 111 165 97 745 958 616 2901 2417
leaf_count=891 111 165 97 745 958 616 2901 2417
internal_value=0 0.000118087 0.0001711 0.000284268 -2.88517e-05 2.56439e-05 -4.74035e-05 -6.54437e-05
internal_weight=8901 1734 1569 856 7167 713 6209 5318
internal_count=8901 1734 1569 856 7167 713 6209 5318
is_linear=0
shrinkage=0.0377323


Tree=12
num_leaves=9
num_cat=0
split_feature=1 4 14 14 1 30 1 38
split_gain=0.0143958 0.0261972 0.0272512 0.022994 0.0205845 0.0183968 0.0172904 0.0160317
threshold=84203.460000000006 592.09285714285693 -876535.2635000007 -788369.23200000112 94288.85000000002 -1.0000000180025095e-35 76090.35000000002 4654.8642857142877
decision_type=2 2 2 2 2 2 2 2
left_child=1 -1 6 5 -5 -2 -3 -6
right_child=3 2 -4 4 7 -7 -8 -9
leaf_value=7.1755650860162954e-06 0 0.00016979395346210214 -7.7030882766525188e-05 0.00026186384783376021 4.8872038372790633e-06 -0.00028533681588326673 0.00073407398871176883 -0.00028585697773647248
leaf_weight=1618 592 186 152 426 4585 765 205 284
leaf_count=1618 592 186 152 426 4585 765 205 284
internal_value=2.33412e-06 8.76105e-05 0.000314543 -2.4367e-05 9.9629e-06 -0.000163192 0.000483748 -1.07391e-05
internal_weight=8813 2161 543 6652 5295 1357 391 4869
internal_count=8813 2161 543 6652 5295 1357 391 4869
is_linear=0
shrinkage=0.0377323


Tree=13
num_leaves=5
num_cat=0
split_feature=40 7 6 36
split_gain=0.0160432 0.0349586 0.0151895 0.0138565
threshold=-0.16038870017169257 0.93428940133709337 1.0342631427715629 24.93073168606352
decision_type=2 2 2 2
left_child=-1 -2 3 -3
right_child=1 2 -4 -5
leaf_value=-0.00042983771964227825 0.00056644746003227441 0.0003959704139032591 -0.00038143621045429052 -2.4957098131228774e-06
leaf_weight=121 155 125 148 8389
leaf_count=121 155 125 148 8389
internal_value=0 6.08805e-06 -3.21862e-06 2.60466e-06
internal_weight=8938 8817 8662 8514
internal_count=8938 8817 8662 8514
is_linear=0
shrinkage=0.0377323


Tree=14
num_leaves=9
num_cat=0
split_feature=6 3 31 26 38 33 14 42
split_gain=0.0143489 0.0282363 0.0203689 0.0140508 0.0118395 0.0140922 0.00905324 0.00756536
threshold=1.0342631427715629 6881.421225000001 -0.22252093395631442 1.4098769378166867 4435.8249999999998 1533.1178571428579 -881500.97850000043 1.3735000000000001e-05
decision_type=2 2 2 2 2 2 2 2
left_child=1 4 7 -4 5 -1 -6 -3
right_child=-2 2 3 -5 6 -7 -8 -9
leaf_value=-1.5822267373105917e-05 -0.00036835051697947885 -0.0002602024658440818 0.00063678030685847015 0.00017568815067692405 0 0.00014120773496050469 -0.00021858918163750353 0.00010890696035610264
leaf_weight=5948 144 105 196 293 366 938 643 303
leaf_count=5948 144 105 196 293 366 938 643 303
internal_value=2.97061e-06 9.8517e-06 0.000210778 0.000375008 -1.21462e-05 4.60745e-06 -0.000133043 0
internal_weight=8936 8792 897 489 7895 6886 1009 408
internal_count=8936 8792 897 489 7895 6886 1009 408
is_linear=0
shrinkage=0.0377323


Tree=15
num_leaves=8
num_cat=0
split_feature=6 3 31 38 1 14 38
split_gain=0.0154239 0.0204241 0.0106325 0.00917143 0.00883685 0.008977 0.00614268
threshold=1.037097053268847 6168.8648000000003 -0.22252093395631442 2205.2607142857146 58511.490000000013 -1040564.8160000001 4379.0392857142851
decision_type=2 2 2 2 2 2 2
left_child=1 4 6 -4 -1 -6 -3
right_child=-2 2 3 -5 5 -7 -8
leaf_value=0.0002490583745839676 -0.00044792890879695479 8.1639125035445683e-05 -1.9221420244820677e-05 0.00030045388633108861 -0.00011482861340532623 -3.983406369122317e-06 -0.00022043571596210831
leaf_weight=168 107 502 113 610 1293 6066 113
leaf_count=168 107 502 113 610 1293 6066 113
internal_value=0 5.99829e-06 0.000142347 0.000241246 -1.736e-05 -2.43832e-05 1.49972e-05
internal_weight=8972 8865 1338 723 7527 7359 615
internal_count=8972 8865 1338 723 7527 7359 615
is_linear=0
shrinkage=0.0377323


Tree=16
num_leaves=5
num_cat=0
split_feature=6 40 7 38
split_gain=0.0165335 0.014631 0.0131524 0.0160349
threshold=0.96215674541552654 -0.16038870017169257 0.93428940133709337 4458.0071428571437
decision_type=2 2 2 2
left_child=-1 -2 -3 -4
right_child=1 2 3 -5
leaf_value=0.00045610402141906415 -0.00044046285611338019 0.00041376109279356581 1.0005256061002049e-05 -0.00014345429505209289
leaf_weight=109 110 105 7521 1105
leaf_count=109 110 105 7521 1105
internal_value=-2.77822e-06 -9.23924e-06 -2.99424e-06 -8.88657e-06
internal_weight=8950 8841 8731 8626
internal_count=8950 8841 8731 8626
is_linear=0
shrinkage=0.0377323


Tree=17
num_leaves=9
num_cat=0
split_feature=6 38 11 38 6 14 38 46
split_gain=0.0142596 0.0219525 0.0178405 0.0118799 0.0162836 0.0134394 0.0114535 0.0158634
threshold=0.97932760025071308 3196.2821428571419 0.013473938760040723 2486.3285714285703 1.0342631427715629 -1068134.511000002 2205.2607142857146 3.5000000000000004
decision_type=2 2 2 2 2 2 2 2
left_child=1 -1 -3 6 5 -5 -2 -8
right_child=3 2 -4 4 -6 -7 7 -9
leaf_value=-9.4034243531361812e-05 -9.512059712260086e-06 0.00012906095133828776 0.00075874426130101587 -0.00022630165500901487 -0.00050626493384452686 -1.2877134088257193e-05 0 0.0003155452877560657
leaf_weight=204 1011 208 121 461 105 5946 356 479
leaf_count=204 1011 208 121 461 105 5946 356 479
internal_value=-6.48687e-07 0.000187597 0.000382384 -1.34751e-05 -3.80979e-05 -2.93103e-05 6.97245e-05 0.000173612
internal_weight=8891 533 329 8358 6512 6407 1846 835
internal_count=8891 533 329 8358 6512 6407 1846 835
is_linear=0
shrinkage=0.0377323


Tree=18
num_leaves=9
num_cat=0
split_feature=3 8 40 43 16 41 38 14
split_gain=0.0152638 0.0210247 0.014382 0.022127 0.0118906 0.0115884 0.00826597 0.0136055
threshold=6210.5644250000005 231.08439405533861 0.20961993258698342 9.9377812500000014e-05 -0.010135121849420612 0.33276331716647184 2486.3285714285703 -1109674.2410000018
decision_type=2 2 2 2 2 2 2 2
left_child=6 2 4 -4 -2 -3 -1 -8
right_child=1 5 3 -5 -6 -7 7 -9
leaf_value=6.0031610611097074e-05 0.00075121197454388873 0 -2.91405697707477e-06 0.00036926955352939645 9.2673394652068687e-05 -0.00050960837640262396 -0.00027962446573666307 -2.1956813935360722e-05
leaf_weight=1554 114 133 644 324 100 97 315 5637
leaf_count=1554 114 133 644 324 100 97 315 5637
internal_value=4.80497e-06 0.000119151 0.000186352 0.000114942 0.00047635 -0.000196509 -1.58215e-05 -3.67604e-05
internal_weight=8918 1412 1182 968 214 230 7506 5952
internal_count=8918 1412 1182 968 214 230 7506 5952
is_linear=0
shrinkage=0.0377323


end of trees

feature_importances:
atr_14_1d=16
ma_30_ratio=15
ma_10=13
obv=11
adx_14_1d=9
volume_ma_20=8
ma_200_ratio=8
bb_position_1d=6
volume_skew_20=5
funding_rate_zscore=5
funding_rate_streak=5
atr_14=4
dow_sin=4
ma_50_1d_ratio=4
macd_hist=3
dow_cos=3
atr_14_pct=2
adx_14_4h=2
return_10=1
atr_14_4h=1
rsi_14_1d=1
atr_ratio_1h_1d=1
funding_rate=1
funding_rate_ma_8=1
oi_ma_ratio=1

parameters:
[boosting: gbdt]
[objective: huber]
[metric: l1]
[tree_learner: serial]
[device_type: cpu]
[data_sample_strategy: bagging]
[data: ]
[valid: ]
[num_iterations: 2000]
[learning_rate: 0.0377323]
[num_leaves: 9]
[num_threads: 12]
[seed: 42]
[deterministic: 1]
[force_col_wise: 0]
[force_row_wise: 0]
[histogram_pool_size: -1]
[max_depth: 4]
[min_data_in_leaf: 97]
[min_sum_hessian_in_leaf: 0.001]
[bagging_fraction: 0.814082]
[pos_bagging_fraction: 1]
[neg_bagging_fraction: 1]
[bagging_freq: 1]
[bagging_seed: 400]
[bagging_by_query: 0]
[feature_fraction: 0.799684]
[feature_fraction_bynode: 1]
[feature_fraction_seed: 30056]
[extra_trees: 0]
[extra_seed: 12879]
[early_stopping_round: 0]
[early_stopping_min_delta: 0]
[first_metric_only: 0]
[max_delta_step: 0]
[lambda_l1: 0.178059]
[lambda_l2: 0.856664]
[linear_lambda: 0]
[min_gain_to_split: 0]
[drop_rate: 0.1]
[max_drop: 50]
[skip_drop: 0.5]
[xgboost_dart_mode: 0]
[uniform_drop: 0]
[drop_seed: 17869]
[top_rate: 0.2]
[other_rate: 0.1]
[min_data_per_group: 100]
[max_cat_threshold: 32]
[cat_l2: 10]
[cat_smooth: 10]
[max_cat_to_onehot: 4]
[top_k: 20]
[monotone_constraints: ]
[monotone_constraints_method: basic]
[monotone_penalty: 0]
[feature_contri: ]
[forcedsplits_filename: ]
[refit_decay_rate: 0.9]
[cegb_tradeoff: 1]
[cegb_penalty_split: 0]
[cegb_penalty_feature_lazy: ]
[cegb_penalty_feature_coupled: ]
[path_smooth: 0]
[interaction_constraints: ]
[verbosity: -1]
[saved_feature_importance_type: 0]
[use_quantized_grad: 0]
[num_grad_quant_bins: 4]
[quant_train_renew_leaf: 0]
[stochastic_rounding: 1]
[linear_tree: 0]
[max_bin: 255]
[max_bin_by_feature: ]
[min_data_in_bin: 3]
[bin_construct_sample_cnt: 200000]
[data_random_seed: 175]
[is_enable_sparse: 1]
[enable_bundle: 1]
[use_missing: 1]
[zero_as_missing: 0]
[feature_pre_filter: 1]
[pre_partition: 0]
[two_round: 0]
[header: 0]
[label_column: ]
[weight_column: ]
[group_column: ]
[ignore_column: ]
[categorical_feature: ]
[forcedbins_filename: ]
[precise_float_parser: 0]
[parser_config_file: ]
[objective_seed: 16083]
[num_class: 1]
[is_unbalance: 0]
[scale_pos_weight: 1]
[sigmoid: 1]
[boost_from_average: 1]
[reg_sqrt: 0]
[alpha: 0.9]
[fair_c: 1]
[poisson_max_delta_step: 0.7]
[tweedie_variance_power: 1.5]
[lambdarank_truncation_level: 30]
[lambdarank_norm: 1]
[label_gain: ]
[lambdarank_position_bias_regularization: 0]
[eval_at: ]
[multi_error_top_k: 1]
[auc_mu_weights: ]
[num_machines: 1]
[local_listen_port: 12400]
[time_out: 120]
[machine_list_filename: ]
[machines: ]
[gpu_platform_id: -1]
[gpu_device_id: -1]
[gpu_use_dp: 0]
[num_gpu: 1]

end of parameters

pandas_categorical:[]
