tree
version=v4
num_class=1
num_tree_per_iteration=1
label_index=0
max_feature_idx=18
objective=huber
feature_names=ma_10_ratio ma_30_ratio ma_200_ratio rsi_14 macd_hist stoch_k atr_14_pct bb_width bb_position adx_14 return_1 volume_ratio hour_sin hour_cos rsi_14_1d ma_50_1d_ratio vol_ratio_7_30 return_skew_20 funding_rate_zscore
feature_infos=[0.86433382433732697:1.0929254010287113] [0.82053925631262503:1.155536430257861] [0.77137981895843677:1.3104067021923687] [4.3852327447833943:97.597619933060599] [-50.583708829789828:58.041856056842576] [0:99.996011486917766] [0.0030012622923190073:0.058281742000793751] [0.0057236971171531256:0.33531673213194568] [-0.48336682187907143:1.5325486734843763] [6.0014092581726759:100] [-0.1186231676074454:0.096070770100350256] [0.10699878235532916:10.007459729693421] [-1:1] [-1:1] [13.897624143579691:96.419335432406498] [0.66833787477123929:1.4784421291316647] [0.40491703377163613:2.5735624592079605] [-3.7839926960472261:3.9412349785279668] [-13.784237676902324:13.784237676902315]
tree_sizes=893 868 725 793 939 727 951 943 720 859 779 780 943 947 786 792 720 654 791 724 796 797 852 725 784 791 633 714 792 797 808 776 789 720 866 785 720 733 879 718 873 566 802 620 802 724 651 712 792 786 719 501 734 922 780 936 863 792 803 874 789 862 790 798 740 780 866 821 788 783 719 799 794 565 732 866 722 635 797 788 791 652 631 657 948 804 722 858 712 715 713 781 866 867 850 860 722 575 924 790 782 852 851 793 866 735 772 714 788 783 865 875 943 775 858 644 725 852 733 722 848 794 859 559 790 784 503 863 637 640 695 654 785 723 785 649 711 791 768 787 793 872 547 793 711 790 719 733 941 946 802 716 947 714 807 699 929 784 717 719 940 850 712 777 871 767 651 646 624 653 713 854 851 791 795 763 777 716 785 642 795 558 653 788 804 853 810 712 769 706 763 700 783 546 793 724 786 709 932 717 548 783 847 714 715 944 864 928 714 792 788 790 723 703 858 787 620 866 851 723 630 652 706 847 851 722 865 776 781 635 794 781 702 639 649 714 704 699 633 930 633 863 793 744 630 652 773 783 781 566 852 865 913 712 780 570 621 713 705 775 717 702 853 493 573 787 557 566 707 630 786 715 645 927 705 725 718 556 705 785 783 627 637 852 696 708 690 846 867 785 713 772 849 703 710 776 782 772 891 709 932 866 776 861 778 764 618 646 639 771 629 493 783 768 683 786 710 865 484 853 777 712 705 762 761 626 719 782 781 840 318 869 630 857 773 547 715 779 547 557 622 781 705 783 785 710 637 542 631 918 787 786 776 556 855 849 925 629 849 782 542 773 631 701 557 554 777 779 724 637 559 844 725 643 925 485 697 866 412 639 793 703 547 935 688 809 780 576 627 538 704 774 620 654 624 629 634 546 472 474 566 763 621 784 644 638 723 786 781 639 784 706 472 626 709 698 776 852 687 779 627 700 693 791 933 632 793 636 788 844 619 621 705 927 712 616 791 688 697 683 538 766 543 640 549 570 655 775 782 541 866 399 472 534 630 621 703 838 533 704 613 629 555 557 704 548 535 489 714 773 546 843 794 689 780 787 621 851 622 623 919 844 641 775 485 770 868 844 704 641 628 642 641 533 781 848 777 543 620 776 641 846 725 645 700 692 617 783 562 939 712 486 616 473 550 505 562 552 556 774 471 548 560 936 846 700 624 481 781 773 766 714 851 689 548 782 931 556 643 695 919 612 630 693 846 782 707 484 339 571 463 631 573 568 470 535 778 693 641 547 702 694 693 626 625 571 698 317 389 929 772 692 842 691 709 532 462 722 847 620 708 625 714 411 699 689 694 870 787 398 621 921 339 728 792 765 766 630 774 536 628 563 562 931 792 846 691 779 702 484 685 471 567 616 616 781 544 849 639 548 493 689 619 852 536 743 720 619 527 711 621 848 614 615 623 622 714 543 691 720 685 569 698 623 617 766 630 693 479 563 714 707 776 632 771 620 532 776 642 619 621 540 694 640 715 870 639 693 631 695 474 535 700 537 561 616 485 462 490 625 775 704 533 761 629 632 616 314 708 627 841 691 459 619 465 546 532 713 410 624 773 691 622 847 638 708 623 629 560 556 622 628 767 391 539 694 534 390 464 535 706 621 559 533 556 412 622 558 557 475 780 534 559 390 547 548 536 616 534 852 540 625 533 553 547 696 463 317 317 774 484 555 534 622 620 549 776 705 758 549 389 781 535 715 780 554 773 848 694 707 549 546 551 692 618 688 534 556 534 623 560 317 697 858 711 628 623 541 317 769 618 561 534 846 471 688 775 316 473 463 463 554 706 533 843 484 704 471 558 535 400 537 706 625 701 339 538 643 484 485 536 549 543 629 562 630 538 845 694 539 569 390 618 317 631 486 768 614 401 708 545 496 695 317 482 548 784 474 626 340 636 550 316 563 398 634 464 762 844 640 464 692 536 540 625 400 472 693 621 562 692 474 703 769 478 780 786 631 619 461 318 709 477 626 317 687 767 624 555 622 477 766 539 626 693 704 690 389 314 534 706 689 619 693 691 617 474 557 770 547 389 467 853 620 631 532 534 467 475 687 546 533 618 560 709 623 786 694 398 539 622 695 537 773 851 773 537 536 692 545 630 640 472 463 644 550 410 535 777 694 469 627 692 563 393 689 562 391 537 640 545 622 549 759 549 691 640 619 703 705 621 620 701 625 622 315 859 699 474 771 624 691 536 317 471 571 788 562 537 537 558 691 458 478 548 777 389 494 622 769 341 535 696 556 621 549 480 620 474 640 481 769 622 536 622 782 564 850 475 618 534 769 711 391 552 689 534 770 687 696 618 625 464 532 481 478 536 546 464 477 621 390 533 539 628 700 623 700 535 534 774 485 539 776 552 620 633 318 412 709 390 464 414 535 848 473 633 390 474 641 460 400 558 543 394 466 537 544 390 538 535 541 476 623 534 699 551 464 487 320 772 551 536 780 463 318 318 535 699 456 390 762 392 561 550 694 622 539 413 776 707 540 620 550 542 392 617 316 459 626 466 544 537 390 776 559 621 318 474 537 551 625 538 703 391 624 692 621 703 542 714 536 633 550 624 620 473 624 618 535 390 621 393 466 474 691 565 544 534 476 402 315 701 536 475 462 540 485 480 473 390 544 620 704 638 391 532 473 563 477 534 772 702 412 537 472 393 389 318 552 845 702 393 547 474 535 622 533 621 482 538 474 389 564 545 624 479 475 693 536 474 468 621 635 624 475 464 481 694 533 702 535 473 696 541 393 548 855 693 464 541 618 467 687 320 399 536 639 687 536 399 702 622 487 782 487 558 319 618 401 536 538 471 390 536 540 707 542 694 551 395 391 564 474 476 534 622 865 553 392 627 537 620 410 535 622 319 693 412 391 694 393 625 476 538 473 318 465 537 562 695 466 613 389 319 392 715 565 702 461 318 553 850 475 401 617 476 476 621 688 696 706 693 467 625 537 389 532 556 709 465 849 536 571 694 619 623 575 549 536 616 389 710 617 551 389 536 480 625 624 536 537 461 474 339 541 537 463 623 392 619 470 688 770 535 401 475 652 537 617 546 478 536 390 534 692 390 697 622 724 549 390 544 474 564 395 631 551 768 461 626 476 633 464 463 622 390 318 573 460 698 463 697 707 463 535 395 691 558 394 559 464 693 765 628 619 548 319 692 411 708 546 392 781 318 621 547 545 548 542 319 318 564 402 474 697 389 317 540 389 544 705 538 622 547 633 560 465 318 391 623 412 537 538 532 541 714 543 535 542 779 691 790 626 564 618 535 621 490 560 318 388 618 692 637 533 640 690 319 393 614 534 550 396 476 401 480 537 543 550 468 697 541 692 546 475 540 391 768 548 317 616 537 390 777 712 563 534 697 466 692 476 536 392 337 317 536 540 393 473 475 699 622 533 461 549 538 396 536 464 476 714 536 465 546 622 621 466 565 402 540 700 547 474 390 627 795 540 630 464 539 318 620 390 467 405 541 642 623 465 764 316 537 562 716 392 622 623 549 551 403 555 389 623 645 620 389 473 411 389 623 563 536 390 342 539 392 316 552 702 634 544 637 696 533 475 538 392 465 462

Tree=0
num_leaves=8
num_cat=0
split_feature=18 14 15 15 1 18 6
split_gain=0.00400628 0.0101363 0.0112488 0.00968141 0.00762737 0.00300888 0.00218731
threshold=0.80809552084342129 42.134910006934525 1.1055074113396699 0.89249789892974885 1.0026561678513768 -1.395687295486806 0.0057285000950429129
decision_type=2 2 2 2 2 2 2
left_child=1 4 6 -2 5 -1 -3
right_child=3 2 -4 -5 -6 -7 -8
leaf_value=0.00089076367124680872 0.00089076367124680872 0.00089076367124680872 0.00089076367124680872 0.0009113075431893663 0.00089076367124680872 0.00091267532563907555 0.00086887733330605062
leaf_weight=152 231 171 1435 836 458 635 1407
leaf_count=152 231 171 1435 836 458 635 1407
internal_value=0.000890764 0.000888215 0.000880779 0.000899625 0.000893523 0.000907538 0.000871051
internal_weight=5325 4258 3013 1067 1245 787 1578
internal_count=5325 4258 3013 1067 1245 787 1578
is_linear=0
shrinkage=1


Tree=1
num_leaves=9
num_cat=0
split_feature=2 18 15 15 15 3 5 15
split_gain=0.00649504 0.0110004 0.0102487 0.00695725 0.00611242 0.000575845 0.00054383 0.000145087
threshold=0.91084732793722256 0.80809552084342129 1.129157026234145 0.89249789892974885 0.81489845211729628 45.58414065041331 87.761555928860545 1.2055884763750346
decision_type=2 2 2 2 2 2 2 2
left_child=5 2 4 -3 -2 -1 -5 -4
right_child=1 3 7 6 -6 -7 -8 -9
leaf_value=2.9293579308985974e-05 0 0 2.9234011013814625e-06 2.0343253232224627e-05 -1.732196812465148e-05 0 0 0
leaf_weight=223 267 202 471 708 2269 126 140 894
leaf_count=223 267 202 471 708 2269 126 140 894
internal_value=0 -8.92426e-07 -7.60245e-06 8.98038e-06 -1.41911e-05 2.24575e-05 1.81068e-05 0
internal_weight=5300 4951 3901 1050 2536 349 848 1365
internal_count=5300 4951 3901 1050 2536 349 848 1365
is_linear=0
shrinkage=0.00527828


Tree=2
num_leaves=7
num_cat=0
split_feature=2 18 18 14 18 18
split_gain=0.00478705 0.00946938 0.00873387 0.0158762 0.00340843 0.000208429
threshold=0.88407943637116404 0.80809552084342129 -0.45071118286292605 72.208523525067392 1.1821799355578475 -1.5808129356931107
decision_type=2 2 2 2 2 2
left_child=-1 2 5 -4 -3 -2
right_child=1 4 3 -5 -6 -7
leaf_value=2.8783959899783451e-05 0 1.7458571538398149e-05 -1.9563277363988794e-05 0 0 2.3274451344351636e-06
leaf_weight=159 450 671 2191 394 461 1070
leaf_count=159 450 671 2191 394 461 1070
internal_value=0 0 -6.11666e-06 -1.23877e-05 9.85638e-06 0
internal_weight=5396 5237 4105 2585 1132 1520
internal_count=5396 5237 4105 2585 1132 1520
is_linear=0
shrinkage=0.00527828


Tree=3
num_leaves=8
num_cat=0
split_feature=18 15 18 14 14 18 14
split_gain=0.00235837 0.00853075 0.00819833 0.0113586 0.0142115 0.00567527 0.00439664
threshold=0.80809552084342129 0.8853422593015311 -0.45071118286292605 72.208523525067392 42.134910006934525 -1.5808129356931107 65.483617045628634
decision_type=2 2 2 2 2 2 2
left_child=2 -2 5 4 -4 -1 -7
right_child=1 -3 3 -5 -6 6 -8
leaf_value=0 0 1.8613045988445334e-05 0 0 -2.4483087922273221e-05 1.8541412957915287e-05 0
leaf_weight=459 255 869 715 396 1540 867 216
leaf_count=459 255 869 715 396 1540 867 216
internal_value=0 7.54366e-06 -6.23191e-07 -8.93725e-06 -1.53003e-05 3.42696e-06 1.27453e-05
internal_weight=5317 1124 4193 2651 2255 1542 1083
internal_count=5317 1124 4193 2651 2255 1542 1083
is_linear=0
shrinkage=0.00527828


Tree=4
num_leaves=10
num_cat=0
split_feature=15 14 8 15 14 15 14 3 8
split_gain=0.00210423 0.00928707 0.012383 0.00735816 0.00487981 0.00257818 0.00144264 0.00141223 1.33806e-05
threshold=1.1055074113396699 41.269512061929397 0.37186837921450538 1.3620152627770992 57.134162868140066 0.8853422593015311 71.947592337265164 75.582308803913676 0.9220784194172823
decision_type=2 2 2 2 2 2 2 2 2
left_child=1 2 -1 4 -2 -4 7 -3 -6
right_child=3 6 5 -5 8 -7 -8 -9 -10
leaf_value=2.482393261322183e-05 0 -1.395733983578111e-05 -1.1449050967171162e-05 0 1.9748913481032479e-05 0 0 0 0
leaf_weight=559 510 1800 546 188 989 391 125 152 127
leaf_count=559 510 1800 546 188 989 391 125 152 127
internal_value=0 -1.93979e-06 6.79843e-07 4.9875e-06 1.23964e-05 0 -1.14277e-05 -1.263e-05 1.85844e-05
internal_weight=5387 3573 1496 1814 1626 937 2077 1952 1116
internal_count=5387 3573 1496 1814 1626 937 2077 1952 1116
is_linear=0
shrinkage=0.00527828


Tree=5
num_leaves=7
num_cat=0
split_feature=2 1 14 15 14 15
split_gain=0.00465831 0.00964101 0.0120072 0.00394562 0.00182657 0.00141934
threshold=1.0862730739704871 1.0042192864960395 39.60880669540164 1.3620152627770992 71.947592337265164 0.97596240753202046
decision_type=2 2 2 2 2 2
left_child=1 2 -1 -2 -4 -3
right_child=3 5 4 -5 -6 -7
leaf_value=2.056387911426173e-05 2.4292334549339763e-05 -2.1102250588472734e-05 -5.3836304408142747e-06 0 0 0
leaf_weight=776 365 742 1945 126 309 1079
leaf_count=776 365 742 1945 126 309 1079
internal_value=0 -2.18412e-06 0 1.47072e-05 -1.56723e-06 -1.26508e-05
internal_weight=5342 4851 3030 491 2254 1821
internal_count=5342 4851 3030 491 2254 1821
is_linear=0
shrinkage=0.00527828


Tree=6
num_leaves=10
num_cat=0
split_feature=15 2 18 15 15 15 18 14 14
split_gain=0.00220497 0.00820621 0.00903605 0.00795905 0.0041129 0.000772331 0.00027329 8.59095e-05 0.000413263
threshold=1.0999895591604723 0.91084732793722256 0.80179182155486239 1.1988538012275927 0.81022699213183469 1.1389851557155024 -0.92029836907035623 79.940663420993914 53.656317055248962
decision_type=2 2 2 2 2 2 2 2 2
left_child=1 6 4 5 -3 -2 -1 8 -5
right_child=3 2 -4 7 -6 -7 -8 -9 -10
leaf_value=0 0 0 0 0 -1.6500011663804492e-05 2.4600315667280477e-05 1.2701768842223782e-05 0 -3.9441708479220717e-06
leaf_weight=124 164 255 727 139 2143 476 209 203 892
leaf_count=124 164 255 727 139 2143 476 209 203 892
internal_value=0 -2.11194e-06 -8.34264e-06 4.95176e-06 -1.39849e-05 2.0422e-05 8.88156e-06 0 -1.52219e-06
internal_weight=5332 3458 3125 1874 2398 640 333 1234 1031
internal_count=5332 3458 3125 1874 2398 640 333 1234 1031
is_linear=0
shrinkage=0.00527828


Tree=7
num_leaves=10
num_cat=0
split_feature=1 14 15 15 6 14 15 15 15
split_gain=0.00182735 0.00941047 0.00836502 0.00320035 0.00530452 0.000239637 0.000745836 2.28175e-05 0.000401463
threshold=0.99964585617091528 41.269512061929397 0.97973897990195546 0.77780524543777096 0.0070927559136361703 64.842697667839005 0.90956659638714721 1.3620152627770992 1.129157026234145
decision_type=2 2 2 2 2 2 2 2 2
left_child=1 -1 3 -2 -5 6 -3 8 -4
right_child=2 5 7 4 -6 -7 -8 -9 -10
leaf_value=1.9600987891993089e-05 0 0 0 0 -2.616714856396136e-05 0 -5.3395938158320674e-06 0 3.6860937106051707e-06
leaf_weight=746 125 248 805 181 722 582 961 134 868
leaf_count=746 125 248 805 181 722 582 961 134 868
internal_value=0 3.14994e-06 -3.01089e-06 -1.58506e-05 -1.96079e-05 0 -2.34803e-06 0 6.16059e-07
internal_weight=5372 2537 2835 1028 903 1791 1209 1807 1673
internal_count=5372 2537 2835 1028 903 1791 1209 1807 1673
is_linear=0
shrinkage=0.00527828


Tree=8
num_leaves=7
num_cat=0
split_feature=2 15 15 15 2 2
split_gain=0.00303616 0.00894093 0.00449375 0.00226381 0.00254063 0.00203314
threshold=0.91084732793722256 1.1102809945570908 1.3620152627770992 0.77780524543777096 1.0680486205435418 1.0805521535092979
decision_type=2 2 2 2 2 2
left_child=-1 3 5 -2 -5 -3
right_child=1 2 -4 4 -6 -7
leaf_value=1.5364352087891222e-05 0 0 0 -1.0969539204418956e-05 0 2.5491846912004086e-05
leaf_weight=351 160 1300 189 2904 128 331
leaf_count=351 160 1300 189 2904 128 331
internal_value=0 -5.02183e-07 4.35378e-06 -8.22026e-06 -9.58771e-06 9.89027e-06
internal_weight=5363 5012 1820 3192 3032 1631
internal_count=5363 5012 1820 3192 3032 1631
is_linear=0
shrinkage=0.00527828


Tree=9
num_leaves=9
num_cat=0
split_feature=15 1 15 3 15 15 15 5
split_gain=0.00552576 0.00934354 0.00909782 0.00228112 0.0019998 0.001553 0.00142434 0.000756178
threshold=1.1055074113396699 0.98853040599296282 1.3620152627770992 30.842575213477364 0.77780524543777096 0.91820013896205899 1.0308937415660597 15.231562613675957
decision_type=2 2 2 2 2 2 2 2
left_child=1 5 3 -2 -3 7 -6 -1
right_child=2 4 -4 -5 6 -7 -8 -9
leaf_value=0 0 0 0 1.7085261048141982e-05 -1.4248478385397039e-05 0 0 1.3585426645126301e-05
leaf_weight=141 147 183 187 1504 1897 390 510 355
leaf_count=141 147 183 187 1504 1897 390 510 355
internal_value=0 -3.00312e-06 8.16222e-06 1.50831e-05 -1.05799e-05 1.32118e-06 -1.19819e-05 9.48677e-06
internal_weight=5314 3476 1838 1651 2590 886 2407 496
internal_count=5314 3476 1838 1651 2590 886 2407 496
is_linear=0
shrinkage=0.00527828


Tree=10
num_leaves=8
num_cat=0
split_feature=1 14 14 7 9 0 9
split_gain=0.00144213 0.00847492 0.00140484 0.00464014 0.000241766 9.78991e-05 9.59322e-05
threshold=0.99867378062255596 41.269512061929397 57.016079860642272 0.036260707142295734 56.684738342297642 1.0017937775385419 27.435766868578927
decision_type=2 2 2 2 2 2 2
left_child=1 5 3 -2 -5 -1 -4
right_child=2 -3 6 4 -6 -7 -8
leaf_value=2.2459111650405839e-05 0 0 0 -1.5788915024407984e-05 0 0 1.8255553602184354e-06
leaf_weight=551 875 1684 383 701 154 138 800
leaf_count=551 875 1684 383 701 154 138 800
internal_value=0 4.10829e-06 -1.78999e-07 -4.75942e-06 -1.40226e-05 1.99931e-05 0
internal_weight=5286 2373 2913 1730 855 689 1183
internal_count=5286 2373 2913 1730 855 689 1183
is_linear=0
shrinkage=0.00527828


Tree=11
num_leaves=8
num_cat=0
split_feature=18 18 14 14 18 18 14
split_gain=0.00822275 0.0113864 0.0114727 0.010055 0.00452303 0.00338622 0.0047296
threshold=0.80809552084342129 -0.45071118286292605 72.208523525067392 41.269512061929397 1.1987689637529531 -1.428343102266276 60.653277118827205
decision_type=2 2 2 2 2 2 2
left_child=1 5 3 -3 -2 -1 -7
right_child=4 2 -4 -5 -6 6 -8
leaf_value=0 2.0753845160101174e-05 0 0 -2.4565283010275547e-05 0 1.7934513037075074e-05 0
leaf_weight=563 672 643 386 1625 459 701 316
leaf_count=563 672 643 386 1625 459 701 316
internal_value=0 -3.91139e-06 -1.19933e-05 -1.75815e-05 1.20416e-05 0 9.62208e-06
internal_weight=5365 4234 2654 2268 1131 1580 1017
internal_count=5365 4234 2654 2268 1131 1580 1017
is_linear=0
shrinkage=0.00527828


Tree=12
num_leaves=10
num_cat=0
split_feature=14 1 18 18 15 18 15 14 15
split_gain=0.00158552 0.015132 0.00799579 0.0073761 0.0102101 0.00649865 0.00186047 0.000950208 0.000176348
threshold=42.134910006934525 1.0069061314351806 -1.428343102266276 0.85895863336469069 1.129157026234145 0.93931159610421089 0.8853422593015311 70.367614523769888 1.0294405470498842
decision_type=2 2 2 2 2 2 2 2 2
left_child=1 2 -1 4 7 -4 -3 -2 -5
right_child=3 6 5 8 -6 -7 -8 -9 -10
leaf_value=0 -1.7516776467326924e-05 -1.3167027687196637e-05 3.3154539029647613e-05 0 0 0 0 0 1.1337650637940419e-05
leaf_weight=153 1527 297 789 231 1373 124 240 147 405
leaf_count=153 1527 297 789 231 1373 124 240 147 405
internal_value=0 5.23919e-06 2.08806e-05 -1.79025e-07 -7.20363e-06 2.74294e-05 0 -1.6252e-05 8.61963e-06
internal_weight=5286 1603 1066 3683 3047 913 537 1674 636
internal_count=5286 1603 1066 3683 3047 913 537 1674 636
is_linear=0
shrinkage=0.00527828


Tree=13
num_leaves=10
num_cat=0
split_feature=15 14 1 15 14 14 2 0 15
split_gain=0.00357963 0.00809795 0.00938977 0.00545465 0.00474462 0.0028115 0.00163719 0.000908183 0.000404863
threshold=1.1055074113396699 41.269512061929397 1.001266178109723 1.3620152627770992 57.134162868140066 69.267524336285518 0.93534166356686987 1.0029615552029487 0.88803346502819303
decision_type=2 2 2 2 2 2 2 2 2
left_child=1 2 7 4 -2 6 -3 -1 -4
right_child=3 5 8 -5 -6 -7 -8 -9 -10
leaf_value=2.1251732398095195e-05 0 0 -5.4773277938805377e-06 0 1.8446246821270097e-05 0 -1.4471808985936048e-05 0 0
leaf_weight=638 559 141 374 186 1112 233 1680 157 267
leaf_count=638 559 141 374 186 1112 233 1680 157 267
internal_value=0 -1.17718e-06 1.21734e-06 7.14455e-06 1.21473e-05 -1.05381e-05 -1.29697e-05 1.81912e-05 0
internal_weight=5347 3490 1436 1857 1671 2054 1821 795 641
internal_count=5347 3490 1436 1857 1671 2054 1821 795 641
is_linear=0
shrinkage=0.00527828


Tree=14
num_leaves=8
num_cat=0
split_feature=18 15 18 15 18 15 11
split_gain=0.0023368 0.00710264 0.00640227 0.00586138 0.00460252 0.0033415 0.00224455
threshold=0.80809552084342129 0.88803346502819303 -0.45071118286292605 0.77780524543777096 -1.5808129356931107 1.2055884763750346 1.5895075159471321
decision_type=2 2 2 2 2 2 2
left_child=2 -2 4 -4 -1 -6 -5
right_child=1 -3 3 6 5 -7 -8
leaf_value=0 0 1.6399143632686223e-05 0 -1.4365109221275233e-05 1.5518921436565286e-05 0 0
leaf_weight=497 251 876 131 2087 917 193 402
leaf_count=497 251 876 131 2087 917 193 402
internal_value=0 5.81943e-06 -2.52069e-06 -8.84741e-06 0 1.07385e-05 -1.21635e-05
internal_weight=5354 1127 4227 2620 1607 1110 2489
internal_count=5354 1127 4227 2620 1607 1110 2489
is_linear=0
shrinkage=0.00527828


Tree=15
num_leaves=8
num_cat=0
split_feature=18 18 14 14 15 18 14
split_gain=0.00316975 0.00849997 0.0111231 0.0128449 0.00793398 0.00541239 0.00421291
threshold=0.80809552084342129 -0.45071118286292605 71.427274489393866 39.381456249044312 0.8853422593015311 -1.5808129356931107 62.453410776228203
decision_type=2 2 2 2 2 2 2
left_child=1 5 3 -3 -2 -1 -7
right_child=4 2 -4 -5 -6 6 -8
leaf_value=0 0 0 0 -2.3091936644822147e-05 1.8437490907210213e-05 1.851077636984189e-05 0
leaf_weight=493 240 543 403 1712 870 791 303
leaf_count=493 240 543 403 1712 870 791 303
internal_value=0 -1.7451e-06 -9.62062e-06 -1.56967e-05 8.23325e-06 1.49425e-06 1.18669e-05
internal_weight=5355 4245 2658 2255 1110 1587 1094
internal_count=5355 4245 2658 2255 1110 1587 1094
is_linear=0
shrinkage=0.00527828


Tree=16
num_leaves=7
num_cat=0
split_feature=18 15 14 15 8 14
split_gain=0.00245765 0.00796104 0.00730775 0.0118103 0.00585746 0.000485507
threshold=0.80179182155486239 0.88803346502819303 42.134910006934525 1.1055074113396699 0.37646484236518962 70.452189072940456
decision_type=2 2 2 2 2 2
left_child=2 -2 4 5 -1 -4
right_child=1 -3 3 -5 -6 -7
leaf_value=1.7588838022603461e-05 0 1.7779381405497324e-05 -1.9665616833827006e-05 0 0 0
leaf_weight=546 252 888 1417 1441 721 124
leaf_count=546 252 888 1417 1441 721 124
internal_value=0 7.22e-06 -1.45032e-06 -8.31285e-06 2.23423e-06 -1.8625e-05
internal_weight=5389 1140 4249 2982 1267 1541
internal_count=5389 1140 4249 2982 1267 1541
is_linear=0
shrinkage=0.00527828


Tree=17
num_leaves=6
num_cat=0
split_feature=18 2 15 14 18
split_gain=0.00403311 0.00887399 0.00859628 0.00641286 0.00727711
threshold=0.80179182155486239 0.90027837727431037 0.87209750590041757 77.711293084726336 -0.49480433508351335
decision_type=2 2 2 2 2
left_child=1 -1 -2 4 -3
right_child=2 3 -4 -5 -6
leaf_value=1.0723386262866341e-05 0 0 1.7847076384017157e-05 0 -1.6410186901088021e-05
leaf_weight=224 200 1353 942 186 2426
leaf_count=224 200 1353 942 186 2426
internal_value=0 -3.49476e-06 7.31289e-06 -8.28705e-06 -1.09228e-05
internal_weight=5331 4189 1142 3965 3779
internal_count=5331 4189 1142 3965 3779
is_linear=0
shrinkage=0.00527828


Tree=18
num_leaves=8
num_cat=0
split_feature=18 14 15 15 2 18 18
split_gain=0.00112238 0.00699383 0.0088224 0.00648273 0.00371981 0.0110492 0.00299329
threshold=0.80809552084342129 42.134910006934525 1.1055074113396699 0.89249789892974885 0.97421196694917678 -1.428343102266276 -1.6543495893360969
decision_type=2 2 2 2 2 2 2
left_child=1 4 6 -2 5 -1 -3
right_child=3 2 -4 -5 -6 -7 -8
leaf_value=0 0 0 0 1.5467951681146299e-05 0 2.8211678423410926e-05 -1.9329627427652758e-05
leaf_weight=138 250 134 1430 862 589 526 1391
leaf_count=138 250 134 1430 862 589 526 1391
internal_value=0 -1.108e-06 -8.04275e-06 4.84054e-06 2.63964e-06 1.29902e-05 -1.69184e-05
internal_weight=5320 4208 2955 1112 1253 664 1525
internal_count=5320 4208 2955 1112 1253 664 1525
is_linear=0
shrinkage=0.00527828


Tree=19
num_leaves=7
num_cat=0
split_feature=2 15 6 15 15 6
split_gain=0.00774234 0.011341 0.00683383 0.00606837 0.00523645 0.00395942
threshold=0.91084732793722256 1.1055074113396699 0.0074827015181947801 1.3620152627770992 0.77780524543777096 0.0074392617752619822
decision_type=2 2 2 2 2 2
left_child=-1 2 -2 5 -4 -3
right_child=1 3 4 -5 -6 -7
leaf_value=2.4044444761368636e-05 0 0 0 0 -1.7912224645018381e-05 1.424197185471851e-05
leaf_weight=342 991 188 149 192 2016 1482
leaf_count=342 991 188 149 192 2016 1482
internal_value=0 -1.83161e-06 -9.92664e-06 3.40593e-06 -1.52139e-05 1.06794e-05
internal_weight=5360 5018 3156 1862 2165 1670
internal_count=5360 5018 3156 1862 2165 1670
is_linear=0
shrinkage=0.00527828


Tree=20
num_leaves=8
num_cat=0
split_feature=1 18 18 18 1 18 7
split_gain=0.00251887 0.0049309 0.00438103 0.00337646 0.00138531 0.000936042 0.000224739
threshold=0.98743047356396907 0.80809552084342129 -0.46873232031375162 -1.428343102266276 0.98311745751653545 1.1513502454805165 0.013260162452055678
decision_type=2 2 2 2 2 2 2
left_child=3 2 -2 -1 -5 -3 -4
right_child=1 5 6 4 -6 -7 -8
leaf_value=0 0 6.874049045492496e-06 0 1.7082941163095863e-05 0 0 -1.1729069333016468e-05
leaf_weight=290 1001 555 127 675 235 509 1966
leaf_count=290 1001 555 127 675 235 509 1966
internal_value=0 -1.12681e-06 -6.78241e-06 7.34779e-06 1.32026e-05 4.74492e-07 -1.12358e-05
internal_weight=5358 4158 3094 1200 910 1064 2093
internal_count=5358 4158 3094 1200 910 1064 2093
is_linear=0
shrinkage=0.00527828


Tree=21
num_leaves=8
num_cat=0
split_feature=8 14 15 15 15 14 15
split_gain=0.00110953 0.0109736 0.00851371 0.0015189 0.000997056 0.000529214 8.50184e-05
threshold=0.38652833337430575 41.269512061929397 1.0308937415660597 0.77780524543777096 1.3620152627770992 64.842697667839005 1.1055074113396699
decision_type=2 2 2 2 2 2 2
left_child=1 -1 3 -2 6 -3 -4
right_child=2 5 4 -5 -6 -7 -8
leaf_value=2.3377673217102914e-05 0 -3.9048228848394705e-06 0 -1.3902566838272578e-05 0 0 5.2712276095492375e-06
leaf_weight=584 167 965 395 1529 156 470 1083
leaf_count=584 167 965 395 1529 156 470 1083
internal_value=0 2.67994e-06 -2.21836e-06 -1.22209e-05 0 0 4.33237e-06
internal_weight=5349 2019 3330 1696 1634 1435 1478
internal_count=5349 2019 3330 1696 1634 1435 1478
is_linear=0
shrinkage=0.00527828


Tree=22
num_leaves=9
num_cat=0
split_feature=18 14 14 18 14 0 6 18
split_gain=0.00619373 0.00894037 0.00908956 0.00985621 0.00513674 0.00485979 0.00209371 0.000194418
threshold=0.80809552084342129 42.134910006934525 72.208523525067392 -0.57240918153086617 35.838321764975674 1.0019774058586706 0.0094211561745238068 1.316119063426415
decision_type=2 2 2 2 2 2 2 2
left_child=1 5 3 -3 -2 -1 -6 -8
right_child=4 2 -4 -5 6 -7 7 -9
leaf_value=1.3868311573464225e-05 0 0 0 -2.2444588762789895e-05 0 0 2.9818910437798626e-05 0
leaf_weight=702 183 764 576 1651 407 543 362 179
leaf_count=702 183 764 576 1651 407 543 362 179
internal_value=0 -3.62811e-06 -1.00926e-05 -1.51957e-05 1.01523e-05 0 1.654e-05 2.42087e-05
internal_weight=5367 4236 2991 2415 1131 1245 948 541
internal_count=5367 4236 2991 2415 1131 1245 948 541
is_linear=0
shrinkage=0.00527828


Tree=23
num_leaves=7
num_cat=0
split_feature=15 15 14 15 14 6
split_gain=0.00254569 0.00696962 0.00340496 0.00321172 0.00499289 0.00190557
threshold=0.77780524543777096 1.1055074113396699 42.134910006934525 1.3620152627770992 58.716510047300538 0.0057285000950429129
decision_type=2 2 2 2 2 2
left_child=-1 2 -2 4 -3 -4
right_child=1 3 5 -5 -6 -7
leaf_value=1.4731209505524166e-05 0 0 0 0 1.5338402506635692e-05 -1.3886256542831551e-05
leaf_weight=320 1262 587 211 169 1044 1687
leaf_count=320 1262 587 211 169 1044 1687
internal_value=0 -4.60627e-07 -7.49721e-06 3.1163e-06 8.09394e-06 -1.1978e-05
internal_weight=5280 4960 3160 1800 1631 1898
internal_count=5280 4960 3160 1800 1631 1898
is_linear=0
shrinkage=0.00527828


Tree=24
num_leaves=8
num_cat=0
split_feature=18 18 14 14 15 18 14
split_gain=0.00401488 0.00866403 0.0113644 0.00705166 0.00663102 0.0041083 0.00403786
threshold=0.80179182155486239 -0.45071118286292605 71.427274489393866 39.381456249044312 0.87209750590041757 -1.5808129356931107 65.483617045628634
decision_type=2 2 2 2 2 2 2
left_child=1 5 3 -3 -2 -1 -7
right_child=4 2 -4 -5 -6 6 -8
leaf_value=0 0 0 0 -2.1352043057400711e-05 1.6998089739601172e-05 1.6050481489603712e-05 0
leaf_weight=473 209 547 422 1728 906 879 221
leaf_count=473 209 547 422 1728 906 879 221
internal_value=0 -2.8316e-06 -1.01057e-05 -1.61277e-05 8.33525e-06 0 1.01915e-05
internal_weight=5385 4270 2697 2275 1115 1573 1100
internal_count=5385 4270 2697 2275 1115 1573 1100
is_linear=0
shrinkage=0.00527828


Tree=25
num_leaves=8
num_cat=0
split_feature=18 15 18 14 14 18 14
split_gain=0.00206038 0.0103558 0.00693621 0.0106844 0.0125665 0.00490989 0.00423019
threshold=0.80179182155486239 0.8853422593015311 -0.45071118286292605 71.427274489393866 39.60880669540164 -1.395687295486806 60.653277118827205
decision_type=2 2 2 2 2 2 2
left_child=2 -2 5 4 -4 -1 -7
right_child=1 -3 3 -5 -6 6 -8
leaf_value=0 0 1.9670396950823509e-05 0 0 -2.2360008973758171e-05 1.9642370143683196e-05 0
leaf_weight=596 240 891 568 404 1654 693 308
leaf_count=596 240 891 568 404 1654 693 308
internal_value=0 7.09277e-06 -3.09973e-07 -8.27977e-06 -1.46579e-05 2.90469e-06 1.22408e-05
internal_weight=5354 1131 4223 2626 2222 1597 1001
internal_count=5354 1131 4223 2626 2222 1597 1001
is_linear=0
shrinkage=0.00527828


Tree=26
num_leaves=6
num_cat=0
split_feature=2 2 2 3 8
split_gain=0.00225645 0.00349414 0.00514193 0.00073642 0.000553173
threshold=0.91084732793722256 1.0805521535092979 1.0028673448181784 44.624838251657714 0.10904995435055569
decision_type=2 2 2 2 2
left_child=3 2 -2 -1 -4
right_child=1 -3 4 -5 -6
leaf_value=1.9558479957983474e-05 0 7.6438488504244596e-06 0 0 -1.081251544440187e-05
leaf_weight=216 2396 528 135 127 1923
leaf_count=216 2396 528 135 127 1923
internal_value=0 0 -3.85971e-06 1.34993e-05 -1.0088e-05
internal_weight=5325 4982 4454 343 2058
internal_count=5325 4982 4454 343 2058
is_linear=0
shrinkage=0.00527828


Tree=27
num_leaves=7
num_cat=0
split_feature=18 15 15 15 1 15
split_gain=0.00341327 0.00695973 0.00577704 0.00540492 0.0032707 0.000177809
threshold=0.80809552084342129 0.89249789892974885 0.77232494417022146 1.1055074113396699 0.96164466862310372 1.1852518035501769
decision_type=2 2 2 2 2 2
left_child=2 -2 -1 4 -4 -5
right_child=1 -3 3 5 -6 -7
leaf_value=0 0 1.7031887808499534e-05 0 3.6154810598010593e-06 -1.3667023932369864e-05 0
leaf_weight=234 242 855 156 377 2370 1092
leaf_count=234 242 855 156 377 2370 1092
internal_value=0 7.05473e-06 -3.09008e-06 -7.09757e-06 -1.1799e-05 0
internal_weight=5326 1097 4229 3995 2526 1469
internal_count=5326 1097 4229 3995 2526 1469
is_linear=0
shrinkage=0.00527828


Tree=28
num_leaves=8
num_cat=0
split_feature=18 1 2 18 18 18 2
split_gain=0.00304396 0.00777586 0.00611904 0.00991844 0.00411118 0.00361613 0.00235141
threshold=0.80809552084342129 0.98311745751653545 1.0770102682417175 -0.46873232031375162 1.1987689637529531 -1.5808129356931107 0.99283707032828505
decision_type=2 2 2 2 2 2 2
left_child=1 5 3 -3 -2 -1 -7
right_child=4 2 -4 -5 -6 6 -8
leaf_value=0 1.6690642244646087e-05 0 0 -1.8415934323039305e-05 0 1.8868047016210938e-05 0
leaf_weight=201 671 1045 368 1941 461 511 164
leaf_count=201 671 1045 368 1941 461 511 164
internal_value=0 -1.6747e-06 -7.95071e-06 -1.13161e-05 8.01994e-06 4.31704e-06 1.31525e-05
internal_weight=5362 4230 3354 2986 1132 876 675
internal_count=5362 4230 3354 2986 1132 876 675
is_linear=0
shrinkage=0.00527828


Tree=29
num_leaves=8
num_cat=0
split_feature=14 14 1 1 14 14 14
split_gain=0.00107023 0.00343675 0.0138468 0.00228869 0.0016795 0.0016257 0.000401239
threshold=77.711293084726336 42.134910006934525 1.0055654996609185 1.0321842680020261 36.164679993658368 72.208523525067392 40.010597739094578
decision_type=2 2 2 2 2 2 2
left_child=1 2 6 5 -4 -3 -1
right_child=-2 3 4 -5 -6 -7 -8
leaf_value=2.161009009495173e-05 1.0071115484115947e-05 -8.5217881802056674e-06 -1.1819810934430451e-05 0 0 0 0
leaf_weight=858 292 2731 345 221 261 501 168
leaf_count=858 292 2731 345 221 261 501 168
internal_value=0 0 1.96885e-06 -5.08724e-06 -1.66407e-06 -6.88225e-06 1.94885e-05
internal_weight=5377 5085 1632 3453 606 3232 1026
internal_count=5377 5085 1632 3453 606 3232 1026
is_linear=0
shrinkage=0.00527828


Tree=30
num_leaves=8
num_cat=0
split_feature=2 2 18 14 1 18 14
split_gain=0.00403666 0.00739732 0.0103005 0.00362775 0.00675458 0.00111842 4.51051e-05
threshold=1.0862730739704871 1.0039805244199203 0.80179182155486239 42.134910006934525 1.0142520696060917 -0.56036354463037397 68.230784078374171
decision_type=2 2 2 2 2 2 2
left_child=1 3 5 4 -1 -3 -5
right_child=-2 2 -4 6 -6 -7 -8
leaf_value=1.6534489095915469e-05 1.5333489356337719e-05 0 0 -9.8130671021513432e-07 0 -2.1968238288361543e-05 0
leaf_weight=1062 470 392 589 1303 179 1084 253
leaf_count=1062 470 392 589 1303 179 1084 253
internal_value=0 -5.54232e-07 -9.98218e-06 7.61796e-07 9.08955e-06 -1.82626e-05 0
internal_weight=5332 4862 2065 2797 1241 1476 1556
internal_count=5332 4862 2065 2797 1241 1476 1556
is_linear=0
shrinkage=0.00527828


Tree=31
num_leaves=8
num_cat=0
split_feature=3 7 18 17 18 14 18
split_gain=0.00282091 0.00395025 0.00574352 0.00423112 0.00356574 0.00251426 0.00174348
threshold=47.771031117447563 0.026286648184496098 -1.49917778033826 -1.4625028810542717 0.80179182155486239 76.591071731067245 -0.42964872823996342
decision_type=2 2 2 2 2 2 2
left_child=1 -1 -3 -4 5 6 -2
right_child=4 2 3 -5 -6 -7 -8
leaf_value=0 0 0 0 1.8949686673261733e-05 0 0 -1.2810061088631271e-05
leaf_weight=585 606 311 180 1275 892 151 1375
leaf_count=585 606 311 180 1275 892 151 1375
internal_value=0 5.47755e-06 1.01084e-05 1.52912e-05 -1.62533e-06 -7.09216e-06 -9.45799e-06
internal_weight=5375 2351 1766 1455 3024 2132 1981
internal_count=5375 2351 1766 1455 3024 2132 1981
is_linear=0
shrinkage=0.00527828


Tree=32
num_leaves=8
num_cat=0
split_feature=18 14 14 15 18 1 18
split_gain=0.0033517 0.00904982 0.0116054 0.00896786 0.00857233 0.00525887 0.00475683
threshold=0.80809552084342129 42.134910006934525 77.711293084726336 0.8853422593015311 -0.49480433508351335 1.0089841721998212 -1.49917778033826
decision_type=2 2 2 2 2 2 2
left_child=1 5 4 -2 -3 6 -1
right_child=3 2 -4 -5 -6 -7 -8
leaf_value=0 0 0 0 1.8767334506121236e-05 -2.1389985743388118e-05 0 1.8395709516805899e-05
leaf_weight=138 242 953 192 880 1845 294 828
leaf_count=138 242 953 192 880 1845 294 828
internal_value=0 -2.76827e-06 -9.72366e-06 7.35455e-06 -1.47143e-05 1.20245e-06 1.23793e-05
internal_weight=5372 4250 2990 1122 2798 1260 966
internal_count=5372 4250 2990 1122 2798 1260 966
is_linear=0
shrinkage=0.00527828


Tree=33
num_leaves=7
num_cat=0
split_feature=2 15 15 3 15 2
split_gain=0.00733718 0.00849612 0.00470747 0.00303929 0.00272773 0.00235518
threshold=0.91084732793722256 1.0999895591604723 1.3620152627770992 31.719170383741673 0.77780524543777096 1.0551319872944618
decision_type=2 2 2 2 2 2
left_child=-1 4 3 -3 -2 -6
right_child=1 2 -4 -5 5 -7
leaf_value=2.3589767441989455e-05 0 0 0 1.2216666312892932e-05 -1.1649840922164925e-05 0
leaf_weight=349 171 176 196 1522 2767 242
leaf_count=349 171 176 196 1522 2767 242
internal_value=0 -1.3395e-06 2.47577e-06 9.16435e-06 -8.57899e-06 -1.01498e-05
internal_weight=5423 5074 1894 1698 3180 3009
internal_count=5423 5074 1894 1698 3180 3009
is_linear=0
shrinkage=0.00527828


Tree=34
num_leaves=9
num_cat=0
split_feature=15 2 15 6 6 15 1 1
split_gain=0.0028729 0.0101484 0.00681156 0.00453878 0.00436678 0.00519753 0.00251537 0.00144436
threshold=1.1055074113396699 0.91084732793722256 1.3620152627770992 0.0072343855621155211 0.0070582386036341796 0.77780524543777096 0.97172631321435821 0.97467444429142447
decision_type=2 2 2 2 2 2 2 2
left_child=1 6 3 -2 -3 -6 -1 -5
right_child=2 4 -4 7 5 -7 -8 -9
leaf_value=2.3974751773317237e-05 0 0 0 0 0 -1.6133677044773008e-05 0 1.6746173703899346e-05
leaf_weight=152 171 800 182 140 150 2236 173 1370
leaf_count=152 171 800 182 140 150 2236 173 1370
internal_value=0 -3.8383e-06 3.89439e-06 1.13827e-05 -9.95713e-06 -1.35391e-05 7.50623e-06 1.50948e-05
internal_weight=5374 3511 1863 1681 3186 2386 325 1510
internal_count=5374 3511 1863 1681 3186 2386 325 1510
is_linear=0
shrinkage=0.00527828


Tree=35
num_leaves=8
num_cat=0
split_feature=18 18 1 18 18 6 1
split_gain=0.00235484 0.00575205 0.00384282 0.0027144 0.00258227 0.00165547 6.36635e-05
threshold=0.80809552084342129 -0.46873232031375162 0.97003749059223932 -1.395687295486806 1.1987689637529531 0.0050739238094785971 1.0020288235769443
decision_type=2 2 2 2 2 2 2
left_child=1 3 -3 -1 -2 -4 -5
right_child=4 2 5 6 -6 -7 -8
leaf_value=0 1.3495023154765166e-05 0 0 1.0515336725442576e-05 0 -1.1799553996544126e-05 0
leaf_weight=570 674 160 132 698 449 2353 307
leaf_count=570 674 160 132 698 449 2353 307
internal_value=0 -1.84964e-06 -8.12398e-06 0 6.74379e-06 -1.0644e-05 8.66604e-06
internal_weight=5343 4220 2645 1575 1123 2485 1005
internal_count=5343 4220 2645 1575 1123 2485 1005
is_linear=0
shrinkage=0.00527828


Tree=36
num_leaves=7
num_cat=0
split_feature=18 15 14 15 8 14
split_gain=0.00315816 0.0105344 0.00745964 0.0106447 0.00755115 0.00169214
threshold=0.80179182155486239 0.8853422593015311 42.134910006934525 1.1389851557155024 0.40236243648166653 70.367614523769888
decision_type=2 2 2 2 2 2
left_child=2 -2 4 5 -1 -4
right_child=1 -3 3 -5 -6 -7
leaf_value=1.9564853931033179e-05 0 2.0441196775783306e-05 -1.9222295555411491e-05 0 0 0
leaf_weight=558 264 880 1515 1337 695 133
leaf_count=558 264 880 1515 1337 695 133
internal_value=0 8.09178e-06 -1.74781e-06 -8.51967e-06 1.7789e-06 -1.76392e-05
internal_weight=5382 1144 4238 2985 1253 1648
internal_count=5382 1144 4238 2985 1253 1648
is_linear=0
shrinkage=0.00527828


Tree=37
num_leaves=7
num_cat=0
split_feature=2 2 7 14 15 14
split_gain=0.00551273 0.00819395 0.0039839 0.00404483 0.00274209 0.000625937
threshold=0.91084732793722256 1.0862730739704871 0.043986070451620042 71.427274489393866 1.3620152627770992 51.040793445916528
decision_type=2 2 2 2 2 2
left_child=-1 2 5 -4 -3 -2
right_child=1 4 3 -5 -6 -7
leaf_value=1.8709439427637513e-05 0 1.777063827453073e-05 -1.7249946603519965e-05 0 0 -3.5458799252485522e-06
leaf_weight=357 1460 350 1494 198 124 1385
leaf_count=357 1460 350 1494 198 124 1385
internal_value=0 -2.36042e-06 -6.98504e-06 -1.40091e-05 8.54522e-06 0
internal_weight=5368 5011 4537 1692 474 2845
internal_count=5368 5011 4537 1692 474 2845
is_linear=0
shrinkage=0.00527828


Tree=38
num_leaves=9
num_cat=0
split_feature=15 1 14 15 15 18 14 15
split_gain=0.00162986 0.00668018 0.00776517 0.00491703 0.00370207 0.00368742 0.00473168 0.000158679
threshold=1.1055074113396699 1.0011001762602574 39.60880669540164 1.3620152627770992 1.0334918466761092 -1.5808129356931107 57.134162868140066 0.90956659638714721
decision_type=2 2 2 2 2 2 2 2
left_child=1 2 -1 5 -3 -2 -7 -4
right_child=3 4 7 -5 -6 6 -8 -9
leaf_value=1.7021653025997543e-05 0 -1.5766411429634818e-05 0 0 0 0 1.9328804158893042e-05 -4.4084006175677882e-06
leaf_weight=700 146 1288 364 187 270 440 1030 892
leaf_count=700 146 1288 364 187 270 440 1030 892
internal_value=0 -2.98883e-06 0 2.78499e-06 -1.18084e-05 9.66024e-06 1.31289e-05 -3.20881e-06
internal_weight=5317 3514 1956 1803 1558 1616 1470 1256
internal_count=5317 3514 1956 1803 1558 1616 1470 1256
is_linear=0
shrinkage=0.00527828


Tree=39
num_leaves=7
num_cat=0
split_feature=2 15 15 2 15 2
split_gain=0.00696574 0.0113628 0.004384 0.00648245 0.00265571 0.00173373
threshold=0.91084732793722256 1.0999895591604723 1.3620152627770992 1.0842944564485648 0.77780524543777096 1.0680486205435418
decision_type=2 2 2 2 2 2
left_child=-1 4 3 -3 -2 -6
right_child=1 2 -4 -5 5 -7
leaf_value=2.1785388893848448e-05 0 0 0 3.0700901476229908e-05 -1.2788298179439678e-05 0
leaf_weight=338 157 1383 201 328 2831 129
leaf_count=338 157 1383 201 328 2831 129
internal_value=0 -2.55005e-06 2.07892e-06 8.72534e-06 -1.04564e-05 -1.18368e-05
internal_weight=5367 5029 1912 1711 3117 2960
internal_count=5367 5029 1912 1711 3117 2960
is_linear=0
shrinkage=0.00527828


Tree=40
num_leaves=9
num_cat=0
split_feature=2 15 15 15 1 14 14 14
split_gain=0.00467587 0.00819646 0.00295366 0.00175119 0.00160693 0.00142415 0.00131032 0.000257822
threshold=0.91084732793722256 1.1102809945570908 1.2055884763750346 0.77780524543777096 0.97467444429142447 53.861632629442816 71.947592337265164 79.940663420993914
decision_type=2 2 2 2 2 2 2 2
left_child=4 3 5 -2 -1 -3 -5 -4
right_child=1 2 7 6 -6 -7 -8 -9
leaf_value=2.9298070807138313e-05 0 0 -2.701851182849514e-06 -1.0766829429881741e-05 0 1.7805850466040514e-05 0 0
leaf_weight=170 164 253 982 2934 193 385 134 197
leaf_count=170 164 253 982 2934 193 385 134 197
internal_value=0 -2.33008e-06 6.30074e-07 -8.88076e-06 1.67868e-05 1.13891e-05 -9.94854e-06 0
internal_weight=5412 5049 1817 3232 363 638 3068 1179
internal_count=5412 5049 1817 3232 363 638 3068 1179
is_linear=0
shrinkage=0.00527828


Tree=41
num_leaves=5
num_cat=0
split_feature=2 2 8 6
split_gain=0.0056604 0.00362092 0.00372633 0.00331363
threshold=0.90546844335166432 1.0862730739704871 0.37646484236518962 0.0079196812595221742
decision_type=2 2 2 2
left_child=-1 2 -2 -4
right_child=1 -3 3 -5
leaf_value=2.2702571333085772e-05 0 7.388899957426273e-06 0 -1.1721219124999753e-05
leaf_weight=304 1673 486 904 1966
leaf_count=304 1673 486 904 1966
internal_value=0 0 -4.04156e-06 -7.87385e-06
internal_weight=5333 5029 4543 2870
internal_count=5333 5029 4543 2870
is_linear=0
shrinkage=0.00527828


Tree=42
num_leaves=8
num_cat=0
split_feature=2 18 15 15 15 15 8
split_gain=0.00553905 0.0100349 0.010225 0.00890051 0.00309272 0.000814952 0.000224344
threshold=0.90546844335166432 0.80809552084342129 0.8853422593015311 1.1055074113396699 0.81656466654429083 1.2055884763750346 0.33851596287041619
decision_type=2 2 2 2 2 2 2
left_child=6 3 -3 4 -2 -5 -1
right_child=1 2 -4 5 -6 -7 -8
leaf_value=2.9800558982495646e-05 0 0 2.0544771608932461e-05 6.2088481614259604e-06 -1.5444532567324042e-05 0 0
leaf_weight=177 306 232 870 587 2229 915 124
leaf_count=177 306 232 870 587 2229 915 124
internal_value=0 -5.62894e-07 8.68002e-06 -7.00208e-06 -1.32589e-05 0 2.24494e-05
internal_weight=5440 5139 1102 4037 2535 1502 301
internal_count=5440 5139 1102 4037 2535 1502 301
is_linear=0
shrinkage=0.00527828


Tree=43
num_leaves=6
num_cat=0
split_feature=1 6 7 3 6
split_gain=0.00280032 0.0107334 0.000348437 0.000888304 0.000728526
threshold=0.98743047356396907 0.014360721757643812 0.042502787317897771 83.604255589540728 0.010892560275754007
decision_type=2 2 2 2 2
left_child=1 -1 -2 4 -4
right_child=2 -3 3 -5 -6
leaf_value=0 0 2.8175222690609937e-05 0 0 -8.0736683417908413e-06
leaf_weight=746 2667 473 450 136 838
leaf_count=746 2667 473 450 136 838
internal_value=0 7.99362e-06 0 -2.60915e-06 -5.16823e-06
internal_weight=5310 1219 4091 1424 1288
internal_count=5310 1219 4091 1424 1288
is_linear=0
shrinkage=0.00527828


Tree=44
num_leaves=8
num_cat=0
split_feature=2 15 15 14 2 15 14
split_gain=0.00512659 0.00630555 0.00519517 0.00283088 0.00180996 0.00180444 0.000407168
threshold=0.91084732793722256 1.1055074113396699 1.2055884763750346 53.861632629442816 1.0680486205435418 0.77780524543777096 79.940663420993914
decision_type=2 2 2 2 2 2 2
left_child=-1 4 3 -3 5 -2 -4
right_child=1 2 6 -5 -6 -7 -8
leaf_value=1.987455196834254e-05 0 0 -3.4339845627393054e-06 2.3716501249892194e-05 0 -9.6930777140135405e-06 0
leaf_weight=353 166 257 960 410 132 2881 193
leaf_count=353 166 257 960 410 132 2881 193
internal_value=0 -7.23084e-07 2.11049e-06 1.51159e-05 -7.31419e-06 -8.50601e-06 0
internal_weight=5352 4999 1820 667 3179 3047 1153
internal_count=5352 4999 1820 667 3179 3047 1153
is_linear=0
shrinkage=0.00527828


Tree=45
num_leaves=7
num_cat=0
split_feature=2 1 18 2 18 18
split_gain=0.00252959 0.0076744 0.00274177 0.00656776 0.00067853 0.000370087
threshold=1.0788433754017548 0.99839012626056312 -1.5808129356931107 0.99283707032828505 0.80179182155486239 -0.41401810990261861
decision_type=2 2 2 2 2 2
left_child=1 2 -1 -4 5 -3
right_child=-2 4 3 -5 -6 -7
leaf_value=0 1.112222468460858e-05 0 1.4930301159560927e-05 0 0 -1.3893700894711848e-05
leaf_weight=343 549 584 1191 749 707 1235
leaf_count=343 549 584 1191 749 707 1235
internal_value=0 -6.94054e-07 1.69492e-06 6.53564e-06 -9.10484e-06 -1.12011e-05
internal_weight=5358 4809 2283 1940 2526 1819
internal_count=5358 4809 2283 1940 2526 1819
is_linear=0
shrinkage=0.00527828


Tree=46
num_leaves=6
num_cat=0
split_feature=2 18 2 18 18
split_gain=0.0052725 0.00849684 0.00697867 0.00714133 0.00235203
threshold=0.90546844335166432 0.80179182155486239 1.0862730739704871 -0.48343437011082929 1.1987689637529531
decision_type=2 2 2 2 2
left_child=-1 2 3 -2 -3
right_child=1 4 -4 -5 -6
leaf_value=2.1505640603373128e-05 0 1.2862950932869598e-05 0 -1.5956590286751845e-05 0
leaf_weight=307 1332 678 292 2304 452
leaf_count=307 1332 678 292 2304 452
internal_value=0 -8.88632e-07 -7.02131e-06 -1.03296e-05 6.44206e-06
internal_weight=5365 5058 3928 3636 1130
internal_count=5365 5058 3928 3636 1130
is_linear=0
shrinkage=0.00527828


Tree=47
num_leaves=7
num_cat=0
split_feature=2 15 15 15 2 2
split_gain=0.00496744 0.00568958 0.00270604 0.00176896 0.00478987 0.000881854
threshold=0.91084732793722256 1.0308937415660597 0.81022699213183469 1.3620152627770992 1.0842944564485648 1.0518240838878909
decision_type=2 2 2 2 2 2
left_child=-1 2 -2 4 -3 -4
right_child=1 3 5 -5 -6 -7
leaf_value=1.9052663744995239e-05 0 0 -1.1421633410058771e-05 0 2.3015146881245958e-05 0
leaf_weight=360 332 1915 2033 198 343 211
leaf_count=360 332 1915 2033 198 343 211
internal_value=0 -1.17894e-06 -8.01259e-06 0 4.66982e-06 -1.03566e-05
internal_weight=5392 5032 2576 2456 2258 2244
internal_count=5392 5032 2576 2456 2258 2244
is_linear=0
shrinkage=0.00527828


Tree=48
num_leaves=8
num_cat=0
split_feature=2 2 6 3 2 15 8
split_gain=0.00210984 0.00835376 0.00421095 0.00223407 0.00442755 0.00221063 0.000197502
threshold=1.0862730739704871 0.99945453214102276 0.0082886348006889331 49.675111741994577 0.90546844335166432 1.3519432691054856 0.15151345497388988
decision_type=2 2 2 2 2 2 2
left_child=1 3 -3 4 -1 -2 -4
right_child=5 2 6 -5 -6 -7 -8
leaf_value=2.91153714996547e-05 1.8339246557454251e-05 0 0 0 0 0 -1.653326479232082e-05
leaf_weight=218 332 858 133 1016 1340 138 1325
leaf_count=218 332 858 133 1016 1340 138 1325
internal_value=0 -1.28239e-06 -1.01734e-05 5.83619e-07 6.36095e-06 1.03681e-05 -1.56422e-05
internal_weight=5360 4890 2316 2574 1558 470 1458
internal_count=5360 4890 2316 2574 1558 470 1458
is_linear=0
shrinkage=0.00527828


Tree=49
num_leaves=8
num_cat=0
split_feature=18 15 18 18 15 1 15
split_gain=0.00258881 0.00798824 0.00581129 0.00417279 0.00346343 0.00372785 0.00103859
threshold=0.80809552084342129 0.87209750590041757 -0.45071118286292605 -1.5808129356931107 0.78302028347583541 0.97851589961240404 1.2055884763750346
decision_type=2 2 2 2 2 2 2
left_child=2 -2 3 -1 -4 -6 -5
right_child=1 -3 4 6 5 -7 -8
leaf_value=0 0 1.7543336432187821e-05 0 1.2652371014269812e-05 0 -1.291730750004031e-05 0
leaf_weight=484 209 910 126 905 248 2253 201
leaf_count=484 209 910 126 905 248 2253 201
internal_value=0 7.20067e-06 -1.82181e-06 0 -8.1799e-06 -1.04322e-05 1.02433e-05
internal_weight=5336 1119 4217 1590 2627 2501 1106
internal_count=5336 1119 4217 1590 2627 2501 1106
is_linear=0
shrinkage=0.00527828


Tree=50
num_leaves=7
num_cat=0
split_feature=2 18 18 2 15 1
split_gain=0.00698098 0.0133248 0.0093889 0.0132468 0.00775896 0.000208788
threshold=0.90546844335166432 0.80179182155486239 -0.46873232031375162 1.0862730739704871 0.8853422593015311 0.98142213501336428
decision_type=2 2 2 2 2 2
left_child=5 2 -2 -4 -3 -1
right_child=1 4 3 -5 -6 -7
leaf_value=3.2296994334853323e-05 0 0 -2.0530469023186566e-05 0 1.8336518783309194e-05 0
leaf_weight=171 1399 223 2237 286 873 128
leaf_count=171 1399 223 2237 286 873 128
internal_value=0 -1.99011e-06 -8.93249e-06 -1.50862e-05 8.4298e-06 2.40864e-05
internal_weight=5317 5018 3922 2523 1096 299
internal_count=5317 5018 3922 2523 1096 299
is_linear=0
shrinkage=0.00527828


Tree=51
num_leaves=4
num_cat=0
split_feature=2 2 14
split_gain=0.00994328 0.00505545 0.00157828
threshold=0.90845732196415485 1.0805521535092979 72.208523525067392
decision_type=2 2 2
left_child=-1 2 -2
right_child=1 -3 -4
leaf_value=2.874521161097525e-05 -6.5839209303623684e-06 5.5099196933967618e-06 0
leaf_weight=327 3990 557 467
leaf_count=327 3990 557 467
internal_value=0 -1.01785e-06 -5.38022e-06
internal_weight=5341 5014 4457
internal_count=5341 5014 4457
is_linear=0
shrinkage=0.00527828


Tree=52
num_leaves=7
num_cat=0
split_feature=18 15 15 15 8 15
split_gain=0.00279284 0.00648354 0.00563272 0.00910602 0.00584075 0.000109676
threshold=0.80809552084342129 0.8853422593015311 0.77232494417022146 1.1055074113396699 0.24281526599164474 1.2030862372748723
decision_type=2 2 2 2 2 2
left_child=2 -2 -1 4 -4 -5
right_child=1 -3 3 5 -6 -7
leaf_value=7.6605385917873558e-06 0 1.6918992141913245e-05 0 2.3255975666148329e-06 -1.7609100209107956e-05 0
leaf_weight=238 245 855 717 563 1844 930
leaf_count=238 245 855 717 563 1844 930
internal_value=0 7.66108e-06 -1.74879e-06 -6.20134e-06 -1.26429e-05 0
internal_weight=5392 1100 4292 4054 2561 1493
internal_count=5392 1100 4292 4054 2561 1493
is_linear=0
shrinkage=0.00527828


Tree=53
num_leaves=10
num_cat=0
split_feature=15 14 18 15 1 18 18 14 18
split_gain=0.00192626 0.00782087 0.0100336 0.00549805 0.00538488 0.00456405 0.0045324 0.00397156 0.0042907
threshold=1.1102809945570908 42.134910006934525 0.69690977183739211 1.3620152627770992 1.0018965319667503 -1.428343102266276 -1.6543495893360969 63.200554866885234 -0.77343312331584835
decision_type=2 2 2 2 2 2 2 2 2
left_child=1 4 6 7 5 -1 -3 -2 -9
right_child=3 2 -4 -5 -6 -7 -8 8 -10
leaf_value=0 0 0 0 0 0 1.9472884777786988e-05 -2.1679563516061139e-05 0 2.4101711339038388e-05
leaf_weight=137 751 143 446 176 667 729 1370 134 714
leaf_count=137 751 143 446 176 667 729 1370 134 714
internal_value=0 -2.45911e-06 -1.10403e-05 4.27908e-06 0 1.3147e-05 -1.8501e-05 1.07704e-05 1.86728e-05
internal_weight=5267 3492 1959 1775 1533 866 1513 1599 848
internal_count=5267 3492 1959 1775 1533 866 1513 1599 848
is_linear=0
shrinkage=0.00527828


Tree=54
num_leaves=8
num_cat=0
split_feature=18 14 14 18 8 18 18
split_gain=0.00202262 0.00671586 0.00821692 0.00802843 0.0056601 0.0070774 0.00326891
threshold=0.80809552084342129 42.134910006934525 77.767186090378587 -0.52832961833147563 0.5585235772733802 -1.395687295486806 1.1702637542738101
decision_type=2 2 2 2 2 2 2
left_child=1 4 3 -3 5 -1 -2
right_child=6 2 -4 -5 -6 -7 -8
leaf_value=0 1.4565783534423438e-05 0 0 -1.9150552080139713e-05 0 2.4381335807434064e-05 0
leaf_weight=129 607 946 185 1792 524 595 488
leaf_count=129 607 946 185 1792 524 595 488
internal_value=0 -2.08969e-06 -8.37844e-06 -1.25892e-05 0 1.47382e-05 5.89557e-06
internal_weight=5266 4171 2923 2738 1248 724 1095
internal_count=5266 4171 2923 2738 1248 724 1095
is_linear=0
shrinkage=0.00527828


Tree=55
num_leaves=10
num_cat=0
split_feature=18 14 7 1 2 14 18 2 14
split_gain=0.00347586 0.00457645 0.00397595 0.0033801 0.00542428 0.00503905 0.00400921 0.00307681 0.000270938
threshold=0.80179182155486239 34.071556234260115 0.019220846550942625 1.0000881490601232 1.0887668784784528 42.134910006934525 -1.428343102266276 0.96627664268986402 69.182209515903423
decision_type=2 2 2 2 2 2 2 2 2
left_child=3 -2 -3 5 7 6 -1 -5 -7
right_child=1 2 -4 4 -6 8 -8 -9 -10
leaf_value=0 0 0 1.9961956255680621e-05 0 0 -2.5303210157168129e-06 2.0637716186292108e-05 -1.5775135701294752e-05 0
leaf_weight=143 132 148 839 299 226 1177 590 1328 393
leaf_count=143 132 148 839 299 226 1177 590 1328 393
internal_value=0 9.2945e-06 1.50612e-05 0 -7.12344e-06 1.36688e-07 1.38229e-05 -1.22701e-05 0
internal_weight=5275 1119 987 4156 1853 2303 733 1627 1570
internal_count=5275 1119 987 4156 1853 2303 733 1627 1570
is_linear=0
shrinkage=0.00527828


Tree=56
num_leaves=9
num_cat=0
split_feature=18 14 14 18 1 14 18 18
split_gain=0.00186252 0.00681558 0.00749176 0.0116094 0.00533733 0.00438647 0.00399135 0.000680693
threshold=0.80179182155486239 42.134910006934525 72.208523525067392 -0.52832961833147563 1.0142520696060917 35.838321764975674 -1.49917778033826 1.1821799355578475
decision_type=2 2 2 2 2 2 2 2
left_child=1 4 3 -3 6 -2 -1 -7
right_child=5 2 -4 -5 -6 7 -8 -9
leaf_value=0 0 0 0 -2.1006378820152441e-05 0 1.8228759295656215e-05 1.7436965855704315e-05 0
leaf_weight=137 194 800 596 1584 201 578 927 387
leaf_count=137 194 800 596 1584 201 578 927 387
internal_value=0 -2.85038e-07 -7.49867e-06 -1.25601e-05 4.21904e-06 6.66321e-06 1.26749e-05 1.34048e-05
internal_weight=5404 4245 2980 2384 1265 1159 1064 965
internal_count=5404 4245 2980 2384 1265 1159 1064 965
is_linear=0
shrinkage=0.00527828


Tree=57
num_leaves=8
num_cat=0
split_feature=18 2 14 18 14 5 18
split_gain=0.00356452 0.0072882 0.0087051 0.0138126 0.00266117 0.000308331 5.19776e-05
threshold=0.80179182155486239 0.91401360359182682 71.427274489393866 -0.48343437011082929 35.838321764975674 87.396747952339709 -0.92029836907035623
decision_type=2 2 2 2 2 2 2
left_child=1 6 3 -3 -2 -6 -1
right_child=4 2 -4 -5 5 -7 -8
leaf_value=0 0 0 0 -2.0301530504248601e-05 1.2392340429840575e-05 0 3.2965776438898511e-06
leaf_weight=143 178 1164 598 2152 806 145 186
leaf_count=143 178 1164 598 2152 806 145 186
internal_value=0 -3.69507e-06 -8.1548e-06 -1.23118e-05 6.04657e-06 1.10086e-05 1.34042e-06
internal_weight=5372 4243 3914 3316 1129 951 329
internal_count=5372 4243 3914 3316 1129 951 329
is_linear=0
shrinkage=0.00527828


Tree=58
num_leaves=8
num_cat=0
split_feature=2 15 15 14 14 2 15
split_gain=0.00521586 0.00557175 0.00497751 0.00488184 0.00274869 0.000893071 8.55946e-06
threshold=0.90287793164920471 1.1055074113396699 1.3620152627770992 42.134910006934525 62.424712149482346 1.0560637473294932 0.8853422593015311
decision_type=2 2 2 2 2 2 2
left_child=-1 3 4 6 -3 -5 -2
right_child=1 2 -4 5 -6 -7 -8
leaf_value=2.2966919216383701e-05 0 0 0 -1.3324632625121722e-05 1.5688202263606823e-05 0 6.3630932580849581e-07
leaf_weight=273 769 741 192 1713 921 205 587
leaf_count=273 769 741 192 1713 921 205 587
internal_value=0 -2.3062e-07 2.53297e-06 -6.62065e-06 9.51293e-06 -1.20677e-05 0
internal_weight=5401 5128 1854 3274 1662 1918 1356
internal_count=5401 5128 1854 3274 1662 1918 1356
is_linear=0
shrinkage=0.00527828


Tree=59
num_leaves=9
num_cat=0
split_feature=18 15 14 15 1 18 18 15
split_gain=0.00309884 0.00934801 0.00683578 0.0106417 0.00322879 0.00375481 0.00236716 1.4379e-05
threshold=0.80809552084342129 0.87209750590041757 42.134910006934525 1.1055074113396699 1.0089841721998212 -1.428343102266276 -1.6292798513274847 1.2030862372748723
decision_type=2 2 2 2 2 2 2 2
left_child=2 -2 4 6 5 -1 -4 -5
right_child=1 -3 3 7 -6 -7 -8 -9
leaf_value=0 0 1.9649848668802437e-05 0 8.8804936432354746e-07 0 1.5842722010169762e-05 -2.0156791323444063e-05 0
leaf_weight=156 204 879 138 506 310 796 1361 947
leaf_count=156 204 879 138 506 310 796 1361 947
internal_value=0 8.57185e-06 -1.25254e-06 -8.04824e-06 2.12722e-06 1.00145e-05 -1.80278e-05 0
internal_weight=5297 1083 4214 2952 1262 952 1499 1453
internal_count=5297 1083 4214 2952 1262 952 1499 1453
is_linear=0
shrinkage=0.00527828


Tree=60
num_leaves=8
num_cat=0
split_feature=2 18 15 15 8 3 15
split_gain=0.00424153 0.00594936 0.0063201 0.00589308 0.00502179 0.00204007 5.25838e-05
threshold=0.91084732793722256 0.80809552084342129 1.1055074113396699 0.8853422593015311 0.3815320548553765 45.58414065041331 1.2055884763750346
decision_type=2 2 2 2 2 2 2
left_child=5 2 4 -3 -2 -1 -4
right_child=1 3 6 -5 -6 -7 -8
leaf_value=2.8801474413187125e-05 0 0 1.5920810122525551e-06 1.5455155915523473e-05 -1.745405560316362e-05 0 0
leaf_weight=209 1013 217 576 858 1444 124 904
leaf_count=209 1013 217 576 858 1444 124 904
internal_value=0 0 -5.62246e-06 6.18748e-06 -1.10565e-05 1.87823e-05 0
internal_weight=5345 5012 3937 1075 2457 333 1480
internal_count=5345 5012 3937 1075 2457 333 1480
is_linear=0
shrinkage=0.00527828


Tree=61
num_leaves=9
num_cat=0
split_feature=18 14 14 18 18 1 18 3
split_gain=0.000988572 0.00527321 0.00849154 0.00736555 0.00408875 0.00404481 0.00603932 0.000520383
threshold=0.80179182155486239 42.134910006934525 77.711293084726336 -0.52832961833147563 1.1987689637529531 1.0089841721998212 -1.428343102266276 70.85994868255446
decision_type=2 2 2 2 2 2 2 2
left_child=1 5 3 -3 7 6 -1 -2
right_child=4 2 -4 -5 -6 -7 -8 -9
leaf_value=0 1.7365201083925634e-05 0 0 -1.8139870517663491e-05 0 0 1.9037167469945989e-05 0
leaf_weight=156 498 907 202 1802 457 307 774 167
leaf_count=156 498 907 202 1802 457 307 774 167
internal_value=0 -1.11796e-06 -7.21939e-06 -1.19695e-05 4.45975e-06 4.72603e-07 1.10096e-05 1.42937e-05
internal_weight=5270 4148 2911 2709 1122 1237 930 665
internal_count=5270 4148 2911 2709 1122 1237 930 665
is_linear=0
shrinkage=0.00527828


Tree=62
num_leaves=8
num_cat=0
split_feature=18 14 14 18 1 18 18
split_gain=0.00343188 0.00646491 0.0073387 0.00527368 0.00461898 0.00680763 0.00393709
threshold=0.80809552084342129 42.134910006934525 77.711293084726336 -0.52832961833147563 1.0018965319667503 -1.428343102266276 1.1987689637529531
decision_type=2 2 2 2 2 2 2
left_child=1 4 3 -3 5 -1 -2
right_child=6 2 -4 -5 -6 -7 -8
leaf_value=0 1.7279790619536163e-05 0 0 -1.7289963630255452e-05 0 2.2160899309843318e-05 0
leaf_weight=124 651 984 191 1806 503 649 451
leaf_count=124 651 984 191 1806 503 649 451
internal_value=0 -1.55737e-06 -7.9619e-06 -1.18726e-05 1.02698e-06 1.29534e-05 8.78928e-06
internal_weight=5359 4257 2981 2790 1276 773 1102
internal_count=5359 4257 2981 2790 1276 773 1102
is_linear=0
shrinkage=0.00527828


Tree=63
num_leaves=8
num_cat=0
split_feature=2 2 18 6 14 18 18
split_gain=0.00164747 0.0094779 0.00831492 0.00381163 0.00304361 0.00630866 0.000143062
threshold=1.0788433754017548 1.0028673448181784 0.80179182155486239 0.0054664302940797774 42.134910006934525 -1.395687295486806 0.68758802401316721
decision_type=2 2 2 2 2 2 2
left_child=1 4 3 -3 5 -1 -6
right_child=-2 2 -4 -5 6 -7 -8
leaf_value=0 5.9528039734313489e-06 0 0 -2.1199999995056736e-05 -1.7324493274427175e-06 1.6158157250074653e-05 0
leaf_weight=172 561 124 564 1395 1326 996 189
leaf_count=172 561 124 564 1395 1326 996 189
internal_value=0 -2.33291e-06 -1.17938e-05 -1.85197e-05 0 8.51332e-06 0
internal_weight=5327 4766 2083 1519 2683 1168 1515
internal_count=5327 4766 2083 1519 2683 1168 1515
is_linear=0
shrinkage=0.00527828


Tree=64
num_leaves=7
num_cat=0
split_feature=2 1 2 7 14 14
split_gain=0.00493665 0.00251164 0.00240971 0.00571607 0.00753883 2.08942e-05
threshold=0.91084732793722256 0.98108936757916465 1.0862730739704871 0.060494703314470898 50.523653784607077 42.134910006934525
decision_type=2 2 2 2 2 2
left_child=1 -1 3 5 -5 -2
right_child=2 -3 -4 4 -6 -7
leaf_value=3.1587695588329734e-05 3.4309441069619178e-08 0 6.5498805985784234e-06 -3.1301443334497257e-05 0 -4.6846261005687931e-07
leaf_weight=206 1035 143 488 422 432 2645
leaf_count=206 1035 143 488 422 432 2645
internal_value=0 1.97958e-05 0 -3.1885e-06 -1.54894e-05 0
internal_weight=5371 349 5022 4534 854 3680
internal_count=5371 349 5022 4534 854 3680
is_linear=0
shrinkage=0.00527828


Tree=65
num_leaves=8
num_cat=0
split_feature=18 18 14 14 18 14 18
split_gain=0.00320849 0.0082751 0.0104084 0.0107496 0.00304507 0.00315911 0.00227844
threshold=0.80809552084342129 -0.46873232031375162 71.427274489393866 39.381456249044312 -1.5808129356931107 65.483617045628634 1.1987689637529531
decision_type=2 2 2 2 2 2 2
left_child=1 4 3 -3 -1 -6 -2
right_child=6 2 -4 -5 5 -7 -8
leaf_value=0 1.3416534492157997e-05 0 0 -2.2279313357537839e-05 1.425203571251519e-05 0 0
leaf_weight=496 693 541 397 1706 849 234 461
leaf_count=496 693 541 397 1706 849 234 461
internal_value=0 -2.56374e-06 -9.8806e-06 -1.5614e-05 0 8.84264e-06 7.30106e-06
internal_weight=5377 4223 2644 2247 1579 1083 1154
internal_count=5377 4223 2644 2247 1579 1083 1154
is_linear=0
shrinkage=0.00527828


Tree=66
num_leaves=9
num_cat=0
split_feature=2 18 18 14 18 14 7 18
split_gain=0.00508507 0.00463465 0.00570091 0.00929751 0.00272356 0.0023486 0.00052771 2.76702e-05
threshold=0.91084732793722256 0.80179182155486239 -0.49480433508351335 71.427274489393866 -0.94002837591561661 49.108448008064066 0.027995063925785903 -1.395687295486806
decision_type=2 2 2 2 2 2 2 2
left_child=4 2 7 -4 -1 -3 -7 -2
right_child=1 5 3 -5 -6 6 -8 -9
leaf_value=0 0 0 -1.5639068672943885e-05 0 3.1811803041943317e-05 0 1.5391428870749602e-05 9.3971976100844098e-07
leaf_weight=133 510 490 2103 433 213 143 472 871
leaf_count=133 510 490 2103 433 213 143 472 871
internal_value=0 0 -4.97444e-06 -1.00395e-05 2.01775e-05 5.38896e-06 1.25762e-05 0
internal_weight=5368 5022 3917 2536 346 1105 615 1381
internal_count=5368 5022 3917 2536 346 1105 615 1381
is_linear=0
shrinkage=0.00527828


Tree=67
num_leaves=8
num_cat=0
split_feature=2 2 18 15 14 1 15
split_gain=0.00223938 0.00838515 0.00753992 0.00493047 0.00404714 0.00925352 0.00300465
threshold=1.0805521535092979 1.0028673448181784 0.80179182155486239 1.3684861314943073 42.134910006934525 1.0125691212076127 1.0999895591604723
decision_type=2 2 2 2 2 2 2
left_child=1 4 -3 -2 5 -1 -6
right_child=3 2 -4 -5 6 -7 -8
leaf_value=1.9066304062798899e-05 2.1490066760330339e-05 -1.7159504038278982e-05 0 0 -9.3314050240182042e-06 0 1.2167900195738587e-06
leaf_weight=1033 429 1488 553 124 950 214 550
leaf_count=1033 429 1488 553 124 950 214 550
internal_value=0 -3.87885e-07 -1.05794e-05 1.05414e-05 1.4371e-06 9.73772e-06 0
internal_weight=5341 4788 2041 553 2747 1247 1500
internal_count=5341 4788 2041 553 2747 1247 1500
is_linear=0
shrinkage=0.00527828


Tree=68
num_leaves=8
num_cat=0
split_feature=2 15 18 14 1 15 14
split_gain=0.00626388 0.0138732 0.0114994 0.00632107 0.00597036 0.00568083 0.00522764
threshold=0.90546844335166432 1.1102809945570908 0.80179182155486239 39.60880669540164 0.96281594412744209 1.3620152627770992 57.134162868140066
decision_type=2 2 2 2 2 2 2
left_child=4 2 3 -2 -1 6 -3
right_child=1 5 -4 -5 -6 -7 -8
leaf_value=4.7291542722200316e-05 0 0 0 -2.2547058578174151e-05 0 0 1.7359750156623876e-05
leaf_weight=136 778 522 750 1743 167 187 1100
leaf_count=136 778 522 750 1743 167 187 1100
internal_value=0 -2.52008e-06 -1.09244e-05 -1.6787e-05 2.15963e-05 3.9446e-06 1.07149e-05
internal_weight=5383 5080 3271 2521 303 1809 1622
internal_count=5383 5080 3271 2521 303 1809 1622
is_linear=0
shrinkage=0.00527828


Tree=69
num_leaves=8
num_cat=0
split_feature=18 15 18 14 14 18 7
split_gain=0.00273255 0.0080102 0.00655413 0.0114893 0.00816806 0.00153577 0.0021932
threshold=0.80809552084342129 0.89249789892974885 -0.45071118286292605 72.208523525067392 39.381456249044312 -1.5808129356931107 0.023670615151260763
decision_type=2 2 2 2 2 2 2
left_child=2 -2 5 4 -4 -1 -7
right_child=1 -3 3 -5 -6 6 -8
leaf_value=0 0 1.7628613029988854e-05 0 0 -2.097762125216605e-05 0 1.0927845493992068e-05
leaf_weight=481 241 857 541 389 1731 262 868
leaf_count=481 241 857 541 389 1731 262 868
internal_value=0 6.30843e-06 -2.7514e-06 -8.98442e-06 -1.53392e-05 0 6.14806e-06
internal_weight=5370 1098 4272 2661 2272 1611 1130
internal_count=5370 1098 4272 2661 2272 1611 1130
is_linear=0
shrinkage=0.00527828


Tree=70
num_leaves=7
num_cat=0
split_feature=2 15 15 15 2 2
split_gain=0.00282436 0.00902718 0.00432674 0.00423659 0.00452994 0.00246695
threshold=0.90546844335166432 1.0308937415660597 0.77780524543777096 1.3620152627770992 1.0805521535092979 1.0532444876665348
decision_type=2 2 2 2 2 2
left_child=-1 2 -2 4 -3 -4
right_child=1 3 5 -5 -6 -7
leaf_value=1.626590304840812e-05 0 0 -1.367005100700715e-05 0 2.7176979279054906e-05 0
leaf_weight=294 163 1898 2243 194 358 193
leaf_count=294 163 1898 2243 194 358 193
internal_value=0 -2.73912e-07 -9.40864e-06 2.97036e-06 7.86478e-06 -1.19952e-05
internal_weight=5343 5049 2599 2450 2256 2436
internal_count=5343 5049 2599 2450 2256 2436
is_linear=0
shrinkage=0.00527828


Tree=71
num_leaves=8
num_cat=0
split_feature=2 15 15 7 7 15 15
split_gain=0.00478106 0.00772336 0.00643822 0.00371565 0.00314639 0.000914819 3.73183e-05
threshold=0.91084732793722256 1.0999895591604723 1.3620152627770992 0.022287037012544555 0.055400103316172199 0.98585943367530737 0.82019091239725606
decision_type=2 2 2 2 2 2 2
left_child=-1 4 3 -3 6 -6 -2
right_child=1 2 -4 -5 5 -7 -8
leaf_value=1.9000180544064099e-05 0 0 0 1.5241750336472947e-05 -2.2741178436062809e-05 0 -6.9379271714309137e-07
leaf_weight=367 290 232 188 1447 529 125 2158
leaf_count=367 290 232 188 1447 529 125 2158
internal_value=0 0 5.36139e-06 1.17756e-05 -7.21212e-06 -1.94874e-05 0
internal_weight=5336 4969 1867 1679 3102 654 2448
internal_count=5336 4969 1867 1679 3102 654 2448
is_linear=0
shrinkage=0.00527828


Tree=72
num_leaves=8
num_cat=0
split_feature=18 1 14 18 14 14 18
split_gain=0.00183203 0.00543236 0.00544918 0.00233848 0.00199315 0.000770535 0.000104899
threshold=0.80809552084342129 1.0018965319667503 39.60880669540164 1.1987689637529531 76.591071731067245 71.947592337265164 -1.2550020723109612
decision_type=2 2 2 2 2 2 2
left_child=1 2 6 -2 -3 -4 -1
right_child=3 4 5 -5 -6 -7 -8
leaf_value=0 1.2949924736865694e-05 -1.1807759394110087e-05 -3.623543937281077e-06 0 0 0 1.8242519253559894e-05
leaf_weight=128 650 1531 1633 456 153 330 463
leaf_count=128 650 1531 1633 456 153 330 463
internal_value=0 -1.27155e-06 0 6.31503e-06 -9.68682e-06 0 1.60008e-05
internal_weight=5344 4238 2554 1106 1684 1963 591
internal_count=5344 4238 2554 1106 1684 1963 591
is_linear=0
shrinkage=0.00527828


Tree=73
num_leaves=5
num_cat=0
split_feature=2 2 2 14
split_gain=0.00374604 0.00292894 0.00558111 0.000173968
threshold=0.91084732793722256 1.0862730739704871 1.0028673448181784 72.208523525067392
decision_type=2 2 2 2
left_child=-1 2 -2 -4
right_child=1 -3 3 -5
leaf_value=1.7572681173512504e-05 0 7.5335494300211325e-06 -1.0798948969609786e-05 0
leaf_weight=336 2383 472 1842 322
leaf_count=336 2383 472 1842 322
internal_value=0 0 -3.4677e-06 -9.85104e-06
internal_weight=5355 5019 4547 2164
internal_count=5355 5019 4547 2164
is_linear=0
shrinkage=0.00527828


Tree=74
num_leaves=7
num_cat=0
split_feature=2 18 18 2 18 18
split_gain=0.00606685 0.00490222 0.00876579 0.00844049 0.00206867 6.68635e-05
threshold=0.88407943637116404 0.80809552084342129 -0.49480433508351335 1.0862730739704871 1.1987689637529531 -1.49917778033826
decision_type=2 2 2 2 2 2
left_child=-1 2 5 -4 -3 -2
right_child=1 4 3 -5 -6 -7
leaf_value=3.1474414659229293e-05 0 1.0252542361388979e-05 -1.5880649546643032e-05 0 0 1.4047778404384973e-06
leaf_weight=165 495 632 2419 273 455 942
leaf_count=165 495 632 2419 273 455 942
internal_value=0 -8.32264e-07 -5.6353e-06 -1.18046e-05 2.87579e-06 0
internal_weight=5381 5216 4129 2692 1087 1437
internal_count=5381 5216 4129 2692 1087 1437
is_linear=0
shrinkage=0.00527828


Tree=75
num_leaves=9
num_cat=0
split_feature=8 14 15 15 18 15 18 14
split_gain=0.00158073 0.00580214 0.0055663 0.00188102 0.00241627 0.0005397 0.0017168 3.73441e-05
threshold=0.37646484236518962 41.269512061929397 1.0308937415660597 0.77780524543777096 -0.42964872823996342 1.3620152627770992 0.14167112185603947 64.842697667839005
decision_type=2 2 2 2 2 2 2 2
left_child=1 -1 3 -2 -5 6 -4 -3
right_child=2 7 5 4 -6 -7 -8 -9
leaf_value=1.8774406901675989e-05 0 -1.049285981119458e-06 0 0 -1.5567271545315708e-05 0 8.0135557344384204e-06 0
leaf_weight=552 161 943 536 356 1175 159 977 493
leaf_count=552 161 943 536 356 1175 159 977 493
internal_value=0 4.10996e-06 -1.7599e-06 -9.88441e-06 -1.19226e-05 0 3.15041e-06 0
internal_weight=5352 1988 3364 1692 1531 1672 1513 1436
internal_count=5352 1988 3364 1692 1531 1672 1513 1436
is_linear=0
shrinkage=0.00527828


Tree=76
num_leaves=7
num_cat=0
split_feature=2 15 18 15 2 15
split_gain=0.00331934 0.00796329 0.00563363 0.00479282 0.00424168 0.00295594
threshold=0.91084732793722256 1.1055074113396699 0.80179182155486239 1.3620152627770992 1.0862730739704871 0.77780524543777096
decision_type=2 2 2 2 2 2
left_child=-1 2 5 4 -3 -2
right_child=1 3 -4 -5 -6 -7
leaf_value=1.6282552592612264e-05 0 0 0 0 2.9724141374456431e-05 -1.3871532086775043e-05
leaf_weight=342 124 1339 724 186 310 2277
leaf_count=342 124 1339 724 186 310 2277
internal_value=0 -5.0851e-07 -7.98168e-06 3.60942e-06 9.76601e-06 -1.21745e-05
internal_weight=5302 4960 3125 1835 1649 2401
internal_count=5302 4960 3125 1835 1649 2401
is_linear=0
shrinkage=0.00527828


Tree=77
num_leaves=6
num_cat=0
split_feature=2 14 2 14 4
split_gain=0.00416174 0.00232668 0.00147957 0.00174518 0.000114222
threshold=0.91084732793722256 72.208523525067392 1.0862730739704871 42.134910006934525 3.0006329557572058
decision_type=2 2 2 2 2
left_child=-1 2 3 -2 -3
right_child=1 4 -4 -5 -6
leaf_value=1.839719342978028e-05 0 2.3264259708730973e-06 0 -7.519461646147137e-06 0
leaf_weight=339 1329 586 181 2743 225
leaf_count=339 1329 586 181 2743 225
internal_value=0 -3.27275e-07 -3.91943e-06 -5.11494e-06 0
internal_weight=5403 5064 4253 4072 811
internal_count=5403 5064 4253 4072 811
is_linear=0
shrinkage=0.00527828


Tree=78
num_leaves=8
num_cat=0
split_feature=15 15 18 6 15 18 6
split_gain=0.00586382 0.00735384 0.00709169 0.00678819 0.00451552 0.00641581 0.00335657
threshold=1.1055074113396699 1.3620152627770992 -1.6106696877418736 0.0072343855621155211 0.77780524543777096 0.80179182155486239 0.006650668539289052
decision_type=2 2 2 2 2 2 2
left_child=4 2 -2 -4 -1 6 -6
right_child=1 -3 3 -5 5 -7 -8
leaf_value=3.5336587343124156e-06 0 0 0 2.3494075945294113e-05 0 0 -1.392781970132383e-05
leaf_weight=318 138 168 147 1361 462 700 2043
leaf_count=318 138 168 147 1361 462 700 2043
internal_value=0 9.40836e-06 1.48951e-05 1.93129e-05 -8.6259e-07 -6.22898e-06 -1.0997e-05
internal_weight=5337 1814 1646 1508 3523 3205 2505
internal_count=5337 1814 1646 1508 3523 3205 2505
is_linear=0
shrinkage=0.00527828


Tree=79
num_leaves=8
num_cat=0
split_feature=2 14 1 2 1 15 2
split_gain=0.00455866 0.00674976 0.00635629 0.00530963 0.00294455 0.00218485 0.00102267
threshold=0.96814423294161867 42.134910006934525 1.0120768940739484 1.0862730739704871 0.99964585617091528 1.3620152627770992 0.98137414694020186
decision_type=2 2 2 2 2 2 2
left_child=1 2 -1 4 -2 -5 -6
right_child=3 -3 -4 5 6 -7 -8
leaf_value=2.8768970921886875e-05 0 0 0 1.4820826414191268e-05 0 0 -1.1354158781714734e-05
leaf_weight=590 1565 601 126 359 170 131 1877
leaf_count=590 1565 601 126 359 170 131 1877
internal_value=0 9.72763e-06 2.08748e-05 -7.31397e-07 -6.03679e-06 6.11884e-06 -1.02135e-05
internal_weight=5419 1317 716 4102 3612 490 2047
internal_count=5419 1317 716 4102 3612 490 2047
is_linear=0
shrinkage=0.00527828


Tree=80
num_leaves=8
num_cat=0
split_feature=18 14 14 18 1 18 18
split_gain=0.00305353 0.00700701 0.00990067 0.00950652 0.00427027 0.00400939 0.00183918
threshold=0.80809552084342129 42.134910006934525 71.427274489393866 -0.57240918153086617 1.0089841721998212 1.1987689637529531 -1.395687295486806
decision_type=2 2 2 2 2 2 2
left_child=1 4 3 -3 6 -2 -1
right_child=5 2 -4 -5 -6 -7 -8
leaf_value=0 1.606401528123965e-05 0 0 -2.1668399211535651e-05 0 0 1.4525642163749348e-05
leaf_weight=172 681 769 623 1609 304 459 805
leaf_count=172 681 769 623 1609 304 459 805
internal_value=0 -2.18923e-06 -8.47506e-06 -1.43711e-05 2.08052e-07 7.51775e-06 1.10265e-05
internal_weight=5422 4282 3001 2378 1281 1140 977
internal_count=5422 4282 3001 2378 1281 1140 977
is_linear=0
shrinkage=0.00527828


Tree=81
num_leaves=6
num_cat=0
split_feature=2 18 2 18 18
split_gain=0.00536481 0.00751789 0.00609787 0.00686086 0.00138104
threshold=0.90546844335166432 0.80809552084342129 1.0862730739704871 -0.48343437011082929 1.1987689637529531
decision_type=2 2 2 2 2
left_child=-1 2 3 -2 -3
right_child=1 4 -4 -5 -6
leaf_value=2.2211314797520511e-05 0 1.0396849903068314e-05 0 -1.5377480090087956e-05 0
leaf_weight=290 1351 646 312 2300 459
leaf_count=290 1351 646 312 2300 459
internal_value=0 -1.03417e-06 -6.79938e-06 -9.83295e-06 5.34001e-06
internal_weight=5358 5068 3963 3651 1105
internal_count=5358 5068 3963 3651 1105
is_linear=0
shrinkage=0.00527828


Tree=82
num_leaves=6
num_cat=0
split_feature=8 14 2 18 18
split_gain=0.00114415 0.00458923 0.00437643 0.00342714 0.00189099
threshold=0.37186837921450538 41.269512061929397 1.0788433754017548 0.80179182155486239 -0.45071118286292605
decision_type=2 2 2 2 2
left_child=1 -1 3 4 -2
right_child=2 -3 -4 -5 -6
leaf_value=1.7029461552815406e-05 0 0 0 0 -1.3742584247283792e-05
leaf_weight=532 756 1405 477 735 1454
leaf_count=532 756 1405 477 735 1454
internal_value=0 3.73136e-06 -1.19382e-06 -6.55973e-06 -1.00247e-05
internal_weight=5359 1937 3422 2945 2210
internal_count=5359 1937 3422 2945 2210
is_linear=0
shrinkage=0.00527828


Tree=83
num_leaves=6
num_cat=0
split_feature=2 8 14 2 14
split_gain=0.00563317 0.00463033 0.00628592 0.00245338 8.52349e-06
threshold=1.0805521535092979 0.38652833337430575 41.269512061929397 0.96329970239204954 62.424712149482346
decision_type=2 2 2 2 2
left_child=1 2 -1 -3 -4
right_child=-2 3 4 -5 -6
leaf_value=1.7783963986597888e-05 1.6763893089209481e-05 0 -5.2125773094966652e-07 -9.0533345307183829e-06 0
leaf_weight=562 556 534 872 2368 502
leaf_count=562 556 534 872 2368 502
internal_value=0 -1.67381e-07 1.293e-06 -6.58435e-06 0
internal_weight=5394 4838 1936 2902 1374
internal_count=5394 4838 1936 2902 1374
is_linear=0
shrinkage=0.00527828


Tree=84
num_leaves=10
num_cat=0
split_feature=15 15 14 18 18 1 15 14 18
split_gain=0.00379785 0.00735925 0.00565752 0.00846013 0.00481671 0.00415335 0.00452552 0.00410112 0.00274695
threshold=1.1102809945570908 1.3620152627770992 42.134910006934525 0.69690977183739211 -1.5808129356931107 1.0055654996609185 0.87209750590041757 57.134162868140066 -1.428343102266276
decision_type=2 2 2 2 2 2 2 2 2
left_child=2 4 5 -4 -2 8 -7 -6 -1
right_child=1 -3 3 -5 7 6 -8 -9 -10
leaf_value=0 0 0 -1.6647926042176269e-05 0 0 -2.0007398482502051e-05 0 2.2313981177715364e-05 1.501271801136272e-05
leaf_weight=146 148 187 1477 456 416 313 248 1088 851
leaf_count=146 148 187 1477 456 416 313 248 1088 851
internal_value=0 6.9619e-06 -2.17874e-06 -9.48829e-06 1.33383e-05 0 -3.89872e-09 1.68672e-05 1.07626e-05
internal_weight=5330 1839 3491 1933 1652 1558 561 1504 997
internal_count=5330 1839 3491 1933 1652 1558 561 1504 997
is_linear=0
shrinkage=0.00527828


Tree=85
num_leaves=8
num_cat=0
split_feature=18 2 15 15 15 1 15
split_gain=0.00362558 0.0070682 0.0112895 0.00548199 0.00371344 0.000309267 0.00012403
threshold=0.80179182155486239 0.90546844335166432 1.1055074113396699 0.89249789892974885 0.80581569084537163 0.96281594412744209 1.3620152627770992
decision_type=2 2 2 2 2 2 2
left_child=1 5 4 -2 -3 -1 -4
right_child=3 2 6 -5 -6 -7 -8
leaf_value=1.8159562223549658e-05 0 0 1.6411487689525052e-06 1.6208644907391546e-05 -1.6209737100254928e-05 0 0
leaf_weight=131 232 242 1281 917 2251 152 164
leaf_count=131 232 242 1281 917 2251 152 164
internal_value=0 -1.70712e-06 -6.64541e-06 8.77882e-06 -1.3993e-05 1.11194e-05 0
internal_weight=5370 4221 3938 1149 2493 283 1445
internal_count=5370 4221 3938 1149 2493 283 1445
is_linear=0
shrinkage=0.00527828


Tree=86
num_leaves=7
num_cat=0
split_feature=1 18 18 18 18 4
split_gain=0.000864183 0.00146771 0.00342421 0.0011464 0.000573808 2.40075e-05
threshold=0.96164466862310372 0.81648291660091632 -0.45071118286292605 1.2264576667984375 -1.5808129356931107 6.113757236527813
decision_type=2 2 2 2 2 2
left_child=-1 2 4 5 -2 -3
right_child=1 3 -4 -5 -6 -7
leaf_value=9.256852675433086e-06 0 8.0193683972387865e-06 -7.2129575063124586e-06 0 3.9844399293160558e-06 0
leaf_weight=279 418 525 2593 432 1005 147
leaf_count=279 418 525 2593 432 1005 147
internal_value=0 0 -3.13973e-06 1.07665e-06 0 7.02077e-06
internal_weight=5399 5120 4016 1104 1423 672
internal_count=5399 5120 4016 1104 1423 672
is_linear=0
shrinkage=0.00527828


Tree=87
num_leaves=9
num_cat=0
split_feature=18 14 14 18 3 18 14 18
split_gain=0.00116975 0.00709483 0.010178 0.0113994 0.00344124 0.00299609 0.00211623 0.000139744
threshold=0.80809552084342129 42.134910006934525 72.208523525067392 -0.57240918153086617 55.655763577569779 -1.49917778033826 35.838321764975674 1.1702637542738101
decision_type=2 2 2 2 2 2 2 2
left_child=1 4 3 -3 5 -1 -2 -8
right_child=6 2 -4 -5 -6 -7 7 -9
leaf_value=0 0 0 0 -2.2006050559451881e-05 0 1.5915891568309387e-05 1.2591782269334625e-05 0
leaf_weight=126 175 750 600 1665 422 719 526 435
leaf_count=126 175 750 600 1665 422 719 526 435
internal_value=0 -1.65472e-06 -8.26532e-06 -1.42336e-05 1.60963e-06 1.08202e-05 4.2814e-06 9.10425e-06
internal_weight=5418 4282 3015 2415 1267 845 1136 961
internal_count=5418 4282 3015 2415 1267 845 1136 961
is_linear=0
shrinkage=0.00527828


Tree=88
num_leaves=7
num_cat=0
split_feature=2 18 15 18 2 18
split_gain=0.0042045 0.00463233 0.00543733 0.00535498 0.0079568 0.000765252
threshold=0.91084732793722256 0.80809552084342129 0.87209750590041757 -0.49480433508351335 1.0862730739704871 -0.92029836907035623
decision_type=2 2 2 2 2 2
left_child=5 3 -3 -2 -5 -1
right_child=1 2 -4 4 -6 -7
leaf_value=0 0 0 1.4706724572506345e-05 -1.4186779579532508e-05 0 2.503171380061781e-05
leaf_weight=139 1406 174 891 2275 283 219
leaf_count=139 1406 174 891 2275 283 219
internal_value=0 0 6.24811e-06 -4.69453e-06 -9.61359e-06 1.80391e-05
internal_weight=5387 5029 1065 3964 2558 358
internal_count=5387 5029 1065 3964 2558 358
is_linear=0
shrinkage=0.00527828


Tree=89
num_leaves=7
num_cat=0
split_feature=2 2 15 4 5 2
split_gain=0.00173651 0.00574625 0.00564158 0.00125459 0.000877798 0.000427155
threshold=0.9642045429049495 1.0862730739704871 1.3684861314943073 9.8218733488937282 15.231562613675957 1.0024283070938735
decision_type=2 2 2 2 2 2
left_child=3 5 -3 4 -1 -2
right_child=1 2 -4 -5 -6 -7
leaf_value=0 0 2.2253712366427767e-05 0 0 1.1055002990705211e-05 -8.5022501347165158e-06
leaf_weight=198 1498 353 128 156 842 2184
leaf_count=198 1498 353 128 156 842 2184
internal_value=0 -1.05592e-06 6.20849e-06 6.04219e-06 8.69017e-06 -6.2979e-06
internal_weight=5359 4163 481 1196 1040 3682
internal_count=5359 4163 481 1196 1040 3682
is_linear=0
shrinkage=0.00527828


Tree=90
num_leaves=7
num_cat=0
split_feature=1 15 15 15 15 3
split_gain=0.00112506 0.00821332 0.00163272 0.0011206 0.00110617 0.000540617
threshold=0.99494742064630581 1.0308937415660597 1.3620152627770992 0.77780524543777096 0.91667851535242362 45.12526296301543
decision_type=2 2 2 2 2 2
left_child=4 3 5 -2 -1 -3
right_child=1 2 -4 -5 -6 -7
leaf_value=9.2164439956235035e-06 0 0 0 -1.3057557933182777e-05 0 6.6700921882454176e-06
leaf_weight=648 143 178 157 1564 1269 1359
leaf_count=648 143 178 157 1564 1269 1359
internal_value=0 -1.42935e-06 0 -1.17458e-05 3.56526e-06 5.43668e-06
internal_weight=5318 3401 1694 1707 1917 1537
internal_count=5318 3401 1694 1707 1917 1537
is_linear=0
shrinkage=0.00527828


Tree=91
num_leaves=8
num_cat=0
split_feature=3 15 1 3 15 15 15
split_gain=0.00146528 0.00603174 0.0017469 0.00139868 0.00109971 0.000326489 0.000199033
threshold=49.881266840890611 1.0308937415660597 0.99991633081963505 29.11954111635978 0.77780524543777096 1.2055884763750346 0.99129063612598112
decision_type=2 2 2 2 2 2 2
left_child=2 4 3 -1 -2 -3 -6
right_child=1 5 -4 -5 6 -7 -8
leaf_value=0 0 3.6874235585371736e-06 0 8.238962165095996e-06 -1.5415395711453487e-05 0 0
leaf_weight=559 135 667 392 1626 933 718 280
leaf_count=559 135 667 392 1626 933 718 280
internal_value=0 -2.56203e-06 2.97794e-06 5.71942e-06 -1.17379e-05 0 -1.33531e-05
internal_weight=5310 2733 2577 2185 1348 1385 1213
internal_count=5310 2733 2577 2185 1348 1385 1213
is_linear=0
shrinkage=0.00527828


Tree=92
num_leaves=9
num_cat=0
split_feature=1 15 6 7 18 7 18 15
split_gain=0.00135005 0.0117466 0.00451764 0.0027182 0.000167781 0.00106086 9.17556e-05 0.00125635
threshold=1.001266178109723 0.97973897990195546 0.016757601844117846 0.024584423198258893 0.68758802401316721 0.04113911936766159 0.14167112185603947 1.3472008113394758
decision_type=2 2 2 2 2 2 2 2
left_child=2 3 4 -2 5 -1 -3 -8
right_child=1 6 -4 -5 -6 -7 7 -9
leaf_value=0 0 0 1.9549000954660862e-05 -2.4567602051085462e-05 0 -6.3647850871137636e-06 6.1255214526397804e-06 0
leaf_weight=1267 201 506 329 727 380 843 999 129
leaf_count=1267 201 506 329 727 380 843 999 129
internal_value=0 -3.79825e-06 4.69978e-07 -1.9791e-05 0 -1.48772e-06 0 1.50409e-06
internal_weight=5381 2562 2819 928 2490 2110 1634 1128
internal_count=5381 2562 2819 928 2490 2110 1634 1128
is_linear=0
shrinkage=0.00527828


Tree=93
num_leaves=9
num_cat=0
split_feature=1 14 15 0 18 15 14 15
split_gain=0.000821602 0.00871138 0.00821756 0.00198333 0.00106023 0.00300539 9.75664e-05 0.000383495
threshold=1.0009601798829866 39.60880669540164 0.97973897990195546 0.99938341345805148 0.14167112185603947 1.3519432691054856 71.947592337265164 1.145865700766062
decision_type=2 2 2 2 2 2 2 2
left_child=1 3 -2 -1 -4 -6 7 -3
right_child=2 6 4 -5 5 -7 -8 -9
leaf_value=2.5931785476903104e-05 -1.5805240550200299e-05 -3.2810505863875556e-06 0 0 1.0502110931662812e-05 0 0 0
leaf_weight=459 958 1243 522 207 1025 124 352 458
leaf_count=459 958 1243 522 207 1025 124 352 458
internal_value=0 2.10239e-06 -2.03199e-06 1.95281e-05 0 5.06593e-06 0 -1.26339e-06
internal_weight=5348 2719 2629 666 1671 1149 2053 1701
internal_count=5348 2719 2629 666 1671 1149 2053 1701
is_linear=0
shrinkage=0.00527828


Tree=94
num_leaves=9
num_cat=0
split_feature=18 14 14 18 2 18 14 18
split_gain=0.00114709 0.00424278 0.00722988 0.0107751 0.00350045 0.00688523 0.00192433 0.000230988
threshold=0.80809552084342129 42.134910006934525 71.427274489393866 -0.5854975710107998 1.0032415095386185 -1.49917778033826 35.838321764975674 1.1513502454805165
decision_type=2 2 2 2 2 2 2 2
left_child=1 4 3 -3 5 -1 -2 -8
right_child=6 2 -4 -5 -6 -7 7 -9
leaf_value=0 0 0 0 -1.9491213552762307e-05 0 1.8639977418409185e-05 1.3592684354502547e-05 0
leaf_weight=157 191 764 612 1612 235 850 496 428
leaf_count=157 191 764 612 1612 235 850 496 428
internal_value=0 0 -6.10765e-06 -1.14721e-05 2.31539e-06 1.0162e-05 5.34897e-06 9.61309e-06
internal_weight=5345 4230 2988 2376 1242 1007 1115 924
internal_count=5345 4230 2988 2376 1242 1007 1115 924
is_linear=0
shrinkage=0.00527828


Tree=95
num_leaves=9
num_cat=0
split_feature=1 15 18 15 14 18 15 18
split_gain=0.00150049 0.00688424 0.00344052 0.00334764 0.00204025 0.00193044 0.00177289 0.00235028
threshold=0.98829501032637479 1.0334918466761092 -1.3571093954626965 0.77780524543777096 42.134910006934525 -0.46873232031375162 1.3620152627770992 -0.13665142388126172
decision_type=2 2 2 2 2 2 2 2
left_child=2 3 -1 -2 -4 -5 7 -3
right_child=1 6 4 5 -6 -7 -8 -9
leaf_value=0 0 0 2.4101777494376042e-05 0 0 -1.4985510466263546e-05 0 9.8500257262812032e-06
leaf_weight=334 192 594 322 443 610 1535 160 1182
leaf_count=334 192 594 322 443 610 1535 160 1182
internal_value=0 -1.23894e-06 5.29116e-06 -9.55031e-06 1.18591e-05 -1.21309e-05 0 5.27074e-06
internal_weight=5372 4106 1266 2170 932 1978 1936 1776
internal_count=5372 4106 1266 2170 932 1978 1936 1776
is_linear=0
shrinkage=0.00527828


Tree=96
num_leaves=7
num_cat=0
split_feature=2 15 15 14 15 14
split_gain=0.00567614 0.00560476 0.00448486 0.00587596 0.00176859 0.00120331
threshold=0.91084732793722256 1.1102809945570908 1.3620152627770992 57.134162868140066 0.77780524543777096 71.427274489393866
decision_type=2 2 2 2 2 2
left_child=-1 4 3 -3 -2 -6
right_child=1 2 -4 -5 5 -7
leaf_value=2.1487286419661395e-05 0 0 0 1.7683332890506783e-05 -7.7761945943217284e-06 0
leaf_weight=341 174 521 173 1127 2885 138
leaf_count=341 174 521 173 1127 2885 138
internal_value=1.99254e-07 0 5.94249e-06 1.07119e-05 -5.35621e-06 -6.82847e-06
internal_weight=5359 5018 1821 1648 3197 3023
internal_count=5359 5018 1821 1648 3197 3023
is_linear=0
shrinkage=0.00527828


Tree=97
num_leaves=5
num_cat=0
split_feature=2 14 2 2
split_gain=0.00510278 0.00629739 0.00321021 0.00159206
threshold=0.91401360359182682 72.208523525067392 1.0862730739704871 0.96486289647407852
decision_type=2 2 2 2
left_child=-1 2 3 -2
right_child=1 -3 -4 -5
leaf_value=1.7591637924996561e-05 0 3.0972215510264508e-06 0 -9.9397826373765092e-06
leaf_weight=395 778 786 181 3247
leaf_count=395 778 786 181 3247
internal_value=0 -1.96666e-06 -6.66992e-06 -8.28837e-06
internal_weight=5387 4992 4206 4025
internal_count=5387 4992 4206 4025
is_linear=0
shrinkage=0.00527828


Tree=98
num_leaves=10
num_cat=0
split_feature=8 15 2 2 1 3 15 15 2
split_gain=0.00238667 0.00758808 0.00182734 0.00107794 0.0012413 0.00112282 0.000974073 0.00091847 0.00141285
threshold=0.38652833337430575 1.0334918466761092 0.91619324794798263 0.99847031990594426 0.98829501032637479 19.491312131596036 0.97973897990195546 1.3620152627770992 1.0862730739704871
decision_type=2 2 2 2 2 2 2 2 2
left_child=3 2 -2 4 5 -1 -4 8 -3
right_child=1 7 6 -5 -6 -7 -8 -9 -10
leaf_value=0 0 0 -1.650922224580265e-05 0 0 1.3686032309910678e-05 0 0 1.5656431385254206e-05
leaf_weight=128 158 1175 1137 708 397 753 457 150 263
leaf_count=128 158 1175 1137 708 397 753 457 150 263
internal_value=0 -2.50542e-06 -1.15104e-05 4.7849e-06 7.6826e-06 1.11681e-05 -1.33231e-05 0 4.21549e-06
internal_weight=5326 3340 1752 1986 1278 881 1594 1588 1438
internal_count=5326 3340 1752 1986 1278 881 1594 1588 1438
is_linear=0
shrinkage=0.00527828


Tree=99
num_leaves=8
num_cat=0
split_feature=2 15 15 14 15 2 1
split_gain=0.00155968 0.00625036 0.00311909 0.00476528 0.00232729 0.00204509 0.000811691
threshold=0.90845732196415485 1.1055074113396699 1.3620152627770992 62.424712149482346 0.77780524543777096 1.0669271812413581 0.97172631321435821
decision_type=2 2 2 2 2 2 2
left_child=6 4 3 -3 -2 -6 -1
right_child=1 2 -4 -5 5 -7 -8
leaf_value=1.8624720345966131e-05 0 0 0 1.5532260453412201e-05 -1.029466591096806e-05 0 0
leaf_weight=157 163 713 198 911 2888 133 181
leaf_count=157 163 713 198 911 2888 133 181
internal_value=0 -1.47682e-06 5.71125e-07 7.33553e-06 -7.60913e-06 -9.08127e-06 9.78191e-06
internal_weight=5344 5006 1822 1624 3184 3021 338
internal_count=5344 5006 1822 1624 3184 3021 338
is_linear=0
shrinkage=0.00527828


Tree=100
num_leaves=8
num_cat=0
split_feature=2 15 18 15 18 8 3
split_gain=0.00369415 0.00483354 0.00570773 0.00519191 0.0045458 0.00394674 0.00134435
threshold=0.91619324794798263 1.1055074113396699 0.80179182155486239 1.3620152627770992 -1.5808129356931107 0.31571137332010507 48.507942078651162
decision_type=2 2 2 2 2 2 2
left_child=6 2 5 4 -3 -2 -1
right_child=1 3 -4 -5 -6 -7 -8
leaf_value=2.2635473442934057e-05 0 0 0 0 1.3894706408304782e-05 -1.5466369244527716e-05 0
leaf_weight=272 830 159 705 186 1519 1592 126
leaf_count=272 830 159 705 186 1519 1592 126
internal_value=0 0 -5.99128e-06 3.46072e-06 9.97016e-06 -1.05801e-05 1.60411e-05
internal_weight=5389 4991 3127 1864 1678 2422 398
internal_count=5389 4991 3127 1864 1678 2422 398
is_linear=0
shrinkage=0.00527828


Tree=101
num_leaves=9
num_cat=0
split_feature=18 14 1 14 18 18 18 7
split_gain=0.00289717 0.00647304 0.00794913 0.00769701 0.0131881 0.00419202 0.00315122 0.00188286
threshold=0.80809552084342129 42.134910006934525 1.0142520696060917 72.208523525067392 -0.52832961833147563 1.1987689637529531 -1.428343102266276 0.028193048850670664
decision_type=2 2 2 2 2 2 2 2
left_child=1 2 6 4 -3 7 -1 -2
right_child=5 3 -4 -5 -6 -7 -8 -9
leaf_value=0 0 0 0 0 -2.1060766216398484e-05 0 1.9705876428027661e-05 2.3136231520000552e-05
leaf_weight=161 214 795 195 596 1631 463 892 465
leaf_count=161 214 795 195 596 1631 463 892 465
internal_value=0 0 5.5057e-06 -6.86346e-06 -1.2124e-05 8.39985e-06 1.56793e-05 1.70304e-05
internal_weight=5412 4270 1248 3022 2426 1142 1053 679
internal_count=5412 4270 1248 3022 2426 1142 1053 679
is_linear=0
shrinkage=0.00527828


Tree=102
num_leaves=9
num_cat=0
split_feature=18 2 18 2 18 18 17 17
split_gain=0.00175848 0.00691554 0.00818037 0.0135414 0.00234585 0.0014867 0.000740478 0.000645319
threshold=0.80809552084342129 0.9597879300635892 -0.52832961833147563 1.0862730739704871 -1.4541910456588172 1.2264576667984375 -1.1419761288006964 1.0801176428040249
decision_type=2 2 2 2 2 2 2 2
left_child=1 4 -3 -4 -1 7 -6 -2
right_child=5 2 3 -5 6 -7 -8 -9
leaf_value=0 1.103633360533702e-05 0 -2.063647979027081e-05 0 0 0 1.1912061692665542e-05 0
leaf_weight=219 554 1041 1967 296 124 395 604 129
leaf_count=219 554 1041 1967 296 124 395 604 129
internal_value=0 -3.09246e-06 -8.4013e-06 -1.42704e-05 0 2.77545e-06 9.46214e-06 8.52143e-06
internal_weight=5329 4251 3304 2263 947 1078 728 683
internal_count=5329 4251 3304 2263 947 1078 728 683
is_linear=0
shrinkage=0.00527828


Tree=103
num_leaves=8
num_cat=0
split_feature=2 15 15 15 14 1 2
split_gain=0.00644368 0.00463476 0.00360059 0.00178288 0.00139746 0.000906543 0.000233833
threshold=0.90546844335166432 1.1055074113396699 1.2055884763750346 0.77780524543777096 71.947592337265164 0.97172631321435821 1.0985472174798168
decision_type=2 2 2 2 2 2 2
left_child=5 3 -3 -2 -5 -1 -4
right_child=1 2 6 4 -6 -7 -8
leaf_value=3.5556732278921945e-05 0 1.2885482975279903e-05 -2.6800859725682561e-06 -8.4369337362800376e-06 0 0 0
leaf_weight=160 170 672 905 2894 131 152 295
leaf_count=160 170 672 905 2894 131 152 295
internal_value=0 0 2.48691e-06 -6.06339e-06 -7.4323e-06 2.39119e-05 0
internal_weight=5379 5067 1872 3195 3025 312 1200
internal_count=5379 5067 1872 3195 3025 312 1200
is_linear=0
shrinkage=0.00527828


Tree=104
num_leaves=9
num_cat=0
split_feature=18 15 1 2 2 14 18 15
split_gain=0.00227714 0.00877662 0.00646843 0.00443225 0.00319264 0.00109707 0.00477074 0.000254543
threshold=0.80809552084342129 0.87209750590041757 1.0000881490601232 1.0862730739704871 0.98358199090954013 41.269512061929397 -1.428343102266276 1.1389851557155024
decision_type=2 2 2 2 2 2 2 2
left_child=2 -2 5 4 -4 6 -1 -7
right_child=1 -3 3 -5 -6 7 -8 -9
leaf_value=0 0 1.7873347701211345e-05 0 0 -1.8614071062481974e-05 -2.7264981987821804e-06 1.7399816255236309e-05 0
leaf_weight=145 214 907 499 233 1182 952 538 655
leaf_count=145 214 907 499 233 1182 952 538 655
internal_value=0 6.39034e-06 -2.04465e-06 -1.01605e-05 -1.38167e-05 0 6.67995e-06 0
internal_weight=5325 1121 4204 1914 1681 2290 683 1607
internal_count=5325 1121 4204 1914 1681 2290 683 1607
is_linear=0
shrinkage=0.00527828


Tree=105
num_leaves=7
num_cat=0
split_feature=2 18 18 2 15 18
split_gain=0.00127381 0.00522832 0.00727489 0.00835337 0.00591965 0.000533034
threshold=0.88000911275728322 0.80179182155486239 -0.49480433508351335 1.0862730739704871 0.89249789892974885 -1.5808129356931107
decision_type=2 2 2 2 2 2
left_child=-1 2 5 -4 -3 -2
right_child=1 4 3 -5 -6 -7
leaf_value=1.5796220268931939e-05 0 0 -1.5195939380765455e-05 0 1.4734615529774533e-05 3.8829175382640316e-06
leaf_weight=140 471 259 2394 270 886 983
leaf_count=140 471 259 2394 270 886 983
internal_value=0 -1.0978e-07 -5.3486e-06 -1.09652e-05 4.92882e-06 0
internal_weight=5403 5263 4118 2664 1145 1454
internal_count=5403 5263 4118 2664 1145 1454
is_linear=0
shrinkage=0.00527828


Tree=106
num_leaves=8
num_cat=0
split_feature=15 15 2 18 18 14 14
split_gain=0.0028371 0.00678721 0.00636192 0.00803502 0.0045738 0.00471327 0.00298432
threshold=1.1055074113396699 1.3620152627770992 0.91084732793722256 0.80179182155486239 -1.5368332209522897 57.134162868140066 41.269512061929397
decision_type=2 2 2 2 2 2 2
left_child=2 4 -1 6 -2 -6 -4
right_child=1 -3 3 -5 5 -7 -8
leaf_value=0 0 0 0 0 0 2.1629497950925379e-05 -1.8078022488677552e-05
leaf_weight=342 155 184 828 696 433 1050 1586
leaf_count=342 155 184 828 696 433 1050 1586
internal_value=0 4.92914e-06 -3.17081e-06 -8.25317e-06 1.193e-05 1.55882e-05 -1.34311e-05
internal_weight=5274 1822 3452 3110 1638 1483 2414
internal_count=5274 1822 3452 3110 1638 1483 2414
is_linear=0
shrinkage=0.00527828


Tree=107
num_leaves=7
num_cat=0
split_feature=2 15 18 15 18 15
split_gain=0.00470222 0.00508726 0.0055503 0.00393632 0.00282483 0.00147942
threshold=0.91084732793722256 1.1055074113396699 0.80179182155486239 1.3620152627770992 -1.5368332209522897 0.77780524543777096
decision_type=2 2 2 2 2 2
left_child=-1 2 5 4 -3 -2
right_child=1 3 -4 -5 -6 -7
leaf_value=1.9292559518470558e-05 0 0 0 0 1.1564014565900725e-05 -1.1768296548428444e-05
leaf_weight=350 144 156 744 194 1517 2329
leaf_count=350 144 156 744 194 1517 2329
internal_value=0 0 -6.28054e-06 2.81017e-06 8.61891e-06 -1.06668e-05
internal_weight=5434 5084 3217 1867 1673 2473
internal_count=5434 5084 3217 1867 1673 2473
is_linear=0
shrinkage=0.00527828


Tree=108
num_leaves=8
num_cat=0
split_feature=3 14 15 8 7 15 8
split_gain=0.00115824 0.00509214 0.00385838 0.00134172 0.000981986 0.000259137 0.000113169
threshold=47.399120312558672 41.269512061929397 1.0308937415660597 0.41653443137599316 0.021710205495284823 1.3620152627770992 0.35948252100955208
decision_type=2 2 2 2 2 2 2
left_child=1 6 3 -2 -5 -4 -1
right_child=2 -3 5 4 -6 -7 -8
leaf_value=1.9086448652822555e-05 0 0 2.3040499405251759e-06 0 -1.2567321123858157e-05 0 0
leaf_weight=478 131 1660 1358 285 1104 142 148
leaf_count=478 131 1660 1358 285 1104 142 148
internal_value=0 3.61072e-06 -8.98558e-07 -8.49895e-06 -1.02912e-05 0 1.65353e-05
internal_weight=5306 2286 3020 1520 1389 1500 626
internal_count=5306 2286 3020 1520 1389 1500 626
is_linear=0
shrinkage=0.00527828


Tree=109
num_leaves=8
num_cat=0
split_feature=1 14 18 18 14 1 14
split_gain=0.000883001 0.00616908 0.0101491 0.00154483 0.00196116 0.00075017 7.68776e-06
threshold=0.99867378062255596 41.269512061929397 -1.428343102266276 0.81648291660091632 77.711293084726336 1.0020288235769443 64.842697667839005
decision_type=2 2 2 2 2 2 2
left_child=1 2 -1 4 5 -2 -3
right_child=3 6 -4 -5 -6 -7 -8
leaf_value=0 0 -4.2786303395905767e-07 2.8622139367384158e-05 0 0 -8.7327290307112458e-06 0
leaf_weight=126 393 1168 583 849 127 1553 552
leaf_count=126 393 1168 583 849 127 1553 552
internal_value=0 3.1808e-06 1.66234e-05 -4.2396e-08 -4.55463e-06 -7.08139e-06 0
internal_weight=5351 2429 709 2922 2073 1946 1720
internal_count=5351 2429 709 2922 2073 1946 1720
is_linear=0
shrinkage=0.00527828


Tree=110
num_leaves=9
num_cat=0
split_feature=1 14 15 15 14 14 14 15
split_gain=0.00331665 0.00769028 0.0013892 0.00400531 0.0022861 0.00153188 0.000926477 3.39397e-05
threshold=0.96164466862310372 41.269512061929397 1.1024683713579637 1.3684861314943073 57.134162868140066 42.134910006934525 69.267524336285518 0.86942555800306975
decision_type=2 2 2 2 2 2 2 2
left_child=1 -1 5 4 -4 7 -7 -2
right_child=2 -3 3 -5 -6 6 -8 -9
leaf_value=4.8022463545026035e-05 0 0 0 0 1.2853536342554279e-05 -7.7962190466349967e-06 0 1.2379800166946492e-06
leaf_weight=131 835 155 535 167 1121 1593 226 615
leaf_count=131 835 155 535 167 1121 1593 226 615
internal_value=0 1.79129e-05 0 2.3699e-06 8.57243e-06 -2.94938e-06 -6.25002e-06 0
internal_weight=5378 286 5092 1823 1656 3269 1819 1450
internal_count=5378 286 5092 1823 1656 3269 1819 1450
is_linear=0
shrinkage=0.00527828


Tree=111
num_leaves=9
num_cat=0
split_feature=2 15 15 14 2 14 1 14
split_gain=0.00173412 0.00597386 0.00427057 0.00297139 0.00198041 0.00174153 0.000580481 0.000330024
threshold=0.90845732196415485 1.1102809945570908 1.2030862372748723 41.269512061929397 1.0639214484011441 53.861632629442816 0.98108936757916465 79.940663420993914
decision_type=2 2 2 2 2 2 2 2
left_child=6 3 5 -2 -5 -3 -1 -4
right_child=1 2 7 4 -6 -7 -8 -9
leaf_value=1.7665321220101527e-05 0 0 -2.9892596452701797e-06 -1.2467399464910394e-05 0 2.1550334019794824e-05 0 0
leaf_weight=198 1169 245 1027 1921 141 375 135 209
leaf_count=198 1169 245 1027 1921 141 375 135 209
internal_value=0 -6.3949e-07 2.019e-06 -7.05557e-06 -1.08667e-05 1.42643e-05 1.17481e-05 0
internal_weight=5420 5087 1856 3231 2062 620 333 1236
internal_count=5420 5087 1856 3231 2062 620 333 1236
is_linear=0
shrinkage=0.00527828


Tree=112
num_leaves=10
num_cat=0
split_feature=8 14 15 15 14 7 15 7 14
split_gain=0.000800078 0.00472575 0.0035101 0.00108696 0.000791704 0.0007025 0.000685857 0.000408336 0.000209012
threshold=0.38652833337430575 41.269512061929397 1.0308937415660597 1.2055884763750346 70.509883699205858 0.014767372048928036 0.77780524543777096 0.033684837633332951 79.940663420993914
decision_type=2 2 2 2 2 2 2 2 2
left_child=1 7 5 4 -4 -2 -7 -1 -5
right_child=2 -3 3 8 -6 6 -8 -9 -10
leaf_value=0 0 0 8.8124367914873851e-06 -2.8946420276675021e-06 0 0 -9.6629609098536551e-06 2.0995445217069905e-05 0
leaf_weight=170 124 1445 672 693 130 169 1460 373 145
leaf_count=170 124 1445 672 693 130 169 1460 373 145
internal_value=0 3.34412e-06 -1.03309e-07 0 6.13732e-06 -7.46616e-06 -8.48421e-06 1.68056e-05 0
internal_weight=5381 1988 3393 1640 802 1753 1629 543 838
internal_count=5381 1988 3393 1640 802 1753 1629 543 838
is_linear=0
shrinkage=0.00527828


Tree=113
num_leaves=8
num_cat=0
split_feature=1 14 14 6 7 9 5
split_gain=0.00265763 0.0084317 0.00115359 0.00746542 0.00106067 0.000321559 0.000274009
threshold=0.9988291834580546 39.60880669540164 51.378846206687776 0.0089742896362217869 0.030896520049534099 36.907227547897385 50.758039633199289
decision_type=2 2 2 2 2 2 2
left_child=1 -1 3 -2 -5 -4 -7
right_child=2 -3 5 4 -6 6 -8
leaf_value=2.2233872286256354e-05 0 0 0 0 -2.044807432750511e-05 0 5.414528282366852e-06
leaf_weight=623 646 1851 847 125 643 136 564
leaf_count=623 646 1851 847 125 643 136 564
internal_value=8.84757e-09 5.4685e-06 0 -4.76422e-06 -1.76597e-05 0 3.57242e-06
internal_weight=5435 2474 2961 1414 768 1547 700
internal_count=5435 2474 2961 1414 768 1547 700
is_linear=0
shrinkage=0.00527828


Tree=114
num_leaves=9
num_cat=0
split_feature=8 15 14 15 15 18 8 18
split_gain=0.000769968 0.00618638 0.00426614 0.00151615 0.00141636 0.00146296 0.00076905 0.00058496
threshold=0.41204108003709966 1.0308937415660597 41.269512061929397 0.77780524543777096 1.3620152627770992 -1.395687295486806 0.47013380942258504 -1.0544630580461216
decision_type=2 2 2 2 2 2 2 2
left_child=2 3 7 -2 5 -3 -5 -1
right_child=1 4 -4 6 -6 -7 -8 -9
leaf_value=0 0 0 0 0 0 7.714314397851172e-06 -1.354724813032471e-05 1.8675831909791373e-05
leaf_weight=167 169 131 1546 134 153 1346 1305 436
leaf_count=167 169 131 1546 134 153 1346 1305 436
internal_value=0 -1.08945e-06 2.86097e-06 -1.04615e-05 0 5.16534e-06 -1.23123e-05 1.50189e-05
internal_weight=5387 3238 2149 1608 1630 1477 1439 603
internal_count=5387 3238 2149 1608 1630 1477 1439 603
is_linear=0
shrinkage=0.00527828


Tree=115
num_leaves=6
num_cat=0
split_feature=2 2 7 10 1
split_gain=0.00814117 0.00308671 0.00742518 0.000798027 0.000185439
threshold=0.91084732793722256 1.0862730739704871 0.045081259718934251 -0.0099865094703248652 0.97172631321435821
decision_type=2 2 2 2 2
left_child=4 2 -2 -4 -1
right_child=1 -3 3 -5 -6
leaf_value=3.8080587311747902e-05 0 8.6050262461017663e-06 0 -1.3895930129449805e-05 0
leaf_weight=158 2983 467 143 1450 173
leaf_count=158 2983 467 143 1450 173
internal_value=0 0 -3.34656e-06 -1.27218e-05 2.60995e-05
internal_weight=5374 5043 4576 1593 331
internal_count=5374 5043 4576 1593 331
is_linear=0
shrinkage=0.00527828


Tree=116
num_leaves=7
num_cat=0
split_feature=2 18 14 18 18 1
split_gain=0.00365192 0.00450825 0.00597806 0.00645339 0.00112497 3.87542e-05
threshold=0.90546844335166432 0.81648291660091632 77.767186090378587 -0.49480433508351335 1.1987689637529531 0.98071177652692765
decision_type=2 2 2 2 2 2
left_child=5 2 3 -2 -3 -1
right_child=1 4 -4 -5 -6 -7
leaf_value=2.3568502430301711e-05 0 8.3742682412541327e-06 0 -1.3779505250500834e-05 0 0
leaf_weight=181 1316 588 189 2437 446 124
leaf_count=181 1316 588 189 2437 446 124
internal_value=0 -4.88189e-07 -5.44092e-06 -8.68609e-06 3.11182e-06 1.80991e-05
internal_weight=5281 4976 3942 3753 1034 305
internal_count=5281 4976 3942 3753 1034 305
is_linear=0
shrinkage=0.00527828


Tree=117
num_leaves=9
num_cat=0
split_feature=18 18 14 14 18 4 7 11
split_gain=0.00324843 0.00621111 0.00385277 0.00607912 0.00587946 0.00340742 0.001569 0.0014152
threshold=0.80809552084342129 1.1987689637529531 42.134910006934525 77.711293084726336 -0.52832961833147563 5.7901457268103274 0.024977312618956461 0.37931145476267741
decision_type=2 2 2 2 2 2 2 2
left_child=2 6 5 4 -4 7 -2 -1
right_child=1 -3 3 -5 -6 -7 -8 -9
leaf_value=0 0 0 0 0 -1.5053457363045677e-05 0 2.4889869942048752e-05 1.3145896080108024e-05
leaf_weight=145 154 449 919 201 1876 260 494 862
leaf_count=145 154 449 919 201 1876 260 494 862
internal_value=0 9.07478e-06 0 -5.5514e-06 -9.67399e-06 3.43209e-06 2.01363e-05 1.04356e-05
internal_weight=5360 1097 4263 2996 2795 1267 648 1007
internal_count=5360 1097 4263 2996 2795 1267 648 1007
is_linear=0
shrinkage=0.00527828


Tree=118
num_leaves=7
num_cat=0
split_feature=2 15 15 15 2 2
split_gain=0.00130527 0.00552783 0.00351398 0.00112643 0.00124303 0.000441395
